tree
version=v3
num_class=1
num_tree_per_iteration=1
label_index=0
max_feature_idx=42
objective=regression
feature_names=TID money_in money longitude latitude day weekday yesterday_income_growth yesterday_growth_of_income_growth income_1_day_before income_2_day_before income_3_day_before income_4_day_before income_5_day_before income_6_day_before income_7_day_before income_8_day_before income_9_day_before income_10_day_before income_11_day_before income_12_day_before income_13_day_before income_14_day_before income_15_day_before income_16_day_before income_17_day_before income_18_day_before income_19_day_before income_20_day_before income_21_day_before income_22_day_before income_23_day_before income_24_day_before income_25_day_before income_26_day_before income_27_day_before income_28_day_before income_29_day_before income_30_day_before mean_income_all mean_income_last_30_days mean_income_last_7_days mean_income_last_3_days
feature_infos=[406136:699664] [0:2697000] [0:6019000] [35.500558769999998:39.842458970000003] [54.458422939999998:56.757842529999998] [1:31] [0:6] [-2214000:2697000] [-4911000:2697000] [0:2697000] [0:2697000] [0:2697000] [0:2697000] [0:2697000] [0:2697000] [0:2697000] [0:2697000] [0:2697000] [0:2697000] [0:2697000] [0:2697000] [0:2697000] [0:2697000] [0:2697000] [0:2697000] [0:2697000] [0:2697000] [0:2697000] [0:2697000] [0:2697000] [0:2697000] [0:2697000] [0:2697000] [0:2697000] [0:2697000] [0:2697000] [0:2697000] [0:2697000] [0:2697000] [2274.7252747252742:734461.5384615385] [0:843500] [0:917142.85714285716] [0:1247000]
tree_sizes=2846 2853 2869 2846 2865 2861 2890 2866 2878 2843 2862 2879 2892 2862 2854 2843 2852 2836 2848 2856 2860 2878 2857 2859 2838 2847 2841

Tree=0
num_leaves=31
num_cat=0
split_feature=39 39 39 39 4 39 39 39 11 39 39 39 19 39 14 39 39 20 19 10 19 39 39 19 10 18 24 19 13 39
split_gain=7.9448e+13 2.86254e+13 2.33862e+13 8.27098e+12 7.71468e+12 4.87994e+12 3.5964e+12 1.71693e+12 1.63462e+12 1.03374e+12 7.92513e+11 5.62801e+11 4.4004e+11 4.3708e+11 3.60994e+11 3.28151e+11 2.52614e+11 2.44564e+11 2.29852e+11 2.27794e+11 2.13359e+11 1.55271e+11 1.41283e+11 1.36716e+11 1.21106e+11 1.19481e+11 1.12477e+11 1.11783e+11 1.06186e+11 9.87816e+10
threshold=87912.087912087925 252285.71428571432 43005.494505494513 141604.39560439563 55.950833515000006 61302.197802197807 25016.48351648352 108791.20879120882 396000.00000000006 177840.65934065936 70543.956043956059 51142.857142857152 310000.00000000006 34230.769230769241 386500.00000000006 14615.384615384619 125153.84615384617 800500.00000000012 210500.00000000003 447000.00000000006 44500.000000000007 78873.626373626394 96813.186813186825 175500.00000000003 1.0000000180025095e-35 294000.00000000006 170500.00000000003 147500.00000000003 136500.00000000003 56357.142857142862
decision_type=2 2 2 2 2 2 2 2 10 2 2 2 10 2 8 2 2 10 10 10 8 2 2 10 8 8 8 8 10 2
left_child=2 3 6 7 8 11 15 22 12 20 -7 -4 25 -8 -10 -1 -9 -6 27 -16 28 -12 -2 -22 26 -3 -18 -11 -5 -13
right_child=1 4 5 9 17 10 13 16 14 18 21 29 -14 -15 19 -17 24 -19 -20 -21 23 -23 -24 -25 -26 -27 -28 -29 -30 -31
leaf_value=51968.563655841812 60205.33930424456 79750.042303314593 55638.819502197592 54628.65004053343 131323.8857262198 57507.536499450871 53920.931336088848 62613.115239709579 87165.554794300173 64556.388064563842 58431.692882285584 56321.721091843719 88495.627628878981 54801.830156340628 110388.88889586268 52894.648950359056 62972.536640795101 118520.0405064396 73180.162254049457 97262.350121824216 66286.869392307475 59225.550292732267 61195.472853399828 68423.100644358099 64298.605809526307 73247.888434925175 53809.602441249575 70012.777149283822 64189.272567737673 56850.493360825945
leaf_weight=7503 3294 65 13542 21 35 9577 9943 2562 24 40 5612 8906 46 12993 20 7808 37 26 263 39 1402 4392 2562 381 1772 50 21 612 26 5856
leaf_count=7503 3294 65 13542 21 35 9577 9943 2562 24 40 5612 8906 46 12993 20 7808 37 26 263 39 1402 4392 2562 381 1772 50 21 612 26 5856
internal_value=56582.1 63776.1 55471.4 63065.3 94058.3 56944 53627.7 61759.5 86106.3 67940.2 58157.8 56104.4 80229.5 54420 97505.8 52440.8 63254.1 125867 70684.7 101712 66568 58780.2 60638.5 66743.3 64151.4 76923 59654.9 69678 59917.5 56531.5
internal_weight=0 13298 86132 12993 305 47885 38247 10248 244 2745 19581 28304 161 22936 83 15311 4392 61 915 59 1830 10004 5856 1783 1830 115 58 652 47 14762
internal_count=99430 13298 86132 12993 305 47885 38247 10248 244 2745 19581 28304 161 22936 83 15311 4392 61 915 59 1830 10004 5856 1783 1830 115 58 652 47 14762
is_linear=0
shrinkage=1


Tree=1
num_leaves=31
num_cat=0
split_feature=39 39 39 39 4 39 39 39 11 12 39 39 39 39 19 22 17 20 39 11 12 39 12 19 10 12 0 1 18 7
split_gain=6.44127e+13 2.39188e+13 1.75231e+13 7.80887e+12 6.24889e+12 3.44136e+12 2.72185e+12 1.49384e+12 1.32404e+12 1.25285e+12 5.16575e+11 4.49195e+11 3.98553e+11 3.68585e+11 3.56433e+11 2.99566e+11 2.82671e+11 2.84941e+11 2.17941e+11 1.90583e+11 1.82332e+11 1.67253e+11 1.59098e+11 1.53433e+11 1.46167e+11 1.38248e+11 1.05496e+11 9.92621e+10 9.62624e+10 8.82504e+10
threshold=83862.637362637368 252285.71428571432 42137.362637362654 133060.43956043958 55.950833515000006 60115.384615384624 23967.03296703297 106637.36263736265 396000.00000000006 185500.00000000003 68945.054945054959 51142.857142857152 158895.60439560443 31346.153846153855 310000.00000000006 990500.00000000012 543500.00000000012 502500.00000000006 13796.703296703299 207500.00000000003 116500.00000000001 93934.065934065948 72500.000000000015 66500.000000000015 202500.00000000003 83500.000000000015 676433.00000000012 762500.00000000012 54500.000000000007 -118499.99999999999
decision_type=2 2 2 2 2 2 2 2 10 10 2 2 2 2 10 8 8 8 2 10 10 2 8 8 10 10 2 2 8 10
left_child=2 3 6 7 8 11 18 21 14 12 -7 -4 22 -8 26 27 17 -10 -1 29 24 -2 23 -5 28 -12 -3 -6 -9 -11
right_child=1 4 5 9 15 10 13 20 16 19 25 -13 -14 -15 -16 -17 -18 -19 -20 -21 -22 -23 -24 -25 -26 -27 -28 -29 -30 -31
leaf_value=-4201.1275838974425 2905.0004106763226 20025.084716235633 -878.95864123352339 -2561.0049434116909 52296.823281249999 728.97312881566916 -2577.2436635956415 1481.8058618164064 35571.638457031251 17800.389290364586 1541.0598222537158 -84.110763352257877 10361.033514729515 -1727.0777448143119 28722.176630434784 72027.648809523816 27405.657676630435 50190.304218750003 -3422.0868110401711 14971.47188591357 6367.1093401190337 3865.825093801252 7890.7817506907049 6314.3239681243904 9466.7123450385207 2410.4310635883589 12967.960647147043 62259.86085937501 5023.1025884574956 11604.878346020909
leaf_weight=6649 4026 87 14823 28 20 9577 7808 80 40 24 6765 13664 807 14701 46 21 23 20 7808 302 2101 3294 1583 64 72 2507 28 20 1895 547
leaf_count=6649 4026 87 14823 28 20 9577 7808 80 40 24 6765 13664 807 14701 46 21 23 20 7808 302 2101 3294 1583 64 72 2507 28 20 1895 547
internal_value=0 6008.35 -1078.2 5437.98 33728.6 195.866 -2709.67 4196.53 26571.8 9681.47 1244.08 -497.704 8535.4 -2021.99 21282.6 62356 36831.3 40444.5 -3780.38 12939.8 5712.69 3337.37 7655.83 3613.14 5041 1776.12 18306.8 57278.3 4879.66 11865.3
internal_weight=0 15128 84302 14823 305 47336 36966 11468 244 3355 18849 28487 2482 22509 161 61 83 60 14457 873 4148 7320 1675 92 2047 9272 115 40 1975 571
internal_count=99430 15128 84302 14823 305 47336 36966 11468 244 3355 18849 28487 2482 22509 161 61 83 60 14457 873 4148 7320 1675 92 2047 9272 115 40 1975 571
is_linear=0
shrinkage=0.1


Tree=2
num_leaves=31
num_cat=0
split_feature=39 39 39 39 4 39 39 39 11 39 39 6 12 39 2 19 12 39 5 39 19 12 21 39 39 42 26 20 12 12
split_gain=5.22087e+13 1.95854e+13 1.38148e+13 6.73024e+12 5.0616e+12 2.84833e+12 1.9267e+12 1.40348e+12 1.07248e+12 9.22634e+11 4.92515e+11 3.52617e+11 3.36736e+11 3.21963e+11 2.91632e+11 2.8871e+11 2.67438e+11 2.65763e+11 2.28441e+11 1.43315e+11 1.24894e+11 1.24221e+11 1.42901e+11 1.21186e+11 1.11683e+11 1.08303e+11 1.00335e+11 9.67635e+10 9.60754e+10 8.70408e+10
threshold=82285.714285714304 252285.71428571432 40736.263736263747 126521.97802197804 55.950833515000006 58016.483516483524 22428.571428571431 158895.60439560443 396000.00000000006 102758.24175824177 67950.549450549457 4.5000000000000009 200500.00000000003 48697.802197802208 1158500.0000000002 310000.00000000006 139500.00000000003 31346.153846153855 12.500000000000002 12170.329670329673 69500.000000000015 185500.00000000003 83500.000000000015 89252.747252747271 115593.4065934066 58500.000000000007 89500.000000000015 502500.00000000006 112500.00000000001 68500.000000000015
decision_type=2 2 2 2 2 2 2 2 10 2 2 2 10 2 2 10 10 2 2 2 8 10 8 2 2 8 10 8 8 10
left_child=2 3 6 9 8 13 19 16 15 23 -7 14 28 -4 -10 27 20 -8 -6 -1 29 -18 -23 -2 -11 -26 -12 -3 -9 -5
right_child=1 4 5 7 18 10 17 12 11 24 26 -13 -14 -15 -16 -17 21 -19 -20 -21 -22 22 -24 -25 25 -27 -28 -29 -30 -31
leaf_value=-3868.2191309647301 2324.6259888500463 18513.907585480927 -915.96133439567711 -2013.6530487060547 63718.694921875001 533.86169518850113 -2351.0198603780395 5311.6596981201183 19611.786411830359 4240.6471846057639 1391.6924068509281 43675.686175271745 12808.165410987367 -235.50132702664609 34228.544751602567 25849.958797554351 7395.8255213107641 -1631.1331633989316 51191.733868243246 -3198.9712015588134 6073.1230748237667 17670.883263050429 9152.8986881337278 3155.1730474416458 -1830.3606305803573 5394.0761036501872 2436.3107098090131 12346.997183388157 9802.8800725619949 4639.6958903434233
leaf_weight=5185 2928 77 14030 32 24 11773 8723 50 21 2196 8237 23 470 13786 39 46 1125 12444 37 8357 1327 22 188 4392 21 1748 1035 38 1005 51
leaf_count=5185 2928 77 14030 32 24 11773 8723 50 21 2196 8237 23 470 13786 39 46 1125 12444 37 8357 1327 22 188 4392 21 1748 1035 38 1005 51
internal_value=0 5260.01 -998.25 4767.94 30355.7 85.3963 -2523.73 8149.5 23914.6 3488.43 963.179 33148.2 10581.8 -578.716 29112.7 19154.4 6798.19 -1927.8 56120.4 -3455.21 5837.75 7812.59 10045.3 2822.95 4716.99 5308.31 1508.3 16476.1 9590.03 2074.55
internal_weight=0 15860 83570 15555 305 48861 34709 4270 244 11285 21045 83 1525 27816 60 161 2745 21167 61 13542 1410 1335 210 7320 3965 1769 9272 115 1055 83
internal_count=99430 15860 83570 15555 305 48861 34709 4270 244 11285 21045 83 1525 27816 60 161 2745 21167 61 13542 1410 1335 210 7320 3965 1769 9272 115 1055 83
is_linear=0
shrinkage=0.1


Tree=3
num_leaves=31
num_cat=0
split_feature=39 39 39 39 10 39 39 18 39 20 39 22 39 39 39 39 2 18 26 39 19 20 9 19 34 19 33 19 26 13
split_gain=4.23016e+13 1.5409e+13 1.21017e+13 4.74742e+12 3.03443e+12 2.27871e+12 2.0618e+12 1.08985e+12 1.04028e+12 6.085e+11 5.78051e+11 4.99504e+11 3.24492e+11 2.71381e+11 2.67108e+11 2.4336e+11 2.40278e+11 4.18013e+11 1.96249e+11 1.65569e+11 1.51413e+11 1.45531e+11 1.44349e+11 1.25417e+11 1.22885e+11 1.22667e+11 9.92962e+10 8.53238e+10 8.18712e+10 6.93358e+10
threshold=86670.32967032968 252285.71428571432 44862.637362637368 141604.39560439563 594000.00000000012 27071.428571428576 61923.076923076929 381000.00000000006 113109.89010989011 517000.00000000006 177840.65934065936 800500.00000000012 72186.813186813204 36390.109890109896 16978.021978021981 53780.219780219784 739000.00000000012 294000.00000000006 76500.000000000015 98329.670329670349 210500.00000000003 434500.00000000006 401500.00000000006 44500.000000000007 21500.000000000004 121500.00000000001 140500.00000000003 175500.00000000003 88500.000000000015 136500.00000000003
decision_type=2 2 2 2 10 2 2 10 2 8 2 8 2 2 2 2 2 8 10 2 10 10 8 8 8 8 8 10 10 10
left_child=2 3 5 8 7 14 15 16 19 21 23 -6 -8 -7 -1 -4 17 18 -3 -2 26 -9 -18 29 -25 -10 -12 -26 -14 -5
right_child=1 4 6 10 11 13 12 9 25 -11 20 -13 28 -15 -16 -17 22 -19 -20 -21 -22 -23 -24 24 27 -27 -28 -29 -30 -31
leaf_value=-3291.0944836593803 2588.3191738038331 27020.78173828125 -506.96797394132432 -2084.3030087425595 37447.345979817706 -1804.1294133623414 762.99902309743084 20172.177450284093 4261.4230331186145 45775.497690217395 2612.4753955078127 56531.945898437501 1476.334331676401 -1137.0983503050127 -2490.9070044456548 110.69777852260414 19508.66400432181 3602.4703750000003 15424.808223017941 3559.1168259474748 12392.13630881654 30392.167680921051 29651.991484375001 14684.944522758153 6964.9491461605012 5471.120566913718 9769.2366184669208 8663.6986636871989 2317.4966600126122 5641.2834867037263
leaf_weight=9699 4392 20 14884 21 24 11224 9638 22 1300 23 20 32 6715 13359 7320 11163 47 25 54 2928 263 38 20 23 1384 2360 632 376 1398 26
leaf_count=9699 4392 20 14884 21 24 11224 9638 22 1300 23 20 32 6715 13359 7320 11163 47 25 54 2928 263 38 20 23 1384 2360 632 376 1398 26
internal_value=0 5088.85 -836.025 4594.82 27320.2 -2057.44 324.153 22589.9 3664.91 31946.1 8314.48 48352.8 1155.27 -1441.65 -2946.93 -242.254 17911.8 14782 18558.9 2976.64 10366.7 26644.8 22536.5 7288.36 7422.77 5041.45 9549.7 7327.86 1621.28 2189.43
internal_weight=0 14030 85400 13725 305 41602 43798 249 10980 83 2745 56 17751 24583 17019 26047 166 99 74 7320 915 60 67 1830 1783 3660 652 1760 8113 47
internal_count=99430 14030 85400 13725 305 41602 43798 249 10980 83 2745 56 17751 24583 17019 26047 166 99 74 7320 915 60 67 1830 1783 3660 652 1760 8113 47
is_linear=0
shrinkage=0.1


Tree=4
num_leaves=31
num_cat=0
split_feature=39 39 39 39 4 39 39 39 11 39 39 20 12 12 19 39 38 39 12 12 33 12 15 0 40 12 21 12 39 12
split_gain=3.43245e+13 1.30406e+13 8.70626e+12 4.83289e+12 3.39983e+12 1.71268e+12 1.23559e+12 1.0183e+12 7.17387e+11 5.97195e+11 3.0227e+11 2.95722e+11 2.44976e+11 2.35614e+11 2.11783e+11 1.98972e+11 1.87528e+11 1.86415e+11 1.27018e+11 1.0976e+11 1.06642e+11 1.03841e+11 1.00414e+11 1.69956e+11 9.89476e+10 1.26341e+11 1.26933e+11 8.8653e+10 8.64634e+10 8.52758e+10
threshold=80351.648351648371 252285.71428571432 40428.571428571442 125153.84615384617 55.950833515000006 56681.318681318691 21445.054945054948 158895.60439560443 396000.00000000006 101494.50549450552 67423.076923076951 29500.000000000004 214500.00000000003 138500.00000000003 344500.00000000006 29983.516483516487 745000.00000000012 47609.890109890119 855500.00000000012 88500.000000000015 482500.00000000006 49500.000000000007 240500.00000000003 634541.00000000012 176166.66666666672 185500.00000000003 63500.000000000007 112500.00000000001 11302.197802197805 136500.00000000003
decision_type=2 2 2 2 2 2 2 2 10 2 2 10 10 8 10 2 10 2 8 10 8 10 8 2 10 10 8 10 2 8
left_child=2 3 6 9 8 17 28 13 14 19 -7 -10 29 21 22 -8 18 -4 -6 -2 -13 -5 -3 -24 25 -15 -27 -11 -1 -9
right_child=1 4 5 7 16 10 15 12 11 27 -12 20 -14 24 -16 -17 -18 -19 -20 -21 -22 -23 23 -25 -26 26 -28 -29 -30 -31
leaf_value=-3206.5060486840421 1807.6856096442302 20283.083183593753 -789.5824737944688 1738.9691395759583 43873.068203125003 373.70766197732337 -1989.4429236199005 5268.6162083135596 37455.0260546875 3239.7140432428141 1136.0192180026281 19043.048120959051 11129.650131963594 5950.2945748032471 23320.553609793526 -1363.5951053481806 37765.378125000003 -260.89833148032216 55008.334077380947 2546.1002870035541 27297.652803308825 4732.6826932579334 14502.743638392858 4708.3877663352278 -603.35023251488099 16058.922563476564 7736.5205185702944 4182.1282509325374 -2655.9601070388076 8224.385262358961
leaf_weight=4331 4031 20 12566 128 20 12505 8174 107 20 2196 8906 29 306 1440 28 13420 20 14213 21 4021 34 1222 91 22 21 20 219 1830 8357 1112
leaf_count=4331 4031 20 12566 128 20 12505 8174 107 20 2196 8906 29 306 1440 28 13420 20 14213 21 4021 34 1222 91 22 21 20 219 1830 8357 1112
internal_value=0 4097.41 -842.514 3722.12 24588.1 24.083 -2060.68 6490.07 19309.2 2673.65 690.795 26861.1 8599.95 5435.13 15416 -1600.5 45704 -508.982 49576.5 2176.43 23497.9 4448.83 13751.8 12595.9 6218.37 6303.69 8432.96 3668.08 -2843.89 7964.94
internal_weight=0 16958 82472 16653 305 48190 34282 4575 244 12078 21411 83 1525 3050 161 21594 61 26779 41 8052 63 1350 133 113 1700 1679 239 4026 12688 1219
internal_count=99430 16958 82472 16653 305 48190 34282 4575 244 12078 21411 83 1525 3050 161 21594 61 26779 41 8052 63 1350 133 113 1700 1679 239 4026 12688 1219
is_linear=0
shrinkage=0.1


Tree=5
num_leaves=31
num_cat=0
split_feature=39 39 39 39 11 39 39 12 39 26 12 39 12 2 17 39 12 12 39 7 10 26 39 12 12 32 33 12 29 39
split_gain=2.78622e+13 9.89706e+12 8.37489e+12 2.86266e+12 2.71573e+12 1.66523e+12 1.40904e+12 7.75699e+11 6.48484e+11 5.92278e+11 3.78493e+11 2.55587e+11 2.3741e+11 2.32149e+11 2.65999e+11 2.20962e+11 1.84551e+11 1.72746e+11 1.63228e+11 1.46252e+11 1.30687e+11 1.16704e+11 1.10153e+11 1.03186e+11 8.22309e+10 8.03192e+10 7.49034e+10 7.25004e+10 9.59389e+10 6.86819e+10
threshold=89252.747252747271 252285.71428571432 45978.021978021985 145791.20879120883 582500.00000000012 28780.219780219784 65181.318681318684 396000.00000000006 115593.4065934066 967000.00000000012 185500.00000000003 18461.538461538468 546500.00000000012 739000.00000000012 381000.00000000006 56021.97802197803 1.0000000180025095e-35 75500.000000000015 37868.131868131873 -149499.99999999997 392000.00000000006 92500.000000000015 187060.43956043958 103500.00000000001 138500.00000000003 185500.00000000003 497500.00000000006 137500.00000000003 126500.00000000001 76895.604395604416
decision_type=2 2 2 2 10 2 2 10 2 8 10 2 10 2 8 2 8 10 2 10 8 10 2 10 10 10 8 8 8 2
left_child=2 3 5 8 7 11 15 13 23 -6 16 -1 -9 14 26 -4 21 -8 -7 -12 -15 -5 -21 -2 25 -10 -3 28 -18 -19
right_child=1 4 6 10 9 18 17 12 24 -11 19 -13 -14 20 -16 -17 27 29 -20 22 -22 -23 -24 -25 -26 -27 -28 -29 -30 -31
leaf_value=-2633.4215727973897 2262.8602537564971 11148.054901413692 -302.94264582028876 -4377.5105179398151 34317.44040329392 -1345.6543428719697 830.8460952284297 22227.165699404766 4010.4784593814011 55676.606328124995 16567.689206861414 -1894.8708628388235 34293.549538352272 15207.864580502717 2233.3555698939736 268.75468478819863 8667.1423888089375 1154.6884175782845 -830.30204613031037 7236.9582224501155 24890.508969726565 5562.1634021577383 9572.8162135088896 3078.1784910367323 4931.9753749242691 596.8653237356267 17899.066373697915 6617.444345295894 4150.7406462148219 1803.4402799425186
leaf_weight=10980 4084 42 16470 27 37 11712 8136 63 2361 20 23 8174 22 46 28 11468 57 2909 12932 379 20 21 432 2504 1167 71 27 1232 269 3717
leaf_count=10980 4084 42 16470 27 37 11712 8136 63 2361 20 23 8174 22 46 28 11468 57 2909 12932 379 20 21 432 2504 1167 71 27 1232 269 3717
internal_value=0 4329.31 -647.26 3899.36 22129.3 -1618.83 349.292 17605.5 3162.46 41811.9 6975.9 -2318.24 25350.2 13566.9 10453.9 -68.2721 6078.38 1139.56 -1075.22 8704.22 18142 -28.9032 8481.21 2572.75 4241.94 3910.82 13789.8 6266.54 4940.42 1518.62
internal_weight=0 12932 86498 12627 305 43798 42700 248 10187 57 2440 19154 85 163 97 27938 1606 14762 24644 834 66 48 811 6588 3599 2432 69 1558 326 6626
internal_count=99430 12932 86498 12627 305 43798 42700 248 10187 57 2440 19154 85 163 97 27938 1606 14762 24644 834 66 48 811 6588 3599 2432 69 1558 326 6626
is_linear=0
shrinkage=0.1


Tree=6
num_leaves=31
num_cat=0
split_feature=42 12 41 12 12 18 11 41 1 10 41 11 1 12 41 9 42 41 12 1 26 10 0 1 31 40 0 19 15 10
split_gain=1.999e+13 7.15913e+12 5.37557e+12 3.07328e+12 1.5253e+12 1.01563e+12 7.37172e+11 6.85545e+11 5.70078e+11 5.62134e+11 5.30975e+11 5.44724e+11 3.85131e+11 3.69425e+11 3.14144e+11 2.71639e+11 2.24656e+11 1.91691e+11 1.68055e+11 1.58786e+11 1.58562e+11 1.5677e+11 1.47498e+11 1.46327e+11 1.25525e+11 1.202e+11 1.24303e+11 1.1214e+11 1.10799e+11 1.06653e+11
threshold=86500.000000000015 396000.00000000006 41071.42857142858 138500.00000000003 61500.000000000007 655500.00000000012 164500.00000000003 22928.571428571431 120500.00000000001 220500.00000000003 110642.85714285716 396000.00000000006 32500.000000000004 236500.00000000003 75357.142857142884 140500.00000000003 52500.000000000007 1.0000000180025095e-35 83500.000000000015 243500.00000000003 119500.00000000001 34500.000000000007 634541.00000000012 129500.00000000001 320500.00000000006 7550.0000000000009 636511.50000000012 129500.00000000001 276500.00000000006 164500.00000000003
decision_type=10 10 8 10 10 10 10 10 2 10 8 10 2 10 10 8 8 10 10 2 10 10 2 2 10 10 2 8 10 10
left_child=2 3 7 10 8 9 27 17 12 -3 18 20 21 -8 29 -10 -14 25 -2 -17 28 -4 -11 -19 -15 26 -1 -5 -12 -6
right_child=1 5 4 6 14 -7 13 -9 15 22 11 -13 16 24 -16 19 -18 23 -20 -21 -22 -23 -24 -25 -26 -27 -28 -29 -30 -31
leaf_value=1254.7794240151684 1147.9691823485784 6096.0418520720114 -1748.1807436866484 3268.1668304202117 494.05207631973349 38421.76989329268 6777.7007407730343 -1229.9220777227863 867.32737298366703 30523.094081182069 2882.0180330924268 19406.138541666667 -556.64381988754519 10160.411139093296 1424.6551793447131 4359.3771415529654 -15.056271016748159 -2253.4474669250862 2219.0372437089636 12024.023223286291 4188.6522189484513 -523.52268876476398 21241.696678958724 6306.9399560546881 17473.91935096154 -991.2300765215341 9862.5400257276469 5005.8400972590407 -3132.7209352554819 7801.9144775390632
leaf_weight=62 2187 23 2740 506 13605 41 1260 18204 309 23 2544 21 15184 241 5103 211 15455 12560 4437 31 1233 1690 67 20 26 177 23 1396 31 20
leaf_count=62 2187 23 2740 506 13605 41 1260 18204 309 23 2544 21 15184 241 5103 211 15455 12560 4437 31 1233 1690 67 20 26 177 23 1396 31 20
internal_value=0 3497.35 -574.851 3259.48 24.8154 24939.8 5857.31 -1624.6 -359.32 20048.1 2407.29 3344.71 -409.465 7493.7 755.427 2832.26 -283.455 -2184.08 1865.41 5341.21 3256.13 -1280.99 23613.6 -2239.84 10872.6 493.08 3583.94 4543.56 2809.61 504.779
internal_weight=0 14036 85394 13882 54348 154 3429 31046 35620 113 10453 3829 35069 1527 18728 551 30639 12842 6624 242 3808 4430 90 12580 267 262 85 1902 2575 13625
internal_count=99430 14036 85394 13882 54348 154 3429 31046 35620 113 10453 3829 35069 1527 18728 551 30639 12842 6624 242 3808 4430 90 12580 267 262 85 1902 2575 13625
is_linear=0
shrinkage=0.1


Tree=7
num_leaves=31
num_cat=0
split_feature=39 39 39 39 4 39 39 12 13 3 39 19 4 22 39 39 39 19 39 13 40 35 39 19 12 19 19 42 26 1
split_gain=1.85777e+13 6.99368e+12 4.92936e+12 2.42703e+12 1.84245e+12 1.04658e+12 6.83724e+11 5.65754e+11 5.57281e+11 4.06564e+11 3.25618e+11 2.83937e+11 2.72425e+11 1.77331e+11 1.55606e+11 1.43575e+11 1.39116e+11 1.29238e+11 1.01513e+11 9.1666e+10 8.96282e+10 8.10976e+10 8.03277e+10 7.25538e+10 1.08112e+11 6.45793e+10 6.24737e+10 6.10991e+10 6.10814e+10 5.43299e+10
threshold=82285.714285714304 252285.71428571432 40736.263736263747 126521.97802197804 55.950833515000006 59532.967032967041 23291.208791208792 178500.00000000003 156500.00000000003 37.97622848000001 102758.24175824177 250500.00000000003 55.543903175000004 800500.00000000012 49741.758241758253 158895.60439560443 68945.054945054959 205500.00000000003 32214.285714285721 306000.00000000006 150483.33333333337 85500.000000000015 12785.714285714288 92500.000000000015 70500.000000000015 96500.000000000015 98500.000000000015 159833.33333333334 103500.00000000001 141500.00000000003
decision_type=2 2 2 2 2 2 2 10 8 2 2 10 2 8 2 2 2 10 2 10 10 8 2 8 10 10 8 10 8 2
left_child=2 3 6 10 8 14 22 15 -3 11 25 12 -10 -6 -4 23 -7 21 -8 -13 27 -9 -1 24 -5 -2 -23 -12 -17 -20
right_child=1 4 5 7 13 16 18 17 9 -11 20 19 -14 -15 -16 28 -18 -19 29 -21 -22 26 -24 -25 -26 -27 -28 -29 -30 -31
leaf_value=-2334.892482171726 1485.1219195899575 30241.734005432128 -534.46341980209763 -2418.8603993502529 26499.849489524146 388.55845551708649 -1391.4539267271284 12377.488632812499 -4719.1701855468755 19784.097825147284 2767.3970399774803 10500.810355392157 9460.9552775065113 37728.151963141026 -78.755856342319646 37.585217285156254 934.31076122845502 8422.3750104529427 -955.3299060470996 16526.332796875002 -3559.9211647727275 1109.1380709134617 -1847.4148175369833 3982.1848986599089 3310.3408136615321 2132.7762473899379 6096.3786902515312 4955.7844521262432 5648.0691926359395 4018.8396684126419
leaf_weight=5734 5118 20 15555 44 22 10309 9150 20 20 61 3811 51 42 39 14457 20 8540 341 11568 50 22 26 8235 2296 131 2202 740 132 652 22
leaf_count=5734 5118 20 15555 44 22 10309 9150 20 20 61 3811 51 42 39 14457 20 8540 341 11568 50 22 26 8235 2296 131 2202 740 132 652 22
internal_value=0 3137.7 -595.475 2843.65 18134.1 51.8309 -1506.71 4874.32 14247.9 12819.9 2075.29 10213.7 4886.72 33678.6 -314.946 4185.05 635.825 6796.57 -1142.46 13483.7 2805.14 6091.23 -2047.51 3832.59 1869.86 1679.95 5927.1 2840.66 5481.09 -945.888
internal_weight=0 15860 83570 15555 305 48861 34709 4270 244 224 11285 163 62 61 30012 3143 18849 1127 20740 101 3965 786 13969 2471 175 7320 766 3943 672 11590
internal_count=99430 15860 83570 15555 305 48861 34709 4270 244 224 11285 163 62 61 30012 3143 18849 1127 20740 101 3965 786 13969 2471 175 7320 766 3943 672 11590
is_linear=0
shrinkage=0.1


Tree=8
num_leaves=31
num_cat=0
split_feature=42 18 41 42 26 41 41 41 42 41 9 21 11 7 42 26 13 26 41 13 26 41 4 2 9 22 42 6 0 4
split_gain=1.31702e+13 4.95924e+12 3.19155e+12 2.40666e+12 1.07662e+12 8.65124e+11 5.87064e+11 5.48761e+11 4.03293e+11 3.34139e+11 3.08317e+11 2.91823e+11 2.07918e+11 1.843e+11 1.78394e+11 1.74155e+11 1.68246e+11 1.60878e+11 1.4758e+11 1.44416e+11 1.39122e+11 1.28924e+11 1.23119e+11 9.93272e+10 9.07454e+10 8.71323e+10 8.08433e+10 8.07826e+10 7.63284e+10 9.19266e+10
threshold=80500.000000000015 381000.00000000006 38214.285714285717 141166.66666666672 624500.00000000012 59928.571428571435 196642.85714285716 110642.85714285716 339833.33333333337 21785.714285714294 140500.00000000003 709000.00000000012 396000.00000000006 81500.000000000015 47166.666666666679 172500.00000000003 276500.00000000006 214500.00000000003 87357.142857142884 101500.00000000001 76500.000000000015 1.0000000180025095e-35 55.618746810000012 693500.00000000012 37500.000000000007 145500.00000000003 19166.666666666668 3.5000000000000004 635744.50000000012 55.722837870000014
decision_type=10 10 8 10 8 10 8 10 10 10 10 8 10 10 8 10 10 10 8 10 10 10 2 2 8 8 10 2 2 2
left_child=2 3 9 7 16 10 15 18 17 21 14 -6 -10 28 26 19 -3 -8 -2 27 -7 22 25 24 -16 -1 -4 -5 29 -12
right_child=1 4 5 6 11 20 8 -9 12 -11 13 -13 -14 -15 23 -17 -18 -19 -20 -21 -22 -23 -24 -25 -26 -27 -28 -29 -30 -31
leaf_value=1699.9089192708334 927.78837211453583 6219.2485462535515 -1534.7633797264737 -551.54122264831051 21794.878013392859 388.16625754880323 5714.3319709133702 2943.3161764607466 10222.676108022837 -1091.2524550402084 5394.9917348225918 36416.436838942311 23600.914322916666 -501.35430279541015 -913.5956922844224 5478.2111719767254 16420.063121157786 8933.7046629744582 1725.6795937614047 3895.8855987352817 1116.2084377069029 -1843.529929137791 -1012.2717196588931 1764.9043972338166 -145.46837598805379 9235.0245977492577 -558.29552152497661 3430.0483247603497 3660.8563145891021 13720.23652576265
leaf_weight=57 3537 22 899 123 21 12605 533 3241 26 15219 36 39 21 75 1657 648 61 219 6727 1518 3315 11855 184 260 21417 21 14907 87 79 21
leaf_count=57 3537 22 899 123 21 12605 533 3241 26 15219 36 39 21 75 1657 648 61 219 6727 1518 3315 11855 184 260 21417 21 14907 87 79 21
internal_value=0 2550.31 -519.374 2391.34 21093.6 -82.2438 4868.67 1808.92 7213.55 -1403.21 -333.886 31298.9 16200.2 3478.44 -354.438 4080.14 13716.2 6651.89 1450.72 3555.86 539.765 -1795.04 399.131 -178.728 -200.629 3728.59 -613.834 1097.97 5673.18 8462.19
internal_weight=0 16823 82607 16680 143 55271 3175 13505 799 27336 39351 60 47 211 39140 2376 83 752 10264 1728 15920 12117 262 23334 23074 78 15806 210 136 57
internal_count=99430 16823 82607 16680 143 55271 3175 13505 799 27336 39351 60 47 211 39140 2376 83 752 10264 1728 15920 12117 262 23334 23074 78 15806 210 136 57
is_linear=0
shrinkage=0.1


Tree=9
num_leaves=31
num_cat=0
split_feature=39 39 39 39 4 39 39 13 39 20 0 12 24 12 39 12 39 18 28 15 39 18 12 39 8 23 41 35 29 39
split_gain=1.24491e+13 4.81836e+12 2.9772e+12 1.94607e+12 1.21916e+12 6.18485e+11 4.69956e+11 4.48784e+11 3.8704e+11 3.0115e+11 2.64894e+11 1.99533e+11 1.53217e+11 1.11946e+11 9.25439e+10 9.25221e+10 8.71732e+10 8.439e+10 1.26934e+11 7.35669e+10 7.31394e+10 6.70897e+10 7.58398e+10 6.47312e+10 6.46023e+10 7.62844e+10 5.32828e+10 8.77515e+10 5.23303e+10 5.08037e+10
threshold=77708.791208791212 252285.71428571432 38445.054945054952 120565.93406593408 55.950833515000006 56021.97802197803 171978.02197802201 156500.00000000003 19703.29670329671 315500.00000000006 676433.00000000012 97500.000000000015 813000.00000000012 138500.00000000003 65763.736263736282 219500.00000000003 47098.901098901108 206500.00000000003 134500.00000000003 471000.00000000006 29582.417582417587 40500.000000000007 79500.000000000015 91686.81318681319 235500.00000000003 48500.000000000007 6500.0000000000009 90500.000000000015 252500.00000000003 145791.20879120883
decision_type=2 2 2 2 2 2 2 8 2 10 2 10 10 8 2 10 2 10 8 8 2 8 10 2 10 8 8 8 10 2
left_child=2 3 8 11 7 16 13 -3 -1 10 19 23 -6 21 -7 28 -4 29 -19 -9 -10 22 -5 -2 -16 -26 27 -22 -8 -15
right_child=1 4 5 6 12 14 15 9 20 -11 -12 -13 -14 17 24 -17 -18 18 -20 -21 26 -23 -24 -25 25 -27 -28 -29 -30 -31
leaf_value=-1755.4254604714149 961.7776192830554 26002.384384765624 -522.45368488541112 -4521.3729609736693 31354.734765625002 185.08775132050161 5131.3512952218625 7813.447242675782 -1239.6756671555231 14563.721168565258 -2061.162875 1973.7629057089098 21013.741886039403 3177.5200705213524 587.8633318671117 7163.2675829120708 -172.95180432750655 13558.736458333335 4598.918756103516 13900.803718171295 -964.62201518397183 2789.5108098779074 2271.7036943708149 1570.4330641603563 8066.7772890625001 1177.2310384114585 -872.44581123094486 7531.4160021972657 84.219828869047618 4176.6113870273539
leaf_weight=11407 5349 20 14396 27 38 11834 944 75 9028 97 25 4866 23 1209 8836 255 14152 21 64 27 31 1845 42 2595 25 45 11234 20 21 879
leaf_count=11407 5349 20 14396 27 38 11834 944 75 9028 97 25 4866 23 1209 8836 255 14152 21 64 27 31 1845 42 2595 25 45 11234 20 21 879
internal_value=0 2346.42 -533.599 2136.58 14810.9 -47.2635 3746.81 11649.7 -1289.29 10368.2 7163.79 1469.49 27455.7 3232.67 368.338 5469.18 -349.196 3723.85 6812.52 9424.81 -1027.53 2675.02 -386.457 1160.6 611.835 3637.78 -857.805 2367.16 5021.52 3598.11
internal_weight=0 18422 81008 18117 305 49288 5307 244 31720 224 127 12810 61 4087 20740 1220 28548 2173 85 102 20313 1914 69 7944 8906 70 11285 51 965 2088
internal_count=99430 18422 81008 18117 305 49288 5307 244 31720 224 127 12810 61 4087 20740 1220 28548 2173 85 102 20313 1914 69 7944 8906 70 11285 51 965 2088
is_linear=0
shrinkage=0.1


Tree=10
num_leaves=31
num_cat=0
split_feature=39 39 39 39 12 39 39 12 12 2 10 12 20 7 12 39 12 12 26 39 20 10 20 10 39 39 26 40 26 40
split_gain=1.00976e+13 3.59204e+12 3.06729e+12 1.06799e+12 8.47896e+11 6.10433e+11 5.2111e+11 4.2042e+11 2.3317e+11 2.04353e+11 1.83657e+11 1.65569e+11 1.29694e+11 1.22877e+11 1.11504e+11 1.06205e+11 8.30069e+10 8.17253e+10 7.22232e+10 7.1045e+10 6.83708e+10 6.4805e+10 7.10347e+10 6.13604e+10 5.84405e+10 5.53265e+10 5.76879e+10 5.31727e+10 5.22089e+10 5.31625e+10
threshold=89252.747252747271 252285.71428571432 45978.021978021985 145791.20879120883 513500.00000000006 28780.219780219784 64796.703296703301 29500.000000000004 115500.00000000001 813500.00000000012 788000.00000000012 185500.00000000003 222500.00000000003 -149499.99999999997 2500.0000000000005 15302.197802197805 78500.000000000015 58500.000000000007 92500.000000000015 187060.43956043958 397500.00000000006 202500.00000000003 66500.000000000015 86500.000000000015 36082.417582417591 125153.84615384617 32500.000000000004 25583.333333333339 172500.00000000003 135583.33333333334
decision_type=2 2 2 2 10 2 2 10 10 2 10 8 10 8 10 2 10 10 10 2 10 10 10 8 2 2 8 8 10 8
left_child=2 3 5 8 7 15 17 -3 21 12 -6 14 -9 -13 18 -1 -8 27 -5 23 -11 -2 -23 -15 -7 26 -10 -4 29 -16
right_child=1 4 6 11 10 24 16 9 25 20 -12 13 -14 19 28 -17 -18 -19 -20 -21 -22 22 -24 -25 -26 -27 -28 -29 -30 -31
leaf_value=-1681.2417083459784 1506.7809343088325 20380.016852678571 3260.2392586601777 -4616.5840133101856 18727.626391601563 -857.67775832432801 503.13464192292133 -2118.3250585937503 -1054.925480738226 9295.9493530273448 28918.500948660716 12288.367004394531 7012.6486521693651 -1214.7283129882815 6405.7308207476581 -1203.1703420747288 986.66247246022476 187.05588674054761 3202.7067731584825 5924.1293649317859 14485.742151988636 7139.4099552598118 1775.9183803163728 4438.9348644555857 -535.1346093332703 2993.5786723973724 2288.7755226739737 -181.57707049991819 4755.6106736091569 3183.6346788641422
leaf_weight=7930 6516 35 45 27 48 8662 9436 20 53 60 28 24 70 20 54 11224 5692 9771 21 472 44 43 58 478 15982 1567 1950 17756 354 990
leaf_count=7930 6516 35 45 27 48 8662 9436 20 53 60 28 24 70 20 54 11224 5692 9771 21 472 44 43 58 478 15982 1567 1950 17756 354 990
internal_value=0 2606.27 -389.655 2347.25 13329.8 -977.633 213.443 10292.4 1897.16 8472.42 22482.2 4226.41 4983.54 5219.95 3543.43 -1401.1 685.065 -45.3231 -1195.64 5045.06 11491.6 1545.74 4059.39 4211.88 -648.504 2548.5 2200.3 -172.876 3706.15 3350.29
internal_weight=0 12932 86498 12627 305 43798 42700 229 10187 194 76 2440 90 994 1446 19154 15128 27572 48 970 104 6617 101 498 24644 3570 2003 17801 1398 1044
internal_count=99430 12932 86498 12627 305 43798 42700 229 10187 194 76 2440 90 994 1446 19154 15128 27572 48 970 104 6617 101 498 24644 3570 2003 17801 1398 1044
is_linear=0
shrinkage=0.1


Tree=11
num_leaves=31
num_cat=0
split_feature=42 14 41 41 19 41 26 22 41 9 42 17 19 41 26 7 7 11 22 26 2 2 19 26 22 2 13 7 15 41
split_gain=7.02684e+12 2.81615e+12 1.66443e+12 1.34276e+12 7.58611e+11 4.71035e+11 4.08321e+11 2.47337e+11 1.88905e+11 1.85315e+11 1.83139e+11 1.75945e+11 1.57869e+11 1.3054e+11 1.0371e+11 9.92791e+10 8.99301e+10 8.4977e+10 7.23253e+10 7.1523e+10 6.97849e+10 6.87566e+10 6.76493e+10 6.62002e+10 6.58023e+10 6.27435e+10 5.22147e+10 5.16461e+10 5.00271e+10 6.09213e+10
threshold=79166.666666666672 410000.00000000006 35642.857142857152 123785.7142857143 590500.00000000012 55642.857142857152 215500.00000000003 800500.00000000012 98928.571428571435 140500.00000000003 183833.33333333334 201500.00000000003 175500.00000000003 19928.571428571431 73500.000000000015 45500.000000000007 -127499.99999999999 45500.000000000007 129500.00000000001 68500.000000000015 813500.00000000012 696500.00000000012 109500.00000000001 69500.000000000015 31500.000000000004 724000.00000000012 230500.00000000003 -127499.99999999999 276500.00000000006 213571.42857142861
decision_type=10 10 8 10 8 10 10 8 8 10 10 10 10 10 10 10 10 8 10 8 2 2 10 8 8 2 10 10 10 10
left_child=2 3 13 8 11 9 12 -6 19 17 22 -3 28 18 -7 -11 -8 -4 -1 -2 -18 -19 23 -10 -14 -12 -25 -24 29 -5
right_child=1 4 5 6 7 14 16 -9 10 15 25 -13 24 -15 -16 -17 20 21 -20 -21 -22 -23 27 26 -26 -27 -28 -29 -30 -31
leaf_value=-1351.1938582021467 150.80142760892605 1645.7419238281252 -493.01113037764298 2578.0294442274071 15778.899362792969 175.35372634683338 12205.368001302084 29581.651559200804 -978.48551538186007 4509.7726150262552 4519.7363564524931 12352.313548325048 9145.2662631835938 -873.74392699423743 731.55361955986621 -40.457918658437613 5438.0515608609257 -207.1408071948787 4667.8378417968752 1006.174379240857 10013.152167902766 1624.5096002403666 6053.4035020828251 1358.2913675503014 3941.0106654616357 10511.511454634234 5857.7446983924283 1999.1354573306571 -361.04974450897754 6556.0346322866599
leaf_weight=10943 1146 20 16456 2991 20 15958 24 37 122 122 85 66 25 13250 4244 79 337 20605 20 6650 37 207 32 3213 862 22 26 1735 57 39
leaf_count=10943 1146 20 16456 2991 20 15958 24 37 122 122 85 66 25 13250 4244 79 337 20605 20 6650 37 207 32 3213 862 22 26 1735 57 39
internal_value=0 1816.07 -389.145 1701.23 15792.1 -97.0132 3217.71 24738.6 1192.44 -306.863 1657.07 9862.41 2911.87 -1084.95 292.199 2721.37 6271.45 -323.196 -1340.21 880.436 5890.67 -188.923 1571.63 1308.28 4087.69 5751.69 1394.41 2072.56 2574.02 2629.23
internal_weight=0 17546 81884 17403 143 57671 4372 57 13031 37469 5235 86 3974 24213 20202 201 398 37268 10963 7796 374 20812 5128 3361 887 107 3239 1767 3087 3030
internal_count=99430 17546 81884 17403 143 57671 4372 57 13031 37469 5235 86 3974 24213 20202 201 398 37268 10963 7796 374 20812 5128 3361 887 107 3239 1767 3087 3030
is_linear=0
shrinkage=0.1


Tree=12
num_leaves=31
num_cat=0
split_feature=12 11 10 11 41 12 9 12 12 1 12 18 1 41 13 13 3 1 18 9 1 41 10 33 1 18 10 8 18 12
split_gain=5.65576e+12 2.11871e+12 1.506e+12 1.02195e+12 5.33445e+11 4.51747e+11 3.4394e+11 3.11089e+11 2.70813e+11 1.98876e+11 1.83644e+11 1.75794e+11 1.51417e+11 1.36571e+11 1.20131e+11 1.05145e+11 8.9692e+10 8.87296e+10 7.61813e+10 7.41643e+10 7.26526e+10 9.25724e+10 7.03541e+10 6.01734e+10 6.01553e+10 5.75541e+10 5.65812e+10 5.47787e+10 4.96492e+10 4.93994e+10
threshold=83500.000000000015 324500.00000000006 40500.000000000007 125500.00000000001 125928.57142857143 513500.00000000006 65500.000000000007 156500.00000000003 25500.000000000004 316500.00000000006 49500.000000000007 88500.000000000015 762500.00000000012 78785.714285714304 225500.00000000003 50500.000000000007 37.574974015000002 116500.00000000001 258500.00000000003 110500.00000000001 107500.00000000001 5071.4285714285725 164500.00000000003 115500.00000000001 61500.000000000007 37500.000000000007 169500.00000000003 -95499.999999999985 55500.000000000007 49500.000000000007
decision_type=10 10 8 10 10 10 10 10 10 2 10 10 2 8 10 8 2 2 10 10 2 8 8 10 2 8 10 10 8 10
left_child=2 3 4 11 8 16 10 -5 20 13 17 15 -7 29 -9 -2 27 -4 23 -15 -1 -22 -21 -13 -24 -10 28 -3 -12 -8
right_child=1 5 6 7 -6 12 9 14 25 -11 26 18 -14 19 -16 -17 -18 -19 -20 22 21 -23 24 -25 -26 -27 -28 -29 -30 -31
leaf_value=-1147.9089078058776 -99.155333192968328 1465.0737909226191 -391.33903673163184 2135.1821929408138 15486.392709960937 14871.605818883385 -462.04208391091879 3514.4998079116685 -752.74464532922605 10416.142705078126 -116.434046218494 1311.8995864884484 24220.57918619792 665.14853564341001 5714.4907337031955 939.79313356824923 11211.119518821024 1366.0669080969406 6703.4588060651513 1039.8416577306714 7200.1644612630207 59.401910218196136 7227.6924594221455 2117.7977544536475 2440.742230979286 -384.68839348082042 5408.8700897216804 8274.8821180555569 228.8092145164145 278.84212109954865
leaf_weight=17153 1227 21 17820 2350 20 41 1025 1655 8395 20 7073 4587 30 4222 292 4726 55 292 28 617 21 134 29 1161 277 8602 20 27 10133 7377
leaf_count=17153 1227 21 17820 2350 20 41 1025 1655 8395 20 7073 4587 30 4222 292 4726 55 292 28 617 21 134 29 1161 277 8602 20 27 10133 7377
internal_value=0 1709.5 -332.739 1590.34 -840.483 12684.8 23.6309 2909.66 -850.001 451.631 -140.687 1106.99 18821.9 436.92 3844.44 725.651 8454.37 -363.006 1500.02 842.668 -1128.43 1026.86 1654.68 1474.68 2894.41 -566.475 93.0665 5295.59 86.8875 188.458
internal_weight=0 16200 83230 16026 34325 174 48905 4297 34305 13567 35338 11729 71 13547 1947 5953 103 18112 5776 5145 17308 155 923 5748 306 16997 17226 48 17206 8402
internal_count=99430 16200 83230 16026 34325 174 48905 4297 34305 13567 35338 11729 71 13547 1947 5953 103 18112 5776 5145 17308 155 923 5748 306 16997 17226 48 17206 8402
is_linear=0
shrinkage=0.1


Tree=13
num_leaves=31
num_cat=0
split_feature=39 39 39 39 11 26 39 39 39 19 26 39 0 16 11 26 19 28 9 23 7 19 8 18 40 19 19 19 26 39
split_gain=5.59723e+12 2.20379e+12 1.35783e+12 8.93574e+11 6.82163e+11 3.8263e+11 2.41186e+11 2.17538e+11 1.95145e+11 1.93623e+11 1.27586e+11 1.23948e+11 8.58e+10 8.37611e+10 7.26574e+10 5.59756e+10 5.16782e+10 5.14393e+10 1.27578e+11 7.55486e+10 5.11219e+10 5.08271e+10 4.9219e+10 7.02015e+10 4.81238e+10 4.98944e+10 4.78446e+10 4.63749e+10 4.4904e+10 4.29601e+10
threshold=76895.604395604416 252285.71428571432 40428.571428571442 133060.43956043958 582500.00000000012 967000.00000000012 54247.252747252758 20236.26373626374 98329.670329670349 344500.00000000006 561500.00000000012 171978.02197802201 676433.00000000012 223500.00000000003 230500.00000000003 119500.00000000001 85500.000000000015 54500.000000000007 115500.00000000001 250500.00000000003 39500.000000000007 100500.00000000001 201500.00000000003 140500.00000000003 176166.66666666672 189500.00000000003 71500.000000000015 258500.00000000003 56500.000000000007 9456.0439560439572
decision_type=2 2 2 2 10 8 2 2 2 10 8 2 2 10 10 10 8 8 10 10 8 8 10 10 10 10 8 10 8 2
left_child=2 3 7 8 9 -6 -4 29 -2 12 -11 17 13 -3 21 16 -10 18 -5 26 -9 -13 28 -24 25 -17 -19 -18 -8 -1
right_child=1 4 6 11 5 -7 22 20 15 10 -12 14 -14 -15 -16 24 27 19 -20 -21 -22 -23 23 -25 -26 -27 -28 -29 -30 -31
leaf_value=-1543.3140761055113 797.54610665569282 11682.102459490741 -236.17993857409712 11826.740224609377 13826.397524282096 30994.059660644532 -91.782518750840381 -608.52389775084794 252.4353614312092 9070.8554525885793 17377.720156250001 -1367.6064186789772 1153.6996121651787 5331.5570850965714 5633.6587351176559 1970.6626236812165 1429.0325271142158 -145.91804338727681 1865.451813422309 -2716.5840301513672 -1131.8180214106326 3489.9867596553213 1109.2597136815391 7000.0181945800787 -2408.4150187174482 4475.0126763843355 2514.2666388380649 6033.0371054909447 272.45198116413428 -1084.5961498675886
leaf_weight=2623 9150 27 23302 20 37 20 4131 20393 393 71 25 22 35 90 167 1503 3952 70 36 29 2055 1031 168 23 24 84 1980 22 18736 9211
leaf_count=2623 9150 27 23302 20 37 20 4131 20393 393 71 25 22 35 90 167 1503 3952 70 36 29 2055 1031 168 23 24 84 1980 22 18736 9211
internal_value=0 1554.42 -362.149 1415.29 9985.47 19850.1 -9.28823 -839.328 1087.85 7718.19 11234.1 2891.76 5497.61 6797.07 3695.83 1532.2 1346.34 2432.29 5423.05 2351.73 -656.429 3388.5 220.004 1818.62 2036.01 2103.22 2423.43 1454.52 206.652 -1186.27
internal_weight=0 18788 80642 18483 305 57 46360 34282 15128 248 96 3355 152 117 1220 5978 4367 2135 56 2079 22448 1053 23058 191 1611 1587 2050 3974 22867 11834
internal_count=99430 18788 80642 18483 305 57 46360 34282 15128 248 96 3355 152 117 1220 5978 4367 2135 56 2079 22448 1053 23058 191 1611 1587 2050 3974 22867 11834
is_linear=0
shrinkage=0.1


Tree=14
num_leaves=31
num_cat=0
split_feature=39 39 39 39 4 12 39 12 5 19 4 12 26 18 19 12 12 26 26 16 39 18 12 12 16 40 10 12 17 12
split_gain=4.54833e+12 1.81974e+12 1.02966e+12 8.0558e+11 4.44543e+11 2.89901e+11 2.48294e+11 1.89682e+11 1.50224e+11 1.30069e+11 1.34819e+11 1.13365e+11 1.10244e+11 8.58811e+10 6.94719e+10 5.74923e+10 5.43429e+10 5.25129e+10 4.99227e+10 4.58362e+10 4.51475e+10 4.46264e+10 4.33326e+10 4.08248e+10 4.06538e+10 3.92921e+10 3.92782e+10 3.86196e+10 3.73432e+10 3.7211e+10
threshold=73714.285714285725 252285.71428571432 34835.16483516484 120565.93406593408 55.950833515000006 156500.00000000003 52412.087912087918 173500.00000000003 12.500000000000002 250500.00000000003 55.543903175000004 16500.000000000004 100500.00000000001 236500.00000000003 44500.000000000007 66500.000000000015 90500.000000000015 508000.00000000006 119500.00000000001 204500.00000000003 200807.69230769234 160500.00000000003 256500.00000000003 210500.00000000003 255500.00000000003 126983.33333333336 71500.000000000015 39500.000000000007 156500.00000000003 259500.00000000003
decision_type=2 2 2 2 2 8 2 8 2 10 2 10 10 10 8 10 8 10 8 10 2 10 8 10 10 8 10 10 10 10
left_child=2 3 11 12 5 -3 27 14 -6 10 -7 -1 16 20 18 28 19 -11 -5 -2 24 -16 -12 -14 -9 -23 -27 -4 -8 -15
right_child=1 4 6 7 8 9 15 13 -10 17 22 -13 23 29 21 -17 -18 -19 -20 -21 -22 25 -24 -25 -26 26 -28 -29 -30 -31
leaf_value=-1090.5409293350606 513.00348371004338 18613.612216796875 -452.8090303019917 -2876.7729360543049 22784.095605468752 -3944.8996448863641 39.078458731572681 2783.2406692941572 12625.642124155405 7006.7169766000607 1742.1762451171876 -671.66061626313831 1311.2623298048493 4735.4388522907839 1758.8060400101899 356.12390176260459 926.16731022157592 12510.8890625 1212.5371151394315 -3471.555310163827 4354.2066599527998 6820.0901145241478 7675.7882507324221 4846.48893811775 -1758.4718862915042 -1731.320871698289 2664.4112736901716 -207.8998036399376 -3099.376848441676 8982.5432851562491
leaf_weight=11741 6446 20 10036 51 24 22 16420 1354 37 130 20 14367 3223 118 2797 8186 5336 20 72 29 192 22 32 33 20 21 635 17963 38 25
leaf_count=11741 6446 20 10036 51 24 22 16420 1354 37 130 20 14367 3223 118 2797 8186 5336 20 72 29 192 22 32 33 20 21 635 17963 38 25
internal_value=0 1319.87 -346.581 1205.09 8986.92 7078.05 -91.9357 2264.6 16622.4 6048.09 2617.31 -860.035 831.905 3132.06 1852.57 139.552 689.88 7740.61 -483.03 495.158 2917.85 1935.24 5393.63 1347.09 2717.13 2663.11 2523.69 -295.685 31.8321 5477.94
internal_weight=0 20679 78751 20374 305 244 52643 5307 61 224 74 26108 15067 1709 3598 24644 11811 150 123 6475 1566 3475 52 3256 1374 678 656 27999 16458 143
internal_count=99430 20679 78751 20374 305 244 52643 5307 61 224 74 26108 15067 1709 3598 24644 11811 150 123 6475 1566 3475 52 3256 1374 678 656 27999 16458 143
is_linear=0
shrinkage=0.1


Tree=15
num_leaves=31
num_cat=0
split_feature=39 39 39 39 18 13 2 18 39 39 7 39 26 5 40 19 24 29 18 19 40 9 18 35 19 39 7 14 10 14
split_gain=3.68415e+12 1.47399e+12 8.36299e+11 6.5252e+11 3.05232e+11 2.98913e+11 1.65122e+11 1.71915e+11 1.57079e+11 1.5082e+11 1.40145e+11 1.23542e+11 8.95825e+10 7.42139e+10 5.90252e+10 5.59632e+10 8.04818e+10 5.62879e+10 9.20449e+10 4.69245e+10 4.65763e+10 4.57582e+10 4.3525e+10 4.18906e+10 5.82376e+10 4.42384e+10 4.06549e+10 8.94044e+10 3.91493e+10 6.47942e+10
threshold=73714.285714285725 252285.71428571432 37868.131868131873 120565.93406593408 655500.00000000012 156500.00000000003 739000.00000000012 44500.000000000007 52412.087912087918 171978.02197802201 142500.00000000003 16554.945054945059 99500.000000000015 18.500000000000004 184383.33333333334 137500.00000000003 204500.00000000003 88500.000000000015 159500.00000000003 75500.000000000015 117550.00000000001 254500.00000000003 29500.000000000004 143500.00000000003 154500.00000000003 200807.69230769234 -136499.99999999997 117500.00000000001 37500.000000000007 110500.00000000001
decision_type=2 2 2 2 10 8 2 10 2 2 8 2 10 2 10 8 10 8 10 8 8 10 10 8 8 2 8 8 8 8
left_child=2 3 11 12 5 -3 7 -7 -4 14 -8 -1 19 -6 15 16 17 18 -5 -2 -17 -9 -13 -11 -25 -26 27 -10 29 -22
right_child=1 4 8 9 13 6 10 21 26 23 -12 22 -14 -15 -16 20 -18 -19 -20 -21 28 -23 -24 24 25 -27 -28 -29 -30 -31
leaf_value=-1023.1297493454915 226.10959756049334 18594.59591041565 -236.79297132289895 2253.0130081176758 20267.619233630954 -4592.3399414062505 6810.9769631807931 8322.7064758300785 -69.908110656738288 5685.4032755170556 15842.026445312502 -708.38022143480987 1192.2380043475125 11756.042775878908 -3672.3596386718755 6768.260002790179 -1922.4462423246202 1318.1864426915413 9837.737524414064 719.04070855583279 -5073.5967492675782 3273.5599795684816 -421.04447874228595 526.08284991582229 2709.1181587443348 4164.182669741982 119.19884309232664 7987.6751860119057 2112.2218219555098 1527.0476508831157
leaf_weight=9272 2450 20 23241 80 21 24 122 28 40 56 20 12451 3497 20 20 21 73 1472 20 9120 20 50 9143 96 783 285 24583 21 2323 58
leaf_count=9272 2450 20 23241 80 21 24 122 28 40 56 20 12451 3497 20 20 21 73 1472 20 9120 20 50 9143 96 783 285 24583 21 2323 58
internal_value=0 1187.88 -311.922 1084.58 8088.23 6841.55 5878.19 2808.8 -50.2891 2038.14 8082.96 -717.816 748.714 16115.6 1746.88 1773.53 1323.42 1474.15 3769.96 614.66 2079.24 5086.07 -586.721 3013.87 2885.34 3097.41 125.597 2704.01 2038.23 -165.425
internal_weight=0 20679 78751 20374 305 264 244 102 47885 5307 142 30866 15067 41 4087 4067 1645 1572 100 11570 2422 78 21594 1220 1164 1068 24644 61 2401 78
internal_count=99430 20679 78751 20374 305 264 244 102 47885 5307 142 30866 15067 41 4087 4067 1645 1572 100 11570 2422 78 21594 1220 1164 1068 24644 61 2401 78
is_linear=0
shrinkage=0.1


Tree=16
num_leaves=31
num_cat=0
split_feature=39 39 39 11 33 39 39 39 27 12 34 12 14 12 39 23 1 23 32 37 14 39 3 3 16 40 12 40 11 9
split_gain=3.00781e+12 1.04701e+12 9.97359e+11 4.25286e+11 3.43543e+11 3.09889e+11 1.99098e+11 1.87305e+11 1.22016e+11 8.91457e+10 7.35397e+10 7.33047e+10 6.95747e+10 1.04549e+11 6.10962e+10 6.84929e+10 6.69861e+10 8.51971e+10 4.62812e+10 4.76078e+10 4.90007e+10 4.44691e+10 4.28917e+10 7.79572e+10 9.52416e+10 4.24177e+10 4.06168e+10 3.45674e+10 4.6456e+10 3.4379e+10
threshold=91686.81318681319 252285.71428571432 45186.813186813197 532500.00000000012 867500.00000000012 145791.20879120883 63153.846153846163 27324.175824175833 492500.00000000006 1.0000000180025095e-35 21500.000000000004 113500.00000000001 210500.00000000003 233500.00000000003 200807.69230769234 242500.00000000003 61500.000000000007 88500.000000000015 192500.00000000003 48500.000000000007 111500.00000000001 10005.494505494507 37.547404760000006 37.97622848000001 379000.00000000006 25016.666666666668 91500.000000000015 176166.66666666672 167500.00000000003 61500.000000000007
decision_type=2 2 2 10 8 2 2 2 10 8 8 8 8 8 2 10 2 10 10 8 10 2 2 2 8 8 10 10 10 8
left_child=2 5 7 8 -5 11 25 21 12 -7 -11 18 -3 -14 15 16 17 -12 19 20 -2 -1 -15 24 -24 -4 -8 28 -13 -9
right_child=1 3 6 4 -6 9 26 29 -10 10 14 27 13 22 -16 -17 -18 -19 -20 -21 -22 -23 23 -25 -26 -27 -28 -29 -30 -31
leaf_value=-1149.1532923825998 979.0489542643229 9873.6951318359388 2803.7409771259017 7026.2046645220589 21139.921121651787 -1922.9118581136067 313.87456178540725 -344.34135676151118 10533.546146537163 8184.6108122392143 10010.883454589844 1316.4272686483669 -3159.4115283203128 7009.6109334309895 3730.6721160366114 -2479.3939051474299 2160.6040005664263 2164.7514270413308 -1869.2420001029968 795.23556324152332 5855.9283931531409 -728.80771855591047 3815.3186628753065 7032.729377942208 -4186.4284598214281 -55.120641993903149 724.77653617034275 -2496.5291705587638 2834.2299211142199 -826.21455206415612
leaf_weight=3050 45 20 52 34 35 48 15577 23307 37 22 25 4133 20 48 292 31 1991 31 64 4574 38 14396 51 39 21 26788 2845 23 212 1581
leaf_count=3050 45 20 52 34 35 48 15577 23307 37 22 25 4133 20 48 292 31 1991 31 64 4574 38 14396 51 39 21 26788 2845 23 212 1581
internal_value=0 1496.38 -202.158 7279.41 14185.3 1343.39 124.176 -551.062 5260.3 2344.02 2429.64 1074.77 4279.85 3654.84 2376.22 2185.89 2256.54 5667.49 801.601 838.306 3211.84 -802.295 4511.97 3431.92 1481.48 -49.5819 377.332 1370.02 1390.48 -374.952
internal_weight=0 11834 87596 305 69 11529 45262 42334 236 2440 2392 9089 199 179 2370 2078 2047 56 4721 4657 83 17446 159 111 72 26840 18422 4368 4345 24888
internal_count=99430 11834 87596 305 69 11529 45262 42334 236 2440 2392 9089 199 179 2370 2078 2047 56 4721 4657 83 17446 159 111 72 26840 18422 4368 4345 24888
is_linear=0
shrinkage=0.1


Tree=17
num_leaves=31
num_cat=0
split_feature=39 39 39 11 26 39 10 39 2 17 1 5 19 1 11 39 19 37 2 6 29 26 6 33 1 1 26 1 7 36
split_gain=2.43874e+12 8.40705e+11 8.24578e+11 3.44482e+11 3.26261e+11 2.41555e+11 1.81799e+11 1.49281e+11 1.10101e+11 1.48271e+11 1.22838e+11 7.42108e+10 7.27488e+10 6.29876e+10 1.34116e+11 5.97201e+10 5.70924e+10 4.83822e+10 6.30201e+10 4.43669e+10 4.28958e+10 4.26148e+10 4.16857e+10 4.13968e+10 4.01211e+10 8.20783e+10 3.8165e+10 6.99472e+10 4.86545e+10 3.9922e+10
threshold=92538.461538461546 252285.71428571432 46631.868131868141 532500.00000000012 967000.00000000012 145791.20879120883 28500.000000000004 66554.94505494507 739000.00000000012 315500.00000000006 515000.00000000006 21.500000000000004 44500.000000000007 61500.000000000007 105500.00000000001 200807.69230769234 109500.00000000001 238500.00000000003 517500.00000000006 3.5000000000000004 249500.00000000003 10500.000000000002 2.5000000000000004 97500.000000000015 127500.00000000001 148500.00000000003 99500.000000000015 1.0000000180025095e-35 60500.000000000007 133500.00000000003
decision_type=2 2 2 10 8 2 10 2 2 8 2 2 8 2 10 2 8 10 2 2 10 8 2 10 2 2 10 2 10 10
left_child=2 5 6 8 11 16 21 22 9 17 19 -5 23 14 -14 20 -2 18 -3 -10 -15 -1 -4 -7 -23 -26 28 -28 -9 -30
right_child=1 3 7 4 -6 12 -8 26 10 -11 -12 -13 13 15 -16 -17 -18 -19 -20 -21 -22 24 -24 -25 25 -27 27 -29 29 -31
leaf_value=-967.87594796201029 663.40128665877558 3496.4911926269533 146.15383433028805 11835.430904447116 23162.873223586314 -3996.4256490071621 -288.38675777343082 378.32504919429653 7125.4947443808287 -3318.3635437011721 13928.811606445313 3943.9918545809664 11835.500455729169 1959.5713701920349 2223.0104212659471 3451.3398143874279 1188.1683861487982 1885.988699988163 11097.042500000001 3000.5396002875436 -2583.5628472827734 -625.82034936298044 -104.41724784863143 1575.6094787597658 6617.3457782247788 -1381.9725396518052 3527.4273371060694 707.88786981250587 -459.3228744026726 -4825.0885558778591
leaf_weight=4367 3393 24 11250 26 21 30 24232 13519 62 32 20 22 21 2009 47 288 5330 33 20 45 21 16733 16200 24 23 29 96 1054 437 22
leaf_count=4367 3393 24 11250 26 21 30 24232 13519 62 32 20 22 21 2009 47 288 5330 33 20 45 21 16733 16200 24 23 29 96 1054 437 22
internal_value=0 1371.6 -178.822 6551.47 12766.8 1230.07 -475.38 137.28 4734.27 2402.81 6735.28 8218.52 2109.61 2191.76 5191.57 2103.76 984.049 4780.45 6951.29 5390.7 1912.57 -689.601 -1.72418 -1519.97 -617.202 2156.19 389.506 943.258 343.948 -668.575
internal_weight=0 11468 87962 305 69 11163 45384 42578 236 109 127 48 2440 2386 68 2318 8723 77 44 107 2030 21152 27450 54 16785 52 15128 1150 13978 459
internal_count=99430 11468 87962 305 69 11163 45384 42578 236 109 127 48 2440 2386 68 2318 8723 77 44 107 2030 21152 27450 54 16785 52 15128 1150 13978 459
is_linear=0
shrinkage=0.1


Tree=18
num_leaves=31
num_cat=0
split_feature=39 39 39 11 6 12 39 12 0 5 1 27 11 19 14 19 19 23 7 11 12 31 19 7 28 12 1 1 17 31
split_gain=1.98415e+12 7.19016e+11 6.54357e+11 2.7903e+11 3.1168e+11 1.91562e+11 1.78163e+11 1.28512e+11 9.35558e+10 2.46602e+11 1.18258e+11 8.58896e+10 8.01562e+10 4.31063e+10 4.57532e+10 4.27774e+10 4.25384e+10 4.23414e+10 8.40231e+10 4.05995e+10 4.05197e+10 3.37164e+10 2.9666e+10 2.93904e+10 4.20079e+10 4.52885e+10 2.89409e+10 3.68371e+10 3.08527e+10 2.85708e+10
threshold=96813.186813186825 49181.318681318684 252285.71428571432 532500.00000000012 4.5000000000000009 138500.00000000003 29296.703296703301 68500.000000000015 676433.00000000012 15.500000000000002 515000.00000000006 800500.00000000012 164500.00000000003 53500.000000000007 41500.000000000007 95500.000000000015 258500.00000000003 104500.00000000001 -94499.999999999985 184500.00000000003 14500.000000000002 80500.000000000015 253500.00000000003 39500.000000000007 98500.000000000015 11500.000000000002 275000.00000000006 227500.00000000003 240500.00000000003 70500.000000000015
decision_type=2 2 2 10 2 8 2 10 2 2 2 8 10 8 10 10 8 8 10 10 10 8 10 8 10 8 2 2 10 8
left_child=1 6 5 8 11 13 20 -3 10 -10 16 -5 17 14 -2 -9 -4 18 -7 21 -1 -16 -14 -8 25 -25 27 28 -19 -20
right_child=2 7 3 4 -6 12 23 15 9 -11 -12 -13 22 -15 19 -17 -18 26 29 -21 -22 -23 -24 24 -26 -27 -28 -29 -30 -31
leaf_value=-787.68091802840263 -4756.2029613992445 24.298261166135632 765.20257703993059 11048.847690096769 20693.149322509766 8894.1106054687498 -219.42870030423666 324.02153838468053 -7152.3401762589165 7195.4511367187506 12535.930324707033 2309.0521197775138 2234.6773300170898 881.66945527060261 3589.1421341959635 795.90518260940974 5097.8546292785213 1192.9810396923974 -1490.0808185577393 -3443.6028824869791 -502.26056252739039 -100.46223507196132 4562.6995952405432 -1786.4381860701765 2696.9392713044817 -471.76837075177065 -2269.9686650815215 3851.4228186035161 4956.8886463512081 2495.0838456393622
leaf_weight=9254 23 24503 27 22 24 20 27321 13141 23 25 20 23 1379 5562 30 2250 141 2157 20 30 10754 142 57 305 38 1860 23 55 22 179
leaf_count=9254 23 24503 27 22 24 20 27321 13141 23 25 20 23 1379 5562 30 2250 141 2157 20 30 10754 142 57 305 38 1860 23 55 22 179
internal_value=0 -149.411 1335.59 5896.32 11490.1 1192.17 -403.888 166.545 4260.84 320.468 5266.9 6581.84 1732.7 826.776 -530.187 393.006 4401.54 1387.98 2715.53 -49.0072 -634.272 543.073 2327.08 -247.76 -599.124 -656.976 1259.16 1295.5 1230.98 2094.56
internal_weight=0 89426 10004 305 69 9699 49532 39894 236 48 188 45 3912 5787 225 15391 168 2476 219 202 20008 172 1436 29524 2203 2165 2257 2234 2179 199
internal_count=99430 89426 10004 305 69 9699 49532 39894 236 48 188 45 3912 5787 225 15391 168 2476 219 202 20008 172 1436 29524 2203 2165 2257 2234 2179 199
is_linear=0
shrinkage=0.1


Tree=19
num_leaves=31
num_cat=0
split_feature=12 13 12 13 17 26 26 18 26 12 26 17 42 41 32 18 20 18 9 23 0 24 32 41 0 32 32 12 18 23
split_gain=1.36993e+12 4.48745e+11 4.03752e+11 2.30646e+11 2.1486e+11 1.29124e+11 9.69461e+10 9.48695e+10 8.47109e+10 8.34415e+10 6.58238e+10 6.15602e+10 5.82035e+10 5.4624e+10 5.5833e+10 5.35589e+10 7.53072e+10 5.31201e+10 5.06498e+10 4.44272e+10 4.78013e+10 4.32382e+10 4.3139e+10 4.25711e+10 4.0672e+10 3.97389e+10 3.88326e+10 3.72468e+10 3.58414e+10 2.98812e+10
threshold=88500.000000000015 435500.00000000006 43500.000000000007 140500.00000000003 286500.00000000006 624500.00000000012 21500.000000000004 65500.000000000007 119500.00000000001 233500.00000000003 89500.000000000015 181500.00000000003 168500.00000000003 132928.57142857145 102500.00000000001 172500.00000000003 147500.00000000003 65500.000000000007 102500.00000000001 124500.00000000001 622342.50000000012 485500.00000000006 180500.00000000003 1.0000000180025095e-35 635760.00000000012 116500.00000000001 294000.00000000006 164500.00000000003 182500.00000000003 51500.000000000007
decision_type=10 10 8 10 10 10 8 10 10 10 10 10 10 10 10 10 10 8 10 10 2 8 10 10 2 8 10 10 10 10
left_child=2 3 4 8 6 11 18 12 17 26 -8 -3 -4 19 -15 -10 22 -2 23 28 -21 -13 25 -1 -14 -17 27 -5 -12 -20
right_child=1 5 7 9 -6 -7 10 -9 15 -11 13 21 24 14 -16 16 -18 -19 29 20 -22 -23 -24 -25 -26 -27 -28 -29 -30 -31
leaf_value=1529.6385698106556 -105.4174858501755 93.314560352672231 -44.702714096949812 1176.9369869667428 8692.7183894230766 11576.880378605769 -325.81575942308359 282.15335251608968 1081.6706945394058 3241.7282855706471 636.08652738966384 8859.9081665039066 6647.2081875887789 8000.692839355469 1132.7041790140088 6915.8599614682407 75.294957785770819 606.6795172546847 -904.70234005089969 2033.0239924112957 -3287.0696875856638 3840.1521814294765 8095.9829575758722 -654.94374073431777 416.37340820312505 1991.4829908672132 -2644.3767779806385 1908.5365650721503 4863.9225678943458 -3755.5972813250069
leaf_weight=90 1214 22 35240 1674 26 39 26849 12310 1737 285 444 32 22 20 29 23 58 7641 66 24 57 37 26 10070 20 57 23 1191 21 83
leaf_count=90 1214 22 35240 1674 26 39 26849 12310 1737 285 444 32 22 20 29 23 58 7641 66 24 57 37 26 10070 20 57 23 1191 21 83
internal_value=0 914.677 -150.63 860.097 -394.717 6762.72 -400.975 43.1281 639.082 1609.31 -302.761 4699.51 -40.2686 737.574 3935.96 1244.77 2972.21 509.053 -662.435 450.539 -1710.75 6168.15 4557.31 -635.592 3680.14 3407.24 1448.21 1481.07 827.021 -2492.78
internal_weight=0 14059 85371 13929 37779 130 37753 47592 10756 3173 27444 91 35282 595 49 1901 164 8855 10309 546 81 69 106 10160 42 80 2888 2865 465 149
internal_count=99430 14059 85371 13929 37779 130 37753 47592 10756 3173 27444 91 35282 595 49 1901 164 8855 10309 546 81 69 106 10160 42 80 2888 2865 465 149
is_linear=0
shrinkage=0.1


Tree=20
num_leaves=31
num_cat=0
split_feature=39 39 39 39 13 4 5 17 26 26 38 5 24 20 17 36 26 13 40 30 15 36 42 35 11 26 24 33 36 8
split_gain=1.36373e+12 5.33606e+11 3.26496e+11 2.40941e+11 2.03922e+11 1.69976e+11 1.36316e+11 8.71449e+10 8.01769e+10 6.45694e+10 6.06428e+10 5.75061e+10 6.61762e+10 5.36188e+10 1.07461e+11 5.3129e+10 5.40154e+10 5.16088e+10 4.16226e+10 4.52714e+10 4.15644e+10 7.13528e+10 4.14759e+10 4.03705e+10 4.00364e+10 3.87608e+10 4.67636e+10 3.98804e+10 3.78977e+10 5.99145e+10
threshold=73714.285714285725 252285.71428571432 34835.16483516484 133060.43956043958 156500.00000000003 55.937786545000009 5.5000000000000009 76500.000000000015 57500.000000000007 114500.00000000001 164500.00000000003 6.5000000000000009 155500.00000000003 800500.00000000012 590500.00000000012 288000.00000000006 174500.00000000003 400000.00000000006 124350.00000000001 222500.00000000003 96500.000000000015 58500.000000000007 11833.333333333334 96500.000000000015 207500.00000000003 70500.000000000015 129500.00000000001 38500.000000000007 56500.000000000007 -63499.999999999993
decision_type=2 2 2 2 8 2 2 10 10 10 10 2 10 10 10 10 10 10 8 10 10 10 10 10 8 8 10 10 8 10
left_child=2 3 22 9 -3 7 -7 -6 23 25 -11 -12 -13 14 -8 16 18 -9 -5 24 21 -18 -1 -4 -20 26 -2 -28 29 -27
right_child=1 4 8 15 5 6 13 17 -10 10 11 12 -14 -15 -16 -17 20 -19 19 -21 -22 -23 -24 -25 -26 28 27 -29 -30 -31
leaf_value=-697.99951611136635 152.2110105829469 14635.38330078125 -109.61852712230638 3847.7198968402408 -2512.5305285367103 14561.14526855469 4547.9509221481067 2392.0968874289774 163.64422896225813 1081.9406483407038 2452.6335484095985 -376.03175663667571 -5631.2454231880811 1160.0683338512074 12877.752938988095 -3703.5937145996099 501.72231445312502 7914.4252661132814 1041.6892688756047 -1947.7242495329483 1972.8968485280927 8382.2913067853005 -406.39762296208926 -1230.5139468440304 2177.7164870469469 4873.4591064453125 -3726.7101208917029 -470.47560453325787 459.61116235611411 989.10975061059003
leaf_weight=6492 1617 20 38808 59 33 20 59 110 13511 2459 35 68 37 22 21 20 20 20 1976 46 839 27 19616 324 368 47 58 107 12335 256
leaf_count=6492 1617 20 38808 59 33 20 59 110 13511 2459 35 68 37 22 21 20 20 20 1976 46 839 27 19616 324 368 47 58 107 12335 256
internal_value=0 722.717 -189.776 660.565 4874.49 4189.52 7012.35 2076.72 -46.3835 507.88 966.683 -1057.74 -2227.87 5532.19 6734.52 1435.09 1465.91 3241.69 1223.85 1159.07 2135.01 5028.86 -478.907 -118.899 1220.04 425.187 -11.4281 -1615.09 486.752 1591.63
internal_weight=0 20679 78751 20374 305 285 122 163 52643 17019 2599 140 105 102 80 3355 3335 130 2449 2390 886 47 26108 39132 2344 14420 1782 165 12638 303
internal_count=99430 20679 78751 20374 305 285 122 163 52643 17019 2599 140 105 102 80 3355 3335 130 2449 2390 886 47 26108 39132 2344 14420 1782 165 12638 303
is_linear=0
shrinkage=0.1


Tree=21
num_leaves=31
num_cat=0
split_feature=12 42 16 12 41 13 12 23 12 16 34 8 31 34 22 31 41 6 38 28 33 27 40 4 13 20 42 2 4 28
split_gain=9.37764e+11 3.30952e+11 2.0511e+11 1.79037e+11 1.98747e+11 1.19737e+11 6.37205e+10 7.59168e+10 6.29596e+10 6.11847e+10 5.45376e+10 4.50231e+10 4.89408e+10 4.08583e+10 5.40654e+10 4.63108e+10 4.15514e+10 3.75136e+10 3.68693e+10 3.34401e+10 3.4602e+10 3.11891e+10 4.79674e+10 4.05268e+10 3.44158e+10 4.81571e+10 3.07112e+10 3.91036e+10 3.45074e+10 2.89492e+10
threshold=69500.000000000015 168500.00000000003 655500.00000000012 36500.000000000007 173357.14285714287 102500.00000000001 185500.00000000003 104500.00000000001 236500.00000000003 853000.00000000012 131500.00000000003 256500.00000000003 483500.00000000006 14500.000000000002 238500.00000000003 55500.000000000007 1.0000000180025095e-35 1.5000000000000002 82500.000000000015 11500.000000000002 56500.000000000007 9500.0000000000018 95350.000000000015 55.121642625000007 51500.000000000007 200500.00000000003 58166.666666666679 696500.00000000012 55.896006905000007 183500.00000000003
decision_type=10 10 10 8 10 10 10 8 10 10 10 10 10 8 10 10 10 2 10 10 10 8 10 2 8 10 10 2 2 10
left_child=3 5 8 4 13 21 17 10 -3 -4 -8 12 -10 15 18 16 -1 -7 29 20 -20 22 23 -2 25 -23 27 -5 -29 -15
right_child=1 2 9 26 -6 6 7 -9 11 -11 -12 -13 -14 14 -16 -17 -18 -19 19 -21 -22 24 -24 -25 -26 -27 -28 28 -30 -31
leaf_value=3430.7761615459735 4180.5965074018995 1402.4224748671204 12868.70181640625 -112.23240665759835 8048.466040039063 1105.7647582876796 9503.5406377377712 1563.0117410307948 2825.1066660675738 5140.3188034784225 2363.4595202636719 -1337.0828719429348 6890.8033247514213 -349.60169957441229 4324.1669472656249 -1810.1183074152891 -577.22920260592298 577.27846419527793 762.77345541249156 179.7026350765438 5128.1112506103518 -133.53694494132401 4682.4960667350078 579.52139547994591 324.56306697574877 4794.6239721679694 82.848640349738702 668.49883261611785 4039.5723024156359 3199.9333424443785
leaf_weight=26 33 1201 20 33436 28 1893 23 206 288 21 20 23 33 22977 25 313 5019 4624 46 364 30 2313 33 590 13541 20 12031 194 36 23
leaf_count=26 33 1201 20 33436 28 1893 23 206 288 21 20 23 33 22977 25 313 5019 4624 46 364 30 2313 33 590 13541 20 12031 194 36 23
internal_value=0 531.574 1929.32 -177.424 -372.461 436.414 790.774 2360.77 1744.07 8910.26 6182.57 2936.84 3243.08 -380.642 -323.748 -629.802 -556.573 730.788 -328.706 578.052 2485.93 291.369 967.073 770.269 263.445 -91.2895 -54.2867 -103.294 1196.15 -346.052
internal_weight=0 24882 1586 74548 28851 23296 6766 249 1545 41 43 344 321 28823 23465 5358 5045 6517 23440 440 76 16530 656 623 15874 2333 45697 33666 230 23000
internal_count=99430 24882 1586 74548 28851 23296 6766 249 1545 41 43 344 321 28823 23465 5358 5045 6517 23440 440 76 16530 656 623 15874 2333 45697 33666 230 23000
is_linear=0
shrinkage=0.1


Tree=22
num_leaves=31
num_cat=0
split_feature=39 39 18 19 19 9 39 19 1 24 28 18 8 42 1 24 7 23 19 13 22 27 4 9 21 6 33 33 9 38
split_gain=9.25539e+11 3.52013e+11 3.22436e+11 2.75723e+11 1.27953e+11 1.1086e+11 8.99008e+10 8.81919e+10 9.06272e+10 7.28087e+10 7.21477e+10 6.30513e+10 6.25109e+10 5.32594e+10 4.89335e+10 4.74196e+10 3.68043e+10 3.51809e+10 4.00615e+10 3.43174e+10 5.0133e+10 3.38248e+10 3.20567e+10 3.0913e+10 3.05752e+10 2.88257e+10 2.78785e+10 2.62973e+10 2.57442e+10 2.53837e+10
threshold=96813.186813186825 43285.71428571429 381000.00000000006 796500.00000000012 243500.00000000003 77500.000000000015 61302.197802197807 137500.00000000003 497500.00000000006 868500.00000000012 513500.00000000006 23500.000000000004 -67499.999999999985 18166.666666666668 141500.00000000003 195500.00000000003 -127499.99999999999 76500.000000000015 24500.000000000004 132500.00000000003 1.0000000180025095e-35 144500.00000000003 55.698780475000007 225500.00000000003 11500.000000000002 1.5000000000000002 82500.000000000015 95500.000000000015 142500.00000000003 12500.000000000002
decision_type=2 2 10 8 10 10 2 8 2 8 8 10 10 8 2 10 10 10 10 8 8 8 2 10 8 2 8 8 10 8
left_child=1 11 4 9 7 -6 17 15 13 10 12 14 -4 -9 -1 16 22 24 -19 20 -15 -22 -2 -23 29 -8 28 -17 -18 -3
right_child=2 6 3 -5 5 -7 25 8 -10 -11 -12 -13 -14 19 -16 27 26 18 -20 -21 21 23 -24 -25 -26 -27 -28 -29 -30 -31
leaf_value=-460.09953775424913 5101.2541610370981 1903.8122229404137 -919.04921479401764 13626.992227080375 8724.2742895507818 2275.1036513324561 398.67060882105551 -4077.9631616210936 7655.5358421688989 -1930.4634144176136 9182.2919759114575 -199.65966799951815 5340.3933193108978 5178.3980514526374 4488.8099645996099 -3924.5758561759162 -24.171589700106921 -2164.4925934697194 -370.62188893905534 1265.4684775032147 1301.6886521584747 290.56982612420546 406.18405949519229 -3689.3835852050784 -46.073087209610819 148.29705897392722 579.00141558832638 -596.59526060846929 -2613.8092214833136 341.21533074195833
leaf_weight=19615 33 122 27 33 30 239 6375 20 21 22 24 19039 39 24 20 29 232 144 919 3257 414 806 26 20 25989 16500 4531 131 46 703
leaf_count=19615 33 122 27 33 30 239 6375 20 21 22 24 19039 39 24 20 29 232 144 919 3257 414 806 26 20 25989 16500 4531 131 46 703
internal_value=0 -102.045 912.186 5593.49 843.337 2994.34 71.1476 783.001 1101.37 3226.48 4487.07 -329.327 2779.71 1071.06 -455.059 494.142 549.818 -49.415 -613.63 1093.83 651.576 563.96 3032.24 194.203 -27.0476 218.073 519.362 -1199.79 -452.673 572.29
internal_weight=0 89426 10004 145 9859 269 50752 9590 4562 112 90 38674 66 4541 19635 5028 4868 27877 1063 4521 1264 1240 59 826 26814 22875 4809 160 278 825
internal_count=99430 89426 10004 145 9859 269 50752 9590 4562 112 90 38674 66 4541 19635 5028 4868 27877 1063 4521 1264 1240 59 826 26814 22875 4809 160 278 825
is_linear=0
shrinkage=0.1


Tree=23
num_leaves=31
num_cat=0
split_feature=39 39 13 10 1 12 13 19 19 21 31 39 29 32 32 24 19 23 2 29 28 28 13 16 6 9 19 1 18 19
split_gain=7.57988e+11 2.89247e+11 2.65445e+11 2.02431e+11 1.54885e+11 1.34877e+11 9.78039e+10 6.66046e+10 6.37784e+10 5.94674e+10 4.84734e+10 3.7739e+10 3.58845e+10 4.10119e+10 9.10777e+10 4.05179e+10 3.35673e+10 3.3153e+10 3.72367e+10 3.22139e+10 3.14124e+10 3.07296e+10 2.82525e+10 2.95754e+10 2.81499e+10 2.47829e+10 3.59342e+10 2.7711e+10 2.47771e+10 2.41446e+10
threshold=77708.791208791212 200807.69230769234 21500.000000000004 34500.000000000007 672500.00000000012 116500.00000000001 756000.00000000012 164500.00000000003 58500.000000000007 135500.00000000003 288000.00000000006 10285.714285714286 19500.000000000004 124500.00000000001 185500.00000000003 185500.00000000003 158500.00000000003 104500.00000000001 213500.00000000003 134500.00000000003 513500.00000000006 205500.00000000003 159500.00000000003 185500.00000000003 2.5000000000000004 484500.00000000006 263500.00000000006 294000.00000000006 62500.000000000007 53500.000000000007
decision_type=2 2 8 10 2 8 10 8 10 10 10 2 8 10 10 10 10 8 2 8 10 10 10 10 2 10 10 2 8 8
left_child=3 5 -3 9 7 12 -6 -4 24 11 16 -1 13 -2 -15 29 21 18 -18 -20 25 -7 23 -13 28 26 27 -9 -5 -14
right_child=1 2 4 8 6 10 -8 20 -10 -11 -12 22 15 14 -16 -17 17 -19 19 -21 -22 -23 -24 -25 -26 -27 -28 -29 -30 -31
leaf_value=-643.92948344972069 837.24700817158578 13258.661107336957 -3207.2962623291019 -63.652265163398845 12292.654364013673 760.23095972856663 3061.8389670632105 1804.4208861045711 156.16169560381468 -2894.4297856676712 5774.4453485107424 -299.28235256350291 -413.52438790464805 7511.0942976888027 -1075.4996785481771 -1342.8711624539283 113.96542083740235 1143.039541518599 2630.9210811070034 7109.7503361628615 5398.297626410591 -1054.6960916448895 2469.0083284945104 3547.6970223999024 -157.1949175387426 -890.13296793619793 3499.3420507431033 -1483.6401341029577 222.28921156206835 318.09478868672659
leaf_weight=3464 227 23 25 9984 24 5185 22 303 15594 91 20 25616 472 30 21 155 30 1334 42 26 27 95 37 20 21851 30 128 28 4351 10175
leaf_count=3464 227 23 25 9984 24 5185 22 303 15594 91 20 25616 472 30 21 155 30 1334 42 26 27 95 37 20 21851 30 128 28 4351 10175
internal_value=0 578.986 2720.19 -131.667 2307.27 505.657 7877.92 1833.61 -12.9008 -342.072 858.686 -334.1 291.163 1412.96 3975.44 262.293 844.039 1273.45 3048.69 4343.41 2077.84 727.576 -292.296 -296.281 -85.7566 1894.5 2076.5 1526.28 23.1375 285.661
internal_weight=0 18422 610 81008 587 17812 46 541 51780 29228 6732 29137 11080 278 51 10802 6712 1432 98 68 516 5280 25673 25636 36186 489 459 331 14335 10647
internal_count=99430 18422 610 81008 587 17812 46 541 51780 29228 6732 29137 11080 278 51 10802 6712 1432 98 68 516 5280 25673 25636 36186 489 459 331 14335 10647
is_linear=0
shrinkage=0.1


Tree=24
num_leaves=31
num_cat=0
split_feature=39 39 10 39 1 12 12 8 5 27 8 6 41 25 5 12 7 27 1 6 21 41 7 25 1 10 35 22 5 17
split_gain=6.21322e+11 2.55775e+11 1.76189e+11 1.39132e+11 1.34086e+11 1.04512e+11 8.75542e+10 6.35631e+10 6.7956e+10 6.25574e+10 4.54444e+10 3.49519e+10 3.5007e+10 1.23906e+11 4.93522e+10 3.42193e+10 3.05633e+10 4.04708e+10 4.66645e+10 3.27684e+10 2.86864e+10 3.09384e+10 2.84699e+10 3.64755e+10 2.95218e+10 5.10873e+10 3.96781e+10 4.02121e+10 3.33899e+10 2.77225e+10
threshold=68505.494505494527 187060.43956043958 1.0000000180025095e-35 32214.285714285721 672500.00000000012 112500.00000000001 788000.00000000012 -147499.99999999997 19.500000000000004 492500.00000000006 419500.00000000006 2.5000000000000004 9785.7142857142881 92500.000000000015 13.500000000000002 8500.0000000000018 81500.000000000015 125500.00000000001 154500.00000000003 2.5000000000000004 81500.000000000015 93500.000000000015 54500.000000000007 166500.00000000003 4500.0000000000009 133500.00000000003 136500.00000000003 8500.0000000000018 21.500000000000004 142500.00000000003
decision_type=2 2 8 2 2 8 8 8 2 10 10 2 8 8 2 10 10 10 2 2 10 10 10 10 2 10 10 8 2 10
left_child=3 5 -3 15 7 22 -6 8 -4 -9 16 -5 13 14 -13 -1 19 18 -18 -7 21 -14 24 -24 25 26 27 -2 -27 -25
right_child=1 2 4 11 6 10 -8 9 -10 -11 -12 12 20 -15 -16 -17 17 -19 -20 -21 -22 -23 23 29 -26 28 -28 -29 -30 -31
leaf_value=-548.6194668855303 3713.8988526662197 10032.788629376448 1094.0290702819825 46.266622748344474 2115.8336962890626 973.03966052063333 10916.502617938702 1581.8397627389668 -6226.9159615652907 5966.7918205710021 4436.5006507873541 -2779.5296254750847 -113.11295178445754 8754.0619653320318 1683.5118513183597 -274.09451908356067 -253.95414699288304 1653.3635327088207 -3780.259816233317 536.10484647495934 -659.62181772191309 3821.3217987060548 -217.62357804150898 -628.01108154296878 230.17866969513304 1973.9057292292671 -3242.9546245868391 435.68551027170082 6274.2395434570317 -5830.1660574776788
leaf_weight=6207 42 27 32 21125 20 2751 26 755 21 34 32 37 29285 20 75 16912 172 76 48 4564 983 20 653 20 15013 65 26 343 25 21
leaf_count=6207 42 27 32 21125 20 2751 26 755 21 34 32 37 29285 20 75 16912 172 76 48 4564 983 20 653 20 15013 65 26 343 25 21
internal_value=0 434.038 2074.79 -143.97 1832.83 371.093 7090.12 1545.61 -1806.72 1770.8 675.926 -52.5485 -121.17 1503.8 209.114 -347.799 660.115 -336.071 -1023.33 700.426 -128.252 -110.428 227.347 -399.282 255.378 1010.51 537.973 793.309 3168.44 -3292.53
internal_weight=0 24766 915 74664 888 23851 46 842 53 789 7643 51545 30420 132 112 23119 7611 296 220 7315 30288 29305 16208 694 15514 501 411 385 90 41
internal_count=99430 24766 915 74664 888 23851 46 842 53 789 7643 51545 30420 132 112 23119 7611 296 220 7315 30288 29305 16208 694 15514 501 411 385 90 41
is_linear=0
shrinkage=0.1


Tree=25
num_leaves=31
num_cat=0
split_feature=39 11 22 39 19 12 26 12 23 9 12 1 27 35 38 32 30 11 29 32 13 11 36 19 19 13 19 14 7 25
split_gain=5.11553e+11 2.0213e+11 2.5469e+11 2.01917e+11 9.5261e+10 7.00138e+10 6.10918e+10 5.68029e+10 5.67904e+10 5.59012e+10 4.63718e+10 5.18911e+10 3.61377e+10 4.22481e+10 8.8468e+10 3.30912e+10 4.41585e+10 3.19969e+10 3.44132e+10 3.1398e+10 3.1788e+10 3.12751e+10 3.03196e+10 3.4579e+10 3.08612e+10 3.01797e+10 3.82209e+10 3.53856e+10 2.91849e+10 2.90605e+10
threshold=96813.186813186825 508000.00000000006 990500.00000000012 43285.71428571429 243500.00000000003 513500.00000000006 65500.000000000007 146500.00000000003 734500.00000000012 77500.000000000015 17500.000000000004 138500.00000000003 288000.00000000006 78500.000000000015 94500.000000000015 99500.000000000015 720000.00000000012 164500.00000000003 167500.00000000003 205500.00000000003 105500.00000000001 129500.00000000001 56500.000000000007 176500.00000000003 158500.00000000003 142500.00000000003 194500.00000000003 191500.00000000003 78500.000000000015 199500.00000000003
decision_type=2 10 8 2 10 10 10 8 8 10 10 2 10 8 10 10 8 10 10 10 10 8 10 10 10 10 10 10 10 10
left_child=3 4 5 10 7 -3 17 19 -7 -6 11 -1 13 14 -9 16 -11 18 29 -2 -21 25 23 24 -8 27 -27 -15 -17 -5
right_child=1 2 -4 6 9 8 22 12 -10 15 -12 -13 -14 21 -16 28 -18 -19 -20 20 -22 -23 -24 -25 -26 26 -28 -29 -30 -31
leaf_value=-402.44393167158745 431.92506369895085 -1979.4371689453126 14226.174572753907 -5.1166674702816426 6281.8412399291992 8534.5654028320314 429.54496974958784 8999.6974658203126 998.62361328125007 -3039.1039182309755 -166.46279811872068 4694.9302679443363 -3124.6905684037647 -41.536703917973909 1006.3507980473837 2191.1112407255455 1668.9015494095654 -1499.516730313831 -2270.2386574816351 -3660.3112587181299 -62.275987243652345 1036.1825990814229 119.90681841850972 -2903.9369875015755 4100.7958167034649 771.06727844037505 5322.4367803664436 -4357.3759429931642 5917.6796427408854 2407.3565687866212
leaf_weight=13775 6183 25 24 36678 32 20 5129 20 20 27 24879 20 22 379 45 169 76 144 67 37 73 2635 8630 31 23 152 21 20 24 50
leaf_count=13775 6183 25 24 36678 32 20 5129 20 20 27 24879 20 22 379 45 169 76 144 67 37 73 2635 8630 31 23 152 21 20 24 50
internal_value=0 678.159 5422.54 -75.865 635.572 2171.97 55.306 578.239 4766.59 2311.35 -248.001 -395.054 914.682 941.841 3465.84 1882.1 434.764 -11.7853 -5.96296 402.132 -1272.52 890.684 234.723 425.899 445.934 220.426 1323.55 -257.869 2654.52 -1.83242
internal_weight=0 10004 89 89426 9915 65 50752 9587 40 328 38674 13795 3294 3272 65 296 103 36939 36795 6293 110 3207 13813 5183 5152 572 173 399 193 36728
internal_count=99430 10004 89 89426 9915 65 50752 9587 40 328 38674 13795 3294 3272 65 296 103 36939 36795 6293 110 3207 13813 5183 5152 572 173 399 193 36728
is_linear=0
shrinkage=0.1


Tree=26
num_leaves=31
num_cat=0
split_feature=39 18 20 39 26 5 3 12 10 29 13 40 26 15 26 18 20 26 0 10 35 18 35 25 7 36 40 11 15 33
split_gain=4.21119e+11 1.95954e+11 1.96878e+11 1.33516e+11 1.02306e+11 7.79385e+10 7.79219e+10 7.65143e+10 4.27156e+10 3.95606e+10 3.96792e+10 3.51711e+10 3.48541e+10 3.43256e+10 3.38976e+10 3.33183e+10 4.71332e+10 3.31248e+10 4.28918e+10 4.57359e+10 3.64829e+10 3.20465e+10 3.14912e+10 3.06209e+10 3.04985e+10 2.95496e+10 2.78663e+10 2.92982e+10 2.62811e+10 2.64819e+10
threshold=61302.197802197807 381000.00000000006 29500.000000000004 115593.4065934066 508000.00000000006 21.500000000000004 37.632132785000003 33500.000000000007 198500.00000000003 319000.00000000006 306000.00000000006 113183.33333333336 91500.000000000015 1.0000000180025095e-35 73500.000000000015 182500.00000000003 88500.000000000015 203500.00000000003 668401.50000000012 268000.00000000006 147500.00000000003 101500.00000000001 73500.000000000015 120500.00000000001 57500.000000000007 130500.00000000001 53216.666666666679 222500.00000000003 255500.00000000003 245500.00000000003
decision_type=2 10 10 2 10 2 2 10 8 10 10 8 10 8 10 10 10 8 2 10 8 8 10 10 10 10 8 10 10 10
left_child=7 3 -3 12 6 -6 -4 -1 9 10 11 14 24 -10 -5 -14 -17 20 -19 -20 -15 -13 -16 -22 26 -26 -2 -28 29 -23
right_child=1 2 4 8 5 -7 -8 -9 13 -11 -12 21 15 17 22 16 -18 18 19 -21 23 28 -24 -25 25 -27 27 -29 -30 -31
leaf_value=-267.28631432995792 2434.9576692401238 11810.735376915567 -4538.0943232783566 -1642.8992507207961 8635.9816802978512 1097.4056457519532 2380.3802999356899 -50.90106254800687 4650.6780820649246 -3566.6437754755434 4046.3294440067179 -326.04855967027055 384.25424994988168 2183.4169958043981 6336.7444802856444 5414.6258815765386 438.9376754598415 2051.8608918590176 868.85651555918321 -3916.1902099609379 -3577.3960910644528 599.64974211898596 2016.8565232877381 109.25288083595143 -395.65989695276539 -3606.3775417073566 143.99152266782906 -2711.2646067301434 -1462.7988088639058 2807.7289226740058
leaf_weight=28834 53 26 27 21 32 24 41 37717 29 23 33 409 4898 81 20 32 47 510 217 22 25 4361 108 228 644 30 20786 36 61 55
leaf_count=28834 53 26 27 21 32 24 41 37717 29 23 33 409 4898 81 20 32 47 510 217 22 25 4361 108 228 644 30 20786 36 61 55
internal_value=0 292.794 3898.9 276.267 2239.97 5405.16 -366.661 -144.653 693.938 571.295 590.074 567.422 178.596 1255.43 2080.9 417.114 2454.41 1164.51 1533.82 428.392 336.322 521.268 2691.84 -255.04 123.507 -538.57 144.884 139.055 598.675 627.151
internal_weight=0 32879 150 32729 124 56 68 66551 6203 5091 5068 5035 26526 1112 149 4977 79 1083 749 239 334 4886 128 253 21549 674 20875 20822 4477 4416
internal_count=99430 32879 150 32729 124 56 68 66551 6203 5091 5068 5035 26526 1112 149 4977 79 1083 749 239 334 4886 128 253 21549 674 20875 20822 4477 4416
is_linear=0
shrinkage=0.1


end of trees

feature_importances:
mean_income_all=172
income_4_day_before=82
income_11_day_before=53
income_18_day_before=42
income_10_day_before=29
money_in=28
mean_income_last_7_days=28
income_3_day_before=26
income_5_day_before=24
income_2_day_before=22
yesterday_income_growth=18
income_1_day_before=16
mean_income_last_3_days=16
latitude=15
income_12_day_before=15
mean_income_last_30_days=15
money=13
TID=11
day=11
income_9_day_before=11
income_14_day_before=11
income_15_day_before=11
income_25_day_before=11
weekday=10
income_24_day_before=10
income_16_day_before=9
yesterday_growth_of_income_growth=8
income_6_day_before=8
income_20_day_before=8
income_21_day_before=8
income_27_day_before=8
income_7_day_before=7
income_8_day_before=7
income_19_day_before=7
income_13_day_before=6
income_23_day_before=6
income_28_day_before=6
longitude=5
income_30_day_before=5
income_17_day_before=4
income_26_day_before=4
income_22_day_before=2
income_29_day_before=2

parameters:
[boosting: gbdt]
[objective: regression]
[metric: l2]
[tree_learner: serial]
[device_type: cpu]
[data: ]
[valid: ]
[num_iterations: 27]
[learning_rate: 0.1]
[num_leaves: 31]
[num_threads: -1]
[deterministic: 0]
[force_col_wise: 0]
[force_row_wise: 0]
[histogram_pool_size: -1]
[max_depth: -1]
[min_data_in_leaf: 20]
[min_sum_hessian_in_leaf: 0.001]
[bagging_fraction: 0.7]
[pos_bagging_fraction: 1]
[neg_bagging_fraction: 1]
[bagging_freq: 0]
[bagging_seed: 3014]
[feature_fraction: 0.7]
[feature_fraction_bynode: 1]
[feature_fraction_seed: 29554]
[extra_trees: 0]
[extra_seed: 19515]
[early_stopping_round: 0]
[first_metric_only: 0]
[max_delta_step: 0]
[lambda_l1: 0]
[lambda_l2: 0]
[linear_lambda: 0]
[min_gain_to_split: 0]
[drop_rate: 0.1]
[max_drop: 50]
[skip_drop: 0.5]
[xgboost_dart_mode: 0]
[uniform_drop: 0]
[drop_seed: 12050]
[top_rate: 0.2]
[other_rate: 0.1]
[min_data_per_group: 100]
[max_cat_threshold: 32]
[cat_l2: 10]
[cat_smooth: 10]
[max_cat_to_onehot: 4]
[top_k: 20]
[monotone_constraints: ]
[monotone_constraints_method: basic]
[monotone_penalty: 0]
[feature_contri: ]
[forcedsplits_filename: ]
[refit_decay_rate: 0.9]
[cegb_tradeoff: 1]
[cegb_penalty_split: 0]
[cegb_penalty_feature_lazy: ]
[cegb_penalty_feature_coupled: ]
[path_smooth: 0]
[interaction_constraints: ]
[verbosity: -1]
[saved_feature_importance_type: 0]
[linear_tree: 0]
[max_bin: 255]
[max_bin_by_feature: ]
[min_data_in_bin: 3]
[bin_construct_sample_cnt: 200000]
[data_random_seed: 126]
[is_enable_sparse: 1]
[enable_bundle: 1]
[use_missing: 1]
[zero_as_missing: 0]
[feature_pre_filter: 1]
[pre_partition: 0]
[two_round: 0]
[header: 0]
[label_column: ]
[weight_column: ]
[group_column: ]
[ignore_column: ]
[categorical_feature: ]
[forcedbins_filename: ]
[precise_float_parser: 0]
[objective_seed: 25204]
[num_class: 1]
[is_unbalance: 0]
[scale_pos_weight: 1]
[sigmoid: 1]
[boost_from_average: 1]
[reg_sqrt: 0]
[alpha: 0.9]
[fair_c: 1]
[poisson_max_delta_step: 0.7]
[tweedie_variance_power: 1.5]
[lambdarank_truncation_level: 30]
[lambdarank_norm: 1]
[label_gain: ]
[eval_at: ]
[multi_error_top_k: 1]
[auc_mu_weights: ]
[num_machines: 1]
[local_listen_port: 12400]
[time_out: 120]
[machine_list_filename: ]
[machines: ]
[gpu_platform_id: -1]
[gpu_device_id: -1]
[gpu_use_dp: 0]
[num_gpu: 1]

end of parameters

pandas_categorical:[]
