tree
version=v3
num_class=1
num_tree_per_iteration=1
label_index=0
max_feature_idx=42
objective=regression
feature_names=TID money_in money longitude latitude day weekday yesterday_income_growth yesterday_growth_of_income_growth income_1_day_before income_2_day_before income_3_day_before income_4_day_before income_5_day_before income_6_day_before income_7_day_before income_8_day_before income_9_day_before income_10_day_before income_11_day_before income_12_day_before income_13_day_before income_14_day_before income_15_day_before income_16_day_before income_17_day_before income_18_day_before income_19_day_before income_20_day_before income_21_day_before income_22_day_before income_23_day_before income_24_day_before income_25_day_before income_26_day_before income_27_day_before income_28_day_before income_29_day_before income_30_day_before mean_income_all mean_income_last_30_days mean_income_last_7_days mean_income_last_3_days
feature_infos=[406136:699664] [0:2697000] [0:6019000] [35.500558769999998:39.842458970000003] [54.458422939999998:56.757842529999998] [1:31] [0:6] [-2214000:2697000] [-4911000:2697000] [0:2697000] [0:2697000] [0:2697000] [0:2697000] [0:2697000] [0:2697000] [0:2697000] [0:2697000] [0:2697000] [0:2697000] [0:2697000] [0:2697000] [0:2697000] [0:2697000] [0:2697000] [0:2697000] [0:2697000] [0:2697000] [0:2697000] [0:2697000] [0:2697000] [0:2697000] [0:2697000] [0:2697000] [0:2697000] [0:2697000] [0:2697000] [0:2697000] [0:2697000] [0:2697000] [2274.7252747252742:734461.5384615385] [0:843500] [0:917142.85714285716] [0:1247000]
tree_sizes=2849 2861 2841 2872 2858 2858 2917 2851 2895 2862 2833 2897 2883 2840 2862 2847 2865 2831 2849 2855 2848 2854 2833 2856 2814 2845 2855 2866 2839 2828 2841

Tree=0
num_leaves=31
num_cat=0
split_feature=39 39 39 39 4 39 39 39 10 39 39 39 39 11 32 19 39 10 11 11 39 39 36 4 34 11 26 10 14 18
split_gain=7.98231e+13 3.05851e+13 2.16186e+13 9.81716e+12 6.49934e+12 4.2717e+12 3.42027e+12 1.70788e+12 1.48519e+12 1.47666e+12 6.52101e+11 5.23547e+11 4.58285e+11 3.56909e+11 3.09871e+11 2.94505e+11 2.66125e+11 2.51345e+11 2.13766e+11 2.0342e+11 1.99384e+11 1.75997e+11 2.1878e+11 1.61651e+11 1.48078e+11 1.49503e+11 1.44056e+11 1.41992e+11 1.12153e+11 1.05453e+11
threshold=83862.637362637368 252285.71428571432 42313.186813186818 133060.43956043958 55.950833515000006 60115.384615384624 23967.03296703297 106637.36263736265 392000.00000000006 171978.02197802201 70543.956043956059 51142.857142857152 33697.802197802208 210500.00000000003 434500.00000000006 796500.00000000012 14615.384615384619 459500.00000000006 283500.00000000006 151500.00000000003 93934.065934065948 120565.93406593408 170500.00000000003 55.781836090000006 2500.0000000000005 71500.000000000015 91500.000000000015 240500.00000000003 288000.00000000006 100500.00000000001
decision_type=2 2 2 2 2 2 2 2 10 2 2 2 2 10 8 10 2 10 10 10 2 2 10 2 8 8 8 8 8 10
left_child=2 3 6 7 8 11 16 20 18 19 -7 -4 -8 -11 -10 -6 -1 -16 27 24 -2 -9 -23 -24 -5 26 -26 -3 -20 -12
right_child=1 4 5 9 15 10 12 21 14 13 29 -13 -14 -15 17 -17 -18 -19 28 -21 -22 22 23 -25 25 -27 -28 -29 -30 -31
leaf_value=51875.206490521436 59747.675759823658 84141.536927996654 55513.310391962856 73408.088234738301 129908.6777932746 57365.882018891403 53760.132484291629 62145.419525316676 86893.08901110549 69002.673702640313 58449.843476791415 56377.505546840745 54658.261623719234 72820.978887810867 109828.9986488896 115919.57103946197 52733.917779474665 96738.089415935043 80172.871079719625 66851.384105945253 60796.740131861043 63704.12267912463 61428.997096654581 52669.122481606566 53819.906231675443 65053.096888796019 63065.865823442728 75685.707219810851 88824.135706236309 59806.475169912075
leaf_weight=7503 4026 29 14396 20 34 10675 10370 2196 20 881 7554 13664 12566 339 22 27 6954 44 23 895 3294 1846 77 29 22 1126 72 63 43 620
leaf_count=7503 4026 29 14396 20 34 10675 10370 2196 20 881 7554 13664 12566 339 22 27 6954 44 23 895 3294 1846 77 29 22 1126 72 63 43 620
internal_value=56486.8 63175.3 55286.5 62530.4 94521.4 56716.3 53492.9 61138.4 87222.5 67288.3 57880.6 55934.1 54252.2 70063.7 97797.4 123717 52288.3 101102 81466.6 65702.4 60219.8 62759.5 63450.4 59032.4 64873.2 64733.3 60901.9 78351.1 85809.3 58552.7
internal_weight=0 15128 84302 14823 305 46909 37393 11468 244 3355 18849 28060 22936 1220 86 61 14457 66 158 2135 7320 4148 1952 106 1240 1220 94 92 66 8174
internal_count=99430 15128 84302 14823 305 46909 37393 11468 244 3355 18849 28060 22936 1220 86 61 14457 66 158 2135 7320 4148 1952 106 1240 1220 94 92 66 8174
is_linear=0
shrinkage=1


Tree=1
num_leaves=31
num_cat=0
split_feature=39 39 39 39 4 39 39 39 39 10 39 12 39 39 11 39 37 42 25 40 18 13 11 39 10 11 12 25 11 40
split_gain=6.46745e+13 2.50414e+13 1.69762e+13 8.37778e+12 5.26446e+12 3.07387e+12 2.91071e+12 1.39737e+12 1.37966e+12 1.203e+12 5.02285e+11 4.39483e+11 3.5228e+11 3.51878e+11 3.42814e+11 2.62713e+11 2.47843e+11 1.97015e+11 1.83486e+11 1.67496e+11 1.55539e+11 1.48083e+11 1.44858e+11 1.32634e+11 1.31987e+11 1.33972e+11 1.15162e+11 1.04593e+11 1.03529e+11 1.16141e+11
threshold=82285.714285714304 252285.71428571432 43005.494505494513 131434.06593406596 55.950833515000006 59532.967032967041 25016.48351648352 158895.60439560443 102758.24175824177 392000.00000000006 68945.054945054959 497500.00000000006 34835.16483516484 50010.989010989018 207500.00000000003 15829.670329670331 1045500.0000000001 120500.00000000001 259500.00000000003 157100.00000000003 173500.00000000003 56500.000000000007 71500.000000000015 89252.747252747271 194500.00000000003 283500.00000000006 396000.00000000006 63500.000000000007 164500.00000000003 129616.66666666667
decision_type=2 2 2 2 2 2 2 2 2 10 2 8 2 2 10 2 8 10 8 10 10 10 8 2 8 10 10 8 8 8
left_child=2 3 6 8 9 13 15 20 23 18 -7 26 -8 -4 28 -1 -6 -10 -3 -19 22 -22 27 -2 -20 -26 -11 -5 29 -9
right_child=1 4 5 7 16 10 12 14 17 11 -12 -13 -14 -15 -16 -17 -18 19 24 -21 21 -23 -24 -25 25 -27 -28 -29 -30 -31
leaf_value=-4105.1225140762608 2637.9029644450202 16093.438967633929 -885.56345453109066 -2426.8454301313918 53587.081194196435 704.39046303274245 -2365.3575701660657 16859.732812500002 4877.9551565947359 26897.552863281249 1741.3985087855247 46946.424062500002 -1580.1948308683088 -154.89197635370442 14382.710207245433 -3272.526969626098 66378.465719696978 6416.3810921724071 31733.542558593752 421.82056884765626 18419.787084045409 9451.8077572526599 7711.1877140036668 3506.7966233453249 19143.047835937501 26359.143816332551 36019.705342741938 5550.2254167644796 11546.69251326467 9005.5184425045027
leaf_weight=8418 2928 35 12383 22 28 10309 10797 20 2916 25 8540 30 12139 14091 383 6893 33 1611 20 48 20 232 1796 4392 50 53 31 65 801 321
leaf_count=8418 2928 35 12383 22 28 10309 10797 20 2916 25 8540 30 12139 14091 383 6893 33 1611 20 48 20 232 1796 4392 50 53 31 65 801 321
internal_value=0 5854.39 -1111.05 5297.98 34231.1 198.235 -2662.57 9481.78 4010.66 27662.2 1174.23 37179.6 -1949.81 -496.658 11793.7 -3730.29 60507 5372.93 22481.8 6242.94 7830.39 10163.6 7518.15 3159.24 24299.7 22856.2 31947.3 3533.04 10925.5 9466.18
internal_weight=0 15860 83570 15555 305 45323 38247 3660 11895 244 18849 86 22936 26474 1525 15311 61 4575 158 1659 2135 252 1883 7320 123 103 56 87 1142 341
internal_count=99430 15860 83570 15555 305 45323 38247 3660 11895 244 18849 86 22936 26474 1525 15311 61 4575 158 1659 2135 252 1883 7320 123 103 56 87 1142 341
is_linear=0
shrinkage=0.1


Tree=2
num_leaves=31
num_cat=0
split_feature=39 39 39 39 4 39 39 39 42 11 39 39 39 39 30 7 16 39 39 15 32 40 42 39 11 5 17 0 26 42
split_gain=5.23907e+13 2.00654e+13 1.42004e+13 6.47064e+12 4.26421e+12 2.65538e+12 2.41621e+12 1.28621e+12 8.52035e+11 8.20004e+11 3.85098e+11 3.48807e+11 2.83947e+11 2.79718e+11 2.77384e+11 4.19412e+11 2.43061e+11 2.37918e+11 1.73331e+11 1.61801e+11 1.55344e+11 1.51233e+11 1.79752e+11 1.39459e+11 1.26239e+11 1.14066e+11 1.13744e+11 1.09071e+11 1.04197e+11 8.94894e+10
threshold=83862.637362637368 252285.71428571432 43285.71428571429 135483.51648351652 55.950833515000006 61302.197802197807 25796.703296703297 108791.20879120882 189166.66666666669 373000.00000000006 72186.813186813204 52807.692307692312 158895.60439560443 32214.285714285721 408000.00000000006 -54499.999999999993 853000.00000000012 16978.021978021981 96813.186813186825 72500.000000000015 283500.00000000006 157100.00000000003 129500.00000000001 200807.69230769234 71500.000000000015 7.5000000000000009 327500.00000000006 677542.00000000012 91500.000000000015 35833.333333333336
decision_type=2 2 2 2 2 2 2 2 10 8 2 2 2 2 8 8 10 2 2 8 8 10 10 2 8 2 10 2 8 8
left_child=2 3 6 7 9 11 17 18 12 20 -7 -4 24 -8 -11 -16 -6 -1 -2 -10 -3 22 29 -21 28 -17 -22 -23 -5 -9
right_child=1 4 5 8 16 10 13 21 19 14 -12 -13 -14 -15 15 25 -18 -19 -20 23 26 27 -24 -25 -26 -27 -28 -29 -30 -31
leaf_value=-3643.1314323223132 2734.8809995861193 15137.68848505435 -685.99345900926903 -2867.5886643218996 59030.060468750009 801.99421789145163 -2234.3426970563146 -278.50582386363635 20028.078710937501 21930.251965862772 1754.7070325305203 31.187068808374462 9493.9778284173281 -1486.8170680972044 46940.884218749998 24062.287148437503 45744.405208333337 -2843.5880210779187 3742.2642419390718 10666.991378409402 20249.828999779929 -5656.7110305059532 6355.1371256085868 13671.868413628472 7469.0759398133296 33273.899161585367 28341.433933423916 3677.250081905242 5466.96015218099 4959.6728624895177
leaf_weight=9699 5124 46 16226 20 40 10736 7381 33 25 23 7015 11651 912 15555 20 20 21 6039 2562 399 71 21 1210 252 1382 41 23 31 60 2792
leaf_count=9699 5124 46 16226 20 40 10736 7381 33 25 23 7015 11651 912 15555 20 20 21 6039 2562 399 71 21 1210 252 1382 41 23 31 60 2792
internal_value=0 5418.72 -972.389 4896.3 30808 222.493 -2382.12 3832.87 9001.17 24896 1178.5 -386.253 8109.28 -1727.38 31622 34374 54456.3 -3336.33 3070.68 12133.3 19899.5 5266.24 5335.3 11830.2 7245.51 30253.7 22229.7 -92.2342 3383.32 4898.48
internal_weight=0 15128 84302 14823 305 45628 38674 11773 3050 244 17751 27877 2374 22936 104 81 61 15738 7686 676 140 4087 4035 651 1462 61 94 52 80 2825
internal_count=99430 15128 84302 14823 305 45628 38674 11773 3050 244 17751 27877 2374 22936 104 81 61 15738 7686 676 140 4087 4035 651 1462 61 94 52 80 2825
is_linear=0
shrinkage=0.1


Tree=3
num_leaves=31
num_cat=0
split_feature=39 39 39 39 10 39 39 13 39 39 8 39 18 39 39 40 18 18 10 39 18 13 7 30 33 18 42 42 42 36
split_gain=4.24676e+13 1.64269e+13 1.12227e+13 5.57953e+12 2.6035e+12 2.37716e+12 1.56129e+12 1.50931e+12 1.13684e+12 6.77802e+11 4.57217e+11 4.39452e+11 2.54542e+11 2.48195e+11 2.20685e+11 1.90447e+11 1.90179e+11 1.7062e+11 1.65067e+11 1.33141e+11 1.30432e+11 1.3025e+11 1.13736e+11 1.10429e+11 9.75655e+10 9.298e+10 9.28227e+10 9.20192e+10 8.44277e+10 8.42999e+10
threshold=82285.714285714304 252285.71428571432 40736.263736263747 126521.97802197804 392000.00000000006 57725.274725274743 22428.571428571431 573500.00000000012 158895.60439560443 101494.50549450552 -204499.99999999997 67950.549450549457 214500.00000000003 48697.802197802208 30445.054945054948 150483.33333333337 508000.00000000006 173500.00000000003 20500.000000000004 12170.329670329673 119500.00000000001 56500.000000000007 80500.000000000015 303000.00000000006 467000.00000000006 89500.000000000015 146500.00000000003 189166.66666666669 149166.66666666672 59500.000000000007
decision_type=2 2 2 2 10 2 2 8 2 2 10 2 10 2 2 10 10 10 10 2 10 10 10 10 8 10 10 8 10 8
left_child=2 3 6 9 18 13 19 16 17 -2 -9 -7 27 -4 -8 20 24 22 -3 -1 -11 -19 26 -20 -6 -13 -5 -10 -22 -28
right_child=1 4 5 8 7 11 14 10 12 15 -12 25 -14 -15 -16 -17 -18 21 23 -21 28 -23 -24 -25 -26 -27 29 -29 -30 -31
leaf_value=-3511.8467094575885 2516.7211245697258 26639.717569986984 -833.72046554859082 5587.9478868398946 20492.194238281252 470.21280998916939 -2161.1550091176737 61441.240625000006 8303.8726830032283 3791.9274002590337 43043.986071428575 1259.5827200500833 12353.069997749188 -232.18301804475743 -1491.9495045267649 -5170.0998046875002 36572.5683125 15813.763213556464 15858.326842265227 -2866.7891245605533 4749.0633323386865 7820.6531086654113 2644.0384064014142 22149.853745993591 28978.219159226192 2187.1212862470229 13339.73876953125 10074.17772769765 7691.8098501529348 6760.0550990985985
leaf_weight=5185 6954 24 14030 1583 20 12139 7808 22 788 2988 35 8023 269 13420 13359 22 25 22 98 8357 1215 278 104 39 42 1249 20 468 106 738
leaf_count=5185 6954 24 14030 1583 20 12139 7808 22 788 2988 35 8023 269 13420 13359 22 25 22 98 8357 1215 278 104 39 42 1249 20 468 106 738
internal_value=0 4743.99 -900.319 4293.34 27727.2 76.3854 -2275.26 37496.5 7372.27 3128.33 50144.7 866.156 9561.41 -539.635 -1738.8 4110.36 29209.7 6156.09 18989.5 -3113.77 4157.74 8406.81 5879.93 17649.3 26240.8 1384.53 6023.68 8963.51 4985.2 6933.66
internal_weight=0 15860 83570 15555 305 48861 34709 144 4270 11285 57 21411 1525 27450 21167 4331 87 2745 161 13542 4309 300 2445 137 62 9272 2341 1256 1321 758
internal_count=99430 15860 83570 15555 305 48861 34709 144 4270 11285 57 21411 1525 27450 21167 4331 87 2745 161 13542 4309 300 2445 137 62 9272 2341 1256 1321 758
is_linear=0
shrinkage=0.1


Tree=4
num_leaves=31
num_cat=0
split_feature=39 39 39 39 4 39 39 39 10 11 39 12 39 11 39 19 39 10 11 11 25 39 11 10 40 37 10 30 10 24
split_gain=3.45051e+13 1.28397e+13 1.00106e+13 3.83401e+12 2.85546e+12 1.9355e+12 1.70159e+12 8.77279e+11 6.75383e+11 4.41571e+11 3.01607e+11 2.94081e+11 2.63708e+11 2.34998e+11 2.04819e+11 2.04649e+11 1.9405e+11 1.50768e+11 1.28105e+11 1.27618e+11 1.22861e+11 1.1915e+11 1.05314e+11 9.19861e+10 8.71901e+10 8.62789e+10 7.27227e+10 7.15606e+10 6.96626e+10 7.80579e+10
threshold=86967.032967032981 252285.71428571432 45532.967032967041 145791.20879120883 55.950833515000006 27956.043956043959 64796.703296703301 115593.4065934066 392000.00000000006 189500.00000000003 56357.142857142862 497500.00000000006 18461.538461538468 44500.000000000007 37868.131868131873 796500.00000000012 76483.516483516505 236500.00000000003 98500.000000000015 276500.00000000006 92500.000000000015 200807.69230769234 121500.00000000001 240500.00000000003 176166.66666666672 497500.00000000006 206500.00000000003 303000.00000000006 58500.000000000007 165500.00000000003
decision_type=2 2 2 2 2 2 2 2 10 10 2 8 2 8 2 10 2 10 10 10 10 2 8 8 10 8 10 8 10 8
left_child=2 3 5 7 8 12 10 18 19 13 -4 25 -1 20 -7 -6 -8 -15 -2 23 -5 -11 28 -3 26 -10 -24 -21 29 -9
right_child=1 4 6 9 15 14 16 22 11 21 -12 -13 -14 17 -16 -17 -18 -19 -20 27 -22 -23 24 -25 -26 -27 -28 -29 -30 -31
leaf_value=-2915.9110582560834 2376.3710747122764 18247.475069754462 -363.01654319367833 -3483.5094894409181 49467.739154411771 -1526.6494051662019 928.42095979646353 3587.8025683593751 17900.294996279765 8894.8256111886167 307.90961718805391 35237.200520833336 -2141.0380662856824 6956.1996823880618 -946.93324169444531 37806.391550925931 1682.7191280941561 13592.460190429687 3214.0626713989523 14909.444187499999 5424.2342382812503 11536.611177008708 5070.9714889153583 11227.628125000001 -1039.7061650815219 26008.089955357143 9270.9047200520836 21484.278156887754 4158.6123315903042 -2507.3241757336787
leaf_weight=10980 3840 28 17995 32 34 12566 8845 55 21 525 10675 30 7320 1565 11834 27 5551 35 3480 25 30 253 2241 56 23 35 42 49 1204 34
leaf_count=10980 3840 28 17995 32 34 12566 8845 55 21 525 10675 30 7320 1565 11834 27 5551 35 3480 25 30 253 2241 56 23 35 42 49 1204 34
internal_value=0 4667.15 -743.557 4203.96 24954.5 -1828.55 332.214 3403.13 20116.6 7787.7 -113.204 27247.7 -2605.96 6867.29 -1245.49 44306.2 1219.27 7101.37 2774.62 16235.1 826.689 9753.92 4681.46 13567.6 5086.52 22967.7 5148.24 19263.1 3959.05 1259.33
internal_weight=0 13664 85766 13359 305 42700 43066 10919 244 2440 28670 86 18300 1662 24400 61 14396 1600 7320 158 62 778 3599 84 2306 56 2283 74 1293 89
internal_count=99430 13664 85766 13359 305 42700 43066 10919 244 2440 28670 86 18300 1662 24400 61 14396 1600 7320 158 62 778 3599 84 2306 56 2283 74 1293 89
is_linear=0
shrinkage=0.1


Tree=5
num_leaves=31
num_cat=0
split_feature=39 39 39 39 11 39 39 39 11 11 7 1 39 39 11 39 39 11 13 20 18 31 25 11 6 10 39 10 1 32
split_gain=2.79491e+13 1.04002e+13 8.12033e+12 3.10555e+12 2.26873e+12 1.65566e+12 1.3083e+12 7.13759e+11 4.10933e+11 3.6296e+11 3.61002e+11 6.11428e+11 2.63688e+11 2.40791e+11 1.73683e+11 1.58474e+11 1.50521e+11 1.36826e+11 1.35921e+11 1.29121e+11 1.21866e+11 1.03141e+11 9.95176e+10 7.89575e+10 7.2794e+10 8.03483e+10 6.81618e+10 6.36239e+10 6.34253e+10 6.32243e+10
threshold=86967.032967032981 252285.71428571432 45978.021978021985 145791.20879120883 582500.00000000012 28780.219780219784 66554.94505494507 111313.18681318683 339000.00000000006 175500.00000000003 -102499.99999999999 546500.00000000012 56357.142857142862 19703.29670329671 44500.000000000007 37868.131868131873 187060.43956043958 120500.00000000001 223500.00000000003 54500.000000000007 75500.000000000015 344500.00000000006 92500.000000000015 96500.000000000015 3.5000000000000004 279500.00000000006 11060.439560439563 1.0000000180025095e-35 355500.00000000006 149500.00000000003
decision_type=2 2 2 2 8 2 2 2 10 10 8 2 2 2 8 2 2 8 10 8 10 8 10 10 2 10 2 10 2 8
left_child=2 3 5 7 8 13 12 23 18 14 -6 -12 -4 26 22 -7 -11 27 -3 -16 -8 -10 -5 -2 25 -20 -1 29 -23 -9
right_child=1 4 6 9 10 15 20 17 21 16 11 -13 -14 -15 19 -17 -18 -19 24 -21 -22 28 -24 -25 -26 -27 -28 -29 -30 -31
leaf_value=-2950.1705537061225 2067.3273106769789 21277.073632812502 -303.21546845606264 -3135.1584945678715 49008.876413690479 -1346.117342872242 906.5724686900312 3730.4307178986378 16026.771049360796 7309.967863388315 19798.555039062499 42225.073865927421 307.75038244327732 -1888.8570009364767 13005.151728877316 -838.32431923688989 9674.5224085500358 4521.6968242095045 12582.091536458334 6016.1878407328713 1531.1804076045487 18904.147633943106 4881.8108072916666 2759.8307997411612 15489.841283017113 4881.1395312499999 -2434.9611470444784 3514.0611800319757 25213.857812500002 -1690.1857076009114
leaf_weight=3904 3354 20 16897 32 21 11712 7655 39 22 602 20 31 12139 7747 27 12932 487 2586 42 1262 5277 21 30 3234 42 20 7503 1658 66 48
leaf_count=3904 3354 20 16897 32 21 11712 7655 39 22 602 20 31 12139 7747 27 12932 487 2586 42 1262 5277 21 30 3234 42 20 7503 1658 66 48
internal_value=0 4200.43 -669.201 3783.57 22459.1 -1621.69 324.824 3062.82 17664.7 7008.93 37974.1 33430.4 -47.7907 -2319.1 5913.91 -1079.65 8367.39 4059.98 13727.3 6162.58 1161.45 22144 744.02 2407.27 12275.4 10097.9 -2611.29 3375.74 23690.8 739.746
internal_weight=0 13664 85766 13359 305 43798 41968 10919 233 2440 72 51 29036 19154 1351 24644 1089 4331 124 1289 12932 109 62 6588 104 62 11407 1745 87 87
internal_count=99430 13664 85766 13359 305 43798 41968 10919 233 2440 72 51 29036 19154 1351 24644 1089 4331 124 1289 12932 109 62 6588 104 62 11407 1745 87 87
is_linear=0
shrinkage=0.1


Tree=6
num_leaves=31
num_cat=0
split_feature=42 41 42 42 18 9 41 42 18 1 18 1 32 41 11 41 10 1 42 10 25 18 42 10 41 26 10 11 42 9
split_gain=2.06269e+13 6.84785e+12 5.55305e+12 2.75378e+12 1.41138e+12 1.09386e+12 1.02534e+12 9.67905e+11 5.33663e+11 5.24302e+11 4.09423e+11 3.68545e+11 2.83376e+11 2.5376e+11 2.40324e+11 2.3902e+11 2.26666e+11 2.17556e+11 1.84932e+11 1.77556e+11 1.54095e+11 1.51874e+11 1.2807e+11 1.12403e+11 1.10404e+11 1.0846e+11 1.03926e+11 1.00546e+11 1.00446e+11 9.32531e+10
threshold=87833.333333333358 265285.71428571438 46166.666666666679 146500.00000000003 582500.00000000012 259500.00000000003 26071.428571428576 65166.666666666679 110500.00000000001 106500.00000000001 215500.00000000003 286500.00000000006 311500.00000000006 1.0000000180025095e-35 655500.00000000012 37928.571428571435 106500.00000000001 40500.000000000007 5166.666666666667 35500.000000000007 159500.00000000003 76500.000000000015 54833.333333333336 392000.00000000006 14642.857142857143 86500.000000000015 28500.000000000004 61500.000000000007 118833.33333333336 62500.000000000007
decision_type=10 10 8 10 8 10 8 10 10 2 10 2 8 10 10 10 8 2 10 10 8 10 8 10 10 8 10 10 10 10
left_child=2 3 6 8 12 7 13 9 25 17 11 20 -3 -1 -6 26 -11 19 -17 -4 27 -9 -19 -14 -15 -2 -8 -5 -10 -30
right_child=1 4 5 10 14 -7 15 21 28 16 -12 -13 23 24 -16 18 -18 22 -20 -21 -22 -23 -24 -25 -26 -27 -28 -29 29 -31
leaf_value=1028.5164691197053 1387.9713174408173 10208.611657492898 -1565.0938855162658 -251.52628826762358 25639.637828480118 21552.549650065106 -1663.3346415007004 632.35147291121166 3065.3616177502154 533.68734205612031 9412.6465945301879 18911.259563337055 15199.126092918885 -2410.6369892318867 38772.859231085531 4983.7151765522212 3781.2349176780212 -345.74033505974654 -725.63511483151638 -330.62313819897889 6176.8932540044761 1312.7118999249899 121.72080465015875 21578.153926655785 -1862.8757873683539 2321.9474834785974 -1101.4933332249727 4725.0038086257582 9855.5066598074773 4039.6480209580109
leaf_weight=262 1616 55 1897 43 22 24 5104 9450 1731 396 345 21 47 6726 38 57 470 10184 12127 3020 1555 5026 13806 67 8124 5392 9275 727 28 1795
leaf_count=262 1616 55 1897 43 22 24 5104 9450 1731 396 345 21 47 6726 38 57 470 10184 12127 3020 1555 5026 13806 67 8124 5392 9275 727 28 1795
internal_value=0 3636.63 -570.45 3340.38 20781.7 209.409 -1398.92 197.833 2612.78 -128.287 6196.15 5723.13 16104 -2056.54 33957.3 -1024.8 2296.21 -200.92 -698.925 -806.887 5604.01 868.569 -76.7212 18948.2 -2110.97 2106.58 -1300.93 4447.09 3610.94 4128.98
internal_weight=0 13482 85948 13253 229 44273 41675 44249 10562 29773 2691 2346 169 15112 60 26563 866 28907 12184 4917 2325 14476 23990 114 14850 7008 14379 770 3554 1823
internal_count=99430 13482 85948 13253 229 44273 41675 44249 10562 29773 2691 2346 169 15112 60 26563 866 28907 12184 4917 2325 14476 23990 114 14850 7008 14379 770 3554 1823
is_linear=0
shrinkage=0.1


Tree=7
num_leaves=31
num_cat=0
split_feature=39 39 39 39 11 39 39 11 39 4 1 1 40 39 39 39 39 13 41 39 40 18 18 18 11 18 26 36 25 8
split_gain=1.87434e+13 7.5119e+12 4.28337e+12 3.06463e+12 1.56708e+12 7.40743e+11 6.74434e+11 5.52552e+11 4.57907e+11 2.67878e+11 1.74343e+11 1.5479e+11 1.46475e+11 1.27422e+11 1.23834e+11 1.15201e+11 1.13709e+11 9.95101e+10 9.62608e+10 8.6126e+10 8.56332e+10 8.32856e+10 8.2097e+10 7.91622e+10 7.83464e+10 6.95382e+10 1.09364e+11 8.85702e+10 8.06964e+10 6.2368e+10
threshold=76483.516483516505 252285.71428571432 40428.571428571442 126521.97802197804 582500.00000000012 55186.813186813197 20576.923076923082 175500.00000000003 98329.670329670349 55.937786545000009 590500.00000000012 846500.00000000012 150483.33333333337 187060.43956043958 158895.60439560443 29983.516483516487 64796.703296703301 223500.00000000003 130214.28571428572 47291.208791208795 129616.66666666667 109500.00000000001 122500.00000000001 88500.000000000015 313500.00000000006 76500.000000000015 42500.000000000007 108500.00000000001 78500.000000000015 -293499.99999999994
decision_type=2 2 2 2 8 2 2 10 2 2 2 2 10 2 2 2 2 10 8 2 8 8 10 10 10 8 8 10 8 8
left_child=2 3 6 8 9 19 -1 14 23 17 -6 -12 22 18 25 -8 -7 -3 -9 -4 -16 -22 -10 -2 -19 28 27 -27 -5 -20
right_child=1 4 5 7 10 16 15 13 12 -11 11 -13 -14 -15 20 -17 -18 24 29 -21 21 -23 -24 -25 -26 26 -28 -29 -30 -31
leaf_value=-2112.2521831765939 1239.2409001802944 17297.568159484865 -599.66714315477748 -2805.6966651916505 24915.742339409724 198.10526409996532 -1472.5710889850436 11627.31712123326 2445.0375859258324 19840.459629751353 40566.27057291667 28810.202883184527 -5506.0619495738647 7962.4256053885401 11740.228236607145 -1003.7611504158357 669.02129657206262 9355.4897718793891 2003.1162841796877 -227.54495429921272 -795.16652832031252 5475.8772932385646 3390.9821065874239 1834.4351182210016 14402.510020154587 13744.3037109375 3885.7615048028551 5261.1871429443363 3136.0772201538089 5890.9497534658403
leaf_weight=12261 6025 32 12200 32 27 12200 8601 28 3835 65 24 21 22 487 21 13420 8845 89 44 12688 22 567 1206 3552 47 20 2274 32 80 663
leaf_count=12261 6025 32 12200 32 27 12200 8601 28 3835 65 24 21 22 487 21 13420 8845 89 44 12688 22 567 1206 3552 47 20 2274 32 80 663
internal_value=0 2805.26 -671.982 2554.15 18373.9 -40.6821 -1517.83 4911.37 1866.63 14389.3 31268.5 35080.1 2635.81 6707.94 4191.09 -1186.87 396.026 12280.2 5876.74 -409.958 5465.37 5241.64 2671.34 1459.99 11099.7 3872.26 3989.45 8523.92 1438.43 5648.99
internal_weight=0 19215 80215 18910 305 45933 34282 4270 14640 233 72 45 5063 1222 3048 22021 21045 168 735 24888 610 589 5041 9577 136 2438 2326 52 112 707
internal_count=99430 19215 80215 18910 305 45933 34282 4270 14640 233 72 45 5063 1222 3048 22021 21045 168 735 24888 610 589 5041 9577 136 2438 2326 52 112 707
is_linear=0
shrinkage=0.1


Tree=8
num_leaves=31
num_cat=0
split_feature=42 41 42 42 18 9 42 18 41 18 32 9 41 18 25 11 29 2 18 42 42 18 18 9 32 32 42 21 9 18
split_gain=1.36426e+13 4.697e+12 3.1296e+12 2.26266e+12 9.63997e+11 9.61384e+11 6.10229e+11 4.85495e+11 4.2808e+11 3.24658e+11 2.28773e+11 2.23373e+11 1.7649e+11 1.54399e+11 1.44252e+11 1.63863e+11 1.29706e+11 1.28685e+11 1.28618e+11 1.13393e+11 1.07699e+11 9.55464e+10 9.53844e+10 9.37862e+10 8.50082e+10 8.29117e+10 8.11701e+10 7.50459e+10 7.40197e+10 7.34986e+10
threshold=80500.000000000015 265285.71428571438 40500.000000000007 144166.66666666672 582500.00000000012 259500.00000000003 58166.666666666679 101500.00000000001 23500.000000000004 215500.00000000003 311500.00000000006 175500.00000000003 1.0000000180025095e-35 55500.000000000007 168500.00000000003 373000.00000000006 634000.00000000012 689500.00000000012 65500.000000000007 116166.66666666667 5166.666666666667 14500.000000000002 55500.000000000007 435500.00000000006 525500.00000000012 82500.000000000015 102166.66666666667 418500.00000000006 80500.000000000015 70500.000000000015
decision_type=10 10 8 10 10 10 10 10 10 10 8 10 8 10 8 10 10 2 8 10 10 8 10 10 8 8 10 10 10 10
left_child=2 3 8 7 10 6 11 25 12 14 -3 17 -1 -10 29 -16 -6 22 -8 -9 -15 -14 -4 24 -12 -2 -27 -25 -21 -5
right_child=1 4 5 9 16 -7 18 19 13 -11 23 -13 21 20 15 -17 -18 -19 -20 28 -22 -23 -24 27 -26 26 -28 -29 -30 -31
leaf_value=906.75010873925612 834.62380985697405 8022.4776713423307 -434.41349537146402 554.82498749209128 23349.640357555043 21365.328004092265 107.18046205139811 2230.6947152703706 -1027.9291881049483 7790.0910922561088 16723.987985131051 5995.7084263392862 -2005.7650634808674 3791.7665575358074 5058.2946738307301 13389.771051025391 33610.299888392859 1785.3594069687636 630.4993417664349 6839.6565829806859 -114.49618797204731 -1497.7893498480375 12.664420364540165 23212.705965909092 9318.3155619959689 1358.1902773184047 2137.754951073724 15941.305279541017 3090.5673235968197 3885.9788536618671
leaf_weight=262 1958 55 24106 71 22 21 8219 2927 16272 353 31 56 6380 75 1441 24 28 286 10958 54 1198 8824 5950 22 31 4804 1850 40 2125 987
leaf_count=262 1958 55 24106 71 22 21 8219 2927 16272 353 31 56 6380 75 1441 24 28 286 10958 54 1198 8824 5950 22 31 4804 1850 40 2125 987
internal_value=0 2595.65 -528.607 2399.36 16819.5 -26.4466 -35.5082 1864.69 -1283.06 4949.62 13390.4 -314.173 -1666.6 -944.956 4552.2 5194.78 29095.6 -325.819 406.212 2637.3 115.645 -1710.95 -345.908 15771.3 13021.2 1406.62 1574.93 18521.5 3183.48 3662.43
internal_weight=0 16823 82607 16594 229 49596 49575 13718 33011 2876 179 30398 15466 17545 2523 1465 50 30342 19177 5106 1273 15204 30056 124 62 8612 6654 62 2179 1058
internal_count=99430 16823 82607 16594 229 49596 49575 13718 33011 2876 179 30398 15466 17545 2523 1465 50 30342 19177 5106 1273 15204 30056 124 62 8612 6654 62 2179 1058
is_linear=0
shrinkage=0.1


Tree=9
num_leaves=31
num_cat=0
split_feature=39 39 39 39 4 39 39 18 39 12 35 12 40 17 39 42 17 9 40 32 32 39 39 24 18 24 12 32 18 17
split_gain=1.25634e+13 5.02096e+12 2.94417e+12 2.01333e+12 1.05521e+12 5.2124e+11 4.55715e+11 3.74568e+11 2.81804e+11 2.50087e+11 1.76442e+11 1.59342e+11 1.26984e+11 1.05126e+11 1.03228e+11 1.0022e+11 9.72225e+10 9.32379e+10 8.49915e+10 7.45445e+10 7.18705e+10 6.81465e+10 6.26092e+10 6.10143e+10 5.5364e+10 5.42824e+10 4.91428e+10 5.35523e+10 4.78107e+10 4.78305e+10
threshold=76895.604395604416 252285.71428571432 40428.571428571442 126521.97802197804 55.950833515000006 54247.252747252758 22428.571428571431 172500.00000000003 98329.670329670349 29500.000000000004 561500.00000000012 294000.00000000006 150483.33333333337 219500.00000000003 67423.076923076951 173500.00000000003 276500.00000000006 197500.00000000003 121683.33333333336 110500.00000000001 283500.00000000006 31840.659340659342 11302.197802197805 107500.00000000001 143500.00000000003 255500.00000000003 153500.00000000003 247500.00000000003 70500.000000000015 202500.00000000003
decision_type=2 2 2 2 2 2 2 10 2 10 10 10 10 10 2 8 8 10 8 10 10 2 2 8 10 10 10 10 8 10
left_child=2 3 6 8 9 -4 22 15 28 -3 -6 20 24 25 -7 17 -13 18 19 -5 -11 -8 -1 -17 -10 26 -9 -28 29 -2
right_child=1 4 5 7 10 14 21 13 12 11 -12 16 -14 -15 -16 23 -18 -19 -20 -21 -22 -23 -24 -25 -26 -27 27 -29 -30 -31
leaf_value=-2009.999226398772 554.50168720697059 20505.659058404737 -356.52762309214307 3746.1686253209273 32468.10736799569 173.31396742303809 -1154.6158195141966 3624.8173717906175 2078.2753312905184 5706.8532030449542 21698.710998535156 7205.9565790591041 -5435.4951349431822 7587.7710532957808 632.09032366726956 9486.2463684082031 14378.303822413032 -28.311343139476993 3136.8837893966916 9059.2317382812507 12266.587071161686 -789.54784895516764 -1548.9863246114696 4350.1993214466729 3274.8556452493535 10015.709161931818 5208.7781849937173 9828.9556941105766 1308.1806377838184 4469.4665771484379
leaf_weight=4331 1259 31 23302 62 29 15982 9150 206 4619 61 32 23 22 207 7076 24 106 89 2235 46 23 11590 9211 638 422 22 715 26 7859 32
leaf_count=4331 1259 31 23302 62 29 15982 9150 206 4619 61 32 23 22 207 7076 24 106 89 2235 46 23 11590 9211 638 422 22 715 26 7859 32
internal_value=0 2328.82 -542.569 2118.82 15054.7 -22.9774 -1245.22 4022.96 1546.76 12113.8 26818.6 10892.4 2145.36 5542.14 314.102 3445.54 13099.5 3148.6 3269.28 6009.14 7502.97 -950.607 -1696.43 4536.4 2178.45 5105.15 4991.07 5370.89 1215.53 651.542
internal_weight=0 18788 80642 18483 305 46360 34282 4270 14213 244 61 213 5063 1176 23058 3094 129 2432 2343 108 84 20740 13542 662 5041 969 947 741 9150 1291
internal_count=99430 18788 80642 18483 305 46360 34282 4270 14213 244 61 213 5063 1176 23058 3094 129 2432 2343 108 84 20740 13542 662 5041 969 947 741 9150 1291
is_linear=0
shrinkage=0.1


Tree=10
num_leaves=31
num_cat=0
split_feature=39 39 39 39 13 39 39 10 25 39 39 17 10 25 8 27 20 10 24 7 39 39 25 24 12 40 25 12 28 24
split_gain=1.01846e+13 4.14702e+12 2.21243e+12 1.78864e+12 7.63321e+11 4.80791e+11 4.01098e+11 2.97531e+11 3.71671e+11 2.44196e+11 1.92324e+11 1.81077e+11 9.68019e+10 9.51414e+10 9.31639e+10 7.97994e+10 1.51618e+11 7.72324e+10 7.20401e+10 7.43861e+10 6.97219e+10 6.96369e+10 6.53194e+10 7.0084e+10 6.32835e+10 6.14268e+10 6.3444e+10 5.98849e+10 5.57144e+10 4.89432e+10
threshold=73714.285714285725 252285.71428571432 36390.109890109896 120565.93406593408 646000.00000000012 53780.219780219784 158895.60439560443 392000.00000000006 867500.00000000012 20236.26373626374 93934.065934065948 381000.00000000006 230500.00000000003 483500.00000000006 100500.00000000001 57500.000000000007 95500.000000000015 1.0000000180025095e-35 321500.00000000006 5500.0000000000009 61923.076923076929 45978.021978021985 100500.00000000001 149500.00000000003 248500.00000000003 126983.33333333336 151500.00000000003 448500.00000000006 37500.000000000007 505500.00000000006
decision_type=2 2 2 2 8 2 2 10 8 2 2 10 8 8 10 8 10 8 8 10 2 2 10 8 10 8 8 10 8 10
left_child=2 3 9 10 11 21 15 -6 -9 -1 28 14 24 27 18 16 -5 22 -3 -20 -7 -4 -17 -24 25 -8 -27 -13 -2 -15
right_child=1 4 5 6 7 20 12 8 -10 -11 -12 13 -14 29 -16 17 -18 -19 19 -21 -22 -23 23 -25 -26 26 -28 -29 -30 -31
leaf_value=-1573.6845560219235 2195.6280465104846 7699.3521443111795 -538.02434934372684 10487.975688601764 12293.994093627931 48.746003990867791 9773.5621386718758 16056.90796875 33542.037663810486 -977.72310048958468 1717.5836538696292 6746.8409863281258 6659.7051413206927 14212.283300781251 2874.944091796875 -2466.1608551623776 2913.9123396710656 2829.1612560333874 16641.080712890627 8682.6877802309791 402.66572669381776 -222.34686026507322 4563.2908089192706 -2222.3958135190219 7870.0120883118871 1883.6270307908367 4410.9816377532388 14392.692726934525 927.53118160679685 20418.741601562502
leaf_weight=11834 360 71 15555 39 20 11163 20 20 31 16409 5490 20 226 27 24 51 82 3542 24 23 11102 12688 45 23 51 109 1119 21 9217 24
leaf_count=11834 360 71 15555 39 20 11163 20 20 31 16409 5490 20 226 27 24 51 82 3542 24 23 11102 12688 45 23 51 109 1119 21 9217 24
internal_value=0 1975.05 -518.622 1801.78 13549.3 -122.269 3380.53 22631.3 26685.1 -1227.43 1245.7 10793.6 4749.6 14249.6 8554.51 2828.48 5355.14 2744.97 9709.68 12746.5 225.221 -396.208 239.149 2268.13 4417.28 4276.18 4186.65 10663 975.199 17133
internal_weight=0 20679 78751 20374 305 50508 5307 71 51 28243 15067 234 1525 92 142 3782 121 3661 118 47 22265 28243 119 68 1299 1248 1228 41 9577 51
internal_count=99430 20679 78751 20374 305 50508 5307 71 51 28243 15067 234 1525 92 142 3782 121 3661 118 47 22265 28243 119 68 1299 1248 1228 41 9577 51
is_linear=0
shrinkage=0.1


Tree=11
num_leaves=31
num_cat=0
split_feature=42 41 42 42 9 4 41 42 42 41 9 5 41 31 9 42 17 36 2 11 14 11 13 11 11 24 26 9 9 8
split_gain=7.33112e+12 2.49772e+12 1.65747e+12 1.24603e+12 5.99231e+11 5.03293e+11 2.86099e+11 2.60768e+11 2.17687e+11 1.86163e+11 1.24749e+11 1.1619e+11 1.11498e+11 1.06054e+11 8.15699e+10 8.55751e+10 7.28697e+10 8.73992e+10 6.79042e+10 6.50151e+10 6.30007e+10 5.90086e+10 6.27828e+10 5.54733e+10 5.15705e+10 4.92845e+10 4.85517e+10 5.27519e+10 4.82117e+10 5.18576e+10
threshold=80500.000000000015 265285.71428571438 43500.000000000007 136166.66666666672 259500.00000000003 55.950833515000006 23500.000000000004 59833.333333333336 189166.66666666669 109214.28571428572 175500.00000000003 14.500000000000002 1.0000000180025095e-35 344500.00000000006 1.0000000180025095e-35 31833.333333333339 42500.000000000007 85500.000000000015 696500.00000000012 130500.00000000001 61500.000000000007 85500.000000000015 212500.00000000003 289500.00000000006 222500.00000000003 221500.00000000003 45500.000000000007 115500.00000000001 281500.00000000006 -422499.99999999994
decision_type=10 10 8 10 10 2 8 10 10 10 10 2 10 8 10 10 8 8 2 10 10 10 10 10 10 10 8 10 10 8
left_child=2 3 6 9 7 13 12 10 19 21 18 -7 -1 -3 20 -16 -10 -18 26 25 -8 -2 -23 -21 -19 -5 -4 -28 29 -26
right_child=1 5 4 8 -6 11 14 -9 16 -11 -12 -13 -14 -15 15 -17 17 24 -20 23 -22 22 -24 -25 28 -27 27 -29 -30 -31
leaf_value=788.88463228240278 737.97050416575985 6761.0267191847715 -469.04555063643579 2092.9362889336921 16909.142178199407 26529.405861700154 -423.06477591936948 319.43106995459294 -947.65744163876479 1985.475057716101 4497.7209086100256 17014.268747040722 -1294.8100392422948 11753.552343271294 -1008.3674768984483 -592.35537902748536 11385.773581659227 4187.5529385297732 1389.9340225839087 3152.2661678764498 742.65702697753909 1246.78976854035 6597.4128344795918 7481.0291418838506 1158.3244526367187 -2881.8912190755209 -151.08892527651582 1358.3514956726988 10366.921004971591 5927.5262576070072
leaf_weight=262 3092 73 5420 385 21 21 1838 17184 21 3124 57 33 12945 102 7571 14254 21 468 271 2245 620 6859 22 30 25 21 21930 234 22 259
leaf_count=262 3092 73 5420 385 21 21 1838 17184 21 3124 57 33 12945 102 7571 14254 21 468 271 2245 620 6859 22 30 25 21 21930 234 22 259
internal_value=0 1902.76 -387.498 1759.62 20.8233 12275.1 -878.889 12.9589 3436.59 1311.85 -175.72 20714.6 -1253.47 9670.96 -675.161 -736.668 4866.71 5020.3 -185.284 3001.32 -129.026 1100.84 1263.9 3209.35 4847.59 1835.62 -200.76 -135.153 5857.06 5507.7
internal_weight=0 16823 82607 16594 45117 229 37490 45096 3497 13097 27912 54 13207 175 24283 21825 816 795 27855 2681 2458 9973 6881 2275 774 406 27584 22164 306 284
internal_count=99430 16823 82607 16594 45117 229 37490 45096 3497 13097 27912 54 13207 175 24283 21825 816 795 27855 2681 2458 9973 6881 2275 774 406 27584 22164 306 284
is_linear=0
shrinkage=0.1


Tree=12
num_leaves=31
num_cat=0
split_feature=10 9 10 11 11 11 11 18 10 1 7 18 22 12 10 10 1 41 18 18 32 18 24 8 25 2 1 40 11 6
split_gain=5.67082e+12 2.34949e+12 1.2766e+12 1.19863e+12 7.7087e+11 3.19276e+11 2.83465e+11 2.76258e+11 2.57878e+11 1.86436e+11 1.77717e+11 1.56049e+11 1.42202e+11 1.31698e+11 1.24899e+11 8.87297e+10 9.19937e+10 8.84044e+10 9.82807e+10 8.81268e+10 8.28262e+10 7.72751e+10 7.35958e+10 6.74258e+10 6.7089e+10 6.52953e+10 6.42152e+10 6.29503e+10 6.18727e+10 6.09116e+10
threshold=78500.000000000015 286500.00000000006 38500.000000000007 137500.00000000003 655500.00000000012 58500.000000000007 85500.000000000015 32500.000000000004 189500.00000000003 135500.00000000003 -65499.999999999993 100500.00000000001 297500.00000000006 21500.000000000004 336500.00000000006 111500.00000000001 1.0000000180025095e-35 1.0000000180025095e-35 15500.000000000002 250500.00000000003 327500.00000000006 68500.000000000015 94500.000000000015 80500.000000000015 62500.000000000007 724000.00000000012 51500.000000000007 56850.000000000007 135500.00000000003 1.5000000000000002
decision_type=10 10 8 10 8 10 8 10 10 2 10 10 10 10 10 10 2 8 8 10 8 10 8 8 8 2 2 10 10 2
left_child=2 3 7 6 14 9 19 17 13 26 -6 27 29 -5 23 -8 22 -1 -19 21 -16 -2 -17 -3 -7 -11 -4 -9 -20 -10
right_child=1 4 5 8 10 24 15 11 12 25 -12 -13 -14 -15 20 16 -18 18 28 -21 -22 -23 -24 -25 -26 -27 -28 -29 -30 -31
leaf_value=945.0912767861106 143.45062819559323 7409.149371512277 -373.88760673630981 666.14915459526912 29925.888211059573 12.618848914947186 1179.1493085741515 -555.79886073528257 5806.7997490033713 1950.6520302684037 17909.436050415039 1443.0055247441176 12707.420917038691 2839.1070019522244 4919.9681547619048 9378.9654758029519 1751.754409714905 -1328.3341508890167 -909.7930866867448 7181.3936335754397 11925.110457167515 825.51380665733768 3108.1930085729382 241.71960013253349 438.25533348475341 6893.1967048891138 -76.116721278381902 688.56366365728252 3492.6205322265628 3863.8597523426347
leaf_weight=220 2904 35 18537 315 20 5426 5689 8900 219 194 32 433 21 2435 21 27 2993 8846 13443 20 86 3881 61 21 11663 31 11886 426 32 613
leaf_count=220 2904 35 18537 315 20 5426 5689 8900 219 194 32 433 21 2435 21 27 2993 8846 13443 20 86 3881 61 21 11663 31 11886 426 32 613
internal_value=0 1534.22 -371.742 1417.68 11929.7 -43.2269 1037.43 -857.262 3061.38 -236.34 22531.1 -412.794 4580.41 2590.2 8547.7 1413.23 1845.45 -1049.69 -1069.35 553.127 10550.3 533.589 5032.18 4721.36 303.11 2631.62 -257.551 -498.958 -899.338 4375.28
internal_weight=0 19393 80037 19178 215 47737 15575 32300 3603 30648 52 9759 853 2750 163 8770 3081 22541 22321 6805 107 6785 88 56 17089 225 30423 9326 13475 832
internal_count=99430 19393 80037 19178 215 47737 15575 32300 3603 30648 52 9759 853 2750 163 8770 3081 22541 22321 6805 107 6785 88 56 17089 225 30423 9326 13475 832
is_linear=0
shrinkage=0.1


Tree=13
num_leaves=31
num_cat=0
split_feature=39 39 39 39 11 39 7 16 18 39 39 40 31 11 13 35 40 11 5 8 19 18 39 40 25 0 6 24 31 17
split_gain=5.69019e+12 2.29927e+12 1.24871e+12 1.01635e+12 5.38386e+11 2.31348e+11 2.11759e+11 2.01954e+11 1.79374e+11 1.73986e+11 1.65136e+11 1.02348e+11 9.15606e+10 8.46667e+10 7.9808e+10 6.93832e+10 6.11975e+10 6.57553e+10 5.98537e+10 7.51315e+10 7.44262e+10 5.59392e+10 5.58554e+10 5.50819e+10 5.49543e+10 5.45247e+10 5.88386e+10 5.4398e+10 6.46256e+10 4.96474e+10
threshold=73714.285714285725 252285.71428571432 37868.131868131873 128813.18681318681 655500.00000000012 51351.648351648357 -70499.999999999985 967000.00000000012 172500.00000000003 20576.923076923082 95675.824175824164 150483.33333333337 265500.00000000006 339000.00000000006 223500.00000000003 52500.000000000007 121683.33333333336 178500.00000000003 18.500000000000004 22500.000000000004 477500.00000000006 80500.000000000015 61923.076923076929 13783.333333333334 85500.000000000015 683753.00000000012 2.5000000000000004 182500.00000000003 158500.00000000003 212500.00000000003
decision_type=2 2 2 2 8 2 8 8 10 2 2 10 10 10 10 8 8 8 2 10 10 8 2 8 8 2 2 10 10 10
left_child=2 3 9 10 13 23 -6 -8 16 -1 -2 15 29 14 -3 25 -5 24 19 -15 -20 27 -7 -4 -18 -12 -27 28 -17 -10
right_child=1 4 5 8 6 22 7 -9 12 -11 11 -13 -14 18 -16 21 17 -19 20 -21 -22 -23 -24 -25 -26 26 -28 -29 -30 -31
leaf_value=-1176.0904077820303 756.04778589970101 11946.46117416382 3304.2260753813775 4968.1397820132906 26933.299162597657 6.0314034302680595 21231.486002604168 7190.641018066407 3343.4768844019632 -690.89164942442972 2148.4003217866152 -2962.8208565190157 9034.0842122395825 9225.0939081101187 5048.7917366027832 290.40003071765739 -362.53098754882814 3200.2536027261931 10324.353182983399 16065.065504807695 2548.0235595703125 1483.9603866901784 299.90340840255135 -320.77974580610919 2122.9313255902671 10227.859861061792 3201.1233811598559 -3629.7057655103281 6136.3559582519538 4989.0845850451242
leaf_weight=12261 10309 20 42 87 20 15494 21 20 874 18605 79 53 33 42 104 347 93 599 32 26 20 5520 11102 21247 2047 22 26 33 20 232
leaf_count=12261 10309 20 42 87 20 15494 21 20 874 18605 79 53 33 42 104 347 93 599 32 26 20 5520 11102 21247 2047 22 26 33 20 232
internal_value=0 1476.28 -387.651 1347.26 10094.5 -67.9514 18497.4 14382.3 2784.08 -883.629 1000.07 1412.48 3843.54 7993.81 6161.32 1450.83 2357.08 2274.14 9887.38 11840.4 7333.46 1401.21 128.703 -313.628 2014.92 3763.51 6421.71 259.289 608.981 3688.67
internal_weight=0 20679 78751 20374 305 47885 61 41 3965 30866 16409 6100 1139 244 124 6047 2826 2739 120 68 52 5920 26596 21289 2140 127 48 400 367 1106
internal_count=99430 20679 78751 20374 305 47885 61 41 3965 30866 16409 6100 1139 244 124 6047 2826 2739 120 68 52 5920 26596 21289 2140 127 48 400 367 1106
is_linear=0
shrinkage=0.1


Tree=14
num_leaves=31
num_cat=0
split_feature=39 39 39 39 1 39 39 10 8 5 39 18 40 12 9 31 35 12 42 39 40 18 10 25 22 40 16 40 10 38
split_gain=4.61548e+12 1.82557e+12 1.09724e+12 7.55791e+11 3.99503e+11 1.89708e+11 1.74891e+11 1.68303e+11 2.60139e+11 1.63201e+11 1.46642e+11 1.14538e+11 9.13745e+10 8.17231e+10 8.78588e+10 7.38387e+10 6.6504e+10 8.19798e+10 5.5523e+10 5.51364e+10 5.07354e+10 4.96998e+10 4.83176e+10 5.87852e+10 5.97929e+10 4.59614e+10 4.44957e+10 4.37271e+10 4.31825e+10 4.6078e+10
threshold=76895.604395604416 252285.71428571432 40428.571428571442 133060.43956043958 672500.00000000012 59532.967032967041 26681.318681318684 392000.00000000006 -153499.99999999997 13.500000000000002 105175.82417582419 172500.00000000003 150483.33333333337 497500.00000000006 220500.00000000003 265500.00000000006 52500.000000000007 85500.000000000015 19166.666666666668 10005.494505494507 126983.33333333336 50500.000000000007 163500.00000000003 72500.000000000015 107500.00000000001 69016.666666666672 489000.00000000006 47250.000000000007 54500.000000000007 152500.00000000003
decision_type=2 2 2 2 2 2 2 10 10 2 2 10 10 8 10 10 8 10 8 2 8 10 8 8 8 10 8 10 8 8
left_child=2 3 6 10 7 21 19 13 -9 -6 -2 20 16 14 -3 -13 17 -12 -7 -1 -5 -4 -22 -24 -25 -23 -10 -8 29 -18
right_child=1 4 5 11 9 18 27 8 26 -11 12 15 -14 -15 -16 -17 28 -19 -20 -21 22 25 23 24 -26 -27 -28 -29 -30 -31
leaf_value=-1375.1448643288536 780.72375165758922 12194.489126864348 -260.32691208676681 4703.4833525085451 24121.347693452382 2582.2847948092858 -529.89427557148349 20938.121464843753 10575.804628906251 12268.739353590747 8321.2403296685989 3328.8226975072557 -2666.5387272097032 -159.89030623002486 5287.1791041551442 8130.6759440104179 1703.7349468475732 2170.5345400386391 252.97549328759629 -904.51734258186389 1772.2379908918717 10.73809620053126 -2605.2859417724612 7509.2092809606474 2720.8760582329719 -4198.3191293569716 5887.8912728658543 -3234.0869596354169 1514.8618658222122 -1576.1668015008224
leaf_weight=3050 10614 22 18540 80 21 103 17630 20 40 26 31 1082 53 22 113 33 78 72 15818 13542 1349 11873 20 27 764 26 41 60 4185 95
leaf_count=3050 10614 22 18540 80 21 103 17630 20 40 26 31 1082 53 22 113 33 78 72 15818 13542 1349 11873 20 27 764 26 41 60 4185 95
internal_value=0 1411.53 -328.859 1284.9 9085.07 -11.6605 -757.81 7540.35 10724.7 17564.6 983.763 2642.78 1461.18 5491.8 6412.81 3470.94 1510.22 4021.72 268.045 -991.03 2230.54 -157.959 2138.95 2748.94 2884.32 1.54106 8202.91 -539.066 1450.86 -97.3672
internal_weight=0 18788 80642 18483 305 46360 34282 258 101 47 15128 3355 4514 157 135 1115 4461 103 15921 16592 2240 30439 2160 811 791 11899 81 17690 4358 173
internal_count=99430 18788 80642 18483 305 46360 34282 258 101 47 15128 3355 4514 157 135 1115 4461 103 15921 16592 2240 30439 2160 811 791 11899 81 17690 4358 173
is_linear=0
shrinkage=0.1


Tree=15
num_leaves=31
num_cat=0
split_feature=39 39 39 39 14 10 26 39 39 18 32 31 32 0 32 39 39 40 40 26 10 38 40 41 18 0 32 18 23 7
split_gain=3.75138e+12 1.36526e+12 1.14771e+12 4.55606e+11 3.83905e+11 3.33518e+11 3.05709e+11 2.57609e+11 1.70893e+11 8.96695e+10 7.94827e+10 9.99417e+10 6.19542e+10 6.15263e+10 6.81576e+10 5.86737e+10 5.80822e+10 5.80446e+10 5.50225e+10 4.32217e+10 4.31104e+10 4.12814e+10 4.00599e+10 3.91549e+10 4.10925e+10 3.90724e+10 3.9016e+10 3.84014e+10 3.83363e+10 3.78659e+10
threshold=87912.087912087925 252285.71428571432 46631.868131868141 145791.20879120883 788000.00000000012 392000.00000000006 967000.00000000012 29296.703296703301 67664.835164835167 119500.00000000001 25500.000000000004 265500.00000000006 164500.00000000003 634541.00000000012 504500.00000000006 187060.43956043958 13247.252747252749 157100.00000000003 126983.33333333336 292500.00000000006 173500.00000000003 158500.00000000003 13783.333333333334 83071.428571428594 70500.000000000015 677511.00000000012 81500.000000000015 59500.000000000007 532500.00000000012 45500.000000000007
decision_type=2 2 2 2 8 10 8 2 2 10 8 10 8 2 10 2 2 10 8 10 10 10 8 10 10 2 8 10 8 10
left_child=2 3 7 9 12 -6 -7 16 23 26 -5 15 -3 19 28 18 -1 20 -12 -14 -11 -22 -9 27 -25 -19 -2 -4 -15 -24
right_child=1 4 8 10 5 6 -8 22 -10 17 11 -13 13 14 -16 -17 -18 25 -20 -21 21 -23 29 24 -26 -27 -28 -29 -30 -31
leaf_value=-1109.163786490559 181.50059232821053 1052.7436352539062 -66.298730017562193 -2391.7910414911089 5310.6318892045456 11897.374272460938 29381.919127197267 2747.6010158631861 457.15809928569246 1574.1732464780198 5966.2554330221037 8087.5258457857026 4001.3879234603687 8687.1473632812504 4016.4623291015628 3502.5691789327302 -741.08644819636061 -5087.3039648437507 2260.3621207137462 7692.7488239792165 2649.617501546224 7486.2296882820128 -355.8663462677174 -427.70627417626321 -4316.2308412097755 349.12618204752607 1014.0346548067778 178.60926404293619 13636.153776041667 -981.6388854810001
leaf_weight=6222 611 20 18691 31 22 20 20 41 12200 2561 41 34 79 45 22 579 13786 20 1755 53 150 20 24328 77 42 39 7152 9738 24 1007
leaf_count=6222 611 20 18691 31 22 20 20 41 12200 2561 41 34 79 45 22 579 13786 20 1755 53 150 20 24328 77 42 39 7152 9738 24 1007
internal_value=0 1563.24 -241.35 1408 8176.56 15200.3 20639.6 -587.238 143.89 1123.26 2639.5 2704.24 6384.49 6862.68 8863.2 2627.17 -855.55 1609.5 2344.96 5483.53 1676.54 3218.63 -375.685 10.0144 -1800.13 -1493.73 948.509 17.5915 10408.5 -380.739
internal_weight=0 13298 86132 12993 305 62 40 45384 40748 10553 2440 2409 243 223 91 2375 20008 2790 1796 132 2731 170 25376 28548 119 59 7763 28429 69 25335
internal_count=99430 13298 86132 12993 305 62 40 45384 40748 10553 2440 2409 243 223 91 2375 20008 2790 1796 132 2731 170 25376 28548 119 59 7763 28429 69 25335
is_linear=0
shrinkage=0.1


Tree=16
num_leaves=31
num_cat=0
split_feature=39 39 39 39 11 39 11 14 12 30 39 18 11 8 18 27 11 17 12 1 12 1 16 9 6 13 40 11 42 40
split_gain=3.05087e+12 1.22007e+12 6.83374e+11 5.56937e+11 3.40914e+11 1.47475e+11 1.36432e+11 1.13805e+11 1.00866e+11 9.20036e+10 8.05129e+10 7.27566e+10 7.16927e+10 7.8847e+10 6.60994e+10 5.88994e+10 6.13182e+10 5.67557e+10 4.62108e+10 4.49159e+10 3.9643e+10 3.95819e+10 4.22427e+10 3.91398e+10 3.88831e+10 3.93556e+10 3.55112e+10 3.44667e+10 3.24357e+10 3.14966e+10
threshold=73714.285714285725 252285.71428571432 36082.417582417591 120565.93406593408 755500.00000000012 51142.857142857152 175500.00000000003 855500.00000000012 44500.000000000007 460500.00000000006 13796.703296703299 91500.000000000015 66500.000000000015 227500.00000000003 1.0000000180025095e-35 461500.00000000006 258500.00000000003 233500.00000000003 130500.00000000001 39500.000000000007 215500.00000000003 140500.00000000003 208500.00000000003 508000.00000000006 1.0000000180025095e-35 133500.00000000003 13783.333333333334 75500.000000000015 62833.333333333336 121683.33333333336
decision_type=2 2 2 2 8 2 8 8 10 10 2 10 10 10 8 10 10 10 10 2 10 2 8 10 2 10 8 8 10 8
left_child=2 3 10 11 8 26 12 -6 -3 15 -1 18 14 29 -5 16 -10 20 27 -13 -8 -16 -23 -11 -7 -26 -4 -2 -20 -14
right_child=1 4 5 6 7 24 17 -9 9 23 -12 19 13 -15 21 -17 -18 -19 28 -21 -22 22 -24 -25 25 -27 -28 -29 -30 -31
leaf_value=-986.02773547586355 231.61019062976666 12695.933164062501 2314.8988870126227 -4127.7987124972879 9302.6778134300603 382.94811202266698 2230.233789262114 18968.906192753235 1263.1125684950086 11029.535034919507 -587.12022785186639 2291.1913091675442 2787.0013701031467 7135.9791147085343 -837.64825307315152 -543.650438391644 5973.2759822813405 4448.4658514095263 -2687.7942458856305 894.36198403201638 3731.5498009811331 3356.2186856356539 -1703.5892722389917 5722.1071381886804 55.146226736446003 -1538.6028922129901 -252.39597109224971 671.59129167932213 -173.5288277723472 1532.1146830486598
leaf_weight=6649 2478 20 54 36 21 3978 1203 29 36 33 21167 240 213 26 97 23 119 158 61 5640 206 66 22 24 22828 156 23919 6325 323 3280
leaf_count=6649 2478 20 54 36 21 3978 1203 29 36 33 21167 240 213 26 97 23 119 158 61 5640 206 66 22 24 22828 156 23919 6325 323 3280
internal_value=0 1080.98 -283.85 986.995 7358.91 -66.1594 1867.95 14909.1 5878.48 5298.27 -682.473 676.699 1539.75 1649.48 -207.336 4178.58 4879.3 2651.26 500.897 951.375 2449.73 555.565 2091.27 8794.83 94.2891 44.3289 -246.613 547.739 -572.93 1608.64
internal_weight=0 20679 78751 20374 305 50935 5307 50 255 235 27816 15067 3740 3519 221 178 155 1567 9187 5880 1409 185 88 57 26962 22984 23973 8803 384 3493
internal_count=99430 20679 78751 20374 305 50935 5307 50 255 235 27816 15067 3740 3519 221 178 155 1567 9187 5880 1409 185 88 57 26962 22984 23973 8803 384 3493
is_linear=0
shrinkage=0.1


Tree=17
num_leaves=31
num_cat=0
split_feature=39 39 39 39 11 14 10 10 39 11 8 11 30 15 8 39 2 42 1 28 40 40 10 42 17 11 10 15 5 10
split_gain=2.48036e+12 9.11709e+11 7.27175e+11 3.35606e+11 2.76691e+11 2.14891e+11 2.83464e+11 1.51357e+11 1.25503e+11 7.95273e+10 9.35754e+10 7.39026e+10 6.37957e+10 7.25731e+10 6.78742e+10 5.24722e+10 5.04302e+10 4.95626e+10 4.31253e+10 4.25385e+10 4.41479e+10 4.15865e+10 5.48001e+10 4.29838e+10 3.53349e+10 3.37769e+10 3.48694e+10 3.32443e+10 3.22472e+10 3.19304e+10
threshold=85637.362637362647 252285.71428571432 44659.340659340676 145791.20879120883 655500.00000000012 788000.00000000012 855500.00000000012 22500.000000000004 61923.076923076929 44500.000000000007 201500.00000000003 109500.00000000001 264500.00000000006 531000.00000000012 100500.00000000001 200807.69230769234 386500.00000000006 30166.666666666668 480500.00000000006 263500.00000000006 132150.00000000003 157100.00000000003 206500.00000000003 168500.00000000003 276500.00000000006 151500.00000000003 72500.000000000015 84500.000000000015 14.500000000000002 110500.00000000001
decision_type=2 2 2 2 8 8 8 10 2 8 10 8 8 10 10 2 2 8 2 10 8 10 10 8 10 8 8 10 2 8
left_child=2 3 7 11 12 -6 -7 -1 27 16 15 -2 -3 14 18 19 -5 -10 24 20 -11 22 -13 -24 -14 -22 -27 -4 -23 -28
right_child=1 4 8 9 5 6 -8 -9 17 10 -12 21 13 -15 -16 -17 -18 -19 -20 -21 25 28 23 -25 -26 26 29 -29 -30 -31
leaf_value=-745.46632080517145 648.59467755242736 2009.9824476975662 -39.79352529651797 2760.4783129882817 4455.3958251953127 25365.640952148438 8529.2619238281241 -353.03777110664578 1946.9870104843312 5020.4076598498286 8002.2539934430815 1149.7679295956723 3240.729895550272 11506.398072451637 1124.9397888183594 3441.4058375632931 -3340.5304882231212 269.72214369828043 9820.5911783854172 -2468.7542187645322 1270.9334700523377 269.30669229868295 7828.6854096912202 2241.6990145874024 6851.17070830374 5595.6804541015626 -1719.6564139229913 -711.32865357103719 -4636.9389694940473 2208.0839673731839
leaf_weight=16166 6483 52 25654 20 21 20 20 25070 178 49 28 5049 46 21 32 292 42 17207 27 21 500 37 21 40 66 30 21 759 21 1437
leaf_count=16166 6483 52 25654 20 21 20 20 25070 178 49 28 5049 46 21 32 292 42 17207 27 21 500 37 21 40 66 30 21 759 21 1437
internal_value=0 1213.88 -205.505 1096.79 6623.02 12646.9 16947.5 -506.884 78.2436 2163.22 2255.4 873.459 5117.04 5958.54 5277.22 2186.93 -1372.46 286.895 6233.14 2008.94 2055.1 1155.54 1185.76 4165.09 5368.31 1982.01 2220.95 -59.0907 -1507.09 2151.51
internal_weight=0 14396 85034 14091 305 61 40 41236 43798 2440 2378 11651 244 192 171 2350 62 17385 139 2058 2037 5168 5110 61 112 1988 1488 26413 58 1458
internal_count=99430 14396 85034 14091 305 61 40 41236 43798 2440 2378 11651 244 192 171 2350 62 17385 139 2058 2037 5168 5110 61 112 1988 1488 26413 58 1458
is_linear=0
shrinkage=0.1


Tree=18
num_leaves=31
num_cat=0
split_feature=39 39 39 39 11 14 39 9 11 41 40 11 39 30 31 40 11 38 16 39 12 37 11 12 40 14 7 22 6 30
split_gain=2.01983e+12 7.99243e+11 4.61805e+11 3.80344e+11 2.24119e+11 1.74061e+11 1.02486e+11 9.00024e+10 8.58721e+10 7.13931e+10 6.28821e+10 6.62579e+10 5.47336e+10 5.16745e+10 4.71949e+10 4.93172e+10 4.78268e+10 4.77573e+10 4.68361e+10 4.29881e+10 3.93465e+10 5.15499e+10 5.13075e+10 3.5805e+10 3.49779e+10 3.49593e+10 3.15687e+10 3.3236e+10 3.05856e+10 3.05088e+10
threshold=73714.285714285725 252285.71428571432 35324.175824175829 126521.97802197804 655500.00000000012 788000.00000000012 53780.219780219784 641500.00000000012 175500.00000000003 130214.28571428572 150483.33333333337 98500.000000000015 13247.252747252749 264500.00000000006 247500.00000000003 126983.33333333336 118500.00000000001 88500.000000000015 212500.00000000003 187060.43956043958 188500.00000000003 369500.00000000006 258500.00000000003 95500.000000000015 68616.666666666672 474500.00000000006 -136499.99999999997 97500.000000000015 1.0000000180025095e-35 174500.00000000003
decision_type=2 2 2 2 8 8 2 10 8 8 10 8 2 8 10 8 10 10 10 2 10 10 10 8 10 10 8 10 2 10
left_child=2 3 12 10 13 -6 24 -7 14 -10 11 29 -1 -3 15 17 18 -5 -17 23 -15 22 -22 -11 -4 -23 27 -8 -28 -2
right_child=1 4 6 8 5 7 26 -9 9 19 -12 -13 -14 20 -16 16 -18 -19 -20 -21 21 25 -24 -25 -26 -27 28 -29 -30 -31
leaf_value=-826.70631002988182 438.84451103150263 1808.9842374361479 -174.38610382951103 80.234602959211486 4009.8562593005954 10509.227910156251 424.50855766745173 19996.184638671875 7273.7811723981595 -695.74328700474337 -4761.6271661931814 833.1743456775032 -488.53752120880756 9447.6724144345244 4872.1257492477835 566.80683476033244 1384.5944599605161 3951.8037774124768 -3270.8084695703847 2898.952254776706 77.21324673356682 10314.196533203125 4901.0254531196924 1916.6530870217277 -3133.4989935302738 5021.536596679688 381.63772143440013 5284.9250661214201 50.826126986519071 -1283.3340477870061
leaf_weight=6222 9428 52 29484 43 21 20 34 20 28 56 22 6550 20740 21 37 492 2109 123 34 517 29 24 92 831 40 26 3279 24 18928 104
leaf_count=6222 9428 52 29484 43 21 20 34 20 28 56 22 6550 20740 21 37 492 2109 123 34 517 29 24 92 831 40 26 3279 24 18928 104
internal_value=0 879.553 -230.959 803.488 5960.71 11382.2 -56.2328 15252.7 1642.57 2273.88 581.004 588.313 -566.576 4605.34 1324.02 1277.15 1171.83 2948.93 318.748 2174.17 5362.68 4861.02 3744.91 1751.72 -178.395 7562.01 105.758 2435.72 99.6725 420.054
internal_weight=0 20679 78751 20374 305 61 51789 40 4270 1432 16104 16082 26962 244 2838 2801 2635 166 526 1404 192 171 121 887 29524 50 22265 58 22207 9532
internal_count=99430 20679 78751 20374 305 61 51789 40 4270 1432 16104 16082 26962 244 2838 2801 2635 166 526 1404 192 171 121 887 29524 50 22265 58 22207 9532
is_linear=0
shrinkage=0.1


Tree=19
num_leaves=31
num_cat=0
split_feature=42 12 18 18 9 18 29 32 32 16 26 21 21 24 18 23 42 17 28 18 41 9 0 13 9 17 8 32 12 20
split_gain=1.41119e+12 4.55839e+11 4.01221e+11 2.52343e+11 1.87049e+11 1.55831e+11 9.49868e+10 6.60539e+10 6.49126e+10 7.90728e+10 5.58258e+10 5.54907e+10 5.4943e+10 8.1259e+10 6.38866e+10 5.1526e+10 5.00468e+10 4.92387e+10 4.8841e+10 6.11783e+10 4.68959e+10 4.58807e+10 6.30336e+10 6.60145e+10 4.30767e+10 4.22941e+10 4.96286e+10 3.48177e+10 3.43997e+10 3.39652e+10
threshold=87833.333333333358 396000.00000000006 40500.000000000007 142500.00000000003 240500.00000000003 64500.000000000007 634000.00000000012 217500.00000000003 504500.00000000006 20500.000000000004 18500.000000000004 44500.000000000007 2500.0000000000005 140500.00000000003 100500.00000000001 55500.000000000007 19166.666666666668 109500.00000000001 263500.00000000006 345500.00000000006 1.0000000180025095e-35 43500.000000000007 658910.50000000012 57500.000000000007 24500.000000000004 282500.00000000006 117500.00000000001 26500.000000000004 118500.00000000001 182500.00000000003
decision_type=10 10 8 10 10 10 10 10 10 10 8 10 8 10 8 10 8 10 10 10 10 10 2 10 10 10 10 8 10 10
left_child=2 3 10 12 5 16 8 18 9 -3 15 -11 13 21 25 20 -4 -15 19 -5 -1 -2 -23 -24 -16 26 -14 -28 -26 -12
right_child=1 6 4 7 -6 -7 -8 -9 -10 11 29 -13 14 17 24 -17 -18 -19 -20 -21 -22 22 23 -25 28 -27 27 -29 -30 -31
leaf_value=1790.3738986545141 -2656.4980302077074 620.57886260986334 -616.11106809372995 1557.9131283345764 7535.2007782907203 277.15948676602807 11209.894858551026 3092.380014557275 427.54801025390628 12062.8626953125 -360.9027888719483 6049.5957956414477 357.10997896141129 9669.357358398438 4184.4230222200094 -1794.508840887672 -74.037399143315994 2652.3257995605472 -2104.2543792724609 6739.165191385021 -627.34924443859404 567.84129675662882 7778.0870527596317 2053.9427128647312 613.9865965962706 3729.9510647243924 -4958.0975646972656 -822.19116830968142 1105.2173102022487 3063.7572215113146
leaf_weight=81 26 20 1781 2486 33 15232 32 313 24 21 21025 57 3934 20 38 380 38978 20 36 23 8409 165 29 66 3631 36 24 134 2347 29
leaf_count=81 26 20 1781 2486 33 15232 32 313 24 21 21025 57 3934 20 38 380 38978 20 36 23 8409 165 29 66 3631 36 24 134 2347 29
internal_value=0 951.207 -149.209 888.703 8.69683 4.26086 6360.63 1721.53 5088.69 6230.19 -444.84 7668.55 661.366 1939.21 620.3 -655.273 -97.7238 6160.84 1552.94 1605.41 -604.283 1348.77 1749.3 3801.31 828.181 317.34 287.317 -1450.43 806.847 -356.186
internal_weight=0 13482 85948 13328 56024 55991 154 2858 122 98 29924 78 10470 326 10144 8870 40759 40 2545 2509 8490 286 260 95 6016 4128 4092 158 5978 21054
internal_count=99430 13482 85948 13328 56024 55991 154 2858 122 98 29924 78 10470 326 10144 8870 40759 40 2545 2509 8490 286 260 95 6016 4128 4092 158 5978 21054
is_linear=0
shrinkage=0.1


Tree=20
num_leaves=31
num_cat=0
split_feature=39 39 39 13 39 7 39 39 34 11 15 30 4 36 39 41 40 32 17 19 7 42 4 11 5 7 22 41 41 41
split_gain=1.37839e+12 4.81723e+11 4.65106e+11 1.74855e+11 1.55391e+11 1.37242e+11 1.11886e+11 7.40527e+10 5.77763e+10 5.72371e+10 4.89284e+10 5.03231e+10 5.15114e+10 3.93373e+10 5.80877e+10 5.30145e+10 4.13392e+10 6.15199e+10 4.36731e+10 4.50871e+10 4.36667e+10 3.84733e+10 3.65956e+10 3.58697e+10 3.56695e+10 3.56314e+10 3.47846e+10 3.4033e+10 3.30868e+10 3.21109e+10
threshold=91686.81318681319 252285.71428571432 47291.208791208795 756000.00000000012 145791.20879120883 -39499.999999999993 29582.417582417587 67664.835164835167 1.0000000180025095e-35 44500.000000000007 853000.00000000012 264500.00000000006 55.543903175000004 127500.00000000001 120565.93406593408 179642.85714285719 111216.66666666667 112500.00000000001 93500.000000000015 165500.00000000003 -13499.999999999998 80500.000000000015 55.698780475000007 245500.00000000003 20.500000000000004 -149499.99999999997 117500.00000000001 142071.42857142861 83071.428571428594 9785.7142857142881
decision_type=2 2 2 8 2 8 2 2 8 8 8 8 2 10 2 10 8 10 8 10 10 10 2 10 2 8 8 10 10 10
left_child=2 4 6 10 13 -5 29 28 -6 22 11 -3 -13 14 27 21 17 -16 -18 25 24 -15 -10 -11 -21 -20 -25 -2 -4 -1
right_child=1 3 7 5 8 -7 -8 -9 9 23 -12 12 -14 15 16 -17 18 -19 19 20 -22 -23 -24 26 -26 -27 -28 -29 -30 -31
leaf_value=-749.03079272175182 667.12846307203881 1431.5241788976334 20.713230745799848 15858.748668902854 6400.4276733398438 5969.6959967719195 -216.1442245906652 298.37713895620698 2010.908486328125 1553.9681863648002 -853.26724330357138 8628.0388992309581 4186.7692700668122 -2144.2155226184477 1582.4532607707572 -4905.4324414062503 -587.50765991797823 7894.1180388077446 4913.4742138671882 8823.158690795899 1904.364426636696 411.12531153902438 -3228.0506085205079 7010.6914034888869 2850.7607446289062 1109.3573354396701 2545.1294776101713 -1832.218670210405 -1650.3660965094045 -457.39969067017239
leaf_weight=4998 5776 51 27331 23 25 36 26047 13664 20 2231 21 32 142 62 47 20 130 23 25 20 96 1186 40 21 20 1629 103 55 119 15437
leaf_count=4998 5776 51 27331 23 25 36 26047 13664 20 2231 21 32 142 62 47 20 130 23 25 20 96 1186 40 21 20 1629 103 55 119 15437
internal_value=0 1012.99 -136.852 4935.63 909.214 9824.75 -353.566 108.156 1617.78 1568.27 3763.04 4193.89 5003.55 718.995 802.762 202.322 1269.27 3656.29 1182.24 1310.77 3061.01 284.177 -1481.73 1645.98 5836.96 1166.86 3301.39 643.554 13.4688 -528.727
internal_weight=0 11834 87596 305 11529 59 46482 41114 2440 2415 246 225 174 9089 7821 1268 1990 70 1920 1790 136 1248 60 2355 40 1654 124 5831 27450 20435
internal_count=99430 11834 87596 305 11529 59 46482 41114 2440 2415 246 225 174 9089 7821 1268 1990 70 1920 1790 136 1248 60 2355 40 1654 124 5831 27450 20435
is_linear=0
shrinkage=0.1


Tree=21
num_leaves=31
num_cat=0
split_feature=42 12 12 42 22 42 38 31 30 27 12 36 42 38 28 23 17 6 22 35 6 16 8 23 30 8 17 41 38 12
split_gain=9.34462e+11 3.22026e+11 2.35626e+11 2.02627e+11 7.56643e+10 5.97046e+10 5.18972e+10 5.1637e+10 4.50456e+10 8.97615e+10 5.33565e+10 4.37361e+10 4.23127e+10 3.8658e+10 3.73201e+10 3.82211e+10 4.19357e+10 3.67538e+10 4.36133e+10 3.15609e+10 3.40065e+10 3.13681e+10 3.11983e+10 4.99405e+10 3.99757e+10 3.7393e+10 3.0639e+10 2.92271e+10 2.86326e+10 2.77717e+10
threshold=79833.333333333358 396000.00000000006 38500.000000000007 146500.00000000003 240500.00000000003 53833.333333333336 295500.00000000006 156500.00000000003 796500.00000000012 530500.00000000012 788000.00000000012 467000.00000000006 43833.333333333336 14500.000000000002 338000.00000000006 304500.00000000006 276500.00000000006 1.0000000180025095e-35 108500.00000000001 1.0000000180025095e-35 1.5000000000000002 140500.00000000003 99500.000000000015 58500.000000000007 21500.000000000004 -293499.99999999994 66500.000000000015 1.0000000180025095e-35 221500.00000000003 206500.00000000003
decision_type=10 10 8 10 8 10 10 10 8 10 10 10 10 8 10 10 10 2 8 8 2 10 10 10 8 8 8 10 8 10
left_child=2 3 13 19 -3 7 14 -4 9 11 -10 -6 -9 27 15 16 17 18 -5 28 26 -15 24 -24 -19 -26 -21 -1 -2 -25
right_child=1 4 5 6 8 -7 -8 12 10 -11 -12 -13 -14 21 -16 -17 -18 22 -20 20 -22 -23 23 29 25 -27 -28 -29 -30 -31
leaf_value=2783.8076080322267 1170.9771618739815 771.08468032959979 -111.1973846015365 5627.2849712949819 8458.2961960565481 109.68080325290913 4603.1542158203129 6726.6393408203121 6423.0333044433601 12971.156174723308 97.101972656249998 1924.1742816162111 371.37559592507102 -318.61135624151336 -2847.3141229538692 5060.1109296526229 3895.7076551649307 4844.7660528055831 1841.9517859390803 -246.90264259269404 352.72305951167817 2188.5632197265627 -3582.9299905831476 -138.34618872709052 -727.78396735913839 1265.3137300566073 775.15894841963518 -644.54267674681978 4687.354986968995 3537.9406057852284
leaf_weight=25 314 31 29059 33 21 22911 50 20 40 24 20 20 22 25503 21 28 63 30 392 318 9814 50 35 86 99 1914 3777 4658 25 27
leaf_count=25 314 31 29059 33 21 22911 50 20 40 24 20 20 22 25503 21 28 63 30 392 318 9814 50 35 86 99 1914 3777 4658 25 27
internal_value=0 670.73 -140.119 629.291 5193.48 -11.0683 1410.56 -106.133 6290.23 8114.08 4314.39 5270.92 3397.69 -362.111 1352.05 1384.63 1346.21 1284.81 2135.87 476.962 453.727 -313.706 1119.73 -282.27 1221.29 1167.29 695.79 -626.241 1430.3 740.059
internal_weight=0 17182 82248 17026 156 52012 2778 29101 125 65 60 41 42 30236 2728 2707 2679 2616 425 14248 13909 25553 2191 148 2043 2013 4095 4683 339 113
internal_count=99430 17182 82248 17026 156 52012 2778 29101 125 65 60 41 42 30236 2728 2707 2679 2616 425 14248 13909 25553 2191 148 2043 2013 4095 4683 339 113
is_linear=0
shrinkage=0.1


Tree=22
num_leaves=31
num_cat=0
split_feature=39 39 39 11 7 11 39 18 16 7 19 16 5 6 3 7 28 18 23 18 13 7 18 18 7 18 23 9 28 11
split_gain=9.46911e+11 3.2713e+11 3.15536e+11 1.43446e+11 1.22952e+11 1.13771e+11 8.36466e+10 5.13031e+10 4.79642e+10 5.04732e+10 9.05668e+10 5.64306e+10 4.44166e+10 6.80985e+10 9.99507e+10 6.68816e+10 5.45534e+10 4.96542e+10 4.43963e+10 4.24491e+10 3.68747e+10 5.54227e+10 3.23269e+10 3.06814e+10 2.92618e+10 2.81144e+10 3.5147e+10 2.75531e+10 2.74744e+10 4.02372e+10
threshold=91686.81318681319 252285.71428571432 48115.384615384624 755500.00000000012 -166499.99999999997 137500.00000000003 28939.560439560442 70500.000000000015 204500.00000000003 -98499.999999999985 69500.000000000015 31500.000000000004 17.500000000000004 2.5000000000000004 37.646657880000014 3500.0000000000005 543500.00000000012 294000.00000000006 448500.00000000006 225500.00000000003 133500.00000000003 130500.00000000001 10500.000000000002 220500.00000000003 -166499.99999999997 78500.000000000015 134500.00000000003 263500.00000000006 57500.000000000007 177500.00000000003
decision_type=2 2 2 8 10 8 2 10 10 10 8 10 2 2 2 10 8 10 10 10 10 10 10 8 10 8 10 10 10 10
left_child=2 5 6 12 -5 8 22 20 9 10 -2 23 13 17 15 -15 18 -3 27 -7 -4 -22 -1 -12 -9 26 -11 -14 29 -26
right_child=1 3 7 4 -6 19 -8 24 -10 25 11 -13 16 14 -16 -17 -18 -19 -20 -21 21 -23 -24 -25 28 -27 -28 -29 -30 -31
leaf_value=-594.69078659597835 7565.9704716609085 -1188.1586059570313 34.196782103735003 2896.3094384765627 13018.568680013021 1100.4984853463629 -176.60182931754207 3083.5928837544211 -1206.5925303270863 171.86953804889458 7118.0605834960943 453.21071646025689 -1214.4799298967635 13538.335530598961 2359.6681355794271 5648.5234591397375 -1755.5432152950402 4715.7227015904018 7154.6553198242182 2485.2573458018201 -497.80151246818332 -4346.5247332255049 -334.97708141877132 1894.4769361413046 515.44992143617549 569.79168138368107 -2018.7924416026851 3172.2525275336375 154.85773563114941 -3509.9568640136722
leaf_weight=8373 26 29 28629 20 30 3817 27999 37 157 463 22 165 21 21 36 22 33 28 20 235 222 45 11208 23 3691 6534 87 45 7367 25
leaf_count=8373 26 29 28629 20 30 3817 27999 37 157 463 22 165 21 21 36 22 33 28 20 235 222 45 11208 23 3691 6534 87 45 7367 25
internal_value=0 839.6 -113.428 4072.11 8969.66 754.083 -287.483 93.5281 522.829 559.921 1998.58 1309.29 3111.81 4346.35 6247.1 9501.69 1700.9 1711.99 3027.21 1180.81 23.2874 -1146.46 -446.033 4448.23 276.053 511.993 -174.653 1776.47 266.68 488.368
internal_weight=0 11834 87596 305 50 11529 47580 40016 7477 7320 236 210 255 136 79 43 119 57 86 4052 28896 267 19581 45 11120 7084 550 66 11083 3716
internal_count=99430 11834 87596 305 50 11529 47580 40016 7477 7320 236 210 255 136 79 43 119 57 86 4052 28896 267 19581 45 11120 7084 550 66 11083 3716
is_linear=0
shrinkage=0.1


Tree=23
num_leaves=31
num_cat=0
split_feature=39 39 1 39 5 7 12 18 7 19 12 28 32 28 39 10 30 40 18 41 42 34 31 18 9 32 22 10 12 7
split_gain=7.79088e+11 3.22937e+11 1.95815e+11 1.6892e+11 1.23116e+11 9.43745e+10 2.50282e+11 9.01595e+10 6.45588e+10 6.47148e+10 5.98591e+10 5.16944e+10 4.89739e+10 4.77089e+10 5.28964e+10 5.17612e+10 4.13405e+10 4.10241e+10 3.99915e+10 3.59918e+10 8.54628e+10 3.55739e+10 5.87766e+10 3.36253e+10 3.16802e+10 3.03237e+10 2.73613e+10 3.06211e+10 2.72175e+10 3.31046e+10
threshold=70879.120879120892 171978.02197802201 672500.00000000012 33697.802197802208 13.500000000000002 -91499.999999999985 206500.00000000003 119500.00000000001 -166499.99999999997 130500.00000000001 254500.00000000003 295500.00000000006 504500.00000000006 130500.00000000001 115593.4065934066 5500.0000000000009 78500.000000000015 164200.00000000003 57500.000000000007 12357.142857142861 3500.0000000000005 482500.00000000006 408000.00000000006 11500.000000000002 113500.00000000001 220500.00000000003 42500.000000000007 1.0000000180025095e-35 158500.00000000003 -1.0000000180025095e-35
decision_type=2 2 2 2 2 8 10 10 10 8 10 10 8 10 2 8 8 8 10 8 10 10 10 10 10 10 8 8 10 10
left_child=3 7 5 23 -4 6 -3 13 9 -9 11 17 -8 14 25 16 -15 -7 19 20 -5 22 -12 -1 28 -2 -16 -28 -21 -30
right_child=1 2 4 18 -6 10 12 8 -10 -11 21 -13 -14 15 26 -17 -18 -19 -20 24 -22 -23 -24 -25 -26 -27 27 -29 29 -31
leaf_value=-509.43172592346122 286.558708518054 14752.484289398193 13966.52484654018 513.59437960907451 3671.8979555423448 5213.06982421875 4375.936510995718 6743.4532269795736 790.39722937491479 -351.17283203124998 2907.9811677532434 -3328.0562070210781 -2034.7567804509945 -6037.3619559151784 3706.554049144072 -196.97238677969938 -914.08725179036469 1269.5349173476056 91.33393539792759 -107.06587883971659 7081.8002998698839 -370.74001323993389 8310.1296437139099 -272.12429089077017 -1092.448464180716 4182.9843859863277 -1621.1657243689713 919.31269853011418 -200.84227801731654 4805.6433782958984
leaf_weight=9994 14954 20 21 199 26 27 26 36 3961 20 162 24 22 28 34 778 36 1148 14390 36676 22 26 23 14833 327 20 49 1495 28 25
leaf_count=9994 14954 20 21 199 26 27 26 36 3961 20 162 24 22 28 34 778 36 1148 14390 36676 22 26 23 14833 327 20 49 1495 28 25
internal_value=0 511.198 1917.19 -153.278 8271.62 1715.12 5353.81 411.056 838.064 4209.66 1539.64 1266.31 1437.7 312.442 349.796 -421.85 -3155.52 1360.15 -50.2673 -104.929 1167.44 3092.83 3579.6 -367.651 -112.518 291.763 900.48 838.689 -103.793 2160.71
internal_weight=0 22936 1525 76494 47 1478 68 21411 4017 56 1410 1199 48 17394 16552 842 64 1175 51667 37277 221 211 185 24827 37056 14974 1578 1544 36729 53
internal_count=99430 22936 1525 76494 47 1478 68 21411 4017 56 1410 1199 48 17394 16552 842 64 1175 51667 37277 221 211 185 24827 37056 14974 1578 1544 36729 53
is_linear=0
shrinkage=0.1


Tree=24
num_leaves=31
num_cat=0
split_feature=39 39 39 1 7 12 39 5 8 2 25 7 4 18 41 27 15 1 18 7 35 5 4 12 21 4 14 25 6 6
split_gain=6.32691e+11 2.56615e+11 1.47919e+11 1.23851e+11 1.08956e+11 1.91769e+11 9.97665e+10 9.97243e+10 9.40384e+10 6.54944e+10 5.47269e+10 6.38566e+10 6.15547e+10 4.84762e+10 6.37075e+10 4.60468e+10 4.55099e+10 4.26277e+10 4.11146e+10 4.0643e+10 3.57227e+10 3.84718e+10 4.99116e+10 3.819e+10 3.38923e+10 3.44272e+10 8.41286e+10 3.38711e+10 4.65673e+10 3.16164e+10
threshold=73714.285714285725 200807.69230769234 31840.659340659342 672500.00000000012 -94499.999999999985 315500.00000000006 115593.4065934066 13.500000000000002 263500.00000000006 520500.00000000006 467000.00000000006 1.0000000180025095e-35 55.543903175000004 52500.000000000007 5071.4285714285725 365500.00000000006 347000.00000000006 4500.0000000000009 345500.00000000006 161500.00000000003 126500.00000000001 17.500000000000004 55.051757755000004 6500.0000000000009 116500.00000000001 55.615267180000011 128500.00000000001 59500.000000000007 1.5000000000000002 1.5000000000000002
decision_type=2 2 2 2 8 10 2 2 8 2 8 10 2 8 8 8 10 2 10 10 10 2 2 10 8 2 10 8 2 2
left_child=2 6 -1 4 5 -3 17 -5 10 -10 15 12 -12 19 -15 -6 18 24 20 -4 27 -22 -23 -24 25 -2 -27 28 -8 -16
right_child=1 3 13 7 8 -7 16 -9 9 -11 11 -13 -14 14 29 -17 -18 -19 -20 -21 21 22 23 -25 -26 26 -28 -29 -30 -31
leaf_value=-344.67533643692406 21.10002568884741 14143.248742675782 -138.854170062995 12569.872440011161 1880.5692701608166 1583.5627756426411 2715.17327041626 3304.7079514723555 -5276.3240895917343 1602.99083203125 10654.927156982423 1773.6769436083341 4031.1773032330452 4810.2128853934155 197.75486436635273 -1642.7805303529251 -3655.9354874320657 257.02163283019178 5327.3332186889647 -3021.6589021643813 885.70594911075295 -4297.5102926694435 -3503.019601876395 241.72574022096606 125.62999978014219 1685.0889115427053 7199.9905326843264 1024.3094553819712 -2496.7593858337405 -26.460996596217758
leaf_weight=22692 79 20 25298 21 270 31 24 26 31 25 20 76 47 28 8830 43 23 13834 20 49 1049 26 28 995 186 204 32 3509 60 21854
leaf_count=22692 79 20 25298 21 270 31 24 26 31 25 20 76 47 28 8830 43 23 13834 20 49 1049 26 28 995 186 204 32 3509 60 21854
internal_value=0 492.267 -129.263 2512.84 2101.14 6508.93 430.851 7444.46 1662.08 -2205.2 2137.01 3757.79 6008.42 -42.0666 42.4128 1396.53 783.384 289.838 801.262 -144.427 785.356 457.485 29.2634 139.23 1195.99 1828.02 2432.87 976.805 -1007.64 38.0621
internal_weight=0 20679 78751 610 563 51 20069 47 512 56 456 143 67 56059 30712 313 5734 14335 5711 25347 5691 2098 1049 1023 501 315 236 3593 84 30684
internal_count=99430 20679 78751 610 563 51 20069 47 512 56 456 143 67 56059 30712 313 5734 14335 5711 25347 5691 2098 1049 1023 501 315 236 3593 84 30684
is_linear=0
shrinkage=0.1


Tree=25
num_leaves=31
num_cat=0
split_feature=39 10 14 39 1 11 10 29 25 23 39 20 10 28 23 7 9 20 32 19 8 2 19 10 12 13 32 28 30 12
split_gain=5.18588e+11 1.89601e+11 3.31928e+11 1.86816e+11 1.09416e+11 7.87294e+10 6.27605e+10 5.2076e+10 4.49443e+10 4.41426e+10 4.37653e+10 8.02755e+10 3.7637e+10 3.6406e+10 3.4996e+10 6.44402e+10 6.10275e+10 7.30129e+10 3.47777e+10 3.29336e+10 2.88554e+10 2.7412e+10 3.52514e+10 2.67476e+10 3.03466e+10 2.83501e+10 2.61072e+10 2.71096e+10 3.48585e+10 2.55502e+10
threshold=94730.769230769234 392000.00000000006 967000.00000000012 48697.802197802208 480500.00000000006 245500.00000000003 19500.000000000004 86500.000000000015 116500.00000000001 223500.00000000003 252285.71428571432 266500.00000000006 167500.00000000003 255500.00000000003 479500.00000000006 -241499.99999999997 484500.00000000006 709000.00000000012 69500.000000000015 92500.000000000015 127500.00000000001 251000.00000000003 122500.00000000001 167500.00000000003 64500.000000000007 134500.00000000003 85500.000000000015 90500.000000000015 151500.00000000003 19500.000000000004
decision_type=2 10 8 2 2 10 10 8 8 10 2 10 8 10 10 10 10 10 8 10 10 2 8 10 10 10 8 10 10 8
left_child=3 4 14 6 5 8 19 -7 9 13 12 -12 -10 26 15 -3 -16 -18 23 20 -1 -9 -23 25 -25 -5 -2 28 -28 -14
right_child=1 2 -4 18 -6 7 -8 21 10 -11 11 -13 29 -15 16 -17 17 -19 -20 -21 -22 22 -24 24 -26 -27 27 -29 -30 -31
leaf_value=-376.69351965770312 -445.76608221655152 -3460.9320214589443 15765.065197172618 -34.280523653418456 7211.7166796874999 7110.4486621093747 -136.29838256278066 -747.43002607557514 566.4805757302895 -3022.0035114567454 -6889.3026936848955 1963.050771484375 4210.43678119366 -3684.8824415123981 8279.4545920632099 2822.8111194087014 -2128.283564028533 5756.3067301432293 152.87145956617175 -2239.4392028808593 3424.2916412353516 6125.3573172433034 1841.3052162882486 286.88973959645921 5283.1384326171874 -1454.0449545417034 830.48315321359496 242.85428749650293 4711.3979365030928 1052.7824053610182
leaf_weight=14582 403 24 21 14730 25 20 34042 36 5079 41 21 20 26 23 22 51 23 24 25032 95 20 21 225 31 20 142 649 2181 24 1777
leaf_count=14582 403 24 21 14730 25 20 34042 36 5079 41 21 20 26 23 22 51 23 24 25032 95 20 21 225 31 20 142 649 2181 24 1777
internal_value=0 656.415 4020.1 -79.456 603.912 588.247 -210.859 2179.56 541.334 238.911 686.409 -2571.08 705.815 279.673 2307.29 812.013 3932.59 1897.89 80.8361 -383.562 -371.487 1829.85 2207.02 -39.9967 2246.2 -47.8366 307.669 414.058 968.881 1098.32
internal_weight=0 10736 165 88694 10571 10546 48739 302 10244 3321 6923 41 6882 3280 144 75 69 47 39955 14697 14602 282 246 14923 51 14872 3257 2854 673 1803
internal_count=99430 10736 165 88694 10571 10546 48739 302 10244 3321 6923 41 6882 3280 144 75 69 47 39955 14697 14602 282 246 14923 51 14872 3257 2854 673 1803
is_linear=0
shrinkage=0.1


Tree=26
num_leaves=31
num_cat=0
split_feature=39 39 11 7 10 4 18 32 18 7 27 34 7 18 26 12 36 32 15 32 17 17 0 11 12 31 11 42 35 36
split_gain=4.28498e+11 1.88961e+11 1.13013e+11 1.86807e+11 8.9742e+10 7.84367e+10 9.91421e+10 6.59682e+10 5.87357e+10 6.57015e+10 8.17889e+10 4.25283e+10 3.84692e+10 5.09898e+10 3.77037e+10 3.75257e+10 3.34677e+10 3.33608e+10 3.78892e+10 3.32716e+10 3.28948e+10 3.28795e+10 3.23368e+10 2.93614e+10 2.85503e+10 2.65155e+10 2.63394e+10 2.59099e+10 2.51943e+10 3.79934e+10
threshold=68505.494505494527 171978.02197802201 484500.00000000006 -102499.99999999999 31500.000000000004 55.950833515000006 967000.00000000012 84500.000000000015 119500.00000000001 -166499.99999999997 130500.00000000001 156500.00000000003 85500.000000000015 33500.000000000007 88500.000000000015 150500.00000000003 119500.00000000001 4500.0000000000009 84500.000000000015 155500.00000000003 286500.00000000006 243500.00000000003 607021.50000000012 78500.000000000015 172500.00000000003 4500.0000000000009 247500.00000000003 152166.66666666672 67500.000000000015 37500.000000000007
decision_type=2 2 8 8 10 2 8 8 10 10 8 8 10 8 8 10 10 8 10 10 10 10 2 8 10 10 10 10 10 8
left_child=4 8 7 -4 15 -5 -7 -3 12 10 -10 -9 20 14 -14 17 19 18 -1 26 23 27 -21 -2 -24 -16 -11 -13 29 -25
right_child=1 2 3 5 -6 6 -8 11 9 16 -12 21 13 -15 25 -17 -18 -19 -20 22 -22 -23 24 28 -26 -27 -28 -29 -30 -31
leaf_value=-583.06194697148794 59.88350895400422 -4568.7305664062505 11171.362185142782 858.82569954749385 -39.521925469199175 1368.5269076260654 11096.609817504883 3233.6366172869184 7048.5750083705352 664.58485622610033 -355.85085449218752 -1175.9769817414833 -3649.5053287835772 -65.575954894734807 -1960.4664045061386 3050.2850894703588 214.26992177056351 -242.59380107673007 -2732.4597986975386 5556.0851408585258 3071.106332053208 2183.0883244536644 871.23976542881564 2637.1969901555703 3742.805103069803 2534.2320777529767 3928.4403156738285 949.44331473012778 169.58616047393821 431.04469918697191
leaf_weight=1769 6294 20 29 101 48705 22 20 97 35 2251 26 61 81 448 35 34 1509 24070 86 23 41 215 140 79 46 21 25 960 5615 6572
leaf_count=1769 6294 20 29 101 48705 22 20 97 35 2251 26 61 81 448 35 34 1509 24070 86 23 41 215 140 79 46 21 25 960 5615 6572
internal_value=0 360.448 1438.78 3853.2 -119.561 2369.1 6000.95 1131.84 289.692 635.488 3892.59 1217.37 216.607 -581.855 -2270.13 -269.731 585.743 -274.085 -682.711 811.318 241.719 1059.14 2018.82 235.469 1581.41 -274.954 700.436 822.459 325.566 457.249
internal_weight=0 24766 1525 172 74664 143 42 1353 23241 4055 61 1333 19186 585 137 25959 3994 25925 1855 2485 18601 1236 209 18560 186 56 2276 1021 12266 6651
internal_count=99430 24766 1525 172 74664 143 42 1353 23241 4055 61 1333 19186 585 137 25959 3994 25925 1855 2485 18601 1236 209 18560 186 56 2276 1021 12266 6651
is_linear=0
shrinkage=0.1


Tree=27
num_leaves=31
num_cat=0
split_feature=39 39 1 14 39 18 7 14 25 21 7 27 38 32 40 7 15 16 42 32 40 25 21 36 42 21 18 15 35 25
split_gain=3.47087e+11 1.5596e+11 8.53903e+10 7.60945e+10 7.52808e+10 4.63268e+10 4.19095e+10 1.5909e+11 3.94275e+10 3.88299e+10 3.68141e+10 7.44429e+10 4.87575e+10 3.39982e+10 3.22748e+10 3.11047e+10 3.59565e+10 5.44291e+10 8.53556e+10 3.051e+10 2.81142e+10 2.77554e+10 2.60972e+10 2.60236e+10 3.15839e+10 2.57606e+10 2.52361e+10 2.40675e+10 3.06972e+10 2.35754e+10
threshold=67664.835164835167 158895.60439560443 672500.00000000012 855500.00000000012 29582.417582417587 101500.00000000001 -91499.999999999985 410000.00000000006 483500.00000000006 197500.00000000003 -166499.99999999997 130500.00000000001 90500.000000000015 84500.000000000015 78650.000000000015 9500.0000000000018 7500.0000000000009 139500.00000000003 30166.666666666668 7500.0000000000009 145383.33333333334 152500.00000000003 11500.000000000002 101500.00000000001 30166.666666666668 148500.00000000003 53500.000000000007 168500.00000000003 177500.00000000003 230500.00000000003
decision_type=2 2 2 8 2 10 8 8 10 10 10 8 10 8 10 10 8 8 10 8 8 8 8 10 10 10 10 10 10 10
left_child=4 5 6 -4 -1 9 7 -3 13 27 11 12 -7 -8 15 16 17 22 -19 -17 -15 25 -6 24 -12 -22 -18 29 -29 -2
right_child=1 2 3 -5 14 10 8 -9 -10 -11 23 -13 -14 20 -16 19 26 18 -20 -21 21 -23 -24 -25 -26 -27 -28 28 -30 -31
leaf_value=-272.99164853289318 184.65379853411753 660.11723526545939 1951.8211805555557 10090.027799072266 921.82542046324852 8950.2077978515626 -2984.23353396329 11050.197282714844 4137.3934088291271 -1694.0802164622719 4028.3800311053237 -1515.4258876953127 2128.0925168124113 4370.6378011067709 -3326.4170898437501 -955.11558035675591 -78.582903175905159 8524.7284162248889 803.75413990444611 -160.32235323725652 1734.3601687869514 1043.8807930556966 57.848720393572833 218.96715771096544 595.9141358939961 -1395.0417315137256 90.736599172227216 -1064.0829080566407 3007.3404736328125 3257.8230180892947
leaf_weight=20435 16593 56 27 20 511 20 22 20 39 112 27 25 22 24 30 507 28303 21 45 10197 37 1494 1107 2817 3757 91 12776 250 20 25
leaf_count=20435 16593 56 27 20 511 20 22 20 39 112 27 25 22 24 30 507 28303 21 45 10197 37 1494 1107 2817 3757 91 12776 250 20 25
internal_value=0 318.144 1207.57 5414.89 -109.723 249.374 1096.66 3394.35 994.365 161.753 472.763 2805.02 5376.72 920.877 -47.3568 -45.5169 -7.35686 445.534 3260.43 -197.968 973.072 922.799 330.712 449.09 620.406 -490.449 -25.9228 174.06 -762.496 189.277
internal_weight=0 25498 1830 47 73932 23668 1783 76 1707 17000 6668 67 42 1668 53497 53467 42763 1684 66 10704 1646 1622 1618 6601 3784 128 41079 16888 270 16618
internal_count=99430 25498 1830 47 73932 23668 1783 76 1707 17000 6668 67 42 1668 53497 53467 42763 1684 66 10704 1646 1622 1618 6601 3784 128 41079 16888 270 16618
is_linear=0
shrinkage=0.1


Tree=28
num_leaves=31
num_cat=0
split_feature=39 39 39 42 40 18 18 34 18 29 25 18 21 27 6 42 33 32 18 17 22 8 36 29 34 18 39 13 32 27
split_gain=2.91611e+11 1.20792e+11 9.04979e+10 1.06847e+11 4.62062e+10 1.08478e+11 4.58086e+10 5.07496e+10 4.26134e+10 3.84029e+10 3.70484e+10 3.5988e+10 4.11863e+10 3.37112e+10 3.34898e+10 3.30867e+10 3.30485e+10 3.19024e+10 3.16543e+10 3.04565e+10 3.41341e+10 2.99925e+10 2.95993e+10 3.24324e+10 3.48092e+10 3.15712e+10 2.9266e+10 2.8554e+10 2.82834e+10 2.74494e+10
threshold=102758.24175824177 44659.340659340676 252285.71428571432 205833.33333333334 95350.000000000015 80500.000000000015 582500.00000000012 517000.00000000006 359000.00000000006 634000.00000000012 79500.000000000015 65500.000000000007 159500.00000000003 96500.000000000015 1.5000000000000002 9833.3333333333339 247500.00000000003 32500.000000000004 78500.000000000015 199500.00000000003 71500.000000000015 97500.000000000015 101500.00000000001 35500.000000000007 85500.000000000015 175500.00000000003 8675.8241758241784 468500.00000000006 84500.000000000015 86500.000000000015
decision_type=2 2 2 10 8 10 10 10 10 10 8 10 10 10 2 10 8 10 10 10 10 10 10 8 10 10 2 8 10 8
left_child=1 26 4 -4 5 -2 7 16 10 -8 18 12 13 19 -13 29 -5 -15 28 -3 -21 27 23 24 -12 -25 -1 -18 -6 -16
right_child=2 11 3 6 8 -7 9 -9 -10 -11 22 14 -14 17 15 -17 21 -19 -20 20 -22 -23 -24 25 -26 -27 -28 -29 -30 -31
leaf_value=-534.20477205790678 -1321.296689160665 6.6156743816389509 7623.7126982717809 -1931.1481884765626 -3733.1044859643075 8001.8554020808297 1206.2300159801136 -3695.2803648312893 5087.8053289794925 6789.3444431849894 6461.4930316162108 366.27790096208622 -2036.5266916503908 -1715.8155636154604 568.79680371093752 61.0781317922794 1771.7958134922415 -227.80390025590825 -24.727102314192674 358.21646635267473 5290.0155666185465 -814.85418395996101 293.71419578000888 558.71356268753118 912.37262432391844 1417.883813229636 -159.01709393087364 5054.7688155691967 319.55182682917666 5539.1531298828122
leaf_weight=2196 24 31340 33 25 51 26 22 21 20 28 20 5728 100 214 25 11727 109 441 232 36 23 32 3532 3796 26 482 39040 35 26 20
leaf_count=2196 24 31340 33 25 51 26 22 21 20 28 20 5728 100 214 25 11727 109 441 232 36 23 32 3532 3796 26 482 39040 35 26 20
internal_value=0 -52.4946 558.692 2250.19 496.044 3526.74 1598.26 982.377 477.53 4332.77 466.238 52.5619 -10.2444 -3.9229 167.96 71.4633 1471.09 -713.963 -607.821 10.8889 2280.78 1954.36 508.484 683.915 3325.03 655.516 -178.998 2569.74 -2364.68 2777.84
internal_weight=0 90890 8540 305 8235 50 272 222 8185 50 8165 49654 32154 32054 17500 11772 201 655 309 31399 59 176 7856 4324 46 4278 41236 144 77 45
internal_count=99430 90890 8540 305 8235 50 272 222 8185 50 8165 49654 32154 32054 17500 11772 201 655 309 31399 59 176 7856 4324 46 4278 41236 144 77 45
is_linear=0
shrinkage=0.1


Tree=29
num_leaves=31
num_cat=0
split_feature=39 39 11 18 35 7 4 15 18 0 1 42 15 23 16 32 16 7 14 23 6 28 36 24 27 24 15 16 17 41
split_gain=2.38463e+11 1.05625e+11 8.24888e+10 4.33785e+10 4.95805e+10 4.85619e+10 7.55611e+10 2.48862e+11 3.91762e+10 3.76686e+10 7.23704e+10 3.56681e+10 3.45186e+10 3.08807e+10 2.96952e+10 2.93447e+10 3.75922e+10 2.6883e+10 3.51578e+10 8.51072e+10 3.63333e+10 3.28883e+10 2.6105e+10 5.19638e+10 6.04139e+10 2.82051e+10 2.58725e+10 2.48196e+10 2.41517e+10 3.08544e+10
threshold=111313.18681318683 53593.406593406602 230500.00000000003 582500.00000000012 561500.00000000012 16500.000000000004 55.428932925000005 263500.00000000006 32500.000000000004 634831.50000000012 256500.00000000003 19166.666666666668 102500.00000000001 93500.000000000015 145500.00000000003 88500.000000000015 161500.00000000003 -10499.999999999998 1.0000000180025095e-35 121500.00000000001 1.5000000000000002 225500.00000000003 129500.00000000001 176500.00000000003 193500.00000000003 90500.000000000015 329000.00000000006 152500.00000000003 282500.00000000006 40785.714285714297
decision_type=2 2 8 10 10 8 2 8 10 2 2 8 8 10 10 8 10 10 8 8 2 10 10 10 8 8 10 10 10 8
left_child=1 8 17 5 -5 6 7 -4 13 -7 14 -3 -8 -1 -11 16 -13 18 19 -2 22 -22 23 25 -25 -20 28 -23 29 -19
right_child=2 11 3 4 -6 9 12 -9 -10 10 -12 15 -14 -15 -16 -17 -18 26 20 -21 21 27 -24 24 -26 -27 -28 -29 -30 -31
leaf_value=-200.31033868162982 7882.752033001444 1302.7277055324857 -1196.0899364471436 7342.9460111177896 1105.8315312500001 1434.3846328324803 4860.9959716796875 12777.482459960938 -40.060256500324229 650.56679343246833 -5861.7450472745031 -1.0726699021707988 1267.6274575796742 -1658.2375811746676 -3430.8889282226564 167.856957711365 -1864.1322864497474 -3648.8650012207031 4578.9382265624999 282.6869959389291 468.21710150820036 -4214.2707463191109 315.50746283437695 8999.041677246094 1625.2669897460937 1113.2724170320103 -2936.2825449218753 -264.64594302293733 3071.093653918851 289.105445559364
leaf_weight=29602 23 241 26 26 25 223 29 25 26372 164 22 16959 342 146 20 18925 109 20 25 41 1468 26 204 20 25 387 25 41 31 3838
leaf_count=29602 23 241 26 26 25 223 29 25 26372 164 22 16959 342 146 20 18925 109 20 25 41 1468 26 204 20 25 387 25 41 31 3838
internal_value=0 -42.8665 559.481 1452.75 4285.54 1282.99 2044.64 5653.7 -128.798 533.764 -441.181 90.2265 1548.51 -207.466 206.93 82.1079 -12.9706 428.977 703.584 3013.96 636.251 369.33 1256.11 1675.98 4902.5 1323.57 270.415 -1797.34 291.029 268.691
internal_weight=0 92354 7076 902 51 851 422 51 56120 429 206 36234 371 29748 184 35993 17068 6174 2260 64 2196 1535 661 457 45 412 3914 67 3889 3858
internal_count=99430 92354 7076 902 51 851 422 51 56120 429 206 36234 371 29748 184 35993 17068 6174 2260 64 2196 1535 661 457 45 412 3914 67 3889 3858
is_linear=0
shrinkage=0.1


Tree=30
num_leaves=31
num_cat=0
split_feature=10 10 12 1 0 0 17 10 6 31 8 17 10 10 1 42 14 24 3 15 37 23 35 38 35 6 1 26 42 32
split_gain=1.7786e+11 8.29725e+10 6.88195e+10 5.96539e+10 4.83167e+10 1.28939e+11 4.1191e+10 3.93059e+10 3.78212e+10 3.746e+10 4.03049e+10 4.22047e+10 8.71294e+10 3.7303e+10 7.55413e+10 3.47757e+10 5.54954e+10 3.46195e+10 3.54349e+10 3.16395e+10 4.59245e+10 7.09975e+10 5.95369e+10 2.84256e+10 2.79606e+10 2.76409e+10 3.27955e+10 2.83699e+10 2.73456e+10 2.91218e+10
threshold=65500.000000000007 167500.00000000003 396000.00000000006 480500.00000000006 676433.00000000012 677542.00000000012 243500.00000000003 479500.00000000006 1.5000000000000002 344500.00000000006 59500.000000000007 116500.00000000001 182500.00000000003 28500.000000000004 259500.00000000003 74500.000000000015 97500.000000000015 195500.00000000003 37.693007680000001 953500.00000000012 1045500.0000000001 734500.00000000012 561500.00000000012 295500.00000000006 26500.000000000004 1.5000000000000002 143500.00000000003 69500.000000000015 1.0000000180025095e-35 4500.0000000000009
decision_type=10 10 8 2 2 2 10 10 2 10 10 8 10 8 2 10 10 10 2 8 8 8 10 10 8 2 2 8 8 8
left_child=3 8 7 6 19 -6 13 9 -2 10 11 12 -3 17 25 16 -12 28 -19 20 22 -22 -4 -13 -10 -15 -27 -28 -1 -30
right_child=1 2 4 -5 5 -7 -8 -9 24 -11 15 23 -14 14 -16 -17 -18 18 -20 -21 21 -23 -24 -25 -26 26 27 -29 29 -31
leaf_value=463.48047182494275 346.74388189424764 -791.34551129548447 3334.7718986697314 5243.1892333984379 11360.92244140625 588.48697607421877 3556.9990179246474 -3185.0149369981555 751.41251914112343 4427.1000366210938 -433.4519633366512 769.4104441875561 7515.2759823390415 85.913220631179897 -5898.9689885919752 -155.86836179335342 6478.1866582961311 -5837.5873612837358 -94.721735491071442 124.9182900506097 1089.3796561104912 9131.5664894435722 -3113.7466752485798 4570.9960510253904 61.633496786790857 -90.551161090955929 -2196.772348603748 1712.5204743194581 -601.42545435256477 -176.31078609009984
leaf_weight=617 7658 23 41 21 20 25 31 27 607 26 26 1188 28 13166 22 695 21 22 21 74 21 23 22 20 18445 35395 21 160 1759 19205
leaf_count=617 7658 23 41 21 20 25 31 27 607 26 26 1188 28 13166 22 695 21 22 21 74 21 23 22 20 18445 35395 21 160 1759 19205
internal_value=0 208.481 787.526 -85.8016 2443.81 5376.24 -87.3907 605.287 159.053 655.774 606.772 951.316 3769.15 -88.9958 -40.5182 22.1613 2654.73 -198.317 -3032.93 1714.75 2814.26 5293.25 1082.91 832.351 83.61 -37.874 -83.6853 1258.96 -192.669 -211.98
internal_weight=0 28990 2280 70440 226 45 70419 2054 26710 2027 2001 1259 51 70388 48764 742 47 21624 43 181 107 44 63 1208 19052 48742 35576 181 21581 20964
internal_count=99430 28990 2280 70440 226 45 70419 2054 26710 2027 2001 1259 51 70388 48764 742 47 21624 43 181 107 44 63 1208 19052 48742 35576 181 21581 20964
is_linear=0
shrinkage=0.1


end of trees

feature_importances:
mean_income_all=185
income_10_day_before=70
income_3_day_before=63
income_2_day_before=48
mean_income_last_3_days=48
mean_income_last_30_days=33
income_4_day_before=32
income_24_day_before=32
yesterday_income_growth=31
mean_income_last_7_days=25
money_in=23
income_1_day_before=22
income_17_day_before=21
income_9_day_before=20
yesterday_growth_of_income_growth=17
latitude=15
weekday=14
income_5_day_before=14
income_6_day_before=13
income_8_day_before=13
income_16_day_before=13
income_7_day_before=12
income_22_day_before=12
income_15_day_before=11
income_20_day_before=11
income_23_day_before=11
income_28_day_before=11
day=10
income_18_day_before=10
income_27_day_before=10
TID=9
income_19_day_before=9
income_11_day_before=8
income_13_day_before=8
income_14_day_before=8
income_30_day_before=8
money=6
income_26_day_before=6
income_12_day_before=5
income_21_day_before=5
income_29_day_before=4
longitude=2
income_25_day_before=2

parameters:
[boosting: gbdt]
[objective: regression]
[metric: l2]
[tree_learner: serial]
[device_type: cpu]
[data: ]
[valid: ]
[num_iterations: 31]
[learning_rate: 0.1]
[num_leaves: 31]
[num_threads: -1]
[deterministic: 0]
[force_col_wise: 0]
[force_row_wise: 0]
[histogram_pool_size: -1]
[max_depth: -1]
[min_data_in_leaf: 20]
[min_sum_hessian_in_leaf: 0.001]
[bagging_fraction: 0.7]
[pos_bagging_fraction: 1]
[neg_bagging_fraction: 1]
[bagging_freq: 0]
[bagging_seed: 3014]
[feature_fraction: 0.7]
[feature_fraction_bynode: 1]
[feature_fraction_seed: 29554]
[extra_trees: 0]
[extra_seed: 19515]
[early_stopping_round: 0]
[first_metric_only: 0]
[max_delta_step: 0]
[lambda_l1: 0]
[lambda_l2: 0]
[linear_lambda: 0]
[min_gain_to_split: 0]
[drop_rate: 0.1]
[max_drop: 50]
[skip_drop: 0.5]
[xgboost_dart_mode: 0]
[uniform_drop: 0]
[drop_seed: 12050]
[top_rate: 0.2]
[other_rate: 0.1]
[min_data_per_group: 100]
[max_cat_threshold: 32]
[cat_l2: 10]
[cat_smooth: 10]
[max_cat_to_onehot: 4]
[top_k: 20]
[monotone_constraints: ]
[monotone_constraints_method: basic]
[monotone_penalty: 0]
[feature_contri: ]
[forcedsplits_filename: ]
[refit_decay_rate: 0.9]
[cegb_tradeoff: 1]
[cegb_penalty_split: 0]
[cegb_penalty_feature_lazy: ]
[cegb_penalty_feature_coupled: ]
[path_smooth: 0]
[interaction_constraints: ]
[verbosity: -1]
[saved_feature_importance_type: 0]
[linear_tree: 0]
[max_bin: 255]
[max_bin_by_feature: ]
[min_data_in_bin: 3]
[bin_construct_sample_cnt: 200000]
[data_random_seed: 126]
[is_enable_sparse: 1]
[enable_bundle: 1]
[use_missing: 1]
[zero_as_missing: 0]
[feature_pre_filter: 1]
[pre_partition: 0]
[two_round: 0]
[header: 0]
[label_column: ]
[weight_column: ]
[group_column: ]
[ignore_column: ]
[categorical_feature: ]
[forcedbins_filename: ]
[precise_float_parser: 0]
[objective_seed: 25204]
[num_class: 1]
[is_unbalance: 0]
[scale_pos_weight: 1]
[sigmoid: 1]
[boost_from_average: 1]
[reg_sqrt: 0]
[alpha: 0.9]
[fair_c: 1]
[poisson_max_delta_step: 0.7]
[tweedie_variance_power: 1.5]
[lambdarank_truncation_level: 30]
[lambdarank_norm: 1]
[label_gain: ]
[eval_at: ]
[multi_error_top_k: 1]
[auc_mu_weights: ]
[num_machines: 1]
[local_listen_port: 12400]
[time_out: 120]
[machine_list_filename: ]
[machines: ]
[gpu_platform_id: -1]
[gpu_device_id: -1]
[gpu_use_dp: 0]
[num_gpu: 1]

end of parameters

pandas_categorical:[]
