tree
version=v3
num_class=1
num_tree_per_iteration=1
label_index=0
max_feature_idx=42
objective=regression
feature_names=TID money_in money longitude latitude day weekday yesterday_income_growth yesterday_growth_of_income_growth income_1_day_before income_2_day_before income_3_day_before income_4_day_before income_5_day_before income_6_day_before income_7_day_before income_8_day_before income_9_day_before income_10_day_before income_11_day_before income_12_day_before income_13_day_before income_14_day_before income_15_day_before income_16_day_before income_17_day_before income_18_day_before income_19_day_before income_20_day_before income_21_day_before income_22_day_before income_23_day_before income_24_day_before income_25_day_before income_26_day_before income_27_day_before income_28_day_before income_29_day_before income_30_day_before mean_income_all mean_income_last_30_days mean_income_last_7_days mean_income_last_3_days
feature_infos=[406136:699664] [0:2697000] [0:6019000] [35.500558769999998:39.842458970000003] [54.458422939999998:56.757842529999998] [1:31] [0:6] [-2214000:2697000] [-4911000:2697000] [0:2697000] [0:2697000] [0:2697000] [0:2697000] [0:2697000] [0:2697000] [0:2697000] [0:2697000] [0:2697000] [0:2697000] [0:2697000] [0:2697000] [0:2697000] [0:2697000] [0:2697000] [0:2697000] [0:2697000] [0:2697000] [0:2697000] [0:2697000] [0:2697000] [0:2697000] [0:2697000] [0:2697000] [0:2697000] [0:2697000] [0:2697000] [0:2697000] [0:2697000] [0:2697000] [2274.7252747252742:734461.5384615385] [0:843500] [0:917142.85714285716] [0:1247000]
tree_sizes=2838 2852 2873 2861 2872 2868 2891 2860 2899 2869 2855 2884 2895 2838 2848 2850 2844 2848 2830 2852 2839 2864 2820 2848 2822 2844 2860 2829 2826 2837 2890 2854

Tree=0
num_leaves=31
num_cat=0
split_feature=39 39 39 39 4 39 39 39 39 11 39 39 39 36 39 39 39 26 26 39 30 39 19 15 14 36 19 7 9 4
split_gain=7.93702e+13 2.87026e+13 2.14798e+13 9.86963e+12 5.61425e+12 3.97271e+12 3.60603e+12 1.68934e+12 1.40279e+12 1.08304e+12 6.41775e+11 5.27348e+11 4.8792e+11 3.00815e+11 2.70986e+11 2.66767e+11 1.986e+11 1.80619e+11 1.73255e+11 1.68072e+11 1.9446e+11 1.61528e+11 1.95215e+11 1.91218e+11 2.12144e+11 1.59656e+11 1.02306e+11 9.46007e+10 1.21559e+11 9.43921e+10
threshold=83862.637362637368 252285.71428571432 43285.71428571429 133060.43956043958 55.950833515000006 60736.26373626374 23967.03296703297 106637.36263736265 171978.02197802201 373000.00000000006 70879.120879120892 33697.802197802208 51142.857142857152 609500.00000000012 200807.69230769234 14615.384615384619 95675.824175824164 385500.00000000006 303000.00000000006 120565.93406593408 173500.00000000003 145791.20879120883 1.0000000180025095e-35 72500.000000000015 72500.000000000015 159500.00000000003 174500.00000000003 -49499.999999999993 294000.00000000006 55.681791825000005
decision_type=2 2 2 2 2 2 2 2 2 10 2 2 2 10 2 2 2 8 8 2 10 2 8 8 10 8 8 8 10 2
left_child=2 3 6 7 9 12 15 16 21 18 -7 -8 -4 -6 -10 -1 -2 -11 -3 -9 -21 -5 -23 24 -24 -22 -16 -20 -29 -27
right_child=1 4 5 8 13 10 11 19 14 17 -12 -13 -14 -15 26 -17 -18 -19 27 20 25 22 23 -25 -26 29 -28 28 -30 -31
leaf_value=51620.354171958228 59567.551722250479 77324.148646203044 55278.579022121427 64479.674756642649 127292.89983579793 57113.891482614235 53490.506976212593 61875.594408646924 68874.319617976114 86622.897745324124 58306.84574129153 54433.571562201774 56126.989745048144 113246.2324198033 65747.444210611779 52480.10009874979 60659.604224705537 97365.119971886626 90207.897550011636 63394.798827698134 63017.427040621435 58130.829710571976 80432.898389855385 66161.264371669691 67380.777562070696 58989.773609581942 72826.821105113224 78278.612996440206 86738.352666015417 50788.898489464758
leaf_weight=7503 4758 64 13115 915 31 10675 10370 2196 915 20 7808 13847 14030 30 22 6954 2562 72 20 1842 53 29 20 1138 33 32 283 35 33 25
leaf_count=7503 4758 64 13115 915 31 10675 10370 2196 915 20 7808 13847 14030 30 22 6954 2562 72 20 1842 53 29 20 1138 33 32 283 35 33 25
internal_value=56214.3 62883.9 55017.5 62259.1 93249.9 56487 53283.7 60863.4 67029.8 86466.3 57617.8 54029.7 55717.1 120385 69734.8 52033.9 59949.8 95029.9 81283 62475.7 63150.9 65484 66237.3 66434.7 72306.1 59066.5 72316.2 84162.2 82384.1 55392.9
internal_weight=0 15128 84302 14823 305 45628 38674 11468 3355 244 18483 24217 27145 61 1220 14457 7320 92 152 4148 1952 2135 1220 1191 53 110 305 88 68 57
internal_count=99430 15128 84302 14823 305 45628 38674 11468 3355 244 18483 24217 27145 61 1220 14457 7320 92 152 4148 1952 2135 1220 1191 53 110 305 88 68 57
is_linear=0
shrinkage=1


Tree=1
num_leaves=31
num_cat=0
split_feature=39 39 39 39 4 39 39 39 39 11 39 12 39 39 40 19 39 39 39 12 36 25 0 15 19 12 12 39 19 19
split_gain=6.43079e+13 2.45341e+13 1.46715e+13 1.0369e+13 4.54754e+12 2.57554e+12 2.2772e+12 1.77633e+12 1.48895e+12 8.77266e+11 3.53316e+11 3.4531e+11 3.32501e+11 2.83404e+11 2.79493e+11 2.75391e+11 2.71321e+11 2.33971e+11 1.94858e+11 1.94788e+11 1.54732e+11 1.34255e+11 1.62276e+11 1.29836e+11 1.0004e+11 1.41262e+11 9.63033e+10 8.98678e+10 8.26957e+10 7.49195e+10
threshold=76483.516483516505 252285.71428571432 40428.571428571442 128813.18681318681 55.950833515000006 56357.142857142862 23291.208791208792 99912.087912087925 158895.60439560443 373000.00000000006 67423.076923076951 205500.00000000003 47818.681318681323 31840.659340659342 145383.33333333334 796500.00000000012 115593.4065934066 86967.032967032981 13247.252747252749 173500.00000000003 400000.00000000006 315500.00000000006 634541.00000000012 71500.000000000015 78500.000000000015 42500.000000000007 84500.000000000015 187060.43956043958 280500.00000000006 247500.00000000003
decision_type=2 2 2 2 2 2 2 2 2 10 2 10 2 2 10 8 2 2 2 10 8 8 2 8 8 10 8 2 10 10
left_child=2 3 6 7 9 12 18 17 19 21 -7 26 -4 -8 16 -6 -9 -2 -1 24 -11 -3 28 -21 25 -5 -10 -13 -23 -26
right_child=1 4 5 8 15 10 13 14 11 20 -12 27 -14 -15 -16 -17 -18 -19 -20 23 -22 22 -24 -25 29 -27 -28 -29 -30 -31
leaf_value=-4209.7211642808215 2331.4542508594841 19470.144927226029 -1082.3175842558901 -2793.8767467151993 49116.826970108697 488.92851271811236 -2564.8357165321631 4548.0009999744234 5262.9103222656258 27618.639302201704 1386.640893957672 11558.362262228262 -372.55743629914542 -1810.2386084326679 -1247.1087918931162 62980.693092105263 6057.9219768997918 3308.2932858270815 -3458.2548904854239 17078.276484375001 37233.074789341517 19169.181155303031 31889.596079664963 9539.4457266408099 7502.2732267274641 6408.4397358327678 11005.294820253126 15129.619186046513 27318.241953125005 12804.78683449074
leaf_weight=6222 5551 73 12932 22 23 12871 8723 2928 30 22 6649 92 13481 11590 69 38 2005 4392 7747 25 70 33 26 265 2032 69 1102 301 20 27
leaf_count=6222 5551 73 12932 22 23 12871 8723 2928 30 22 6649 92 13481 11590 69 38 2005 4392 7747 25 70 33 26 265 2032 69 1102 301 20 27
internal_value=0 5196.14 -1244.7 4742.34 33332.1 -76.333 -2810.15 3536.2 9288.55 27226.7 794.712 11739.7 -720.061 -2134.28 5073.3 57753.3 5161.7 2762.94 -3792.97 7756.55 34934 22561.8 25418.7 10189.3 7428.4 4183.7 10853.1 14293.6 22244.3 7571.81
internal_weight=0 19215 80215 18910 305 45933 34282 14945 3965 244 19520 1525 26413 20313 5002 61 4933 9943 13969 2440 92 152 79 290 2150 91 1132 393 53 2059
internal_count=99430 19215 80215 18910 305 45933 34282 14945 3965 244 19520 1525 26413 20313 5002 61 4933 9943 13969 2440 92 152 79 290 2150 91 1132 393 53 2059
is_linear=0
shrinkage=0.1


Tree=2
num_leaves=31
num_cat=0
split_feature=39 39 39 39 4 39 39 39 12 11 39 39 40 39 39 39 19 39 12 32 39 2 14 12 40 40 40 39 26 12
split_gain=5.21376e+13 1.88268e+13 1.41464e+13 6.51055e+12 3.68351e+12 2.78151e+12 2.21331e+12 1.10885e+12 9.55033e+11 7.10586e+11 4.07129e+11 3.81232e+11 2.6926e+11 2.66126e+11 2.6218e+11 2.24922e+11 2.23067e+11 1.876e+11 1.75132e+11 1.30922e+11 1.30634e+11 1.24342e+11 1.52732e+11 1.08929e+11 9.96545e+10 9.20093e+10 7.48211e+10 7.38724e+10 7.28777e+10 1.05994e+11
threshold=83862.637362637368 252285.71428571432 42313.186813186818 133060.43956043958 55.950833515000006 60978.021978021985 25016.48351648352 106637.36263736265 173500.00000000003 373000.00000000006 72186.813186813204 52807.692307692312 145383.33333333334 187060.43956043958 35324.175824175829 16554.945054945059 796500.00000000012 158895.60439560443 122500.00000000001 434500.00000000006 93934.065934065948 517500.00000000006 410000.00000000006 100500.00000000001 99950.000000000015 135583.33333333334 30083.333333333339 46115.384615384624 44500.000000000007 95500.000000000015
decision_type=2 2 2 2 2 2 2 2 10 10 2 2 10 2 2 2 8 2 10 8 2 2 10 10 8 8 8 2 8 10
left_child=2 3 6 7 9 11 15 20 17 21 -7 27 18 -10 -8 -1 -6 28 -9 -11 -2 -3 -23 -12 -20 -19 -13 -4 29 -5
right_child=1 4 5 8 16 10 14 12 13 19 23 26 -14 -15 -16 -17 -18 25 24 -21 -22 22 -24 -25 -26 -27 -28 -29 -30 -31
leaf_value=-3654.1981024325974 2643.6895293173716 16812.289600409837 -975.10607336131932 -2456.4287194824219 44205.14266304348 780.45479172019577 -2106.3391103456875 4649.5706923137623 9799.5199160346401 24711.574272017046 1630.507851510547 5726.7012514860735 -1122.3979938009511 12823.355757125511 -1416.1398258110121 -2869.9582444015214 56682.623972039473 15383.595312500001 13005.7037890625 33555.403346121653 3492.8413846814424 24891.252020089287 15167.659075055804 3014.7405882713124 5902.4380361923068 8790.9848476797506 17.291122312686348 -553.31301968143885 7056.8462015305267 7226.7348707932688
leaf_weight=9272 4026 61 6771 20 23 11102 11651 2475 719 22 6391 23 69 489 10431 6039 38 22 20 70 3294 70 21 624 1584 561 11262 10736 1518 26
leaf_count=9272 4026 61 6771 20 23 11102 11651 2475 719 22 6391 23 69 489 10431 6039 38 22 20 70 3294 70 21 624 1584 561 11262 10736 1518 26
internal_value=0 5405.61 -970.037 4899.58 29998.8 186.532 -2420.94 3766.02 8774.28 24504.1 1157.28 -424.297 5072.28 11023.6 -1780.31 -3344.88 51978 7508.73 5177.07 31440.6 3025.81 20305.6 22647.3 1753.64 5991.01 9039.76 28.9275 -716.446 6938.02 3016.66
internal_weight=0 15128 84302 14823 305 46909 37393 11468 3355 244 18117 28792 4148 1208 22082 15311 61 2147 4079 92 7320 152 91 7015 1604 583 11285 17507 1564 46
internal_count=99430 15128 84302 14823 305 46909 37393 11468 3355 244 18117 28792 4148 1208 22082 15311 61 2147 4079 92 7320 152 91 7015 1604 583 11285 17507 1564 46
is_linear=0
shrinkage=0.1


Tree=3
num_leaves=31
num_cat=0
split_feature=39 39 39 39 19 39 39 39 39 18 9 39 39 39 39 40 3 39 19 39 24 39 8 33 40 33 16 19 40 39
split_gain=4.22733e+13 1.60911e+13 9.64022e+12 6.86728e+12 2.15377e+12 1.65596e+12 1.54452e+12 1.09035e+12 1.02778e+12 9.28147e+11 3.7779e+11 2.41579e+11 2.38443e+11 2.17321e+11 2.11511e+11 1.87353e+11 1.56608e+11 1.49694e+11 1.33908e+11 1.31988e+11 1.26059e+11 1.14452e+11 1.01875e+11 8.80632e+10 8.39395e+10 9.409e+10 7.71214e+10 7.48333e+10 7.33765e+10 6.60425e+10
threshold=76483.516483516505 252285.71428571432 40736.263736263747 126521.97802197804 694500.00000000012 56357.142857142862 21983.516483516487 158895.60439560443 98329.670329670349 381000.00000000006 532500.00000000012 66554.94505494507 30445.054945054948 200807.69230769234 48697.802197802208 150483.33333333337 37.547404760000006 111313.18681318683 163500.00000000003 85637.362637362647 303000.00000000006 11692.307692307693 28500.000000000004 222500.00000000003 115150.00000000001 122500.00000000001 304500.00000000006 174500.00000000003 85816.666666666672 145791.20879120883
decision_type=2 2 2 2 10 2 2 2 2 8 10 2 2 2 2 10 2 2 10 2 10 2 8 10 8 8 10 8 10 2
left_child=2 3 6 8 9 14 21 18 19 20 16 -7 -8 -9 -4 17 -11 -10 23 -2 26 -1 -18 24 -5 -26 -3 -15 -13 -27
right_child=1 4 5 7 -6 11 12 13 15 10 -12 28 -14 27 -16 -17 22 -19 -20 -21 -22 -23 -24 -25 25 29 -28 -29 -30 -31
leaf_value=-3511.8981413499309 1838.1215195477912 13687.143070913462 -837.95230601130606 8873.2225517805236 48945.132532051284 369.9424302493714 -2167.7880491499677 8921.0222041445868 3472.7297546711316 18855.50931919643 39125.955090725809 1128.626605323687 -1483.6560616692614 6287.4430153586654 -265.53301821849385 -5239.6053089488641 31572.527510579428 4562.7452076941545 7812.5288101411206 2580.6128551455895 22109.040205792684 -2897.4884585835312 24739.316977539063 10935.43452652202 4112.1243881367309 5568.4905062595944 20788.23486328125 12342.14448293949 -1897.8141395097898 6859.2169727077389
leaf_weight=4758 4819 65 14030 86 39 12139 8235 1220 2562 21 31 7300 13359 22 11956 22 48 2479 426 4758 41 8357 40 34 323 1307 20 283 81 569
leaf_count=4758 4819 65 14030 86 39 12139 8235 1220 2562 21 31 7300 13359 22 11956 22 48 2479 426 4758 41 8357 40 34 323 1307 20 283 81 569
internal_value=0 4212.91 -1009.18 3845.39 26999 -51.7558 -2264.42 7374 2816.21 23781.3 29385.2 644.261 -1744.55 9517.9 -574.586 3968.58 26614.9 4008.76 6182.94 2207 17554.8 -3120.39 28466.5 5883.58 5808.41 5688.55 15358 11905.4 1095.41 5959.97
internal_weight=0 19215 80215 18910 305 45506 34709 4270 14640 266 140 19520 21594 1525 25986 5063 109 5041 2745 9577 126 13115 88 2319 2285 2199 85 305 7381 1876
internal_count=99430 19215 80215 18910 305 45506 34709 4270 14640 266 140 19520 21594 1525 25986 5063 109 5041 2745 9577 126 13115 88 2319 2285 2199 85 305 7381 1876
is_linear=0
shrinkage=0.1


Tree=4
num_leaves=31
num_cat=0
split_feature=39 39 39 39 4 39 39 12 39 11 39 36 39 11 40 39 33 39 39 12 33 12 26 12 19 40 40 5 19 12
split_gain=3.42499e+13 1.26808e+13 8.60224e+12 4.88514e+12 2.48604e+12 1.61792e+12 1.34598e+12 8.43412e+11 7.34396e+11 4.73125e+11 2.43647e+11 2.35533e+11 2.19005e+11 2.09995e+11 1.79789e+11 1.67868e+11 1.51373e+11 1.48964e+11 1.39765e+11 1.37323e+11 1.12445e+11 1.10447e+11 9.52465e+10 8.21461e+10 7.84232e+10 7.66078e+10 7.50091e+10 7.33285e+10 7.02227e+10 9.63632e+10
threshold=80351.648351648371 252285.71428571432 41615.384615384632 128813.18681318681 55.950833515000006 59532.967032967041 25796.703296703297 173500.00000000003 102758.24175824177 373000.00000000006 50010.989010989018 609500.00000000012 68505.494505494527 209500.00000000003 145383.33333333334 16978.021978021981 408000.00000000006 158895.60439560443 34230.769230769241 122500.00000000001 239500.00000000003 85500.000000000015 276500.00000000006 102500.00000000001 154500.00000000003 85816.666666666672 135583.33333333334 15.500000000000002 78500.000000000015 42500.000000000007
decision_type=2 2 2 2 2 2 2 10 2 10 2 10 2 10 10 2 8 2 2 10 10 10 8 10 8 10 8 2 8 10
left_child=2 3 6 8 9 10 15 17 21 22 -4 -6 -7 20 19 -1 -11 28 -8 -10 24 -2 -3 25 -9 -14 -19 -16 29 -5
right_child=1 4 5 7 11 12 18 13 14 16 -12 -13 23 -15 27 -17 -18 26 -20 -21 -22 -23 -24 -25 -26 -27 -28 -29 -30 -31
leaf_value=-2953.6888166923773 1799.8265228335886 12559.168639605979 -692.36080698570925 -3058.4274613813923 48468.420463709685 496.39516108610809 -1742.1911787771087 5777.3787019617421 3522.0869972591036 17986.506733630955 -109.83623589304086 36039.034765625001 1160.6486001436228 11196.090667432109 2175.4230823863636 -2282.0859824438171 27651.020235475353 12953.132883522729 -1215.8296237728102 4744.9481732793265 14020.757418823243 2533.2020547822121 18008.138509728775 2557.618299030808 8387.1031281533487 -1894.6395801957833 7000.6472026097372 -4350.6628580729166 5543.1996903095742 4542.0439469931789
leaf_weight=9699 3554 46 14640 22 31 9943 9516 136 2845 21 14091 30 7301 313 33 6039 71 22 10736 1356 32 4864 106 424 751 83 561 36 2059 69
leaf_count=9699 3554 46 14640 22 31 9943 9516 136 2845 21 14091 30 7301 313 33 6039 71 22 10736 1356 32 4864 106 424 751 83 561 36 2059 69
internal_value=0 4092.95 -841.599 3722.88 24299.1 57.0729 -2002.26 6786.73 2765.43 19784.9 -406.664 42355.6 807.657 8958.99 3833.64 -2695.98 25445 5807.5 -1463.16 3916.8 8197.06 2223.58 16359.1 1204.03 7986.96 1126.31 7225.27 -1229.49 5423.05 2704.57
internal_weight=0 16958 82472 16653 305 46482 35990 3965 12688 244 28731 61 17751 1232 4270 15738 92 2733 20252 4201 919 8418 152 7808 887 7384 583 69 2150 91
internal_count=99430 16958 82472 16653 305 46482 35990 3965 12688 244 28731 61 17751 1232 4270 15738 92 2733 20252 4201 919 8418 152 7808 887 7384 583 69 2150 91
is_linear=0
shrinkage=0.1


Tree=5
num_leaves=31
num_cat=0
split_feature=39 39 39 39 12 39 39 12 39 11 39 11 39 39 26 33 12 39 18 25 12 38 39 7 26 39 41 33 17 39
split_gain=2.77854e+13 1.05539e+13 6.3563e+12 4.51914e+12 1.90656e+12 1.32816e+12 8.0086e+11 7.7477e+11 6.80472e+11 4.1966e+11 1.9981e+11 1.88863e+11 1.64384e+11 1.57447e+11 1.7858e+11 1.24856e+11 1.20405e+11 1.14793e+11 1.13082e+11 1.08899e+11 8.80292e+10 7.74739e+10 7.66154e+10 7.451e+10 7.05951e+10 6.95053e+10 6.03953e+10 6.5643e+10 5.76601e+10 5.66991e+10
threshold=76483.516483516505 252285.71428571432 37868.131868131873 126521.97802197804 590500.00000000012 54752.747252747264 20576.923076923082 172500.00000000003 95675.824175824164 373000.00000000006 64796.703296703301 219500.00000000003 45862.637362637368 145791.20879120883 25500.000000000004 408000.00000000006 119500.00000000001 29296.703296703301 774000.00000000012 247500.00000000003 85500.000000000015 174500.00000000003 187060.43956043958 -76499.999999999985 276500.00000000006 11060.439560439563 128071.42857142859 24500.000000000004 87500.000000000015 108791.20879120882
decision_type=2 2 2 2 10 2 2 10 2 8 2 10 2 2 8 8 10 2 8 10 10 10 2 10 8 2 8 10 8 2
left_child=2 3 6 8 9 12 25 13 20 24 -7 19 -4 -5 -15 -11 29 -8 -6 22 -2 -18 28 -17 -3 -1 27 -16 -9 -10
right_child=1 4 5 7 18 10 17 11 16 15 -12 -13 -14 14 26 23 21 -19 -20 -21 -22 -23 -24 -25 -26 -27 -28 -29 -30 -31
leaf_value=-2919.5560775100207 1442.5496109024634 11303.251569930368 -842.95245131341289 4452.1054637036295 33602.149932065215 218.54585237358458 -1824.3000806239988 2743.6728088378909 2546.5910818006223 15552.739814453125 834.73098363274721 10574.712100581801 -352.22984470549937 -1229.1183137781481 6163.0887320059319 19462.754638671875 3985.7330725611823 -1320.4151335830957 42856.559375000004 14254.291711956523 2075.998570384364 62.070516263521633 8685.2535644531254 25931.478136322465 16101.182689633577 -2408.472524791981 5913.5355602138798 11366.452086292615 6957.8966391838931 3300.8448354110114
leaf_weight=3904 4815 46 12566 1683 23 12993 7747 34 2543 20 8845 236 14945 34 54 24 1561 10858 31 23 4030 52 288 69 92 8357 1154 44 720 1639
leaf_count=3904 4815 46 12566 1683 23 12993 7747 34 2543 20 8845 236 14945 34 54 24 1561 10858 31 23 4030 52 288 69 92 8357 1154 44 720 1639
internal_value=0 3415.53 -818.168 3117.89 21869.2 -114.163 -1943.74 5980.34 2283 18202 468.118 8015.22 -576.374 5088.67 5921.74 22720.6 3125.28 -1530.23 38914.9 7448.05 1731.16 3859.24 7297.82 24262.1 14501.9 -2571.21 6115.94 8499.29 6767.87 2842.2
internal_weight=0 19215 80215 18910 305 49349 30866 4270 14640 251 21838 1301 27511 2969 1286 113 5795 18605 54 1065 8845 1613 1042 93 138 12261 1252 98 754 4182
internal_count=99430 19215 80215 18910 305 49349 30866 4270 14640 251 21838 1301 27511 2969 1286 113 5795 18605 54 1065 8845 1613 1042 93 138 12261 1252 98 754 4182
is_linear=0
shrinkage=0.1


Tree=6
num_leaves=31
num_cat=0
split_feature=42 12 12 12 1 41 12 11 12 17 41 1 41 9 12 11 41 23 32 37 1 41 27 26 11 12 12 42 24 10
split_gain=1.89109e+13 6.80617e+12 5.62487e+12 2.87139e+12 1.39665e+12 1.0059e+12 9.37402e+11 8.23591e+11 4.99233e+11 4.84838e+11 4.65463e+11 4.5805e+11 3.81303e+11 3.02603e+11 2.93458e+11 2.75196e+11 2.22782e+11 2.20993e+11 2.12867e+11 1.94354e+11 1.86558e+11 1.62578e+11 1.55464e+11 1.6396e+11 1.24621e+11 1.1937e+11 1.09519e+11 1.08642e+11 1.08415e+11 1.06515e+11
threshold=89166.666666666672 396000.00000000006 45500.000000000007 140500.00000000003 65500.000000000007 30071.428571428576 590500.00000000012 222500.00000000003 103500.00000000001 253500.00000000003 56785.714285714297 157500.00000000003 1.0000000180025095e-35 222500.00000000003 75500.000000000015 157500.00000000003 18214.285714285717 103500.00000000001 294000.00000000006 895000.00000000012 40500.000000000007 40214.285714285717 252500.00000000003 76500.000000000015 135500.00000000003 80500.000000000015 240500.00000000003 26833.333333333339 166500.00000000003 127500.00000000001
decision_type=10 10 8 10 2 8 10 10 8 8 10 2 10 10 8 10 10 10 10 8 2 10 10 8 10 10 10 10 10 8
left_child=2 3 5 8 10 12 9 15 22 -3 20 14 17 29 -6 -5 -14 -1 26 -8 27 -7 23 -2 -10 -12 -9 -4 -27 -13
right_child=1 6 4 7 11 21 19 18 24 -11 25 13 16 -15 -16 -17 -18 -19 -20 -21 -22 -23 -24 -25 -26 28 -28 -29 -30 -31
leaf_value=993.80125657704252 431.88193668152235 5091.6158278692346 -1423.573527532476 4383.6425779100591 442.95469122253218 -1204.8737011932476 27976.316080729172 7863.3032571543827 2952.8048383765567 22233.4148900416 249.97054107251671 2184.4657041196474 -2347.237964957078 12857.068571428572 1303.2177895491966 6344.41454605941 -1636.7913297228197 11931.268383789064 16799.2591015625 39880.802783203129 -261.05169750833221 -660.14751391450909 10577.109256496429 1984.6837256026938 4266.5030895392101 1184.3030897179967 11605.629215016086 -572.65455687404972 7974.5662272135423 5331.42023667993
leaf_weight=242 805 21 2524 1505 8160 11719 24 184 3468 77 8470 324 9418 35 7714 1365 8307 20 45 32 14189 10290 20 4379 912 1160 136 3700 24 161
leaf_count=242 805 21 2524 1505 8160 11719 24 184 3468 77 8470 324 9418 35 7714 1365 8307 20 45 32 14189 10290 20 4379 912 1160 136 3700 24 161
internal_value=0 3560.22 -534.216 3309.17 214.16 -1403.56 24457.9 5885.22 2439.64 18560.2 -190.693 956.67 -1958.3 3877.16 861.001 5316.2 -2014.28 1828.72 10359.4 34778.9 -461.274 -950.195 1777.51 1743.56 3226.34 381.441 9453.79 -917.725 1321.94 3229.12
internal_weight=0 12973 86457 12819 46461 39996 154 3235 9584 98 30067 16394 17987 520 15874 2870 17725 262 365 56 20413 22009 5204 5184 4380 9654 320 6224 1184 485
internal_count=99430 12973 86457 12819 46461 39996 154 3235 9584 98 30067 16394 17987 520 15874 2870 17725 262 365 56 20413 22009 5204 5184 4380 9654 320 6224 1184 485
is_linear=0
shrinkage=0.1


Tree=7
num_leaves=31
num_cat=0
split_feature=39 39 39 39 4 39 39 39 12 25 24 40 39 39 33 22 13 39 39 17 11 40 12 26 12 31 22 39 40 30
split_gain=1.86269e+13 6.65972e+12 5.16145e+12 2.30565e+12 1.37302e+12 9.65032e+11 8.84431e+11 3.67592e+11 3.63086e+11 2.53375e+11 1.87798e+11 1.81711e+11 1.40144e+11 1.20795e+11 1.14999e+11 1.13455e+11 1.27669e+11 1.11857e+11 1.10839e+11 1.08864e+11 1.06906e+11 8.61416e+10 1.24469e+11 8.29619e+10 8.32497e+10 7.56921e+10 7.00685e+10 6.92307e+10 9.1942e+10 7.71077e+10
threshold=84983.516483516505 252285.71428571432 44659.340659340676 133060.43956043958 55.950833515000006 27071.428571428576 61923.076923076929 108791.20879120882 172500.00000000003 366500.00000000006 813000.00000000012 145383.33333333334 73714.285714285725 15829.670329670331 258500.00000000003 511000.00000000006 294000.00000000006 53593.406593406602 36390.109890109896 479500.00000000006 189500.00000000003 96683.333333333358 80500.000000000015 25500.000000000004 95500.000000000015 303000.00000000006 27500.000000000004 120565.93406593408 115150.00000000001 102500.00000000001
decision_type=2 2 2 2 2 2 2 2 10 8 10 10 2 2 10 8 8 2 2 10 10 8 10 8 10 10 8 2 8 10
left_child=2 3 5 7 9 13 17 -2 23 25 -6 21 -8 -1 20 19 -17 -4 -7 -11 -10 22 -9 24 -5 -3 -14 -23 29 -29
right_child=1 4 6 8 10 18 12 11 14 15 -12 -13 26 -15 -16 16 -18 -19 -20 -21 -22 27 -24 -25 -26 -27 -28 28 -30 -31
leaf_value=-2219.1671771891697 1861.5753133750486 9072.9566727311649 -354.07686448848176 -4364.3200102306546 35636.842968750003 -1197.4410450441023 541.94903645611646 2011.8084635416669 5600.2468755759792 17591.060414496529 24188.187812075412 -2009.0208489017214 2762.7303758293392 -1686.3080106235166 11974.226191907052 7835.5560937500013 17236.967949969952 60.862410078645112 -768.42027445812755 26310.687872023813 7501.3718198187744 2671.3760211743361 11909.355494068288 4567.3319454233579 4101.0107716487009 14844.073212594696 1071.3331447717896 4396.6445434570314 3415.0274336331963 11799.815012613934
leaf_weight=8418 7320 73 14884 21 38 11224 11102 24 657 45 23 69 256 8601 39 20 52 11529 12993 21 538 1801 27 2074 26 33 5661 34 1803 24
leaf_count=8418 7320 73 14884 21 38 11224 11102 24 657 45 23 69 256 8601 39 20 52 11529 12993 21 538 1801 27 2074 26 33 5661 34 1803 24
internal_value=0 3277.92 -571.51 2969.41 17901.2 -1372.81 189.271 2275.18 5266.68 14546.5 31320.1 3075.71 751.442 -1949.87 6630.55 17370.7 14625.5 -172.96 -967.261 20365.5 6456.15 3170.2 7251.69 4473.18 318.629 10869.6 1144.51 3113.36 3541.09 7460.03
internal_weight=0 14762 84668 14457 305 41236 43432 11102 3355 244 61 3782 17019 17019 1234 138 72 26413 24217 66 1195 3713 51 2121 47 106 5917 3662 1861 58
internal_count=99430 14762 84668 14457 305 41236 43432 11102 3355 244 61 3782 17019 17019 1234 138 72 26413 24217 66 1195 3713 51 2121 47 106 5917 3662 1861 58
is_linear=0
shrinkage=0.1


Tree=8
num_leaves=31
num_cat=0
split_feature=42 41 41 42 41 4 41 41 41 9 41 11 7 25 42 9 41 9 21 26 2 18 20 11 20 15 38 15 28 20
split_gain=1.23859e+13 4.55536e+12 3.43991e+12 1.53146e+12 8.96501e+11 7.44475e+11 4.62409e+11 4.2126e+11 3.90486e+11 3.64967e+11 3.02962e+11 2.48497e+11 2.14876e+11 1.88751e+11 1.83455e+11 1.7201e+11 1.70158e+11 1.23544e+11 1.19096e+11 1.1607e+11 1.12824e+11 1.01214e+11 1.0031e+11 9.84028e+10 8.59144e+10 8.49797e+10 8.31821e+10 7.79306e+10 7.12583e+10 7.06037e+10
threshold=86500.000000000015 265285.71428571438 42214.285714285717 133833.33333333334 60785.714285714297 55.950833515000006 21785.714285714294 165642.85714285719 109214.28571428572 121500.00000000001 1.0000000180025095e-35 233500.00000000003 89500.000000000015 366500.00000000006 24833.333333333339 286500.00000000006 75928.571428571435 243500.00000000003 95500.000000000015 113500.00000000001 693500.00000000012 58500.000000000007 80500.000000000015 50500.000000000007 31500.000000000004 381000.00000000006 745000.00000000012 263500.00000000006 467000.00000000006 62500.000000000007
decision_type=10 10 8 10 10 2 10 8 10 10 10 10 10 8 8 10 10 10 10 8 2 10 8 10 8 10 10 10 8 8
left_child=2 3 6 8 9 13 10 19 22 14 18 27 17 25 21 -13 -6 -11 -1 -5 23 -4 -2 -16 -8 -3 -7 -9 -15 -25
right_child=1 5 4 7 16 26 24 11 -10 12 -12 15 -14 28 20 -17 -18 -19 -20 -21 -22 -23 -24 29 -26 -27 -28 -29 -30 -31
leaf_value=1000.6896493769875 776.20148190389682 12006.005217742921 -1698.1371541901722 1651.4082461954176 430.15501156728396 30015.946179917282 -1234.9368274990927 5049.2308145655043 2858.3358901297843 4094.8220301958982 -1824.2650655855382 7564.8513468784577 -25.10911475626628 20554.041265869142 -400.56537004034277 17026.383451915925 1115.0399506084436 11997.957679332387 9029.9638150024421 3642.8093796948838 1726.0908441458371 2549.0002780720342 1682.2210520699055 -228.95960628739815 -811.86532670879046 4674.9332263764882 21888.438583984374 270.79183872767857 14675.764513739225 227.25139500588034
leaf_weight=242 1562 64 1146 353 12445 34 7681 1373 2910 196 11855 226 150 32 19032 21 5120 22 20 1713 291 59 5614 8829 12797 21 20 35 58 5509
leaf_count=242 1562 64 1146 353 12445 34 7681 1373 2910 196 11855 226 150 32 19032 21 5120 22 20 1713 291 59 5614 8829 12797 21 20 35 58 5509
internal_value=0 2752.94 -452.495 2520.93 46.1857 16741.5 -1260.28 4254.87 1881.24 -244.756 -1749.93 5443.67 2887.97 13574.2 -277.821 8369.27 629.791 4892.39 1613.61 3302.56 -234.42 -1490.19 1485.01 -251.517 -970.553 10194.8 27005.8 4930.45 16765.8 -53.6725
internal_weight=0 14036 85394 13807 52799 229 32595 3721 10086 35234 12117 1655 368 175 34866 247 17565 218 262 2066 33661 1205 7176 33370 20478 85 54 1408 90 14338
internal_count=99430 14036 85394 13807 52799 229 32595 3721 10086 35234 12117 1655 368 175 34866 247 17565 218 262 2066 33661 1205 7176 33370 20478 85 54 1408 90 14338
is_linear=0
shrinkage=0.1


Tree=9
num_leaves=31
num_cat=0
split_feature=39 39 39 39 4 39 12 39 39 0 24 24 40 8 33 39 39 39 12 9 21 12 39 12 28 12 40 41 32 12
split_gain=1.25201e+13 4.75037e+12 2.78083e+12 2.15131e+12 9.25893e+11 5.5802e+11 3.75138e+11 3.62729e+11 3.2678e+11 2.04994e+11 2.16979e+11 1.60325e+11 1.33262e+11 1.04555e+11 9.52775e+10 9.21621e+10 9.04434e+10 8.87395e+10 8.67849e+10 7.96108e+10 7.3323e+10 7.02467e+10 6.82684e+10 6.78221e+10 6.37782e+10 6.25613e+10 6.16571e+10 6.06328e+10 5.88108e+10 5.80291e+10
threshold=75104.395604395613 252285.71428571432 37868.131868131873 126521.97802197804 55.950833515000006 54010.989010989018 173500.00000000003 20236.26373626374 95675.824175824164 634541.00000000012 242500.00000000003 734500.00000000012 150483.33333333337 -1.0000000180025095e-35 277500.00000000006 145791.20879120883 187060.43956043958 62945.054945054952 1.0000000180025095e-35 82500.000000000015 359000.00000000006 294000.00000000006 45763.736263736275 137500.00000000003 367500.00000000006 67500.000000000015 108650.00000000001 83785.714285714304 88500.000000000015 28500.000000000004
decision_type=2 2 2 2 2 2 10 2 2 2 8 10 10 10 10 2 2 2 8 8 10 10 2 10 10 8 8 10 10 8
left_child=2 3 7 8 9 22 15 -1 25 21 -11 -6 23 20 16 26 -8 27 -17 -20 -12 -3 -4 -10 -15 -2 28 -7 -5 -9
right_child=1 4 5 6 11 17 14 29 12 10 13 -13 -14 24 -16 18 -18 -19 19 -21 -22 -23 -24 -25 -26 -27 -28 -29 -30 -31
leaf_value=-1739.2225252769274 519.23371634786486 7071.238850911458 -575.60883991713513 1683.8127534412206 30855.059016113282 96.553822907984284 4686.1065115139872 -1252.6313863261682 2000.1733840302779 5776.6269353693187 24237.503480113635 20600.319500141763 -5679.3150568181818 17025.497656250001 11712.561442057293 -119.72451883951824 6439.7025301518825 485.75193795948792 8660.2079558543683 4070.4260380357682 16636.868235677084 12001.993853889629 -252.81304271117384 3111.954755944771 9735.1978393554691 1243.109172538429 2816.353060019866 -4934.954156494141 8165.1478887648818 -894.60069744464386
leaf_weight=11834 1398 75 12200 21 30 11566 775 7419 5159 22 22 31 22 24 24 48 474 10675 39 1219 30 47 14152 614 24 8179 1628 24 42 11613
leaf_count=11834 1398 75 12200 21 30 11566 775 7419 5159 22 22 31 22 24 24 48 474 10675 39 1219 30 47 14152 614 24 8179 1628 24 42 11613
internal_value=0 2239.97 -562.142 2047.67 14624.2 -90.8434 4033.35 -1304.48 1496.09 11869.3 14767.8 25643.6 2088.82 16745.9 5471.53 3422.48 5351.6 277.732 4053.48 4212.72 19852.5 8970.79 -402.256 2118.42 13380.3 1137.44 2935.14 86.1348 6004.7 -1034.17
internal_weight=0 19947 79483 19642 305 48617 4270 30866 15372 244 122 61 5795 100 1273 2997 1249 22265 1306 1258 52 122 26352 5773 48 9577 1691 11590 63 19032
internal_count=99430 19947 79483 19642 305 48617 4270 30866 15372 244 122 61 5795 100 1273 2997 1249 22265 1306 1258 52 122 26352 5773 48 9577 1691 11590 63 19032
is_linear=0
shrinkage=0.1


Tree=10
num_leaves=31
num_cat=0
split_feature=39 39 39 39 12 39 39 39 26 12 40 39 26 25 15 12 17 12 39 12 40 12 40 40 25 31 12 33 8 12
split_gain=1.01765e+13 3.56952e+12 2.85914e+12 1.2728e+12 7.19167e+11 5.40045e+11 4.96213e+11 2.76576e+11 1.93062e+11 1.56998e+11 1.23028e+11 9.72169e+10 9.46572e+10 9.427e+10 9.31525e+10 8.4491e+10 8.43458e+10 8.51023e+10 8.13034e+10 7.42702e+10 6.86174e+10 6.51772e+10 5.83174e+10 5.54839e+10 5.54755e+10 5.52765e+10 5.43786e+10 6.72194e+10 5.42671e+10 5.34061e+10
threshold=85637.362637362647 252285.71428571432 44659.340659340676 145791.20879120883 590500.00000000012 28780.219780219784 61923.076923076929 115593.4065934066 312500.00000000006 214500.00000000003 157100.00000000003 12785.714285714288 21500.000000000004 264500.00000000006 774000.00000000012 151500.00000000003 268000.00000000006 373000.00000000006 69961.538461538483 57500.000000000007 30083.333333333339 120500.00000000001 97650.000000000015 106616.66666666667 247500.00000000003 230500.00000000003 108500.00000000001 180500.00000000003 164500.00000000003 97500.000000000015
decision_type=2 2 2 2 10 2 2 2 8 10 10 2 8 10 8 10 8 10 2 10 8 10 10 8 10 10 8 10 10 10
left_child=2 3 5 7 8 11 19 21 25 12 23 -1 -5 28 -6 -10 -17 -18 -8 20 -4 -2 29 -9 -14 -3 27 -25 -11 -20
right_child=1 4 6 9 14 -7 18 10 15 13 -12 -13 24 -15 -16 16 17 -19 22 -21 -22 -23 -24 26 -26 -27 -28 -29 -30 -31
leaf_value=-1747.0863972626958 1367.4701809925339 2785.9688514709474 3319.0389639677824 -1111.4043619791667 19157.428734375 -676.81662640462332 330.08010638626206 5185.4178366578662 17501.529133064516 6201.9052799373485 -1895.1094277166551 -1255.1651992047705 3997.7360383516498 12582.585955255683 27487.048868534483 5888.9350737072173 9246.1546338168064 14759.19975395698 695.34124738474907 120.78128347549753 -250.96727538337629 2284.4014603135229 -3877.1484338831019 1481.7874609114331 8329.8115136718752 8553.8355283383971 2724.0801180592616 6774.0525117187499 1526.3479311342594 1483.5971591317991
leaf_weight=5734 7183 24 54 36 25 22082 8113 81 31 308 62 13420 2017 22 29 21 44 77 8286 8311 18048 869 27 600 30 54 2831 25 27 959
leaf_count=5734 7183 24 54 36 25 22082 8113 81 31 308 62 13420 2017 22 29 21 44 77 8286 8311 18048 869 27 600 30 54 2831 25 27 959
internal_value=0 2458.76 -416.261 2227.1 13161.8 -1013.86 146.381 1792.16 10909.5 4303.91 2520.93 -1402.43 3971.83 6241.5 23630.7 12771.7 11739.1 12754.5 561.267 -126.696 -240.318 1466.43 763.555 2598.34 4061.23 6779.11 2537.7 1693.48 5825.07 777.108
internal_weight=0 14396 85034 14091 305 41236 43798 11651 251 2440 3599 19154 2083 357 54 173 142 121 17385 26413 18102 8052 9272 3537 2047 78 3456 625 335 9245
internal_count=99430 14396 85034 14091 305 41236 43798 11651 251 2440 3599 19154 2083 357 54 173 142 121 17385 26413 18102 8052 9272 3537 2047 78 3456 625 335 9245
is_linear=0
shrinkage=0.1


Tree=11
num_leaves=31
num_cat=0
split_feature=42 41 42 13 19 41 41 19 41 9 41 24 41 11 13 11 23 19 19 19 9 2 19 9 15 28 26 11 32 15
split_gain=6.52953e+12 2.40698e+12 1.8893e+12 7.5295e+11 5.00603e+11 4.05944e+11 3.56602e+11 2.63919e+11 2.14284e+11 1.92681e+11 1.88248e+11 1.44002e+11 1.30352e+11 1.19856e+11 1.11144e+11 1.35209e+11 1.10718e+11 1.02545e+11 1.00059e+11 9.25275e+10 1.00512e+11 8.89254e+10 8.18538e+10 7.36073e+10 7.26267e+10 6.18019e+10 5.71789e+10 5.69522e+10 5.51135e+10 5.31478e+10
threshold=89166.666666666672 265285.71428571438 46500.000000000007 138500.00000000003 694500.00000000012 22928.571428571431 65214.285714285717 169500.00000000003 100214.28571428572 199500.00000000003 1.0000000180025095e-35 398500.00000000006 40214.285714285717 243500.00000000003 217500.00000000003 276500.00000000006 103500.00000000001 127500.00000000001 187500.00000000003 56500.000000000007 121500.00000000001 496500.00000000006 84500.000000000015 19500.000000000004 381000.00000000006 453000.00000000006 106500.00000000001 70500.000000000015 82500.000000000015 152500.00000000003
decision_type=10 10 8 10 10 8 10 8 8 10 10 8 10 10 10 10 10 10 8 8 10 2 10 10 10 8 10 10 8 10
left_child=2 3 5 8 11 10 9 28 29 19 16 24 -7 17 -9 -16 -1 27 -15 -4 -21 -11 -8 -14 -3 -13 -24 -10 -5 -2
right_child=1 4 6 7 -6 12 22 14 13 21 -12 25 23 18 15 -17 -18 -19 -20 20 -22 -23 26 -25 -26 -27 -28 -29 -30 -31
leaf_value=799.95003486822463 914.44771526195166 8879.0398079885563 -270.80192786297334 36.673693381861639 22573.205053084937 -737.28016495234033 428.87588965734562 3718.8607632978487 -323.52024427280304 2331.3307357109916 -1317.3584127713252 17358.298038383153 598.7862600379832 2381.3529443148909 5184.3903471971171 12560.765386284722 8541.6490234374996 2563.8154628898787 8553.6554524739586 55.232152283392615 2013.4384272912391 9509.0919817243321 853.07241906702029 -374.87601718882388 2303.2319147283383 11423.486083984375 2173.572370329653 1617.13194060661 2512.7685024781663 -2581.3912273060196
leaf_weight=242 3747 71 12335 95 39 19517 10321 1187 157 45 12571 23 850 58 312 27 20 1288 48 17977 266 28 2945 8971 22 74 369 4109 1672 44
leaf_count=242 3747 71 12335 95 39 19517 10321 1187 157 45 12571 23 850 58 312 27 20 1288 48 17977 266 28 2945 8971 22 74 369 4109 1672 44
internal_value=0 2092 -313.908 1909.41 12253.3 -792.953 142.259 3211.6 1455.69 -47.0032 -1262.07 10135.1 -587.754 1845.39 4174.94 5771.89 1390.92 1781.81 5176.36 -59.2537 83.7846 5084.44 567.714 -290.606 7323.47 12830.7 1000.1 1545.71 2379.65 873.873
internal_weight=0 12973 86457 12744 229 42171 44286 3293 9451 30651 12833 190 29338 5660 1526 339 262 5554 106 30578 18243 73 13635 9821 93 97 3314 4266 1767 3791
internal_count=99430 12973 86457 12744 229 42171 44286 3293 9451 30651 12833 190 29338 5660 1526 339 262 5554 106 30578 18243 73 13635 9821 93 97 3314 4266 1767 3791
is_linear=0
shrinkage=0.1


Tree=12
num_leaves=31
num_cat=0
split_feature=12 11 1 11 12 12 12 13 24 1 12 10 4 12 33 18 12 41 20 32 8 22 36 13 1 12 11 33 41 18
split_gain=5.83956e+12 2.21932e+12 1.57594e+12 9.24248e+11 3.87999e+11 3.66443e+11 3.64507e+11 2.5563e+11 1.97623e+11 1.90648e+11 1.78962e+11 1.52507e+11 1.19871e+11 1.08879e+11 1.0272e+11 9.92167e+10 8.48952e+10 8.70184e+10 8.44215e+10 7.48548e+10 7.2733e+10 7.20103e+10 6.55496e+10 6.16674e+10 5.70941e+10 5.43028e+10 5.2248e+10 5.18607e+10 4.7645e+10 4.61351e+10
threshold=85500.000000000015 339000.00000000006 45500.000000000007 157500.00000000003 32500.000000000004 64500.000000000007 513500.00000000006 99500.000000000015 204500.00000000003 180500.00000000003 215500.00000000003 190500.00000000003 55.879486880000009 131500.00000000003 256500.00000000003 655500.00000000012 18500.000000000004 1.0000000180025095e-35 54500.000000000007 392000.00000000006 -293499.99999999994 860000.00000000012 517000.00000000006 199500.00000000003 69500.000000000015 54500.000000000007 199500.00000000003 145500.00000000003 123785.7142857143 99500.000000000015
decision_type=10 10 2 10 10 8 10 10 10 2 10 8 2 10 10 8 8 8 8 8 10 8 8 10 2 10 10 10 10 8
left_child=2 3 4 7 8 18 19 14 16 24 -5 -11 -13 -9 29 -8 17 -1 -4 -3 -20 -17 -21 25 -7 -6 -19 28 -22 -2
right_child=1 6 5 10 23 9 15 13 -10 11 -12 12 -14 -15 -16 21 -18 26 20 22 27 -23 -24 -25 -26 -27 -28 -29 -30 -31
leaf_value=707.51986767028029 726.42186265245698 4909.2135271344869 -328.86777813022383 3175.5513756812638 -486.55164480233793 246.65286758022569 13491.550406901042 1556.4521357606307 8925.6849682617194 129.38411193847656 5494.0180205349716 4522.1879888490193 13117.190380859376 2473.5301478928186 8097.6636865234386 25749.472284226191 -834.52529475873291 -1255.7769021084039 2146.9665665426373 15120.187968750002 13.240594927297918 17876.294858022837 8652.8189854213178 5148.199916591645 620.31752774045913 -29.117857972350052 2410.3996620765097 3197.9112335803466 -3487.1567558092947 1270.8378546837591
leaf_weight=233 4366 28 11423 1636 15048 7786 24 4345 20 70 418 86 20 1844 20 21 12390 11893 162 25 13188 26 42 20 8612 3136 39 51 39 2419
leaf_count=233 4366 28 11423 1636 15048 7786 24 4345 20 70 418 86 20 1844 20 21 12390 11893 162 25 13188 26 42 20 8612 3136 39 51 39 2419
internal_value=0 1803.05 -325.728 1676.19 -751.475 113.806 13302.4 1364.6 -1010.68 478.033 3647.37 3751.75 6143.89 1829.69 941.612 18722.8 -1018.77 -1206.42 -128.992 9251.38 40.8869 21394.1 11066 -401.559 442.896 -407.663 -1243.79 15.1914 2.91962 920.518
internal_weight=0 15214 84216 15048 42779 41437 166 12994 24575 16574 2054 176 106 6189 6805 71 24555 12165 24863 95 13440 47 67 18204 16398 18184 11932 13278 13227 6785
internal_count=99430 15214 84216 15048 42779 41437 166 12994 24575 16574 2054 176 106 6189 6805 71 24555 12165 24863 95 13440 47 67 18204 16398 18184 11932 13278 13227 6785
is_linear=0
shrinkage=0.1


Tree=13
num_leaves=31
num_cat=0
split_feature=39 39 39 39 19 39 39 39 39 26 40 9 0 25 31 8 29 33 29 5 31 19 40 6 40 40 31 40 19 19
split_gain=5.70647e+12 2.12225e+12 1.29933e+12 9.9857e+11 3.2308e+11 2.57539e+11 1.75218e+11 1.6983e+11 1.56377e+11 1.3335e+11 1.25304e+11 1.25035e+11 9.3316e+10 9.13109e+10 8.61354e+10 7.97886e+10 6.6906e+10 8.05607e+10 6.65713e+10 5.94638e+10 5.78674e+10 5.51224e+10 5.47335e+10 5.16078e+10 6.68933e+10 5.09177e+10 4.9301e+10 4.63831e+10 4.30781e+10 4.07278e+10
threshold=75104.395604395613 252285.71428571432 37868.131868131873 128813.18681318681 694500.00000000012 53241.758241758253 171978.02197802201 18461.538461538468 99912.087912087925 312500.00000000006 145383.33333333334 532500.00000000012 634541.00000000012 247500.00000000003 150500.00000000003 32500.000000000004 52500.000000000007 58500.000000000007 355500.00000000006 15.500000000000002 112500.00000000001 258500.00000000003 22283.333333333339 2.5000000000000004 33516.666666666679 43383.333333333336 263500.00000000006 63983.333333333336 99500.000000000015 78500.000000000015
decision_type=2 2 2 2 10 2 2 2 2 8 10 10 2 10 8 10 8 8 10 2 8 10 8 2 8 10 10 10 8 8
left_child=2 3 7 8 9 22 13 -1 -2 26 16 12 21 29 -15 18 17 -10 -14 -12 -8 -11 -4 24 -7 -9 -3 -24 -22 -5
right_child=1 4 5 6 -6 23 20 25 10 11 19 -13 15 14 -16 -17 -18 -19 -20 -21 28 -23 27 -25 -26 -27 -28 -29 -30 -31
leaf_value=-1202.6187501195479 808.94164637808399 2813.0410650208942 2530.452680338984 337.02628433079394 18289.714150140226 6132.6873242187503 8767.0751358695652 -699.91903324633813 8400.7860183189659 2605.8041512948494 320.7330965909091 16034.537877997038 16168.653562973486 11738.852980957032 2569.0892345610118 6935.3754221270174 1483.2415708412245 2470.3206598684333 9327.4834101562501 -5556.0883002387163 -898.91572143554697 8397.1837576729922 -282.58746518666879 55.462197403173491 343.42170341094703 -2724.5621277343753 7829.0212228139244 -2842.1926781882703 3781.3682493704096 2364.5216121895778
leaf_weight=10980 10675 43 69 103 39 20 23 19761 29 27 33 29 33 20 21 31 4795 109 25 36 20 42 24748 14004 9705 125 36 71 1177 2601
leaf_count=10980 10675 43 69 103 39 20 23 19761 29 27 33 29 33 20 21 31 4795 109 25 36 20 42 24748 14004 9705 125 36 71 1177 2601
internal_value=0 1512.25 -379.513 1383.72 9789.82 -57.3547 2801.49 -886.944 1025.14 8543.59 1486.52 9998.87 8891.06 2358.31 7042.14 11030.9 1545.72 3716.58 13219.9 -2745.43 3798.64 6130.99 -282.091 178.358 355.328 -712.646 5098.8 -289.91 3703.17 2287.29
internal_weight=0 19947 79483 19642 305 48617 3965 30866 15677 266 5002 187 158 2745 41 89 4933 138 58 69 1220 69 24888 23729 9725 19886 79 24819 1197 2704
internal_count=99430 19947 79483 19642 305 48617 3965 30866 15677 266 5002 187 158 2745 41 89 4933 138 58 69 1220 69 24888 23729 9725 19886 79 24819 1197 2704
is_linear=0
shrinkage=0.1


Tree=14
num_leaves=31
num_cat=0
split_feature=39 39 39 39 12 39 39 12 24 38 12 37 8 25 40 5 12 26 41 41 16 40 19 23 19 40 17 26 19 6
split_gain=4.6333e+12 1.59378e+12 1.33473e+12 6.07281e+11 3.39706e+11 2.96799e+11 2.08681e+11 1.31869e+11 1.13382e+11 1.02521e+11 8.17348e+10 7.77535e+10 7.41733e+10 7.20372e+10 6.99285e+10 6.83188e+10 6.77476e+10 6.59689e+10 5.61283e+10 5.25674e+10 7.66924e+10 5.05236e+10 4.86104e+10 4.85772e+10 5.19635e+10 4.80888e+10 4.7847e+10 5.88695e+10 4.75881e+10 4.74761e+10
threshold=85637.362637362647 252285.71428571432 46115.384615384624 145791.20879120883 694500.00000000012 29296.703296703301 67664.835164835167 119500.00000000001 303000.00000000006 463500.00000000006 214500.00000000003 482500.00000000006 -422499.99999999994 264500.00000000006 157100.00000000003 14.500000000000002 14500.000000000002 21500.000000000004 138785.71428571432 55357.142857142862 88500.000000000015 52216.666666666679 168500.00000000003 492500.00000000006 400000.00000000006 97650.000000000015 96500.000000000015 99500.000000000015 188500.00000000003 2.5000000000000004
decision_type=2 2 2 2 10 2 2 8 8 10 10 10 10 10 10 2 10 8 8 8 10 10 8 10 10 10 8 10 8 2
left_child=2 3 5 7 8 16 29 19 -3 -6 17 12 -10 28 -9 -16 -1 -5 26 20 -2 -7 -20 24 -14 -8 -19 -28 -12 -4
right_child=1 4 6 10 9 21 25 14 11 -11 13 -13 23 -15 15 -17 -18 18 22 -21 -22 -23 -24 -25 -26 -27 27 -29 -30 -31
leaf_value=-1145.2086017918425 8138.7448121337893 4277.0065905607198 144.51952373574676 -1544.3978651258681 21551.445779551632 -414.71211022026614 511.25552516694961 1729.4749601767433 12788.712072021486 11887.401697358633 1446.7814528168226 13126.115811695774 6417.8933259621654 9879.9635209517055 746.3624155405405 -6507.8753906250004 -776.14692224376108 8436.3752459490752 1978.8030226581805 942.87833621782363 694.52064484627022 -2268.0342118134372 3022.171652254201 2303.8869238281254 11656.918734375002 -3714.1523111979168 995.2080405377327 5464.7996198823184 4535.1656328855643 -112.2663225656226
leaf_weight=9254 25 79 12200 36 23 24008 11075 3845 25 21 61 34 78 22 37 20 10754 27 721 7693 31 148 1173 20 25 27 47 79 274 17568
leaf_count=9254 25 79 12200 36 23 24008 11075 3845 25 21 61 34 78 22 37 20 10754 27 721 7693 31 148 1173 20 25 27 47 79 274 17568
internal_value=0 1659.06 -280.874 1504.26 8810.83 -661.999 130.969 1203.83 7440.56 16939.1 2938.79 8813.75 7823.07 4336.83 1677.93 -1798.98 -946.843 2699.18 2773.82 965.1 4017.84 -426.067 2624.99 6813.79 7689.5 500.979 4616.18 3797.57 3972.8 -7.02622
internal_weight=0 14396 85034 14091 305 44164 40870 11651 261 44 2440 182 148 357 3902 57 20008 2083 2047 7749 56 24156 1894 123 103 11102 153 126 335 29768
internal_count=99430 14396 85034 14091 305 44164 40870 11651 261 44 2440 182 148 357 3902 57 20008 2083 2047 7749 56 24156 1894 123 103 11102 153 126 335 29768
is_linear=0
shrinkage=0.1


Tree=15
num_leaves=31
num_cat=0
split_feature=39 39 39 39 39 23 39 18 36 39 40 35 19 39 5 39 21 20 9 0 9 40 14 8 9 41 39 40 34 40
split_gain=3.76507e+12 1.24533e+12 1.18416e+12 4.27058e+11 2.64869e+11 2.34308e+11 1.88874e+11 9.78957e+10 9.61482e+10 8.05671e+10 7.84505e+10 7.66328e+10 6.93533e+10 6.45166e+10 5.9172e+10 5.75001e+10 5.72093e+10 7.06695e+10 5.50975e+10 1.35429e+11 1.68418e+11 4.9124e+10 6.06523e+10 4.90815e+10 4.88045e+10 4.82756e+10 4.23977e+10 4.95139e+10 4.12374e+10 4.09967e+10
threshold=89961.538461538483 252285.71428571432 47291.208791208795 145791.20879120883 29582.417582417587 574000.00000000012 67664.835164835167 381000.00000000006 549500.00000000012 115593.4065934066 157100.00000000003 1.0000000180025095e-35 1.0000000180025095e-35 200807.69230769234 14.500000000000002 10005.494505494507 418500.00000000006 292500.00000000006 575500.00000000012 634541.00000000012 401500.00000000006 106616.66666666667 96500.000000000015 45500.000000000007 44500.000000000007 79357.142857142884 57725.274725274743 64883.333333333336 141500.00000000003 30083.333333333339
decision_type=2 2 2 2 2 10 2 8 10 2 10 8 8 2 2 2 8 10 10 2 8 8 10 8 8 10 2 10 10 8
left_child=2 3 4 9 15 7 25 16 -7 -2 21 -5 -13 -14 -12 -1 17 -3 19 -9 -21 22 -11 -22 28 26 27 -4 -8 -28
right_child=1 5 6 11 -6 8 24 18 -10 10 14 12 13 -15 -16 -17 -18 -19 -20 20 23 -23 -24 -25 -26 -27 29 -29 -30 -31
leaf_value=-1248.1764403061163 948.87566846457003 3751.2512576941285 -69.832677888524003 8153.0014902343755 -366.75258088572087 19456.309142485119 1464.3991658592799 2190.0736618041992 10358.785526216947 6879.1227326221961 472.0695402446546 -1541.4110278320313 2462.2966483652162 4049.4957570219699 -5870.3718994140627 -777.43307927289925 -58.926195126488096 9309.9183893694189 13173.511188299006 16703.745390625001 9016.6790401974249 1548.0657657328848 1402.5473958333334 2868.0166845703129 430.76192973639547 -1515.1943749702268 4387.7685753863798 -2628.500316619873 -2106.2728044846476 161.65296442222186
leaf_weight=3050 6222 66 15571 25 26047 21 664 32 26 39 38 40 2083 292 24 17385 21 35 22 25 37 3456 42 20 12234 205 23 76 34 11575
leaf_count=3050 6222 66 15571 25 26047 21 664 32 26 39 38 40 2083 292 24 17385 21 35 22 25 37 3456 42 20 12234 205 23 76 34 11575
internal_value=0 1617.89 -234.049 1460.88 -578.19 7929.75 162.077 6746.76 14423.6 1166.71 1543.31 2644.91 2587.89 2657.44 -1983.07 -847.693 4690.1 5677.52 8591.7 7707.49 9860.62 1605.12 4039.42 6859.25 477.164 13.6359 25.1393 -82.2605 1290.47 170.034
internal_weight=0 12566 86864 12261 46482 305 40382 258 47 9821 3599 2440 2415 2375 62 20435 122 101 136 114 82 3537 81 57 12932 27450 27245 15647 698 11598
internal_count=99430 12566 86864 12261 46482 305 40382 258 47 9821 3599 2440 2415 2375 62 20435 122 101 136 114 82 3537 81 57 12932 27450 27245 15647 698 11598
is_linear=0
shrinkage=0.1


Tree=16
num_leaves=31
num_cat=0
split_feature=39 39 39 39 12 12 12 12 12 24 40 1 8 17 21 37 22 1 16 25 12 40 18 33 40 40 33 32 40 14
split_gain=3.06163e+12 1.12141e+12 7.24705e+11 5.38119e+11 2.35746e+11 1.63686e+11 1.27704e+11 9.56116e+10 8.6959e+10 8.29594e+10 7.79672e+10 7.6119e+10 7.32803e+10 6.00809e+10 5.98799e+10 5.66659e+10 6.17645e+10 8.90278e+10 6.97306e+10 5.47876e+10 5.36567e+10 7.39038e+10 5.89732e+10 5.22244e+10 5.12733e+10 5.09418e+10 5.39312e+10 5.12004e+10 4.95619e+10 4.94201e+10
threshold=75956.04395604397 252285.71428571432 36829.670329670334 126521.97802197804 694500.00000000012 56500.000000000007 173500.00000000003 91500.000000000015 15500.000000000002 303000.00000000006 164200.00000000003 1.0000000180025095e-35 271500.00000000006 124500.00000000001 85500.000000000015 515000.00000000006 491500.00000000006 480500.00000000006 292500.00000000006 155500.00000000003 68500.000000000015 126983.33333333336 41500.000000000007 204500.00000000003 31283.333333333339 67850.000000000015 54500.000000000007 220500.00000000003 85816.666666666672 96500.000000000015
decision_type=2 2 2 2 10 10 10 8 10 8 10 2 10 10 8 10 10 2 8 8 8 8 10 8 8 8 10 10 10 10
left_child=2 3 8 7 9 24 11 25 -1 -3 -9 13 -6 -5 23 16 17 18 -11 -16 22 29 -13 -8 -4 26 -2 -27 -7 -22
right_child=1 4 5 6 12 28 14 10 -10 15 -12 20 -14 -15 19 -17 -18 -19 -20 -21 21 -23 -24 -25 -26 27 -28 -29 -30 -31
leaf_value=-885.83876202520173 5556.2836215875095 3289.2258023225813 1732.5344288743063 8182.7043260143655 10182.553174591065 186.4905199737359 3410.7247757523146 984.72830258176714 -531.85481880314717 10292.051161411831 -5266.4703906249997 -4264.4054217529292 18378.505927734375 2407.4760960778526 1223.0642024708729 12055.587761579241 1964.2895312500002 12181.706503906251 4474.5264260512131 3018.1327724460525 7547.0237052408847 1559.5805666601329 742.40114382122647 10059.872367931548 -199.25735910504841 406.38020521465296 1039.0385842300043 4770.0331895616318 -2406.3467005961652 2934.9260326792896
leaf_weight=11780 39 79 138 31 24 19627 27 8303 16890 28 20 30 20 43 204 21 25 30 78 1021 30 2651 109 21 31340 6535 82 27 74 103
leaf_count=11780 39 79 138 31 24 19627 27 8303 16890 28 20 30 20 43 204 21 25 30 78 1021 30 2651 109 21 31340 6535 82 27 74 103
internal_value=0 1120.56 -274.789 1025.37 7136.78 -49.3065 2015.85 743.519 -677.301 5995.27 969.707 1659.44 13908 4826.83 2854.96 7169.87 6532.6 7372.37 6011.23 2719.2 1579.25 1674.98 -338.205 6319.73 -190.788 461.826 2495.01 424.335 176.751 3975.25
internal_weight=0 19581 79849 19276 305 51179 4270 15006 28670 261 8323 2997 44 74 1273 182 161 136 106 1225 2923 2784 139 48 31478 6683 121 6562 19701 133
internal_count=99430 19581 79849 19276 305 51179 4270 15006 28670 261 8323 2997 44 74 1273 182 161 136 106 1225 2923 2784 139 48 31478 6683 121 6562 19701 133
is_linear=0
shrinkage=0.1


Tree=17
num_leaves=31
num_cat=0
split_feature=39 39 39 39 39 1 39 33 8 8 19 19 6 29 33 39 30 39 42 15 19 42 15 26 2 34 10 26 10 40
split_gain=2.49755e+12 8.27454e+11 8.01422e+11 2.69245e+11 1.98424e+11 1.81807e+11 1.16309e+11 7.73727e+10 7.56354e+10 5.82746e+10 7.05357e+10 5.42131e+10 4.97679e+10 4.66052e+10 5.90381e+10 4.59938e+10 4.46993e+10 5.40246e+10 4.37921e+10 6.97332e+10 4.79024e+10 4.28303e+10 4.1424e+10 4.06329e+10 3.56285e+10 3.55358e+10 3.43521e+10 3.36208e+10 4.12988e+10 3.35802e+10
threshold=91686.81318681319 49181.318681318684 252285.71428571432 145791.20879120883 30857.142857142859 762500.00000000012 67664.835164835167 289500.00000000006 248500.00000000003 83500.000000000015 289500.00000000006 170500.00000000003 2.5000000000000004 47500.000000000007 89500.000000000015 10285.714285714286 156500.00000000003 171978.02197802201 48500.000000000007 103500.00000000001 115500.00000000001 54166.666666666679 279500.00000000006 73500.000000000015 696500.00000000012 171500.00000000003 142500.00000000003 120500.00000000001 183500.00000000003 97650.000000000015
decision_type=2 2 2 2 2 2 2 10 10 10 8 8 2 8 10 2 8 2 8 10 8 8 10 8 2 10 10 8 10 10
left_child=1 4 3 12 15 8 -3 11 9 10 22 16 13 14 -2 -1 17 -5 19 -14 23 24 -4 26 -8 27 -20 28 -15 -23
right_child=2 6 5 7 -6 -7 21 -9 -10 -11 -12 -13 18 25 -16 -17 -18 -19 20 -21 -22 29 -24 -25 -26 -27 -28 -29 -30 -31
leaf_value=-1012.5299466777951 7031.1628378591231 35.578546309671928 5156.2180297851564 1886.9589416503907 -275.90976648395861 13204.244609375002 1093.3965665199946 8356.6975836181646 10565.197504340278 606.0798303674768 6784.9331899146509 2489.4050608419939 8304.2940585327142 1009.0844897940115 1700.5276490226624 -615.88188388332173 998.310872478644 5332.8134385850699 -413.07147382746984 730.57785014490935 1046.9715533105989 376.77119360156161 272.97771911621095 562.56226613242563 4702.3947614998651 -558.48109282072608 -4305.7744283235988 1552.0617632495148 -2325.8012557180305 -1819.3252176339288
leaf_weight=3477 31 24400 38 289 27694 35 482 20 27 27 146 1477 20 1630 63 18361 600 54 177 31 2743 13083 32 2367 29 111 26 1852 38 70
leaf_count=3477 31 24400 38 289 27694 35 482 20 27 27 146 1477 20 1630 63 18361 600 54 177 31 2743 13083 32 2367 29 111 26 1852 38 70
internal_value=0 -184.214 1363.56 1229.71 -453.642 6423.1 166.389 2162.41 5544.06 4986.16 5533.67 2111.22 979.321 1260.12 3458.5 -679.035 1518.86 2429.45 784.321 3700.66 756.327 399.98 2923.88 446.117 1298.21 1203.21 -911.644 1258.76 933.11 365.084
internal_weight=0 87596 11834 11529 49532 305 38064 2440 270 243 216 2420 9089 3725 94 21838 943 343 5364 51 5313 13664 70 2570 511 3631 203 3520 1668 13153
internal_count=99430 87596 11834 11529 49532 305 38064 2440 270 243 216 2420 9089 3725 94 21838 943 343 5364 51 5313 13664 70 2570 511 3631 203 3520 1668 13153
is_linear=0
shrinkage=0.1


Tree=18
num_leaves=31
num_cat=0
split_feature=39 39 39 39 12 12 39 12 38 12 22 30 41 0 11 19 7 22 16 40 3 29 40 5 9 41 16 22 40 11
split_gain=2.03327e+12 7.03341e+11 5.58751e+11 3.01242e+11 1.64602e+11 1.24351e+11 9.78891e+10 7.91394e+10 7.30463e+10 7.05071e+10 6.0823e+10 7.30027e+10 1.18537e+11 1.06451e+11 5.92157e+10 5.73019e+10 5.48736e+10 5.42161e+10 5.73857e+10 5.27597e+10 5.26211e+10 5.0234e+10 4.6881e+10 4.06308e+10 3.96577e+10 3.75473e+10 6.0859e+10 3.77687e+10 3.66836e+10 4.08149e+10
threshold=81582.417582417591 252285.71428571432 42313.186813186818 141604.39560439563 694500.00000000012 65500.000000000007 20576.923076923082 110500.00000000001 463500.00000000006 76500.000000000015 280500.00000000006 109500.00000000001 146214.28571428574 633218.00000000012 258500.00000000003 170500.00000000003 112500.00000000001 477500.00000000006 453000.00000000006 157100.00000000003 37.587232645000007 2500.0000000000005 45850.000000000007 14.500000000000002 136500.00000000003 54500.000000000007 88500.000000000015 129500.00000000001 30083.333333333339 5500.0000000000009
decision_type=2 2 2 2 10 10 2 8 10 10 10 8 10 2 10 8 10 10 8 10 2 8 10 2 10 8 10 10 8 10
left_child=2 3 6 7 9 28 -1 25 -6 -3 11 12 13 -5 -11 -13 17 18 -16 -9 -14 24 -8 -21 -7 26 -2 -27 29 -4
right_child=1 4 5 10 8 21 22 19 -10 14 -12 15 20 -15 16 -17 -18 -19 -20 23 -22 -23 -24 -25 -26 27 -28 -29 -30 -31
leaf_value=-718.17395236926768 6335.0284377525595 8871.0279491527672 619.81871154091584 12999.655382239302 15332.070456861415 1108.1511790231559 -362.93467984172617 1077.6735674781883 7174.6700241815479 1045.5911857604981 -2197.4553705427384 1265.9575309768559 -1764.3778965541296 3957.1524064127607 3817.9650435114486 2221.8999880907973 9562.2076002038048 662.98324890136723 8510.024578536184 379.57274667245372 4015.7794233534073 257.63879415705895 -2136.114290568034 -5409.8140891335233 5552.9502668108262 583.80236206730103 55.860243918678975 -241.46646782265285 -74.061053472500362 6068.079990844727
leaf_weight=12261 29 37 44 23 23 455 24982 4993 21 48 36 1063 28 30 83 1529 23 32 38 27 36 12543 150 22 21 7473 33 599 32728 20
leaf_count=12261 29 37 44 23 23 455 24982 4993 21 48 36 1063 28 30 83 1529 23 32 38 27 36 12543 150 22 21 7473 33 599 32728 20
internal_value=0 1024.01 -199.698 932.887 5780.79 34.4273 -486.529 734.345 11438.8 4826.95 1885.89 1940.15 4383.52 7881.26 4158.96 1829.86 5008.06 4323.45 5291.5 1045.63 1486.96 295.905 -373.518 -2219.74 1304.25 541.391 2992.89 522.562 -69.3839 2322.4
internal_weight=0 16226 83204 15921 305 45811 37393 13176 44 261 2745 2709 117 53 224 2592 176 153 121 5042 64 13019 25132 49 476 8134 62 8072 32792 64
internal_count=99430 16226 83204 15921 305 45811 37393 13176 44 261 2745 2709 117 53 224 2592 176 153 121 5042 64 13019 25132 49 476 8134 62 8072 32792 64
is_linear=0
shrinkage=0.1


Tree=19
num_leaves=31
num_cat=0
split_feature=12 12 12 12 18 8 17 26 9 0 32 12 26 32 12 9 9 5 32 23 8 36 18 23 23 26 6 13 13 16
split_gain=1.49128e+12 5.32523e+11 3.42954e+11 2.59424e+11 1.20901e+11 8.65096e+10 8.48418e+10 7.70694e+10 7.62804e+10 7.23328e+10 7.06903e+10 6.86271e+10 5.89367e+10 5.56513e+10 5.5369e+10 5.38665e+10 5.29249e+10 7.25883e+10 4.98815e+10 4.93445e+10 4.33621e+10 4.89531e+10 4.27362e+10 4.22764e+10 3.95679e+10 3.11231e+10 3.0254e+10 4.15012e+10 3.98151e+10 2.99689e+10
threshold=78500.000000000015 396000.00000000006 38500.000000000007 153500.00000000003 655500.00000000012 83500.000000000015 87500.000000000015 104500.00000000001 286500.00000000006 634831.50000000012 77500.000000000015 56500.000000000007 14500.000000000002 180500.00000000003 215500.00000000003 123500.00000000001 1.0000000180025095e-35 27.500000000000004 294000.00000000006 75500.000000000015 186500.00000000003 517000.00000000006 98500.000000000015 103500.00000000001 210500.00000000003 42500.000000000007 2.5000000000000004 6500.0000000000009 4500.0000000000009 156500.00000000003
decision_type=10 10 8 10 8 10 8 8 10 2 10 10 8 10 10 10 10 2 10 10 10 8 8 10 10 10 2 10 10 10
left_child=2 3 10 7 9 -6 13 -2 11 20 12 15 19 -5 -8 -4 17 23 -16 -1 21 -3 -17 25 -14 -12 27 -18 -28 -30
right_child=1 4 8 6 5 -7 14 -9 -10 -11 16 -13 24 -15 18 22 26 -19 -20 -21 -22 -23 -24 -25 -26 -27 28 -29 29 -31
leaf_value=-685.53133854493308 371.77454957282566 7843.7735930266208 -134.46287358646899 -196.65971079606277 6956.6248331705738 14945.862126358696 1585.1896560693065 814.91133189005291 5613.8898173014322 695.1515615126666 -54.611358540852862 123.19012028825522 -399.2309391292431 5007.1623424183235 2474.1283448033569 -1124.9533531981631 4133.0453692267929 6182.6097587816648 6424.4614545036766 -2316.5318574116495 10243.021823730469 1876.0222481863839 1481.2862661494764 -2738.2527480468752 4050.5464794921882 2892.2764903550742 -2963.6253324864279 300.11711606236992 -413.78328366401865 3446.6491588245735
leaf_weight=6435 7723 27 29928 312 33 23 1898 7980 24 34 60 19127 23893 22 534 77 34 33 34 191 20 28 344 25 20 89 59 167 234 22
leaf_count=6435 7723 27 29928 312 33 23 1898 7980 24 34 60 19127 23893 22 534 77 34 33 34 191 20 28 344 25 20 89 59 167 234 22
internal_value=0 805.52 -186.195 755.084 6461.39 10237.9 1641.82 596.969 -22.4298 4521.16 -445.498 -25.1638 -468.636 146.107 1844.41 -118.662 531.806 1882.64 2710.59 -732.546 6255.61 4805.65 1004.61 1067.12 -395.509 1705.61 -10.0965 948.473 -621.755 -82.0274
internal_weight=0 18668 80762 18503 165 56 2800 15703 49500 109 31262 49476 30539 334 2466 30349 723 207 568 6626 75 55 421 174 23913 149 516 201 315 256
internal_count=99430 18668 80762 18503 165 56 2800 15703 49500 109 31262 49476 30539 334 2466 30349 723 207 568 6626 75 55 421 174 23913 149 516 201 315 256
is_linear=0
shrinkage=0.1


Tree=20
num_leaves=31
num_cat=0
split_feature=39 39 39 39 39 37 23 34 7 28 41 37 33 40 15 35 19 20 19 22 26 23 13 30 32 16 13 40 39 40
split_gain=1.38899e+12 4.88004e+11 4.23029e+11 1.40235e+11 1.26679e+11 1.13119e+11 1.26365e+11 1.72791e+11 8.96415e+10 7.40702e+10 7.0072e+10 9.51662e+10 6.6373e+10 5.02986e+10 4.85317e+10 7.99177e+10 6.65618e+10 4.41577e+10 4.05571e+10 5.60142e+10 4.91452e+10 4.51507e+10 1.36829e+11 4.08733e+10 4.67078e+10 3.89541e+10 3.6774e+10 3.50544e+10 3.34433e+10 3.32543e+10
threshold=93934.065934065948 51351.648351648357 252285.71428571432 158895.60439560443 31840.659340659342 482500.00000000006 532500.00000000012 728000.00000000012 -44499.999999999993 482500.00000000006 63500.000000000007 199500.00000000003 75500.000000000015 37116.666666666679 148500.00000000003 167500.00000000003 151500.00000000003 223500.00000000003 116500.00000000001 255500.00000000003 45500.000000000007 62500.000000000007 76500.000000000015 64500.000000000007 190500.00000000003 120500.00000000001 379000.00000000006 164200.00000000003 9456.0439560439572 22883.333333333339
decision_type=2 2 2 2 2 8 10 10 8 10 8 8 8 8 10 8 8 10 8 10 8 8 10 8 8 10 10 10 2 8
left_child=1 4 3 10 28 9 8 -8 17 26 11 -2 -3 -14 15 -5 -16 -7 19 20 -12 22 -22 24 -20 -24 -4 -25 -1 -6
right_child=2 12 5 14 29 6 7 -9 -10 -11 18 -13 13 -15 16 -17 -18 -19 23 -21 21 -23 25 27 -26 -27 -28 -29 -30 -31
leaf_value=-841.6462325988723 825.30359981142249 -8.2964136579984267 2082.2676059910509 6139.684371105318 1706.7514891251276 11596.48060886549 16570.290820312501 4149.4370163690473 3248.4729928152901 -3432.9686618041992 -1239.0254382239448 9664.6007928757444 5278.3441217041018 261.03011855756932 -793.84365803486594 2167.9000705181911 1778.2641375959531 5329.8492631392046 1815.3370389938354 -4173.5810141601569 10022.36231250763 570.98681604687386 374.98934077212687 951.88597701039089 6709.4874348958328 4599.259407891167 6851.3297338312323 -1520.6923461914064 -461.95648780849535 -197.43276876990831
leaf_weight=2623 29 15321 61 62 92 23 24 21 112 20 144 21 20 20832 111 277 1075 22 104 25 20 3682 114 5024 24 27 22 58 20069 29371
leaf_count=2623 29 15321 61 62 92 23 24 21 112 20 144 21 20 20832 111 277 1075 22 104 25 20 3682 114 5024 24 27 22 58 20069 29371
internal_value=0 -132.508 1054.24 950.492 -328.26 4726.94 6102.13 10773.9 4763.09 2029.98 804.333 4537.81 149.731 265.842 1839.14 2894.3 1537.54 8532.79 784.091 545.112 574.7 642.662 2281.84 968.119 2732.99 1183.89 3346.36 923.667 -505.845 -191.487
internal_weight=0 88328 11102 10797 52155 305 202 45 157 103 9272 50 36173 20852 1525 339 1186 45 9222 4012 3987 3843 161 5210 128 141 83 5082 22692 29463
internal_count=99430 88328 11102 10797 52155 305 202 45 157 103 9272 50 36173 20852 1525 339 1186 45 9222 4012 3987 3843 161 5210 128 141 83 5082 22692 29463
is_linear=0
shrinkage=0.1


Tree=21
num_leaves=31
num_cat=0
split_feature=12 12 12 12 33 20 8 13 17 12 13 23 12 30 21 13 42 16 41 38 17 30 33 38 33 34 8 36 40 17
split_gain=1.02144e+12 3.33484e+11 2.96302e+11 1.21992e+11 1.00715e+11 8.86996e+10 6.76763e+10 6.44131e+10 5.61577e+10 5.65133e+10 5.17512e+10 5.09578e+10 4.8288e+10 4.46893e+10 7.40601e+10 4.24501e+10 4.0467e+10 3.5799e+10 3.8858e+10 3.38384e+10 2.78236e+10 3.63507e+10 2.92524e+10 2.68423e+10 2.62417e+10 5.70567e+10 2.59426e+10 2.90604e+10 3.72342e+10 6.93556e+10
threshold=91500.000000000015 396000.00000000006 50500.000000000007 178500.00000000003 250500.00000000003 26500.000000000004 271500.00000000006 227500.00000000003 68500.000000000015 1.0000000180025095e-35 756000.00000000012 204500.00000000003 65500.000000000007 796500.00000000012 461500.00000000006 113500.00000000001 26833.333333333339 236500.00000000003 150500.00000000003 1.0000000180025095e-35 133500.00000000003 83500.000000000015 178500.00000000003 197500.00000000003 82500.000000000015 68500.000000000015 -39499.999999999993 63500.000000000007 70950.000000000015 76500.000000000015
decision_type=10 10 8 10 8 8 10 10 10 10 10 10 10 8 10 10 10 8 8 8 8 8 10 10 10 8 10 8 8 10
left_child=2 3 5 15 -3 8 10 11 24 -10 13 23 -4 14 -6 -2 -5 19 -19 -18 22 -22 -21 -7 -1 -26 27 28 -14 -30
right_child=1 4 12 16 6 7 -8 -9 9 -11 -12 -13 26 -15 -16 -17 17 18 -20 20 21 -23 -24 -25 25 -27 -28 -29 29 -31
leaf_value=-472.25342819393529 495.06779101495624 -549.55194238281251 -7.3528987068138125 -2883.0614254760744 8505.1708305027187 -203.92144869255358 10077.977113850911 4875.4953173828126 -2415.7777848342371 24.871212947114984 740.79478870738649 3557.8518853081596 838.3404031013041 9121.0100021362305 783.1433141637732 893.67702084423399 4702.0844067382814 6691.9637910388765 2259.8828684024447 98.759394981072305 5700.5835309709828 1489.5240198208651 2853.3882585313586 -3358.2521868670428 -311.86605350269997 4272.294190607844 183.6607996545695 497.28486259109189 7929.1053508300793 133.67634742373511
leaf_weight=14377 6672 25 23721 20 23 32711 36 25 290 141 22 36 85 32 27 4456 30 21 341 269 21 859 45 27 102 37 13903 1030 25 21
leaf_count=14377 6672 25 23721 20 23 32711 36 25 290 141 22 36 85 32 27 4456 30 21 341 269 21 859 45 27 102 37 13903 1030 25 21
internal_value=0 830.146 -123.748 772.267 5296.98 -290.528 6341.01 -198.518 -492.433 -1617.33 5047.44 -202.388 81.5654 6202.88 4335.28 654.683 1587.01 1643.38 2516.99 1385 1301.66 1590.02 493.531 -206.523 -459.033 908.378 221.583 675.708 2078.58 4370.32
internal_weight=0 12899 86531 12734 165 47746 140 32799 14947 431 104 32774 38785 82 50 11128 1606 1586 362 1224 1194 880 314 32738 14516 139 15064 1161 131 46
internal_count=99430 12899 86531 12734 165 47746 140 32799 14947 431 104 32774 38785 82 50 11128 1606 1586 362 1224 1194 880 314 32738 14516 139 15064 1161 131 46
is_linear=0
shrinkage=0.1


Tree=22
num_leaves=31
num_cat=0
split_feature=39 39 39 39 1 24 7 39 41 14 22 28 11 22 19 27 29 22 42 35 7 2 28 39 29 22 9 4 28 2
split_gain=9.6348e+11 3.65898e+11 2.31155e+11 1.52358e+11 1.24428e+11 8.98141e+10 6.62188e+10 5.66321e+10 5.64461e+10 4.75381e+10 5.2801e+10 7.80027e+10 5.24697e+10 4.43696e+10 4.1823e+10 4.40681e+10 4.00313e+10 3.82117e+10 5.02038e+10 4.21005e+10 4.59377e+10 6.25364e+10 3.70983e+10 3.57029e+10 3.72071e+10 3.70719e+10 3.68146e+10 3.52562e+10 3.47056e+10 3.40506e+10
threshold=73714.285714285725 200807.69230769234 35324.175824175829 120565.93406593408 846500.00000000012 470500.00000000006 -136499.99999999997 57725.274725274743 67785.714285714304 206500.00000000003 99500.000000000015 1.0000000180025095e-35 96500.000000000015 477500.00000000006 78500.000000000015 98500.000000000015 50500.000000000007 56500.000000000007 62833.333333333336 46500.000000000007 5500.0000000000009 254500.00000000003 453000.00000000006 171978.02197802201 126500.00000000001 141500.00000000003 259500.00000000003 55.937786545000009 133500.00000000003 321500.00000000006
decision_type=2 2 2 2 2 10 8 2 8 10 8 8 10 10 8 10 10 8 10 10 10 2 10 2 10 8 10 2 8 2
left_child=2 3 -1 17 5 6 -3 -4 -5 10 11 -10 -11 27 15 29 -9 18 19 -2 21 -21 -7 24 26 -25 -16 -8 -17 -12
right_child=1 4 7 8 -6 22 13 16 9 12 14 -13 -14 -15 23 28 -18 -19 -20 20 -22 -23 -24 25 -26 -27 -28 -29 -30 -31
leaf_value=-396.96121029084236 604.33086417989523 7516.6342571756122 -107.69382409467744 5266.2252173639117 9929.0031455078133 9618.9866187686021 2011.1375629046195 302.52484522412016 7675.0243212890628 -3834.6808740234374 43.70196533203125 1855.0238969619961 260.43422899666479 -2166.5323801676436 1240.6834147468674 -1622.7642134602866 -13.224669936547983 338.19525481431566 714.83888504827155 2833.3423767089844 1167.3022160282842 10214.568403764206 4579.6740447998045 4446.8092751736112 531.5025676183626 1484.5974859533021 -2784.340452509341 5500.8220892137106 2830.5245706467404 -4552.1245823308045
leaf_weight=26962 47 23 35197 31 25 21 438 6812 25 35 28 292 295 24 1893 30 9780 14288 659 24 27 22 48 45 1534 691 23 31 42 38
leaf_count=26962 47 23 35197 31 25 21 438 6812 25 35 28 292 295 24 1893 30 9780 14288 659 24 27 22 48 45 1534 691 23 31 42 38
internal_value=0 607.472 -159.514 534.136 3020.23 2724.98 2271.88 -35.8964 1012.34 985.81 1068.27 2314.01 -173.896 2027.19 976.944 -735.927 116.409 375.38 1057.41 2938.68 4441.61 6363.49 6113.38 1033.41 898.521 1665.71 1192.37 2241.8 974.988 -2602.38
internal_weight=0 20679 78751 20069 610 585 516 51789 5002 4971 4641 317 330 493 4324 138 16592 15067 779 120 73 46 69 4186 3450 736 1916 469 72 66
internal_count=99430 20679 78751 20069 610 585 516 51789 5002 4971 4641 317 330 493 4324 138 16592 15067 779 120 73 46 69 4186 3450 736 1916 469 72 66
is_linear=0
shrinkage=0.1


Tree=23
num_leaves=31
num_cat=0
split_feature=39 39 39 10 12 12 22 24 5 41 18 12 6 41 13 39 34 12 14 41 40 40 10 9 10 1 24 19 30 32
split_gain=7.82916e+11 3.17828e+11 1.59901e+11 1.46219e+11 1.04718e+11 9.22804e+10 8.28516e+10 7.00522e+10 9.31837e+10 4.84806e+10 4.77845e+10 4.49935e+10 4.36783e+10 4.04576e+10 5.4865e+10 4.744e+10 3.85834e+10 3.57248e+10 3.82159e+10 3.50566e+10 3.28673e+10 3.18966e+10 3.59785e+10 3.11419e+10 5.40948e+10 1.13961e+11 2.88924e+10 2.87666e+10 2.87202e+10 2.87199e+10
threshold=67950.549450549457 171978.02197802201 33697.802197802208 447000.00000000006 103500.00000000001 513500.00000000006 477500.00000000006 734500.00000000012 10.500000000000002 78785.714285714304 381000.00000000006 10500.000000000002 2.5000000000000004 159357.14285714287 217500.00000000003 115593.4065934066 131500.00000000003 160500.00000000003 225500.00000000003 61500.000000000007 45550.000000000007 30883.333333333339 9500.0000000000018 1.0000000180025095e-35 146500.00000000003 59500.000000000007 74500.000000000015 215500.00000000003 179500.00000000003 26500.000000000004
decision_type=2 2 2 10 8 8 10 8 2 10 10 10 2 10 10 2 8 8 8 8 10 8 10 8 8 2 10 8 8 8
left_child=2 4 11 10 13 6 -5 -7 -9 12 16 -1 21 14 29 -16 -3 18 28 -6 -13 22 -4 24 -14 -26 -11 -19 -18 -2
right_child=1 3 9 5 19 7 -8 8 -10 26 -12 20 23 -15 15 -17 17 27 -20 -21 -22 -23 -24 -25 25 -27 -28 -29 -30 -31
leaf_value=-566.30469328352933 -615.49905665627011 4549.9182273864744 716.35135700806336 5270.7270550702078 3481.5562300248585 12635.39256225586 -2273.3966526031495 10523.697815522695 1567.5217548076926 -795.52034085278444 5181.2677395290802 -270.77608794444257 226.44323037716788 -3118.1409023708766 1311.5762463591821 7206.7036791992186 2753.4017987738716 1118.6036917619031 -3827.6018231478611 651.789506236276 -3039.004047056686 53.898783618195154 5796.7714507675173 -150.97656198624057 9474.649051513672 148.85784590871711 -3177.1466700385599 2121.7813863769852 -249.45461038012024 248.85815036453118
leaf_weight=7957 395 40 46 37 44 20 24 21 26 203 36 16827 1037 36 43 20 45 594 22 8728 43 20105 20 27934 20 38 68 551 109 14341
leaf_count=7957 395 40 46 37 44 20 24 21 26 203 36 16827 1037 36 43 20 45 594 22 8728 43 20105 20 27934 20 38 68 551 109 14341
internal_value=0 482.474 -163.201 1881.64 392.089 5116.53 2302.55 7678.52 5569.22 -59.2756 1585.24 -370.287 -51.9286 230.134 238.279 3183.05 1490.12 1397.47 71.0528 665.984 -277.832 61.1037 2255.87 -130.47 392.668 3364.65 -1393.12 1601.36 628.003 225.689
internal_weight=0 25132 74298 1525 23607 128 61 67 47 49471 1397 24827 49200 14835 14799 63 1361 1321 176 8772 16870 20171 66 29029 1095 58 271 1145 154 14736
internal_count=99430 25132 74298 1525 23607 128 61 67 47 49471 1397 24827 49200 14835 14799 63 1361 1321 176 8772 16870 20171 66 29029 1095 58 271 1145 154 14736
is_linear=0
shrinkage=0.1


Tree=24
num_leaves=31
num_cat=0
split_feature=39 39 39 1 12 12 7 14 10 10 33 30 3 34 18 41 12 8 12 2 17 8 15 2 7 18 33 39 22 33
split_gain=6.45552e+11 2.27205e+11 1.99653e+11 8.94789e+10 6.54997e+10 5.67341e+10 5.58328e+10 5.56878e+10 1.13458e+11 5.07276e+10 5.46419e+10 5.1739e+10 4.25235e+10 5.72061e+10 4.17789e+10 5.0268e+10 3.78682e+10 3.61394e+10 4.67192e+10 5.18695e+10 3.91393e+10 3.4861e+10 3.39292e+10 3.39021e+10 3.19663e+10 3.19475e+10 3.15921e+10 4.1113e+10 3.08688e+10 3.48934e+10
threshold=91686.81318681319 47291.208791208795 200807.69230769234 846500.00000000012 24500.000000000004 123500.00000000001 -166499.99999999997 56500.000000000007 45500.000000000007 152500.00000000003 144500.00000000003 557000.00000000012 37.643016205000002 121500.00000000001 204500.00000000003 53928.571428571435 68500.000000000015 -335499.99999999994 28500.000000000004 254500.00000000003 106500.00000000001 -140499.99999999997 166500.00000000003 1158500.0000000002 -36499.999999999993 53500.000000000007 145500.00000000003 76895.604395604416 57500.000000000007 75500.000000000015
decision_type=2 2 2 2 10 8 8 8 10 8 8 10 2 8 10 8 10 10 10 2 8 8 10 2 10 10 10 2 10 10
left_child=1 4 5 6 -1 14 -4 8 -7 -8 -11 21 13 -10 15 -2 22 20 19 -19 -17 -12 26 -23 -21 -26 -3 -28 29 -18
right_child=2 16 3 -5 -6 7 9 -9 12 10 11 -13 -14 -15 -16 17 28 18 -20 24 -22 23 -24 -25 25 -27 27 -29 -30 -31
leaf_value=-389.19267249659521 4379.852143096924 8.7400516532449259 6406.7331673177086 8313.8668613281243 -147.31306789731119 8220.946317545573 5842.6506835937507 783.86579906222357 7271.4579171614214 -3384.8802282714846 -1562.711474609375 6929.0304687500002 -617.96546599289468 1170.6639413721421 -1557.4367613969025 5865.5182902018232 332.60291099189499 1765.3927644178602 426.66706878622972 -4369.3486174843529 1119.9249358646455 1638.96398076796 -2073.841358126127 4308.7664561518923 -4107.6383307823771 -2.5863222830636161 520.02448028564447 5346.7576367187503 107.80320207764419 1253.7512920521542
leaf_weight=18796 32 26998 30 25 27686 30 32 4949 22 20 30 20 58 51 108 24 4106 45 5702 44 63 399 78 54 26 70 60 25 9390 457
leaf_count=18796 32 26998 30 25 27686 30 32 4949 22 20 30 20 58 51 108 24 4106 45 5702 44 63 399 78 54 26 70 60 25 9390 457
internal_value=0 -93.6549 693.24 2455.14 -245.122 597.484 2204.77 843.408 2673.68 1977.63 1741.15 1944.97 1403.31 3009.26 391.944 426.998 77.5886 405.824 375.924 -1188.04 2429.05 1738.59 8.80213 1957.22 -2137.36 -1114.37 14.8002 1939.65 211.489 424.859
internal_weight=0 87596 11834 610 46482 11224 585 5110 161 555 523 503 131 73 6114 6006 41114 5974 5887 185 87 483 27161 453 140 96 27083 85 13953 4563
internal_count=99430 87596 11834 610 46482 11224 585 5110 161 555 523 503 131 73 6114 6006 41114 5974 5887 185 87 483 27161 453 140 96 27083 85 13953 4563
is_linear=0
shrinkage=0.1


Tree=25
num_leaves=31
num_cat=0
split_feature=39 39 11 25 8 12 39 10 9 30 22 29 26 26 13 12 19 13 37 10 29 24 26 20 30 24 12 22 24 0
split_gain=5.26046e+11 2.16195e+11 1.49518e+11 7.26166e+10 6.5743e+10 6.18876e+10 5.90724e+10 6.93306e+10 4.5628e+10 4.59815e+10 4.12148e+10 4.09404e+10 4.13695e+10 4.06587e+10 4.04509e+10 3.9062e+10 4.31133e+10 3.69695e+10 3.22657e+10 3.08207e+10 3.11707e+10 2.77872e+10 3.2387e+10 4.56766e+10 2.98746e+10 2.76499e+10 3.25492e+10 3.19186e+10 2.58823e+10 3.49097e+10
threshold=101494.50549450552 51846.153846153851 283500.00000000006 366500.00000000006 271500.00000000006 24500.000000000004 158895.60439560443 352500.00000000006 347000.00000000006 101500.00000000001 199500.00000000003 49500.000000000007 102500.00000000001 69500.000000000015 756000.00000000012 74500.000000000015 79500.000000000015 573500.00000000012 141500.00000000003 161500.00000000003 72500.000000000015 205500.00000000003 155500.00000000003 57500.000000000007 110500.00000000001 263500.00000000006 103500.00000000001 280500.00000000006 99500.000000000015 663933.50000000012
decision_type=2 2 10 10 10 10 2 10 10 10 10 8 10 8 10 8 10 8 8 10 8 10 10 10 10 10 8 10 8 2
left_child=1 5 3 6 14 -1 8 18 9 11 21 12 -2 19 17 16 -13 28 -8 -3 -21 22 -11 -24 -25 26 -20 -28 -4 -30
right_child=2 13 4 -5 -6 -7 7 -9 -10 10 -12 15 -14 -15 -16 -17 -18 -19 25 20 -22 -23 23 24 -26 -27 27 -29 29 -31
leaf_value=-342.98702393019676 5834.2876491546631 -8.737570766063568 -866.26626026153576 6272.8789423403541 8438.2988141741062 -119.35226581896831 3235.4062673375229 7045.5738186740873 -3831.3529663085938 276.08195675130776 -1391.5599279795979 -2322.9466685171687 1036.5707857457603 195.98613251211177 -1383.7884574558425 823.48294914337282 901.14587794174395 6489.8409071180558 -2434.0297099522181 -286.19414450155722 -4708.5157575334824 -1217.7867915722209 5726.3779378255213 4248.5436605600216 758.07378874461233 3267.7859636990529 1066.3680016449705 -2861.2124182928178 2212.3332293832905 5706.4189724392363
leaf_weight=19525 32 14355 20 23 21 33789 69 20 24 2822 141 85 41 22790 23 3204 81 27 28 37 28 109 21 26 431 53 1409 21 139 36
leaf_count=19525 32 14355 20 23 21 33789 69 20 24 2822 141 85 41 22790 23 3204 81 27 28 37 28 109 21 26 431 53 1409 21 139 36
internal_value=0 -72.146 733.32 661.426 3068.51 -201.253 646.449 1194.76 521.423 536.362 283.831 796.741 3139.68 112.837 2608.24 745.989 -749.745 3021.83 1120.7 -18.5753 -2191.19 353.127 405.015 1166.2 956.656 1024.13 942.575 1008.69 2541.64 2931.12
internal_weight=0 90524 8906 8640 266 53314 8617 1600 7017 6993 3550 3443 73 37210 245 3370 166 222 1580 14420 65 3409 3300 478 457 1511 1458 1430 195 175
internal_count=99430 90524 8906 8640 266 53314 8617 1600 7017 6993 3550 3443 73 37210 245 3370 166 222 1580 14420 65 3409 3300 478 457 1511 1458 1430 195 175
is_linear=0
shrinkage=0.1


Tree=26
num_leaves=31
num_cat=0
split_feature=39 39 25 29 39 10 40 7 12 15 40 26 15 41 29 32 11 42 41 5 40 11 42 12 35 41 14 20 29 31
split_gain=4.3321e+11 1.88662e+11 1.14661e+11 1.66234e+11 8.16714e+10 6.08869e+10 4.50588e+10 4.39157e+10 4.1781e+10 4.72157e+10 4.18363e+10 4.07177e+10 5.04932e+10 4.45981e+10 3.93223e+10 3.88539e+10 3.51412e+10 3.2712e+10 3.28333e+10 3.15551e+10 3.10636e+10 4.32666e+10 3.18726e+10 2.9496e+10 2.85036e+10 2.82383e+10 3.60607e+10 2.72666e+10 2.64765e+10 3.93843e+10
threshold=64796.703296703301 135483.51648351652 366500.00000000006 151500.00000000003 35120.87912087913 594000.00000000012 78650.000000000015 -70499.999999999985 91500.000000000015 197500.00000000003 157100.00000000003 84500.000000000015 253500.00000000003 83785.714285714304 463500.00000000006 220500.00000000003 166500.00000000003 73833.333333333358 119642.85714285716 14.500000000000002 31283.333333333339 62500.000000000007 89166.666666666672 11500.000000000002 159500.00000000003 61500.000000000007 39500.000000000007 100500.00000000001 5500.0000000000009 4500.0000000000009
decision_type=2 2 10 10 2 10 10 10 8 10 10 8 10 8 10 10 8 10 8 2 8 10 10 10 10 8 10 8 8 10
left_child=4 8 5 -4 23 11 20 -5 9 15 25 12 -3 -13 -9 24 17 -15 -19 -12 21 -6 -22 -1 28 26 -10 -28 29 -2
right_child=1 2 3 7 6 -7 -8 14 10 -11 19 13 -14 16 -16 -17 -18 18 -20 -21 22 -23 -24 -25 -26 -27 27 -29 -30 -31
leaf_value=-422.59527516794645 3201.6444327966492 57.284353982210156 11904.514013671876 -819.97361843970521 724.21911374572528 6422.4523437500002 -4132.5059943305123 -66.724139404296878 -196.85735653147981 -2239.271368553525 -215.5939383370536 5544.7063278924852 -5452.3479187011726 -3100.5955993652346 5165.0430659275435 3675.022277438256 1236.4900412337024 2911.663422698975 521.30316891196549 -5214.5256326426634 -45.534090756919433 5712.8462852478033 -1357.3078712422362 -197.11931298757588 -1348.7607426133268 386.72754149694254 1962.6211003230169 6873.8830664062498 123.48410571709647 470.35410581075524
leaf_weight=8569 67 80 22 31 133 20 27 20 34 84 28 21 21 24 51 31 1646 60 1359 23 44469 20 186 17966 129 10480 26 20 13534 249
leaf_count=8569 67 80 22 31 133 20 27 20 34 84 28 21 21 24 51 31 1646 60 1359 23 44469 20 186 17966 129 10480 26 20 13534 249
internal_value=0 332.893 1036.52 4020.67 -130.881 921.996 -48.5851 2320.23 237.338 124.5 387.216 887.736 -1088.28 951.909 3691.31 138.672 920.686 560.455 622.375 -2470.01 -46.1243 1376.33 -50.998 -269.933 130.83 401.015 2272.66 4097.95 144.611 1049.46
internal_weight=0 28060 3355 124 71370 3231 44835 102 24705 14094 10611 3211 101 3110 71 14010 3089 1443 1419 51 44808 153 44655 26535 13979 10560 80 46 13850 316
internal_count=99430 28060 3355 124 71370 3231 44835 102 24705 14094 10611 3211 101 3110 71 14010 3089 1443 1419 51 44808 153 44655 26535 13979 10560 80 46 13850 316
is_linear=0
shrinkage=0.1


Tree=27
num_leaves=31
num_cat=0
split_feature=39 39 25 28 1 40 13 21 11 40 39 7 22 22 32 5 39 30 40 2 3 22 37 16 27 15 13 11 5 5
split_gain=3.56868e+11 1.61557e+11 9.82671e+10 1.12493e+11 5.17215e+10 5.31029e+10 5.52634e+10 4.8243e+10 5.10266e+10 4.5199e+10 4.66395e+10 4.24653e+10 4.19034e+10 3.62358e+10 3.37464e+10 5.90005e+10 3.03094e+10 3.53127e+10 3.63333e+10 3.71069e+10 5.67375e+10 3.68057e+10 3.28269e+10 2.88282e+10 2.67109e+10 3.20469e+10 2.90631e+10 2.61487e+10 2.58497e+10 2.56343e+10
threshold=111313.18681318683 54010.989010989018 366500.00000000006 192500.00000000003 672500.00000000012 96683.333333333358 67500.000000000015 418500.00000000006 283500.00000000006 63983.333333333336 18461.538461538468 105500.00000000001 511000.00000000006 54500.000000000007 77500.000000000015 30.500000000000004 158895.60439560443 190500.00000000003 121683.33333333336 480500.00000000006 37.682822815000002 144500.00000000003 141500.00000000003 153500.00000000003 263500.00000000006 263500.00000000006 238500.00000000003 49500.000000000007 12.500000000000002 28.500000000000004
decision_type=2 2 10 10 2 8 10 10 10 10 2 10 10 10 10 2 2 10 8 2 2 10 8 10 10 10 10 8 2 2
left_child=1 9 4 -4 5 6 -2 8 16 10 -1 12 -5 14 -3 23 17 -7 -19 20 21 -20 -18 -16 25 27 -27 -24 -11 -15
right_child=2 13 3 11 -6 7 -8 -9 -10 28 -12 -13 -14 29 15 -17 22 18 19 -21 -22 -23 24 -25 -26 26 -28 -29 -30 -31
leaf_value=-337.7141094453869 7604.9374655983665 214.72421172006844 8783.5910498046869 2399.2683566958408 5588.9307896205355 508.81270510107373 1051.571382780998 -3624.4093853985828 2565.5890151977542 -288.8291144293708 -108.4017663078036 5011.2997095568426 -2627.1399617513021 78.542284787946755 653.31670751826175 6157.9312393915088 3120.8504822688319 3029.7853274258705 -1535.9301281738281 459.17758597819011 -377.57399272303428 -7038.2656131867443 4461.0002171325687 4418.9873453776045 3064.6231360093607 -3462.0316036339968 1296.8088892618816 819.30445083169388 -3683.1538118061271 -263.98505463315655
leaf_weight=10980 22 11612 30 43 21 4917 31 27 131 37 46144 29 27 20398 637 21 67 22 20 75 62 31 20 21 53 33 21 1394 57 2447
leaf_count=10980 22 11612 30 43 21 4917 31 27 131 37 46144 29 27 20398 637 21 67 22 20 75 62 31 20 21 53 33 21 1394 57 2447
internal_value=0 -52.4398 684.43 3419.16 633.649 618.624 3771.84 594.309 610.947 -156.084 -152.479 1793.57 460.511 116.342 254.793 940.027 572.815 454.576 -815.337 -1265.3 -2409.86 -4880.49 954.558 773.498 859.133 779.507 -1611.37 870.814 -2347.09 41.8531
internal_weight=0 92354 7076 129 6947 6926 53 6873 6846 57218 57124 99 70 35136 12291 679 6715 5127 210 188 113 51 1588 658 1521 1468 54 1414 94 22845
internal_count=99430 92354 7076 129 6947 6926 53 6873 6846 57218 57124 99 70 35136 12291 679 6715 5127 210 188 113 51 1588 658 1521 1468 54 1414 94 22845
is_linear=0
shrinkage=0.1


Tree=28
num_leaves=31
num_cat=0
split_feature=39 39 39 27 39 40 25 9 25 40 35 36 41 25 36 34 6 40 41 4 36 37 4 0 40 40 40 32 16 33
split_gain=2.98149e+11 1.17461e+11 7.61879e+10 4.76342e+10 4.19924e+10 6.37064e+10 6.99562e+10 5.58749e+10 4.35282e+10 4.13984e+10 3.87092e+10 3.59851e+10 5.30318e+10 6.54369e+10 5.26974e+10 4.01184e+10 3.54842e+10 4.36647e+10 3.46962e+10 4.55599e+10 3.69963e+10 3.8427e+10 3.37928e+10 4.2203e+10 3.20843e+10 3.31848e+10 3.11189e+10 3.04994e+10 3.38528e+10 2.8655e+10
threshold=73714.285714285725 187060.43956043958 41401.098901098907 720000.00000000012 120565.93406593408 115150.00000000001 124500.00000000001 97500.000000000015 304500.00000000006 85816.666666666672 202500.00000000003 63500.000000000007 70357.142857142884 30500.000000000004 17500.000000000004 59500.000000000007 2.5000000000000004 31283.333333333339 154785.71428571432 55.896006905000007 81500.000000000015 482500.00000000006 55.734430900000007 633218.00000000012 91916.666666666672 97650.000000000015 45850.000000000007 76500.000000000015 90500.000000000015 147500.00000000003
decision_type=2 2 2 10 2 8 10 10 10 10 10 8 10 10 10 10 2 8 10 2 8 10 2 2 10 10 10 8 10 8
left_child=2 4 26 18 11 6 7 -6 10 16 27 12 13 -2 -15 -16 17 -4 19 -3 -20 29 -12 -24 -11 -26 -1 28 -7 -22
right_child=1 3 9 -5 5 8 -8 -9 -10 24 22 -13 -14 14 15 -17 -18 -19 20 -21 21 -23 23 -25 25 -27 -28 -29 -30 -31
leaf_value=-191.20412696102238 7783.5020749178802 1816.3111799157186 3747.6376494436781 5298.5489537392896 -2279.8354581479675 -4759.4888761974516 7237.1887571062362 3258.4025362559732 4829.8124787703809 -5180.6371694711543 -81.754428996737047 168.44720921883462 536.25294250999821 -2194.9038974609375 6333.9325649414068 1119.4015831841364 -70.975993069622618 106.69307176390254 -3182.0945263671874 6423.2125575474338 -2299.2472783203125 4622.9192985288564 -6314.1751756751028 -620.60249471028646 1625.4526206383339 -3531.1301920572914 -1674.5297007654754 568.10420174767967 -253.96447244573525 1147.2725692316542
leaf_weight=35421 22 92 33 31 27 21 28 56 23 26 126 14258 701 25 25 36 25442 17637 20 28 25 31 23 30 26 24 142 4282 81 688
leaf_count=35421 22 92 33 31 27 21 28 56 23 26 126 14258 701 25 25 36 25442 17637 20 28 25 31 23 30 26 24 142 4282 81 688
internal_value=0 337.925 -88.7349 1445.59 286.645 547.711 2914.92 1456.81 490.415 0.520159 468.542 205.259 854.048 2916.77 1671.79 3256.5 4.63088 113.493 1310.48 2891.25 1062.19 1176.28 -972.878 -3091.4 -2331.34 -849.707 -197.127 527.395 -1181.57 1026.43
internal_weight=0 20679 78751 915 19764 4697 111 83 4586 43188 4563 15067 809 108 86 61 43112 17670 884 120 764 744 179 53 76 50 35563 4384 102 713
internal_count=99430 20679 78751 915 19764 4697 111 83 4586 43188 4563 15067 809 108 86 61 43112 17670 884 120 764 744 179 53 76 50 35563 4384 102 713
is_linear=0
shrinkage=0.1


Tree=29
num_leaves=31
num_cat=0
split_feature=39 39 23 28 41 42 39 11 1 6 7 21 6 28 33 11 16 41 1 17 6 32 7 7 14 9 9 7 1 6
split_gain=2.49248e+11 1.09798e+11 7.1461e+10 7.39287e+10 5.24735e+10 4.61035e+10 4.47982e+10 3.97981e+10 4.45035e+10 3.90284e+10 5.89166e+10 4.41832e+10 3.6962e+10 4.75748e+10 4.81026e+10 2.80534e+10 8.88776e+10 4.72499e+10 4.47376e+10 3.17389e+10 3.47001e+10 3.01462e+10 2.86203e+10 2.71023e+10 2.7702e+10 2.67895e+10 2.61949e+10 3.29441e+10 6.16796e+10 3.0213e+10
threshold=61769.230769230773 125153.84615384617 574000.00000000012 745000.00000000012 67785.714285714304 88500.000000000015 28780.219780219784 240500.00000000003 58500.000000000007 2.5000000000000004 49500.000000000007 461500.00000000006 2.5000000000000004 174500.00000000003 64500.000000000007 59500.000000000007 92500.000000000015 119642.85714285716 45500.000000000007 304500.00000000006 2.5000000000000004 69500.000000000015 68500.000000000015 -39499.999999999993 279500.00000000006 133500.00000000003 1.0000000180025095e-35 -136499.99999999997 11500.000000000002 2.5000000000000004
decision_type=2 2 10 8 8 10 2 8 2 2 10 10 2 10 10 10 10 8 2 10 2 10 10 8 8 10 8 10 2 2
left_child=5 12 4 -4 -3 6 -1 15 -9 10 -10 23 13 25 -15 16 -6 18 -17 20 -19 -20 -18 24 -11 -2 27 28 -8 -28
right_child=1 2 3 -5 7 -7 26 8 9 11 -12 -13 -14 14 -16 17 22 19 21 -21 -22 -23 -24 -25 -26 -27 29 -29 -30 -31
leaf_value=-234.57914462894888 302.63752249247068 4430.9645236545139 335.75058699898102 8118.8735069861787 -4520.2358801800274 -1763.9505303791591 5429.097408621652 5164.1546074176658 1758.4171682942711 677.18184640066966 7536.4868542480472 -3430.3656757812505 53.84699236069364 6667.3225111527881 1246.9116861701013 6222.0803289240066 -46.027867635091148 779.8515609879305 232.44806616210937 4078.3064720551174 165.82347320598126 2652.9042968624044 4136.1020471191405 621.15183120242887 5754.9040446888321 -526.92761831377993 27.45521889130244 198.80565424628438 19.809511350235852 -138.05798087403781
leaf_weight=19154 10685 36 23 26 46 168 35 29 150 21 20 25 16092 22 64 22 90 1616 100 24 2138 106 20 366 22 404 18659 2244 53 26970
leaf_count=19154 10685 36 23 26 46 168 35 29 150 21 20 25 16092 22 64 22 90 1616 100 24 2138 106 20 366 22 404 18659 2244 53 26970
internal_value=0 229.055 665.908 4465.57 627.368 -109.44 -105.298 598.811 1337.54 1153.81 2438.19 650.717 150.871 290.585 2633.53 486.458 -829.175 537.691 1935.69 453.322 430.147 1477.93 714.359 900.172 3275.09 272.414 -53.6675 273.237 2171.23 -70.3749
internal_weight=0 32147 4880 49 4831 67283 67115 4795 633 604 170 434 27267 11175 86 4162 156 4006 228 3778 3754 206 110 409 43 11089 47961 2332 88 45629
internal_count=99430 32147 4880 49 4831 67283 67115 4795 633 604 170 434 27267 11175 86 4162 156 4006 228 3778 3754 206 110 409 43 11089 47961 2332 88 45629
is_linear=0
shrinkage=0.1


Tree=30
num_leaves=31
num_cat=0
split_feature=12 26 1 1 23 6 17 21 14 14 11 24 10 15 11 12 8 31 11 41 14 34 32 26 15 6 25 41 41 10
split_gain=1.99915e+11 8.09877e+10 5.25628e+10 4.64691e+10 7.642e+10 3.95806e+10 3.83601e+10 5.75187e+10 4.58341e+10 3.81448e+10 6.03475e+10 4.55968e+10 4.76245e+10 3.3619e+10 2.99175e+10 3.88175e+10 2.87228e+10 2.86179e+10 3.48044e+10 3.28782e+10 2.96701e+10 2.81653e+10 2.79759e+10 2.69136e+10 2.44983e+10 2.39116e+10 2.3403e+10 5.23845e+10 2.71536e+10 2.50258e+10
threshold=72500.000000000015 215500.00000000003 497500.00000000006 29500.000000000004 221500.00000000003 2.5000000000000004 96500.000000000015 134500.00000000003 141500.00000000003 788000.00000000012 532500.00000000012 485500.00000000006 45500.000000000007 319000.00000000006 157500.00000000003 294000.00000000006 472500.00000000006 1.0000000180025095e-35 283500.00000000006 150500.00000000003 119500.00000000001 76500.000000000015 1.0000000180025095e-35 31500.000000000004 19500.000000000004 1.5000000000000002 145500.00000000003 54214.285714285717 69071.428571428594 130500.00000000001
decision_type=10 10 2 2 10 2 10 10 10 10 10 10 10 10 10 10 10 10 10 10 10 8 8 10 10 2 10 10 10 10
left_child=2 5 3 4 6 13 26 8 22 10 11 12 -3 14 -2 -16 24 19 20 -5 25 -9 -8 -22 -7 -19 28 -28 -1 -30
right_child=1 9 -4 17 -6 16 7 21 -10 -11 -12 -13 -14 -15 15 -17 -18 18 -20 -21 23 -23 -24 -25 -26 -27 27 -29 29 -31
leaf_value=-187.10790055230905 336.27740226250882 5623.7778696695968 4602.6693435033167 59.480546958005732 5690.1196799538357 763.5024015699114 -3115.1153041294642 -2268.0077814275569 3680.2912394205728 5201.0145254281852 -3731.733674422554 5584.4767494788539 1051.9234914783901 -2965.6179296875002 853.96785965546007 5112.6399902343755 3802.2103788829986 55.615905485309327 2934.3992341694084 -3996.7930798339848 -3254.7929845174153 -7388.0178013392861 -435.31963882446291 -670.36715959039827 68.875148240802417 -138.53923035995467 -1095.2473645019531 5595.4147549715917 -893.30825640275179 -4058.9855643717451
leaf_weight=21521 9330 24 24 23086 22 532 56 22 21 26 23 26 450 30 789 22 21 8796 38 20 48 21 128 251 11129 22748 25 22 149 30
leaf_count=21521 9330 24 24 23086 22 532 56 22 21 26 23 26 450 30 789 22 21 8796 38 20 48 21 128 251 11129 22748 25 22 149 30
internal_value=0 262.933 -76.4687 -77.927 -200.693 232.796 -206.585 -1443.25 -745.762 1462.53 1276.68 1507.07 1283.41 377.029 386.917 969.493 107.22 -28.7713 -90.1878 55.9695 -93.7972 -4768.48 -1250.91 -1085.26 100.566 -84.3993 -192.482 2036.55 -197.31 -1423.87
internal_weight=0 22402 77028 77004 22017 21853 21995 248 205 549 523 500 474 10171 10141 811 11682 54987 31881 23106 31843 43 184 299 11661 31544 21747 47 21700 179
internal_count=99430 22402 77028 77004 22017 21853 21995 248 205 549 523 500 474 10171 10141 811 11682 54987 31881 23106 31843 43 184 299 11661 31544 21747 47 21700 179
is_linear=0
shrinkage=0.1


Tree=31
num_leaves=31
num_cat=0
split_feature=39 12 1 24 33 41 19 22 13 12 19 15 19 37 15 19 8 32 33 15 8 30 15 29 31 5 40 8 8 1
split_gain=1.78601e+11 6.49403e+10 6.26159e+10 4.93518e+10 3.55839e+10 5.12883e+10 7.45275e+10 3.7157e+10 3.67522e+10 4.61499e+10 4.06387e+10 3.54795e+10 3.53226e+10 3.42212e+10 6.41047e+10 3.13535e+10 2.74055e+10 2.61316e+10 3.43744e+10 4.18207e+10 5.82346e+10 2.56202e+10 2.54546e+10 2.43845e+10 2.36787e+10 2.64045e+10 3.65433e+10 2.60812e+10 2.34222e+10 2.29696e+10
threshold=87912.087912087925 51500.000000000007 846500.00000000012 470500.00000000006 126500.00000000001 66928.571428571435 93500.000000000015 223500.00000000003 505500.00000000006 327500.00000000006 133500.00000000003 159500.00000000003 92500.000000000015 482500.00000000006 646000.00000000012 245500.00000000003 48500.000000000007 11500.000000000002 82500.000000000015 22500.000000000004 -123499.99999999999 110500.00000000001 260500.00000000003 67500.000000000015 37500.000000000007 11.500000000000002 97650.000000000015 -140499.99999999997 299500.00000000006 240500.00000000003
decision_type=2 10 2 10 8 8 10 10 10 10 10 10 10 8 10 10 10 8 10 10 10 8 10 10 10 2 10 10 10 2
left_child=1 11 3 4 7 6 -6 -2 9 15 -11 17 -9 -5 -15 22 -12 23 -19 20 -20 -17 -7 -1 28 -26 27 -27 -3 -24
right_child=2 24 -4 13 5 8 -8 12 -10 10 16 -13 -14 14 -16 21 -18 18 19 -21 -22 -23 29 -25 25 26 -28 -29 -30 -31
leaf_value=-281.64116285112391 134.56969360118194 159.75636628504969 5341.0197832031254 -561.46378348214284 8352.4145391845705 402.04448062723282 5.7368524966032615 -5664.2681652250749 -3191.49547467913 6345.6386633831526 3210.6131218804258 -2149.1879354077714 -620.90162524711798 6764.5765129743304 -332.4631921386719 5047.691036376953 -1050.0427368750941 -102.38995412360781 7140.2506638299856 200.36846831305462 1352.6311798284551 1273.9106077140937 -2.7906765641837286 -1268.970196723938 168.26057355472062 3442.5820744105749 -4068.2372261379078 -84.28521820384185 2957.24925374349 -3191.5613228462839
leaf_weight=4766 4839 12623 25 21 20 7846 23 21 28 23 36 86 41 35 20 20 26 48395 21 352 101 179 58 264 5859 21 23 13591 30 37
leaf_count=4766 4839 12623 25 21 20 7846 23 21 28 23 36 86 41 35 20 20 26 48395 21 352 101 179 58 264 5859 21 23 13591 30 37
internal_value=0 -52.6616 341.092 331.675 317.042 443.253 3887.91 103.403 425.305 437.618 2755.65 -119.667 -2329.14 2872.63 4183.83 413.412 1423.89 -116.429 -94.0897 753.356 2348.86 1653.19 382.344 -333.461 59.8614 -9.2827 -85.5736 -78.8441 166.389 -1244.73
internal_weight=0 86132 13298 13273 13197 8296 43 4901 8253 8225 85 53985 62 76 55 8140 62 53899 48869 474 122 199 7941 5030 32147 19494 13635 13612 12653 95
internal_count=99430 86132 13298 13273 13197 8296 43 4901 8253 8225 85 53985 62 76 55 8140 62 53899 48869 474 122 199 7941 5030 32147 19494 13635 13612 12653 95
is_linear=0
shrinkage=0.1


end of trees

feature_importances:
mean_income_all=199
income_4_day_before=93
mean_income_last_30_days=60
mean_income_last_7_days=46
income_11_day_before=39
income_3_day_before=32
income_18_day_before=27
income_25_day_before=27
income_1_day_before=24
yesterday_growth_of_income_growth=22
money_in=20
income_7_day_before=20
income_14_day_before=20
income_5_day_before=18
income_16_day_before=17
income_24_day_before=17
income_17_day_before=16
yesterday_income_growth=15
income_2_day_before=14
mean_income_last_3_days=14
income_9_day_before=13
income_22_day_before=13
latitude=12
day=12
weekday=12
income_6_day_before=12
income_10_day_before=12
income_15_day_before=12
income_21_day_before=12
income_8_day_before=11
income_28_day_before=11
income_20_day_before=10
money=9
income_12_day_before=9
income_29_day_before=9
TID=8
income_13_day_before=8
income_23_day_before=8
income_26_day_before=8
income_30_day_before=6
income_27_day_before=5
longitude=4
income_19_day_before=4

parameters:
[boosting: gbdt]
[objective: regression]
[metric: l2]
[tree_learner: serial]
[device_type: cpu]
[data: ]
[valid: ]
[num_iterations: 32]
[learning_rate: 0.1]
[num_leaves: 31]
[num_threads: -1]
[deterministic: 0]
[force_col_wise: 0]
[force_row_wise: 0]
[histogram_pool_size: -1]
[max_depth: -1]
[min_data_in_leaf: 20]
[min_sum_hessian_in_leaf: 0.001]
[bagging_fraction: 0.7]
[pos_bagging_fraction: 1]
[neg_bagging_fraction: 1]
[bagging_freq: 0]
[bagging_seed: 3014]
[feature_fraction: 0.7]
[feature_fraction_bynode: 1]
[feature_fraction_seed: 29554]
[extra_trees: 0]
[extra_seed: 19515]
[early_stopping_round: 0]
[first_metric_only: 0]
[max_delta_step: 0]
[lambda_l1: 0]
[lambda_l2: 0]
[linear_lambda: 0]
[min_gain_to_split: 0]
[drop_rate: 0.1]
[max_drop: 50]
[skip_drop: 0.5]
[xgboost_dart_mode: 0]
[uniform_drop: 0]
[drop_seed: 12050]
[top_rate: 0.2]
[other_rate: 0.1]
[min_data_per_group: 100]
[max_cat_threshold: 32]
[cat_l2: 10]
[cat_smooth: 10]
[max_cat_to_onehot: 4]
[top_k: 20]
[monotone_constraints: ]
[monotone_constraints_method: basic]
[monotone_penalty: 0]
[feature_contri: ]
[forcedsplits_filename: ]
[refit_decay_rate: 0.9]
[cegb_tradeoff: 1]
[cegb_penalty_split: 0]
[cegb_penalty_feature_lazy: ]
[cegb_penalty_feature_coupled: ]
[path_smooth: 0]
[interaction_constraints: ]
[verbosity: -1]
[saved_feature_importance_type: 0]
[linear_tree: 0]
[max_bin: 255]
[max_bin_by_feature: ]
[min_data_in_bin: 3]
[bin_construct_sample_cnt: 200000]
[data_random_seed: 126]
[is_enable_sparse: 1]
[enable_bundle: 1]
[use_missing: 1]
[zero_as_missing: 0]
[feature_pre_filter: 1]
[pre_partition: 0]
[two_round: 0]
[header: 0]
[label_column: ]
[weight_column: ]
[group_column: ]
[ignore_column: ]
[categorical_feature: ]
[forcedbins_filename: ]
[precise_float_parser: 0]
[objective_seed: 25204]
[num_class: 1]
[is_unbalance: 0]
[scale_pos_weight: 1]
[sigmoid: 1]
[boost_from_average: 1]
[reg_sqrt: 0]
[alpha: 0.9]
[fair_c: 1]
[poisson_max_delta_step: 0.7]
[tweedie_variance_power: 1.5]
[lambdarank_truncation_level: 30]
[lambdarank_norm: 1]
[label_gain: ]
[eval_at: ]
[multi_error_top_k: 1]
[auc_mu_weights: ]
[num_machines: 1]
[local_listen_port: 12400]
[time_out: 120]
[machine_list_filename: ]
[machines: ]
[gpu_platform_id: -1]
[gpu_device_id: -1]
[gpu_use_dp: 0]
[num_gpu: 1]

end of parameters

pandas_categorical:[]
