tree
version=v3
num_class=1
num_tree_per_iteration=1
label_index=0
max_feature_idx=42
objective=regression
feature_names=TID money_in money longitude latitude day weekday yesterday_income_growth yesterday_growth_of_income_growth income_1_day_before income_2_day_before income_3_day_before income_4_day_before income_5_day_before income_6_day_before income_7_day_before income_8_day_before income_9_day_before income_10_day_before income_11_day_before income_12_day_before income_13_day_before income_14_day_before income_15_day_before income_16_day_before income_17_day_before income_18_day_before income_19_day_before income_20_day_before income_21_day_before income_22_day_before income_23_day_before income_24_day_before income_25_day_before income_26_day_before income_27_day_before income_28_day_before income_29_day_before income_30_day_before mean_income_all mean_income_last_30_days mean_income_last_7_days mean_income_last_3_days
feature_infos=[406136:699664] [0:2697000] [0:6019000] [35.500558769999998:39.842458970000003] [54.458422939999998:56.757842529999998] [1:31] [0:6] [-2214000:2697000] [-4911000:2697000] [0:2697000] [0:2697000] [0:2697000] [0:2697000] [0:2697000] [0:2697000] [0:2697000] [0:2697000] [0:2697000] [0:2697000] [0:2697000] [0:2697000] [0:2697000] [0:2697000] [0:2697000] [0:2697000] [0:2697000] [0:2697000] [0:2697000] [0:2697000] [0:2697000] [0:2697000] [0:2697000] [0:2697000] [0:2697000] [0:2697000] [0:2697000] [0:2697000] [0:2697000] [0:2697000] [2274.7252747252742:734461.5384615385] [0:843500] [0:917142.85714285716] [0:1247000]
tree_sizes=2861 2868 2860 2864 2868 2868 2905 2850 2901 2835 2868 2897 2897 2817 2852 2838 2847 2870 2829 2857 2844 2872 2840 2837 2840 2837 2830 2867 2824 2823 2852

Tree=0
num_leaves=31
num_cat=0
split_feature=39 39 39 39 4 39 39 39 39 10 39 39 39 11 38 39 30 11 39 16 14 39 11 18 11 21 34 39 31 11
split_gain=7.9806e+13 2.89589e+13 2.14812e+13 9.99503e+12 5.73153e+12 4.13564e+12 3.45478e+12 1.81654e+12 1.25946e+12 1.15307e+12 6.54173e+11 5.27521e+11 4.86644e+11 3.89875e+11 3.23356e+11 2.70139e+11 2.19563e+11 2.07693e+11 1.56834e+11 1.48218e+11 1.39535e+11 1.28061e+11 1.18707e+11 1.15651e+11 1.53086e+11 1.07469e+11 1.68498e+11 1.02394e+11 1.00533e+11 9.79966e+10
threshold=83862.637362637368 252285.71428571432 42692.307692307702 128813.18681318681 55.950833515000006 60736.26373626374 23967.03296703297 158895.60439560443 105175.82417582419 367500.00000000006 70879.120879120892 51142.857142857152 33697.802197802208 205500.00000000003 515000.00000000006 14615.384615384619 381000.00000000006 173500.00000000003 95675.824175824164 304500.00000000006 71500.000000000015 115593.4065934066 100500.00000000001 78500.000000000015 42500.000000000007 175500.00000000003 158500.00000000003 187060.43956043958 200500.00000000003 84500.000000000015
decision_type=2 2 2 2 2 2 2 2 2 8 2 2 2 10 10 2 8 10 2 8 8 2 10 8 10 10 10 2 10 8
left_child=2 3 6 8 9 11 15 17 18 19 -7 -4 -8 29 -6 -1 -11 23 28 -3 -19 -10 -12 24 -5 -23 -27 -15 -2 -9
right_child=1 4 5 7 14 10 12 13 21 16 22 -13 -14 27 -16 -17 -18 20 -20 -21 -22 25 -24 -25 -26 26 -28 -29 -30 -31
leaf_value=51684.500366786524 59617.08445734773 77999.080133551062 55323.823848963497 53856.911348554451 128053.68694421105 57177.361045026526 53556.622105891583 62753.577990918027 61604.233746113016 85461.672693298984 58264.384504091773 56191.943473197411 54475.221260602586 69128.187998121037 113490.24543883468 52549.663775177301 96907.513091947141 74437.680527977325 60668.614466691404 84621.823285600054 66764.747041077382 62943.385155044009 59676.788082112762 64763.675127840521 63436.621394273723 62337.119572885698 54678.862574251361 72897.364761245699 66721.911421907615 68546.92961115326
leaf_weight=7503 4738 83 13969 22 31 10675 10370 30 1830 21 7159 14030 12993 94 30 6954 83 26 2196 57 268 1937 649 2055 69 96 41 309 20 1092
leaf_count=7503 4738 83 13969 22 31 10675 10370 30 1830 21 7159 14030 12993 94 30 6954 83 26 2196 57 268 1937 649 2055 69 96 41 309 20 1092
internal_value=56285.5 62973.3 55085.3 62345.7 93474.6 56525.2 53315.7 66642.8 60776.5 86620.4 57686.2 55758.8 54067.5 69350.3 120891 52100.7 94596.3 64950.7 59969.6 80695.5 67443.3 62214 58381.8 64609.2 61120.6 62751.9 60045.2 72018.2 59646.9 68392
internal_weight=0 15128 84302 14823 305 46482 37820 3965 10858 244 18483 27999 23363 1525 61 14457 104 2440 6954 140 294 3904 7808 2146 91 2074 137 403 4758 1122
internal_count=99430 15128 84302 14823 305 46482 37820 3965 10858 244 18483 27999 23363 1525 61 14457 104 2440 6954 140 294 3904 7808 2146 91 2074 137 403 4758 1122
is_linear=0
shrinkage=1


Tree=1
num_leaves=31
num_cat=0
split_feature=39 39 39 39 4 39 39 39 39 10 39 39 40 39 23 39 42 39 39 39 30 11 13 25 29 11 3 30 40 5
split_gain=6.46533e+13 2.47513e+13 1.46558e+13 1.04658e+13 4.64254e+12 2.56685e+12 2.28638e+12 1.76298e+12 1.49064e+12 9.33984e+11 3.559e+11 3.37005e+11 3.02521e+11 2.84862e+11 2.82715e+11 2.78874e+11 2.69055e+11 2.53284e+11 2.37772e+11 1.95695e+11 1.77846e+11 1.68743e+11 1.87025e+11 1.50063e+11 1.21399e+11 1.10277e+11 9.47887e+10 8.72526e+10 8.70544e+10 1.07371e+11
threshold=76483.516483516505 252285.71428571432 40428.571428571442 128813.18681318681 55.950833515000006 56357.142857142862 23291.208791208792 99912.087912087925 171978.02197802201 367500.00000000006 66554.94505494507 48115.384615384624 145383.33333333334 31840.659340659342 813000.00000000012 120565.93406593408 205833.33333333334 145791.20879120883 85637.362637362647 13247.252747252749 381000.00000000006 1.0000000180025095e-35 54500.000000000007 264500.00000000006 101500.00000000001 120500.00000000001 37.646657880000014 112500.00000000001 85816.666666666672 11.500000000000002
decision_type=2 2 2 2 2 2 2 2 2 8 2 2 10 2 10 2 10 2 2 2 8 8 8 8 10 10 2 8 10 2
left_child=2 3 6 7 9 11 19 18 17 23 -7 -4 15 -8 -6 25 27 -5 -2 -1 -11 -19 24 -3 -23 -9 -25 -10 -12 -30
right_child=1 4 5 8 14 10 13 12 16 20 28 -13 -14 -15 -16 -17 -18 21 -20 -21 -22 22 -24 26 -26 -27 -28 -29 29 -31
leaf_value=-4215.0909515586864 2267.9127613568708 17212.081688368056 -1077.6722494427434 7169.8476607445891 63441.705263157899 456.31678126814614 -2567.0758012832175 4415.8503069021026 17677.412611607142 26258.593894159225 1373.0443476823782 -363.25904419806278 -1501.8011612601904 -1810.5401686689956 49394.696467391303 6440.6953692901443 14624.079027240046 2049.5374881628791 3246.4010766767133 -3462.0107430490202 36559.852223738701 21229.297737630211 9058.6623736412348 26580.567931928788 10476.728599330358 5705.3500968705102 19991.321599264706 11153.348154978199 3085.6854413713731 -4569.7459187057784
leaf_weight=6222 4819 45 13298 1525 38 12139 8723 2790 21 21 7300 13115 69 11590 23 1273 339 33 5124 7747 83 21 1145 61 21 870 34 860 28 53
leaf_count=6222 4819 45 13298 1525 38 12139 8723 2790 21 21 7300 13115 69 11590 23 1273 339 33 5124 7747 83 21 1145 61 21 870 34 860 28 53
internal_value=0 5210.08 -1248.04 4754.27 33470.2 -80.299 -2812.65 3542.52 9321.64 27301.5 789.275 -722.941 5073.82 -2135.42 58145.3 5165.8 12230.1 8029.02 2772.16 -3797.44 34479.8 9102.98 9299.07 21969 15853 4722.37 24222.3 11308.9 1336.87 -1923.42
internal_weight=0 19215 80215 18910 305 45933 34282 14945 3965 244 19520 26413 5002 20313 61 4933 1220 2745 9943 13969 104 1220 1187 140 42 3660 95 881 7381 81
internal_count=99430 19215 80215 18910 305 45933 34282 14945 3965 244 19520 26413 5002 20313 61 4933 1220 2745 9943 13969 104 1220 1187 140 42 3660 95 881 7381 81
is_linear=0
shrinkage=0.1


Tree=2
num_leaves=31
num_cat=0
split_feature=39 39 39 39 4 39 39 39 11 17 0 39 39 39 40 39 39 38 39 39 23 39 7 40 20 32 30 39 7 2
split_gain=5.23881e+13 1.89978e+13 1.41613e+13 6.62181e+12 3.76046e+12 2.57855e+12 2.42965e+12 1.11149e+12 9.38739e+11 6.87328e+11 4.43394e+11 3.72869e+11 3.70874e+11 3.03727e+11 2.89788e+11 2.68998e+11 2.50608e+11 2.44938e+11 1.79954e+11 1.66344e+11 1.46709e+11 1.31277e+11 1.23276e+11 1.1139e+11 1.10014e+11 9.36315e+10 8.01885e+10 7.84281e+10 7.8217e+10 9.41134e+10
threshold=83862.637362637368 252285.71428571432 43461.538461538468 133060.43956043958 55.950833515000006 61769.230769230773 25796.703296703297 106637.36263736265 173500.00000000003 381000.00000000006 634541.00000000012 73714.285714285725 52807.692307692312 35324.175824175829 145383.33333333334 187060.43956043958 16554.945054945059 515000.00000000006 158895.60439560443 120565.93406593408 304500.00000000006 94730.769230769234 29500.000000000004 105183.33333333336 355500.00000000006 233500.00000000003 151500.00000000003 67664.835164835167 83500.000000000015 398500.00000000006
decision_type=2 2 2 2 2 2 2 2 10 8 2 2 2 2 10 2 2 10 2 2 10 2 10 8 10 10 8 2 10 2
left_child=2 3 6 7 9 12 16 21 18 20 -11 27 -4 -8 19 25 -1 -6 28 -9 -3 -2 24 -21 -12 -10 -20 -7 -5 -30
right_child=1 4 5 8 17 11 13 14 15 10 22 -13 -14 -15 -16 -17 -18 -19 26 23 -22 -23 -24 -25 -26 -27 -28 -29 29 -31
leaf_value=-3659.5527952148136 2680.1874639452049 17236.266493363815 -675.01217744123323 7133.4204456006155 58564.426360887097 656.73197244181461 -2093.8728337801449 4592.2342876799121 9605.273128506311 18921.757269965277 40851.950721153844 1877.7917491648268 55.910385899396289 -1372.1996357918495 -1351.6210994112319 12804.638247980336 -2848.4660673392805 45889.312916666669 12379.606604567309 10041.477882434476 24540.299414062501 3544.6243243926215 27427.004622395834 5731.2863347279254 32454.241929587341 16542.775708007812 8645.0509732778773 1186.5456175541922 8357.478515625 316.95671122782937
leaf_weight=9272 4392 88 15799 1499 31 6649 11224 2196 713 27 26 5551 12383 12139 69 499 6466 30 65 62 40 2928 24 1821 39 20 498 4819 24 37
leaf_count=9272 4392 88 15799 1499 31 6649 11224 2196 713 27 26 5551 12383 12139 69 499 6466 30 65 62 40 2928 24 1821 39 20 498 4819 24 37
internal_value=0 5418.58 -972.365 4910.26 30123.2 233.093 -2365.88 3767.05 8817.93 24571.3 30146.6 1205.02 -353.849 -1718.9 5074.86 11013.7 -3326.32 52330.8 7543.67 5183.57 19518.8 3025.96 33551.8 5873.2 35813.3 9794.56 9076.22 879.366 6990.58 3480.44
internal_weight=0 15128 84302 14823 305 45201 39101 11468 3355 244 116 17019 28182 23363 4148 1232 15738 61 2123 4079 128 7320 89 1883 65 733 563 11468 1560 61
internal_count=99430 15128 84302 14823 305 45201 39101 11468 3355 244 116 17019 28182 23363 4148 1232 15738 61 2123 4079 128 7320 89 1883 65 733 563 11468 1560 61
is_linear=0
shrinkage=0.1


Tree=3
num_leaves=31
num_cat=0
split_feature=39 39 39 39 10 39 39 39 39 18 39 42 39 31 9 39 40 39 34 24 18 23 39 7 8 23 3 39 40 39
split_gain=4.24665e+13 1.6236e+13 9.6532e+12 6.88653e+12 2.21322e+12 1.80785e+12 1.40102e+12 1.11267e+12 1.03539e+12 9.35973e+11 2.62801e+11 2.42597e+11 2.29724e+11 2.27532e+11 2.53417e+11 2.24162e+11 1.99301e+11 1.58524e+11 1.55785e+11 1.48394e+11 1.42308e+11 1.41013e+11 1.37135e+11 1.01322e+11 1.00978e+11 9.52789e+10 9.43156e+10 9.24559e+10 8.12912e+10 8.66613e+10
threshold=76483.516483516505 252285.71428571432 39252.747252747264 126521.97802197804 392000.00000000006 56357.142857142862 20576.923076923082 158895.60439560443 98329.670329670349 655500.00000000012 47291.208791208795 205833.33333333334 67664.835164835167 550000.00000000012 532500.00000000012 29582.417582417587 150483.33333333337 111313.18681318683 448500.00000000006 348500.00000000006 163500.00000000003 813000.00000000012 87912.087912087925 140500.00000000003 -335499.99999999994 304500.00000000006 37.651847765000007 11692.307692307693 108650.00000000001 133060.43956043958
decision_type=2 2 2 2 8 2 2 2 2 10 2 10 2 8 10 2 10 2 8 10 10 8 2 10 8 8 2 2 8 2
left_child=2 3 6 8 19 10 27 20 22 13 -4 -9 -7 18 -15 -8 17 -10 -6 25 23 -11 -2 24 -5 -3 -25 -1 -26 -30
right_child=1 4 5 7 9 12 15 11 16 21 -12 -13 -14 14 -16 -17 -18 -19 -20 -21 -22 -23 -24 26 28 -27 -28 -29 29 -31
leaf_value=-3515.8742010988071 1913.6626410477384 14535.017902166193 -930.14960800578672 11554.255145263673 19442.633835565477 406.36677534439559 -2230.2628502956136 8875.7649707381788 3469.1931101135688 54644.57765625001 -313.83453723711813 11902.851240606673 1140.6514721314429 30590.657093178354 44320.817812499998 -1557.4882632340405 -5517.8825284090917 4590.8975092704377 30527.148461914065 25903.602479619567 7833.9331047457817 42769.706875000003 2692.4108355646185 -1893.7311614990235 9326.5560692630588 19994.299839339717 6131.5612413194449 -2952.3656335689602 4923.9774406057732 6255.5904440445338
leaf_weight=4758 5917 66 13481 32 21 13237 8174 1184 2562 20 14213 341 6283 41 20 12566 22 2479 32 23 439 20 3660 32 67 62 27 7503 752 1396
leaf_count=4758 5917 66 13481 32 21 13237 8174 1184 2562 20 14213 341 6283 41 20 12566 22 2479 32 23 439 20 3660 32 67 62 27 7503 752 1396
internal_value=0 4222.52 -1011.48 3853.36 27110.9 -94.3383 -2323.62 7386.9 2822.74 35546 -613.847 9552.64 642.715 30928 35092.3 -1822.64 3979.36 4020.81 26135.2 18508.2 6183.72 48707.1 2211.27 5869.56 5976.97 17179.4 1778.86 -3171.04 5896.39 5789.4
internal_weight=0 19215 80215 18910 305 47214 33001 4270 14640 154 27694 1525 19520 114 61 20740 5063 5041 53 151 2745 40 9577 2306 2247 128 59 12261 2215 2148
internal_count=99430 19215 80215 18910 305 47214 33001 4270 14640 154 27694 1525 19520 114 61 20740 5063 5041 53 151 2745 40 9577 2306 2247 128 59 12261 2215 2148
is_linear=0
shrinkage=0.1


Tree=4
num_leaves=31
num_cat=0
split_feature=39 39 39 39 4 39 39 39 11 10 39 39 40 38 39 39 39 32 11 25 11 39 25 11 24 2 40 11 24 41
split_gain=3.44248e+13 1.2531e+13 9.18081e+12 4.45475e+12 2.50229e+12 1.77391e+12 1.4742e+12 7.73142e+11 6.55068e+11 5.1009e+11 2.49812e+11 2.31488e+11 2.21188e+11 2.01075e+11 1.97699e+11 1.82535e+11 1.64381e+11 1.48032e+11 1.37437e+11 1.37345e+11 1.30161e+11 1.20083e+11 1.15174e+11 1.13581e+11 9.74471e+10 8.4259e+10 7.93395e+10 7.76428e+10 6.74335e+10 6.44043e+10
threshold=83208.791208791226 252285.71428571432 44659.340659340676 133060.43956043958 55.950833515000006 26313.186813186818 60978.021978021985 108791.20879120882 173500.00000000003 367500.00000000006 72186.813186813204 35324.175824175829 145383.33333333334 515000.00000000006 200807.69230769234 16978.021978021981 53241.758241758253 434500.00000000006 91500.000000000015 25500.000000000004 122500.00000000001 145791.20879120883 264500.00000000006 95500.000000000015 247500.00000000003 517500.00000000006 99950.000000000015 89500.000000000015 171500.00000000003 59642.857142857152
decision_type=2 2 2 2 2 2 2 2 10 10 2 2 10 10 2 2 2 8 10 8 10 2 8 10 10 2 8 10 8 8
left_child=2 3 5 7 9 15 16 18 19 22 -8 -7 20 -6 24 -1 -4 -11 -2 23 29 -21 -3 -5 28 -24 -22 -12 -10 -9
right_child=1 4 6 8 13 11 10 12 14 17 27 -13 -14 -15 -16 -17 -18 -19 -20 21 26 -23 25 -25 -26 -27 -28 -29 -30 -31
leaf_value=-2954.8749187145004 2024.8762157029496 11968.074173177083 -484.87587666167985 -4735.7670991443456 48163.219304435486 -1686.4059806234054 634.59718309793152 9173.5323197798298 6977.8086861254651 18930.409718750001 1243.7810587633635 -1072.7484485770801 -1414.5947619451993 36678.977994791669 11381.008644217876 -2268.9460423846235 35.522572028388936 27878.160700924294 2852.4789545082076 5265.1585256359485 11094.203815569197 6819.0117509375013 14045.751852678572 5152.1561673677888 15047.956436011906 20084.379770076979 4906.2641176326724 2113.6177734188477 8765.1440963745117 3734.8445401219683
leaf_weight=9699 3799 45 14518 21 31 10797 11102 22 319 25 5381 14274 69 30 268 6466 10431 71 4253 826 21 1250 35 26 21 68 1556 1268 624 2114
leaf_count=9699 3799 45 14518 21 31 10797 11102 22 319 25 5381 14274 69 30 268 6466 10431 71 4253 826 21 1250 35 26 21 68 1556 1268 624 2114
internal_value=0 4330.81 -799.438 3927.82 24399.8 -1863.68 228.32 3015.96 7144.2 19871 924.914 -1337.02 4195.35 42515.2 8978.48 -2680.5 -267.301 25548 2462.01 6079.74 4299.6 6200.76 16188.5 734.148 8310.56 18032.4 4988.67 1409.66 8160.52 3790.86
internal_weight=0 15494 83936 15189 305 41236 42700 11834 3355 244 17751 25071 3782 61 1232 16165 24949 96 8052 2123 3713 2076 148 47 964 103 1577 6649 943 2136
internal_count=99430 15494 83936 15189 305 41236 42700 11834 3355 244 17751 25071 3782 61 1232 16165 24949 96 8052 2123 3713 2076 148 47 964 103 1577 6649 943 2136
is_linear=0
shrinkage=0.1


Tree=5
num_leaves=31
num_cat=0
split_feature=39 39 39 39 11 39 39 39 39 24 39 39 10 11 11 22 39 11 11 7 29 41 24 39 25 2 31 18 7 12
split_gain=2.79073e+13 1.06493e+13 6.37552e+12 4.54424e+12 1.93169e+12 1.06923e+12 1.04282e+12 7.60819e+11 6.93256e+11 4.56716e+11 1.70195e+11 1.58129e+11 1.51667e+11 1.4767e+11 1.43362e+11 1.36178e+11 1.30012e+11 1.21509e+11 9.85664e+10 9.30654e+10 9.13841e+10 1.10014e+11 8.54011e+10 8.3368e+10 8.32466e+10 7.86446e+10 7.67512e+10 7.66148e+10 7.70071e+10 7.30147e+10
threshold=76483.516483516505 252285.71428571432 41401.098901098907 126521.97802197804 582500.00000000012 21983.516483516487 57725.274725274743 171978.02197802201 95675.824175824164 376000.00000000006 30857.142857142859 49181.318681318684 367500.00000000006 214500.00000000003 172500.00000000003 590500.00000000012 67423.076923076951 119500.00000000001 85500.000000000015 29500.000000000004 173500.00000000003 138785.71428571432 223500.00000000003 11060.439560439563 264500.00000000006 813500.00000000012 197500.00000000003 168500.00000000003 130500.00000000001 448500.00000000006
decision_type=2 2 2 2 10 2 2 2 2 8 2 2 8 10 10 10 2 10 10 10 10 10 10 2 8 2 10 10 10 10
left_child=2 3 5 8 9 23 11 14 18 24 -7 -4 -11 -9 27 -6 -8 -10 -2 25 -19 -22 -16 -1 -3 -14 -20 28 -5 -27
right_child=1 4 6 7 15 10 16 13 17 12 -12 -13 19 -15 22 -17 -18 20 26 -21 21 -23 -24 -25 -26 29 -28 -29 -30 -31
leaf_value=-2923.5624240757988 1417.8997145856756 10351.296340762869 -654.34966478408546 4751.1646628776471 32616.98230298913 -1745.2034930895545 357.31645249575524 7465.6197528102948 2848.5690758490109 17170.529852430554 -1180.3012430795138 -166.05614742533729 31119.920572916672 9998.1440390054286 6457.1021199456009 42579.917876838241 913.65474821800115 4012.6305679658662 2056.9576377792414 18537.917489346593 3407.1190209021938 -5197.9804524739593 13131.910019531249 -2372.1512508943974 15889.863651670261 19673.925526494568 8266.8438647460935 6393.4360130815148 963.41126109730124 27278.016210937501
leaf_weight=3904 4722 51 13969 2227 23 8723 11407 912 4149 45 13725 12627 21 308 461 34 6649 1583 4103 22 39 24 20 9211 58 23 20 287 55 28
leaf_count=3904 4722 51 13969 2227 23 8723 11407 912 4149 45 13725 12627 21 308 461 34 6649 1583 4103 22 39 24 20 9211 58 23 20 287 55 28
internal_value=0 3423.01 -819.96 3124.03 21959.8 -1818.93 -24.3349 5994.42 2286.83 18144.5 -1399.81 -422.522 21944.7 8104.98 5150.2 38559.8 562.184 3136.99 1729.83 24230.2 3863.99 128.986 6734.64 -2536.29 13298.4 25969.5 2087.08 4853.54 4659.87 23848.7
internal_weight=0 19215 80215 18910 305 35563 44652 4270 14640 248 22448 26596 139 1220 3050 57 18056 5795 8845 94 1646 63 481 13115 109 72 4123 2569 2282 51
internal_count=99430 19215 80215 18910 305 35563 44652 4270 14640 248 22448 26596 139 1220 3050 57 18056 5795 8845 94 1646 63 481 13115 109 72 4123 2569 2282 51
is_linear=0
shrinkage=0.1


Tree=6
num_leaves=31
num_cat=0
split_feature=42 42 42 42 42 11 1 41 42 41 41 1 31 9 36 1 23 11 41 18 41 11 15 42 41 11 11 12 12 17
split_gain=2.0273e+13 7.20414e+12 5.57095e+12 2.87235e+12 1.07499e+12 8.84881e+11 8.00013e+11 7.75849e+11 5.46738e+11 5.1149e+11 3.8614e+11 3.48251e+11 2.37102e+11 2.10885e+11 2.06867e+11 2.06186e+11 2.03905e+11 1.43604e+11 1.42601e+11 1.42506e+11 1.36771e+11 1.31237e+11 1.45854e+11 1.26583e+11 1.15872e+11 1.13666e+11 1.03857e+11 9.22832e+10 8.48143e+10 8.16746e+10
threshold=86500.000000000015 339833.33333333337 42833.333333333336 149166.66666666672 63166.666666666679 582500.00000000012 116500.00000000001 27500.000000000004 110833.33333333336 196642.85714285716 1.0000000180025095e-35 286500.00000000006 344500.00000000006 122500.00000000001 1022000.0000000001 53500.000000000007 103500.00000000001 78500.000000000015 37071.42857142858 160500.00000000003 14071.428571428574 255500.00000000003 308500.00000000006 46833.333333333336 125928.57142857143 55500.000000000007 43500.000000000007 83500.000000000015 126500.00000000001 65500.000000000007
decision_type=10 10 8 10 10 10 2 8 10 10 10 2 8 8 8 2 10 10 10 8 10 10 10 10 10 8 10 10 10 10
left_child=2 3 7 8 6 12 15 10 27 19 16 13 -3 -8 -7 23 -1 -6 -9 24 -12 -11 -23 -4 -5 -17 -10 -2 -28 -20
right_child=1 5 4 9 17 14 11 18 26 21 20 -13 -14 -15 -16 25 -18 -19 29 -21 -22 22 -24 -25 -26 -27 28 -29 -30 -31
leaf_value=977.6575429143985 1484.0715668673645 8864.2406396484384 -814.05648598911989 1176.3735004590906 583.98598794931956 28056.768652343751 1216.6390122200744 -1328.0477707544392 545.40599255684094 8229.7547102128374 -2454.8297912533785 14606.860755859374 20889.464520733174 4677.3821910520801 39901.142025862071 -317.2657841225589 11483.758886718751 1225.5237850945978 -870.78443304204234 6235.2867216536615 -1855.8681288775865 10285.426940789475 19160.559782608696 -282.91245599133885 4959.413199625651 266.96484454714391 3176.8814707239071 2279.9200126636711 4092.7755559080297 400.8478351467395
leaf_weight=242 2055 20 7676 92 11047 30 439 11670 117 409 6271 25 91 294 29 5939 20 5100 8027 1257 9724 95 23 10800 675 7581 2376 5007 1760 539
leaf_count=242 2055 20 7676 92 11047 30 439 11670 117 409 6271 25 91 294 29 5939 20 5100 8027 1257 9724 95 23 10800 675 7581 2376 5007 1760 539
internal_value=0 3522.02 -578.906 3271.17 118.839 23982.7 -210.359 -1513.89 2587.78 6302.38 -2028.32 3000.56 18722.8 2604.71 33878.6 -286.427 1779.65 786.615 -1100.62 5579.83 -2090.7 9077.38 12015.3 -503.58 4505.65 10.3268 3483.51 2048.33 3566.62 -790.769
internal_weight=0 14036 85394 13866 48901 170 32754 36493 11315 2551 16257 758 111 733 59 31996 262 16147 20236 2024 15995 527 118 18476 767 13520 4253 7062 4136 8566
internal_count=99430 14036 85394 13866 48901 170 32754 36493 11315 2551 16257 758 111 733 59 31996 262 16147 20236 2024 15995 527 118 18476 767 13520 4253 7062 4136 8566
is_linear=0
shrinkage=0.1


Tree=7
num_leaves=31
num_cat=0
split_feature=39 39 39 39 4 39 39 39 17 11 23 39 25 40 39 24 39 39 40 11 39 13 25 17 40 6 12 24 39 34
split_gain=1.86594e+13 6.68968e+12 5.23642e+12 2.25682e+12 1.37833e+12 1.06622e+12 8.37156e+11 5.22263e+11 2.72055e+11 2.21414e+11 1.76708e+11 1.7497e+11 1.6324e+11 1.50323e+11 1.3203e+11 1.27389e+11 1.05387e+11 9.79551e+10 9.7004e+10 1.36061e+11 9.3666e+10 9.20916e+10 8.42319e+10 8.04535e+10 7.37032e+10 7.01898e+10 6.82979e+10 6.51905e+10 6.93345e+10 6.4755e+10
threshold=85637.362637362647 252285.71428571432 45763.736263736275 145791.20879120883 55.950833515000006 28780.219780219784 62945.054945054952 108791.20879120882 381000.00000000006 205500.00000000003 734500.00000000012 18461.538461538468 21500.000000000004 157100.00000000003 73714.285714285725 266500.00000000006 54010.989010989018 37868.131868131873 95350.000000000015 80500.000000000015 125153.84615384617 435500.00000000006 396000.00000000006 225500.00000000003 85816.666666666672 3.5000000000000004 422500.00000000006 247500.00000000003 171978.02197802201 144500.00000000003
decision_type=2 2 2 2 2 2 2 2 8 10 10 2 8 10 2 10 2 2 8 10 2 10 10 10 10 2 8 10 2 8
left_child=2 3 5 7 8 11 16 -2 21 12 -6 -1 -5 18 24 -11 -4 -7 19 -9 -20 23 26 -3 -8 -24 -10 28 -14 -30
right_child=1 4 6 9 10 17 14 13 22 15 -12 -13 27 -15 -16 -17 -18 -19 20 -21 -22 -23 25 -25 -26 -27 -28 -29 29 -31
leaf_value=-2155.0447678787982 1882.8568024304532 18151.236700148813 -306.42588101795934 -1453.6695270647324 36897.657213541672 -1099.5647681486412 590.96118474730099 2360.7968831380208 12148.98525390625 7388.1695871395923 26131.736800655242 -1543.9721489371257 4852.4860370811421 -1643.6361328125001 1152.6641341067188 15546.026542968752 100.26407898220758 -694.68510875533059 2859.2049294067542 12901.975460937501 3768.1046955368906 5208.5573544311528 24412.276562500003 11254.953834410921 -2535.1358555843958 16821.025376674108 18630.48733108108 10062.393876953125 9944.8887290396342 5864.8072045930603
leaf_weight=10980 6954 21 14152 35 30 11712 9867 24 29 446 31 8174 1109 62 6283 20 11590 12200 2534 25 2052 20 29 87 76 21 37 30 41 759
leaf_count=10980 6954 21 14152 35 30 11712 9867 24 29 446 31 8174 1109 62 6283 20 11590 12200 2534 25 2052 20 29 87 76 21 37 30 41 759
internal_value=0 3329.4 -563.657 3012.25 17981.6 -1338.32 231.273 2433.1 14620.4 5777.69 31426.5 -1894.27 5314.86 3247.75 793.821 7738.29 -123.319 -892.994 3313.18 7738.95 3265.89 11441.6 18128 12595.9 567.067 21224 15782.6 5437.03 5364.35 6073.91
internal_weight=0 14396 85034 14091 305 43066 41968 11651 244 2440 61 19154 1974 4697 16226 466 25742 23912 4635 49 4586 128 116 108 9943 50 66 1939 1909 800
internal_count=99430 14396 85034 14091 305 43066 41968 11651 244 2440 61 19154 1974 4697 16226 466 25742 23912 4635 49 4586 128 116 108 9943 50 66 1939 1909 800
is_linear=0
shrinkage=0.1


Tree=8
num_leaves=31
num_cat=0
split_feature=42 42 42 42 11 4 11 11 42 9 41 31 9 18 41 9 42 22 9 42 41 41 9 11 17 26 18 41 11 42
split_gain=1.3371e+13 4.72262e+12 3.65929e+12 1.89425e+12 7.54539e+11 6.15723e+11 5.05511e+11 3.82072e+11 3.50589e+11 3.36648e+11 2.73727e+11 2.19736e+11 1.7956e+11 1.5105e+11 1.39154e+11 1.38464e+11 1.34486e+11 1.29306e+11 1.27264e+11 1.43442e+11 1.21512e+11 1.04948e+11 1.03281e+11 1.0288e+11 1.35034e+11 8.53023e+10 7.32796e+10 7.31905e+10 6.4668e+10 6.16027e+10
threshold=86500.000000000015 339833.33333333337 42166.666666666679 149166.66666666672 64500.000000000007 55.950833515000006 25500.000000000004 110500.00000000001 220833.33333333334 259500.00000000003 1.0000000180025095e-35 320500.00000000006 65500.000000000007 160500.00000000003 69500.000000000015 846500.00000000012 49833.333333333336 94500.000000000015 146500.00000000003 49500.000000000007 18214.285714285717 91071.428571428594 81500.000000000015 209500.00000000003 286500.00000000006 86500.000000000015 104500.00000000001 33500.000000000007 134500.00000000003 61166.666666666679
decision_type=10 10 8 10 10 2 10 10 10 10 8 8 8 8 8 10 10 10 10 10 10 8 10 10 10 8 10 8 10 8
left_child=2 3 6 7 9 11 10 26 13 12 17 -3 16 25 -6 -7 -4 -1 29 -20 -12 -9 -15 -10 -25 -5 -2 -8 -23 -14
right_child=1 5 4 8 14 15 27 21 23 -11 20 -13 18 22 -16 -17 -18 -19 19 -21 -22 28 -24 24 -26 -27 -28 -29 -30 -31
leaf_value=939.830283425071 1415.8512890991774 5875.1486979166666 -547.79843421125406 108.77664421423158 332.86445763741114 31894.542963005515 -1136.9794176114222 1418.5726021849844 4042.0310985925062 12473.357099542165 -1899.9398092153367 17223.401252360924 -348.71977897427593 12392.876484375001 925.79088027717864 21973.967533365885 -90.038423711655454 9306.2178662109382 5117.6017426361914 231.65149183983112 -1359.6832908559645 2653.0963452376909 5156.5553073629098 8073.6156606984696 14960.71019897461 3845.1959606560922 2163.5657631761328 -720.03182178611132 3465.9033755362261 300.51292437096862
leaf_weight=242 4873 21 13034 67 7391 34 6694 493 53 21 10148 91 1921 20 8522 24 12644 20 111 131 7059 2578 1427 258 32 694 1793 11346 1578 6110
leaf_count=242 4873 21 13034 67 7391 34 6694 493 53 21 10148 91 1921 20 8522 24 12644 20 111 131 7059 2578 1427 258 32 694 1793 11346 1578 6110
internal_value=0 2860.33 -470.145 2657.22 82.1474 19426.5 -1246.03 2102.25 5118.81 -184.03 -1629.46 15095.6 -191.859 4656.76 650.398 27789.5 -322.395 1578.49 213.302 2472.73 -1678.3 2798.07 5256.57 8093.19 8833.57 3516.23 1616.97 -874.746 2961.71 145.218
internal_weight=0 14036 85394 13866 49885 170 35509 11315 2551 33972 17469 112 33951 2208 15913 58 25678 262 8273 242 17207 4649 1447 343 290 761 6666 18040 4156 8031
internal_count=99430 14036 85394 13866 49885 170 35509 11315 2551 33972 17469 112 33951 2208 15913 58 25678 262 8273 242 17207 4649 1447 343 290 761 6666 18040 4156 8031
is_linear=0
shrinkage=0.1


Tree=9
num_leaves=31
num_cat=0
split_feature=39 39 39 39 4 39 39 39 39 0 24 25 40 32 8 39 27 18 40 8 39 18 25 12 41 18 40 39 33 18
split_gain=1.25309e+13 4.78256e+12 2.87694e+12 2.05702e+12 9.0327e+11 5.89715e+11 3.69444e+11 3.47972e+11 3.09199e+11 2.08266e+11 2.51054e+11 1.546e+11 1.50739e+11 9.50579e+10 1.26107e+11 9.37724e+10 9.16811e+10 8.3487e+10 8.20242e+10 1.12952e+11 7.8085e+10 7.54962e+10 6.80093e+10 7.64398e+10 7.42025e+10 6.60647e+10 6.55291e+10 5.92538e+10 5.7721e+10 5.89038e+10
threshold=76483.516483516505 252285.71428571432 37868.131868131873 128813.18681318681 55.950833515000006 54752.747252747264 20576.923076923082 101494.50549450552 171978.02197802201 634541.00000000012 376000.00000000006 867500.00000000012 145383.33333333334 173500.00000000003 -135499.99999999997 64796.703296703301 480500.00000000006 306000.00000000006 95350.000000000015 -13499.999999999998 46115.384615384624 215500.00000000003 73500.000000000015 93500.000000000015 121785.7142857143 489000.00000000006 85816.666666666672 115593.4065934066 131500.00000000003 99500.000000000015
decision_type=2 2 2 2 2 2 2 2 2 2 8 8 10 10 10 2 10 10 8 10 2 10 8 10 8 8 10 2 8 8
left_child=2 3 6 7 9 20 -1 -2 13 17 -11 -6 18 22 -15 -7 25 -3 19 -9 -4 28 23 -5 -24 -12 -17 -20 -10 -30
right_child=1 4 5 8 11 15 -8 12 21 10 16 -13 -14 14 -16 26 -18 -19 27 -21 -22 -23 24 -25 -26 -27 -28 -29 29 -31
leaf_value=-1732.8657430683497 1232.5617008899162 7280.3976883118412 -557.97843351576591 -3859.833633987992 20134.794913155696 141.2083442910461 -1025.8372990631847 12186.823240966798 9218.8656051635753 6407.5923917982318 15470.049902343751 30237.401484079073 -2363.3901395493663 12947.02529296875 4697.3245637984501 589.49993745065456 12648.534967672414 12889.817352764425 1978.7362784819516 2662.9755374792853 -220.84573345464801 6988.4895552555408 5365.9534781700931 2656.8012347186054 3270.5551639285768 21945.05142578125 -2267.9090344087576 2708.6316183422509 -468.873662109375 5016.9491841123827
leaf_weight=12261 10309 83 13298 27 28 12993 18605 20 32 27 26 33 69 20 252 8764 29 39 2528 33 14213 251 183 54 2209 40 81 1986 20 917
leaf_count=12261 10309 83 13298 27 28 12993 18605 20 32 27 26 33 69 20 252 8764 29 39 2528 33 14213 251 183 54 2209 40 81 1986 20 917
internal_value=0 2293.72 -549.446 2093.36 14716.1 -75.8167 -1306.69 1556.15 4118.24 11995.1 14916.7 25600.1 2275.7 3529.52 5303.92 312.18 17335.1 9073.57 2345.79 6256.88 -383.806 5442.85 3334.36 484.59 3430.86 19394.3 563.333 2299.86 5042.49 4899.86
internal_weight=0 19215 80215 18910 305 49349 30866 14945 3965 244 122 61 4636 2745 272 21838 95 122 4567 53 27511 1220 2473 81 2392 66 8845 4514 969 937
internal_count=99430 19215 80215 18910 305 49349 30866 14945 3965 244 122 61 4636 2745 272 21838 95 122 4567 53 27511 1220 2473 81 2392 66 8845 4514 969 937
is_linear=0
shrinkage=0.1


Tree=10
num_leaves=31
num_cat=0
split_feature=39 39 39 39 39 9 39 39 32 2 17 12 25 40 39 25 24 7 40 29 39 39 39 10 41 40 39 31 9 40
split_gain=1.01876e+13 3.62405e+12 2.85714e+12 1.25541e+12 5.95714e+11 5.76327e+11 4.44046e+11 2.71788e+11 2.21459e+11 1.94222e+11 1.29974e+11 1.29852e+11 1.19997e+11 1.14596e+11 1.07718e+11 1.06231e+11 9.82755e+10 9.26456e+10 7.21951e+10 6.65454e+10 6.45617e+10 5.94e+10 5.88798e+10 5.6313e+10 7.69964e+10 5.36215e+10 5.04988e+10 6.36121e+10 4.86139e+10 4.8582e+10
threshold=85637.362637362647 252285.71428571432 42313.186813186818 145791.20879120883 59532.967032967041 435500.00000000006 25016.48351648352 115593.4065934066 474500.00000000006 813500.00000000012 381000.00000000006 788000.00000000012 214500.00000000003 157100.00000000003 69961.538461538483 21500.000000000004 255500.00000000003 -47499.999999999993 30883.333333333339 990500.00000000012 10285.714285714286 33697.802197802208 51142.857142857152 162500.00000000003 119642.85714285716 97650.000000000015 95675.824175824164 197500.00000000003 136500.00000000003 52983.333333333336
decision_type=2 2 2 2 2 8 2 2 8 2 10 10 10 10 2 8 10 8 8 8 2 2 2 8 8 10 2 10 10 10
left_child=2 3 6 7 18 10 20 26 -7 11 17 19 15 -9 -6 -5 23 -3 -4 -10 -1 -8 -20 24 -17 -16 27 -2 -14 -23
right_child=1 5 4 12 14 8 21 13 9 -11 -12 -13 28 -15 25 16 -18 -19 22 -21 -22 29 -24 -25 -26 -27 -28 -29 -30 -31
leaf_value=-1863.4460879396356 1192.5975263310463 13118.318638392859 2954.570240910848 -1200.4222990337173 296.17784954220821 10086.375683593751 -972.2930401746944 2591.8519775098889 22901.622304687502 14596.435080030489 15254.671371256511 18191.792840786638 9993.4425804876519 -1744.8807439988661 771.49109609416917 6770.3737505912786 10782.856827059659 6669.4973071737031 -355.54530056391076 31059.157939453129 -1373.3050291415989 -627.94040503335702 -61.174775229543506 4489.144068338609 3163.2228133863705 -3691.4468786168982 1722.2435614024239 6710.7775198800227 5787.4040234021904 -3579.9204149518696
leaf_weight=3477 4005 28 72 38 11041 28 9516 3537 20 41 30 29 31 62 9245 64 22 109 14351 20 11834 12510 12905 1258 785 27 4026 21 242 56
leaf_count=3477 4005 28 72 38 11041 28 9516 3537 20 41 30 29 31 62 9245 64 22 109 14351 20 11834 12510 12905 1258 785 27 4026 21 242 56
internal_value=0 2460.1 -416.487 2226.67 97.053 13244.5 -1070.77 1794.72 18026.4 20047.6 9292.98 23286.6 4289.23 2517.14 507.206 4040.32 4133.87 7987.5 -207.815 26980.4 -1484.61 -783.822 -216.169 4064.44 3435.14 758.495 1471.81 1221.38 6265.01 -641.096
internal_weight=0 14396 85034 14091 47641 305 37393 11651 138 110 167 69 2440 3599 20313 2167 2129 137 27328 40 15311 22082 27256 2107 849 9272 8052 4026 273 12566
internal_count=99430 14396 85034 14091 47641 305 37393 11651 138 110 167 69 2440 3599 20313 2167 2129 137 27328 40 15311 22082 27256 2107 849 9272 8052 4026 273 12566
is_linear=0
shrinkage=0.1


Tree=11
num_leaves=31
num_cat=0
split_feature=42 42 11 42 42 11 11 9 11 42 41 36 23 31 9 32 24 14 9 42 19 14 41 41 17 41 23 23 9 7
split_gain=7.17218e+12 2.50384e+12 1.93816e+12 1.0563e+12 4.02471e+11 3.87271e+11 3.31165e+11 2.4455e+11 2.37461e+11 1.99195e+11 1.73851e+11 1.1792e+11 1.07396e+11 1.04138e+11 8.23515e+10 8.00061e+10 7.98926e+10 7.79961e+10 6.93914e+10 6.98442e+10 6.75189e+10 6.78721e+10 6.71461e+10 6.70352e+10 6.31662e+10 5.88621e+10 5.59152e+10 7.25132e+10 5.38632e+10 5.33756e+10
threshold=85833.333333333358 339833.33333333337 45500.000000000007 149166.66666666672 28166.666666666668 582500.00000000012 65500.000000000007 138500.00000000003 103500.00000000001 205833.33333333334 1.0000000180025095e-35 1022000.0000000001 103500.00000000001 344500.00000000006 259500.00000000003 1.0000000180025095e-35 312500.00000000006 110500.00000000001 51500.000000000007 35500.000000000007 42500.000000000007 160500.00000000003 17071.428571428576 109214.28571428572 72500.000000000015 67785.714285714304 813000.00000000012 460500.00000000006 78500.000000000015 -16499.999999999996
decision_type=10 10 8 10 10 10 10 10 10 10 8 8 10 8 10 8 10 8 8 10 8 10 10 8 8 10 8 10 10 10
left_child=2 3 4 8 10 13 7 18 -2 15 12 -7 -1 -3 -9 -5 17 -11 19 -4 21 -6 -12 -10 -8 -22 27 -15 -17 -19
right_child=1 5 6 9 20 11 24 14 23 16 22 -13 -14 26 -16 28 -18 29 -20 -21 25 -23 -24 -25 -26 -27 -28 -29 -30 -31
leaf_value=786.57417876695808 1054.7934570734631 4118.6259863281257 -772.23514295908433 -1421.7828906250002 -713.52141474142161 16283.072827148439 302.81707029757871 2743.5078687002497 1522.802917784079 985.74326176762588 -1401.5625999849613 25225.61288431102 8411.2712719726569 9835.7922741305447 9376.9755603608628 7347.2283547794113 10805.378750045213 7090.9992169502457 26.502937766552233 -169.63795111812519 -423.86343462808486 -5187.9605511833643 -1016.1615368557241 2216.2319882756478 717.32100807195695 864.49536162644063 7562.4449125744059 16315.335406650642 3332.6377251893646 4809.1898671740273
leaf_weight=242 5657 20 2384 35 11659 30 7789 172 2217 40 9912 29 20 31 21 34 27 156 16737 9956 10512 34 8311 3756 6963 367 21 39 1960 299
leaf_count=242 5657 20 2384 35 11659 30 7789 172 2217 40 9912 29 20 31 21 34 27 156 16737 9956 10512 34 8311 3756 6963 367 21 39 1960 299
internal_value=0 2067.94 -348.816 1923.31 -843.041 14131.9 112.121 -82.5946 1519.1 3766.1 -1189.02 20678.6 1368.61 10652.2 3465.28 3317.9 5508.27 5219.34 -106.144 -286.055 -559.708 -726.532 -1225.79 1958.85 498.465 -380.401 12088.1 13445.8 3401.09 5591.52
internal_weight=0 14351 85079 14181 41057 170 44022 29270 11630 2551 18485 59 262 111 193 2029 522 495 29077 12340 22572 11693 18223 5973 14752 10879 91 70 1994 455
internal_count=99430 14351 85079 14181 41057 170 44022 29270 11630 2551 18485 59 262 111 193 2029 522 495 29077 12340 22572 11693 18223 5973 14752 10879 91 70 1994 455
is_linear=0
shrinkage=0.1


Tree=12
num_leaves=31
num_cat=0
split_feature=11 10 11 10 11 10 11 41 1 12 41 10 7 32 10 11 11 7 10 22 38 11 32 41 1 9 25 33 25 31
split_gain=5.79378e+12 2.26604e+12 1.44336e+12 9.46126e+11 3.45107e+11 3.23625e+11 2.66321e+11 2.39776e+11 2.15912e+11 1.55359e+11 1.34361e+11 1.16659e+11 1.00438e+11 9.47374e+10 9.37364e+10 9.01926e+10 8.6284e+10 8.52996e+10 7.93965e+10 7.66327e+10 7.66191e+10 7.23734e+10 6.1754e+10 5.82387e+10 5.79008e+10 5.75217e+10 5.35279e+10 6.699e+10 5.16318e+10 4.99369e+10
threshold=85500.000000000015 336500.00000000006 41500.000000000007 129500.00000000001 582500.00000000012 60500.000000000007 181500.00000000003 31785.714285714294 122500.00000000001 99500.000000000015 1.0000000180025095e-35 240500.00000000003 328000.00000000006 245500.00000000003 222500.00000000003 18500.000000000004 65500.000000000007 37500.000000000007 202500.00000000003 94500.000000000015 inf 52500.000000000007 143500.00000000003 50785.714285714297 77500.000000000015 201500.00000000003 155500.00000000003 1.0000000180025095e-35 121500.00000000001 6500.0000000000009
decision_type=10 10 8 10 10 10 10 10 2 10 8 10 8 10 10 10 8 10 10 10 8 10 10 8 2 10 10 8 8 8
left_child=2 3 7 9 17 8 26 10 21 13 19 16 -10 23 -8 -12 -7 -3 22 -1 -6 24 29 -2 -4 -14 27 -5 -11 -9
right_child=1 4 5 6 20 11 14 18 12 28 15 -13 25 -15 -16 -17 -18 -19 -20 -21 -22 -23 -24 -25 -26 -27 -28 -29 -30 -31
leaf_value=740.09216425872046 -284.32266071165543 11503.159674337636 -372.00101843430781 6547.9325327845982 15971.531553819445 107.7606881512308 3718.9938880389827 -1389.0076226509959 325.99137418423481 1321.3774761430893 -1235.4786645455197 6602.0618635050459 3028.1881142859365 7747.0057540893558 5772.6607563686057 -823.33872871152244 555.80187595841414 4694.4519722316572 1592.4545365728727 7180.821840209961 23437.546993582589 -18.80466387168812 2080.8611729883887 930.67204041784032 484.44791550584523 8524.6417015438983 3212.2561974565979 2136.9710172179066 1991.1762411484801 -490.38126786914609
leaf_weight=242 421 92 16513 35 27 7610 834 649 171 2519 11589 30 204 20 303 9800 9877 23 181 20 28 12977 91 6271 829 21 706 2116 2119 13112
leaf_count=242 421 92 16513 35 27 7610 834 649 171 2519 11589 30 204 20 303 9800 9877 23 181 20 28 12977 91 6271 829 21 706 2116 2119 13112
internal_value=0 1775.34 -328.218 1648.13 13257.3 28.5083 2971.86 -810.383 -167.109 1182.32 -1019.07 371.512 2152.81 874.774 4266.28 -1046.64 360.823 10141.4 -488.403 1231.75 19772.4 -197.41 -515.592 854.236 -331.06 3541.19 2456.72 2208.74 1627.39 -532.763
internal_weight=0 15514 83916 15344 170 48232 3994 35684 30715 11350 21651 17517 396 6712 1137 21389 17487 115 14033 262 55 30319 13852 6692 17342 225 2857 2151 4638 13761
internal_count=99430 15514 83916 15344 170 48232 3994 35684 30715 11350 21651 17517 396 6712 1137 21389 17487 115 14033 262 55 30319 13852 6692 17342 225 2857 2151 4638 13761
is_linear=0
shrinkage=0.1


Tree=13
num_leaves=31
num_cat=0
split_feature=39 39 39 39 11 39 39 39 11 23 40 0 40 8 5 39 5 18 18 28 11 40 20 29 20 31 20 31 40 5
split_gain=5.69729e+12 2.11867e+12 1.45228e+12 8.46846e+11 3.97034e+11 2.71761e+11 2.31039e+11 1.42057e+11 1.33105e+11 1.258e+11 1.24856e+11 8.2036e+10 7.44149e+10 9.55765e+10 7.25543e+10 6.48465e+10 6.39835e+10 6.11168e+10 5.88177e+10 5.86769e+10 5.83845e+10 5.64821e+10 5.6282e+10 5.46799e+10 6.17775e+10 6.1378e+10 5.43955e+10 5.23143e+10 4.92917e+10 6.83815e+10
threshold=80351.648351648371 252285.71428571432 41615.384615384632 133060.43956043958 655500.00000000012 59532.967032967041 20236.26373626374 102758.24175824177 172500.00000000003 304500.00000000006 145383.33333333334 634541.00000000012 95350.000000000015 -5499.9999999999991 14.500000000000002 187060.43956043958 14.500000000000002 258500.00000000003 1.0000000180025095e-35 5500.0000000000009 97500.000000000015 33516.666666666679 355500.00000000006 109500.00000000001 128500.00000000001 108500.00000000001 78500.000000000015 202500.00000000003 85816.666666666672 13.500000000000002
decision_type=2 2 2 2 8 2 2 2 8 8 10 2 8 10 2 2 2 10 8 8 10 8 10 8 10 8 8 10 10 2
left_child=2 3 6 7 9 21 -1 27 18 -3 12 17 13 -9 -6 26 -12 -11 20 -7 -5 -4 -13 24 25 -20 -10 -2 -21 -30
right_child=1 4 5 8 14 19 -8 10 15 11 16 22 -14 -15 -16 -17 -18 -19 23 28 -22 -23 -24 -25 -26 -27 -28 -29 29 -31
leaf_value=-1182.137105696931 896.87759753003945 4933.0778206057666 2365.5195738532325 -4543.0189259847011 14071.197137810203 1445.8302395725664 -642.80578710557336 10847.246956176758 7337.008014322917 2989.1256220278538 837.51210937500002 15217.790020161292 1610.2394847412359 1796.127921840123 21014.64299045139 4546.109311233492 -5305.2783077924687 9217.7592187500013 3568.9615885416665 316.64965355909277 2772.6566638183594 -171.82911820174726 9939.5991278286656 2333.7635268489043 2745.5186004261914 10581.884117713342 3005.5647737101276 5305.7357845730257 1611.5421737234933 -3901.332418193515
leaf_weight=11834 8391 82 88 24 34 462 24156 20 30 23 30 31 4763 28 27 531 39 50 24 17191 20 28643 58 1755 81 26 864 27 35 63
leaf_count=11834 8391 82 88 24 34 462 24156 20 30 23 30 31 4763 28 27 531 39 50 24 17191 20 28643 58 1755 81 26 864 27 35 63
internal_value=0 1669.33 -343.249 1518.06 9928.57 26.0011 -820.145 1159.87 2937.78 8124.58 1589.14 9740.04 1649.72 5567.43 17144.5 3670.81 -2634.5 7255.31 2396.55 333.622 -1217.71 -164.057 11778.1 2480.87 4451.69 7215.68 3150.92 911.019 303.901 -1932.45
internal_weight=0 16958 82472 16653 305 46482 35990 13298 3355 244 4880 162 4811 48 61 1425 69 73 1930 17751 44 28731 89 1886 131 50 894 8418 17289 98
internal_count=99430 16958 82472 16653 305 46482 35990 13298 3355 244 4880 162 4811 48 61 1425 69 73 1930 17751 44 28731 89 1886 131 50 894 8418 17289 98
is_linear=0
shrinkage=0.1


Tree=14
num_leaves=31
num_cat=0
split_feature=39 39 39 39 4 39 18 39 18 39 23 40 40 25 24 10 18 38 6 40 25 16 40 40 40 31 1 40 4 9
split_gain=4.6396e+12 1.77594e+12 1.05214e+12 8.01694e+11 3.36135e+11 2.01438e+11 1.44432e+11 1.35195e+11 1.28244e+11 1.20048e+11 9.86988e+10 9.65924e+10 8.29931e+10 7.91611e+10 7.80823e+10 7.64428e+10 5.97826e+10 5.80059e+10 5.67945e+10 9.61701e+10 5.37275e+10 6.31741e+10 5.20863e+10 4.96183e+10 4.62365e+10 4.31802e+10 4.30671e+10 5.05451e+10 4.31417e+10 4.28026e+10
threshold=75104.395604395613 252285.71428571432 37868.131868131873 126521.97802197804 55.950833515000006 54010.989010989018 168500.00000000003 18461.538461538468 774000.00000000012 91686.81318681319 492500.00000000006 150483.33333333337 126983.33333333336 264500.00000000006 282500.00000000006 210500.00000000003 85500.000000000015 91500.000000000015 1.5000000000000002 87416.666666666672 107500.00000000001 172500.00000000003 43383.333333333336 64883.333333333336 15383.333333333334 265500.00000000006 1.0000000180025095e-35 31283.333333333339 54.94642725500001 435500.00000000006
decision_type=2 2 2 2 2 2 8 2 8 2 10 10 8 8 10 10 10 10 2 8 10 10 10 10 8 10 2 8 2 10
left_child=2 3 7 9 10 23 12 -1 -6 -2 13 18 17 -3 16 -8 20 -5 19 -11 21 -14 -9 24 -4 -17 28 -28 -7 -15
right_child=1 4 5 6 8 26 15 22 -10 11 -12 -13 14 29 -16 25 -18 -19 -20 -21 -22 -23 -24 -25 -26 -27 27 -29 -30 -31
leaf_value=-1080.4732967557022 644.94642172533304 3049.6977755677472 2935.1932043987772 1099.8434562683105 9470.3916237571029 4853.3419935438369 2783.4204339839134 -630.43638513165149 19018.99216746795 8575.3733398437507 12361.470845170456 -5411.3645951704548 -375.95645099855824 6629.694794514975 7967.370078125 4088.2495078693737 1832.7997412873481 5203.3964636630699 1050.6956174628899 1606.3979204512623 1708.7862711588543 -6971.9156799316406 -2678.1829662597656 -2937.1810123219211 -237.98108429261663 8472.1355468750007 5168.6424099731448 139.12508079027234 778.47290225451161 10406.931953125
leaf_weight=10980 8113 51 46 48 22 27 1599 19761 39 20 33 22 53 120 20 352 1963 122 5220 1997 69 20 125 68 26238 24 20 21529 689 40
leaf_count=10980 8113 51 46 48 22 27 1599 19761 39 20 33 22 53 120 20 352 1963 122 5220 1997 69 20 125 68 26238 24 20 21529 689 40
internal_value=0 1363.58 -342.202 1246 8935.72 -52.3038 2458.17 -798.821 15575.2 909.284 7275.84 1204.72 1918.64 6480.45 1748.55 3085.11 1689.47 4044.75 1224.83 1675.5 -291.956 -2183.07 -643.308 -239.407 -232.428 4368.07 169.145 143.793 932.134 7574
internal_weight=0 19947 79483 19642 305 48617 4270 30866 61 15372 244 7259 2295 211 2125 1975 2105 170 7237 2017 142 73 19886 26352 26284 376 22265 21549 716 160
internal_count=99430 19947 79483 19642 305 48617 4270 30866 61 15372 244 7259 2295 211 2125 1975 2105 170 7237 2017 142 73 19886 26352 26284 376 22265 21549 716 160
is_linear=0
shrinkage=0.1


Tree=15
num_leaves=31
num_cat=0
split_feature=39 39 39 39 39 18 39 7 23 18 24 39 40 5 23 0 39 14 41 40 13 21 7 40 39 41 40 5 41 32
split_gain=3.75844e+12 1.29065e+12 1.19218e+12 4.3173e+11 2.47453e+11 2.43102e+11 2.06251e+11 1.02792e+11 9.45376e+10 8.60932e+10 1.10924e+11 7.10472e+10 8.21497e+10 8.3307e+10 7.03817e+10 8.07536e+10 6.75337e+10 6.3556e+10 6.27063e+10 5.56229e+10 6.68309e+10 5.43289e+10 1.27959e+11 4.78695e+10 4.74337e+10 4.71202e+10 4.55541e+10 4.86107e+10 4.35593e+10 6.04129e+10
threshold=89961.538461538483 252285.71428571432 46115.384615384624 145791.20879120883 28780.219780219784 655500.00000000012 67950.549450549457 187500.00000000003 813000.00000000012 1.0000000180025095e-35 286500.00000000006 120565.93406593408 157100.00000000003 13.500000000000002 276500.00000000006 634541.00000000012 200807.69230769234 260500.00000000003 119642.85714285716 113183.33333333336 96500.000000000015 480500.00000000006 -9499.9999999999982 52216.666666666679 9456.0439560439572 79928.571428571435 97650.000000000015 21.500000000000004 28785.714285714294 94500.000000000015
decision_type=2 2 2 2 2 10 2 8 8 8 10 2 10 2 8 2 2 10 8 8 10 8 10 10 2 10 10 2 8 10
left_child=2 3 4 11 24 7 25 14 -7 -5 16 -2 19 -14 -3 -16 17 18 -11 20 -13 -17 -23 -6 -1 28 -8 -28 29 -4
right_child=1 5 6 9 23 8 26 -9 -10 10 -12 12 13 -15 15 21 -18 -19 -20 -21 -22 22 -24 -25 -26 -27 27 -29 -30 -31
leaf_value=-1263.6632530064062 988.14912524457236 3236.1482362944507 817.83356118774418 -1896.618659861495 -380.295202477141 19892.265466889883 496.88733046427478 12775.718829571761 10285.668046875 5447.1319205270693 9960.6840169270836 7444.2064208984375 1094.4234219021268 -6334.0327524038466 5179.003603993292 12266.33253752056 4085.2295093222842 -2187.2995310816273 2422.6297293565067 1578.7103482800662 1860.8633549528304 12889.216610440342 2615.1891902217158 -2184.09066675547 -805.91723208968278 -1560.5830506364505 -43.086448211669925 -5735.8144510904949 0.51852380720904845 6031.835629882813
leaf_weight=2623 6954 58 200 41 24862 21 12502 27 20 71 21 36 36 26 92 38 292 29 1986 2716 53 22 27 148 16531 192 40 24 29717 25
leaf_count=2623 6954 58 200 41 24862 21 12502 27 20 71 21 36 36 26 92 38 292 29 1986 2716 53 22 27 148 16531 192 40 24 29717 25
internal_value=0 1616.47 -233.843 1456.62 -598.12 8042.14 142.924 6929.56 15206.1 2647.11 2724.77 1160.85 1579.74 -2020.74 6263.54 7244.48 2660.87 2461.48 2527.02 1659.32 4119.29 9428.66 7228.02 -390.969 -868.602 1.00019 483.265 -2177.86 11.0137 1397.17
internal_weight=0 12566 86864 12261 44164 305 42700 264 41 2440 2399 9821 2867 62 237 179 2378 2086 2057 2805 89 87 49 25010 19154 30134 12566 64 29942 225
internal_count=99430 12566 86864 12261 44164 305 42700 264 41 2440 2399 9821 2867 62 237 179 2378 2086 2057 2805 89 87 49 25010 19154 30134 12566 64 29942 225
is_linear=0
shrinkage=0.1


Tree=16
num_leaves=31
num_cat=0
split_feature=39 39 39 39 11 39 11 32 11 18 12 31 13 23 36 40 16 21 18 6 40 11 9 37 8 14 31 11 1 16
split_gain=3.06066e+12 1.16405e+12 7.05698e+11 5.3113e+11 2.38032e+11 1.56214e+11 1.33071e+11 9.93111e+10 9.70582e+10 8.19126e+10 7.29058e+10 7.23886e+10 1.61305e+11 7.18365e+10 9.63146e+10 6.21813e+10 5.33524e+10 4.9458e+10 5.4786e+10 4.70951e+10 4.61762e+10 4.29408e+10 7.29493e+10 4.91955e+10 4.74605e+10 5.23322e+10 4.75328e+10 4.47563e+10 4.14469e+10 6.34745e+10
threshold=75104.395604395613 252285.71428571432 36390.109890109896 135483.51648351652 655500.00000000012 51846.153846153851 101500.00000000001 294000.00000000006 14500.000000000002 169500.00000000003 788000.00000000012 202500.00000000003 89500.000000000015 276500.00000000006 517000.00000000006 157100.00000000003 223500.00000000003 497500.00000000006 437000.00000000006 1.5000000000000002 69383.333333333358 67500.000000000015 129500.00000000001 161500.00000000003 201500.00000000003 32500.000000000004 164500.00000000003 29500.000000000004 102500.00000000001 58500.000000000007
decision_type=2 2 2 2 8 2 8 10 10 8 8 10 10 8 10 10 10 10 10 2 8 10 10 10 8 8 8 10 2 10
left_child=2 3 8 6 13 -4 11 9 -1 16 -6 20 -13 -3 17 -8 -5 18 -15 -7 -2 22 23 24 -22 26 -26 -24 29 -11
right_child=1 4 5 7 10 19 15 -9 -10 28 -12 12 -14 14 -16 -17 -18 -19 -20 -21 21 -23 27 -25 25 -27 -28 -29 -30 -31
leaf_value=-926.01398843739628 2098.1302209967539 2901.3194446194557 -235.10741745675952 1723.7649347297311 17428.135458096593 330.00433386522576 1154.4465698072861 8919.6266748601756 -540.00232744818379 1506.3035085967094 10228.636946614584 11022.733178710938 -485.28675926471578 5632.5438552568548 13212.207942708335 -2385.0663320312501 -1604.4217223205569 1718.5664603855298 10353.679116821289 30.796404386064367 73.139751943597048 598.81855689999077 -3004.7830723649367 -3221.2363306290063 7682.2979761759452 946.38882655496673 1081.4119641113282 106.78984816701789 2535.0219091895556 7228.184682513298
leaf_weight=10191 185 62 25071 1313 22 7293 6767 22 18052 33 39 21 29 106 21 50 50 23 32 18876 1085 7924 118 39 24 254 20 76 1585 47
leaf_count=10191 185 62 25071 1313 22 7293 6767 22 18052 33 39 21 29 106 21 50 50 23 32 18876 1085 7924 118 39 24 254 20 76 1585 47
internal_value=0 1107.51 -277.94 1012.32 7237.93 -56.7202 789.365 2225.17 -679.288 2176.53 12825.2 552.866 4348.08 5841.12 6842.59 1128.49 1601.67 6011.77 6727.3 114.182 533.353 503.009 33.2093 281.375 380.147 1497.94 4681.9 -1785.82 2647.11 4867.91
internal_weight=0 19947 79483 19642 305 51240 16592 3050 28243 3028 61 9775 50 244 182 6817 1363 161 138 26169 9725 9540 1616 1422 1383 298 44 194 1665 80
internal_count=99430 19947 79483 19642 305 51240 16592 3050 28243 3028 61 9775 50 244 182 6817 1363 161 138 26169 9725 9540 1616 1422 1383 298 44 194 1665 80
is_linear=0
shrinkage=0.1


Tree=17
num_leaves=31
num_cat=0
split_feature=39 39 39 39 11 39 39 11 32 21 21 36 27 7 7 40 40 1 11 14 11 30 17 40 6 32 17 3 17 14
split_gain=2.49804e+12 8.30479e+11 8.14745e+11 2.65163e+11 1.92806e+11 1.63295e+11 1.57028e+11 6.96785e+10 6.78649e+10 6.14228e+10 5.63489e+10 5.32533e+10 1.1829e+11 7.40755e+10 5.00719e+10 4.84225e+10 4.77003e+10 4.37091e+10 4.9449e+10 7.62455e+10 4.21344e+10 4.14923e+10 7.1252e+10 3.91985e+10 3.80517e+10 1.02047e+11 4.31598e+10 3.7599e+10 3.7328e+10 4.69058e+10
threshold=91686.81318681319 252285.71428571432 45862.637362637368 145791.20879120883 655500.00000000012 28939.560439560442 64796.703296703301 120500.00000000001 288000.00000000006 860000.00000000012 280500.00000000006 483500.00000000006 508000.00000000006 -46499.999999999993 -12499.999999999998 91916.666666666672 77950.000000000015 26500.000000000004 1.0000000180025095e-35 134500.00000000003 11500.000000000002 175500.00000000003 157500.00000000003 52216.666666666679 1.5000000000000002 1.0000000180025095e-35 208500.00000000003 37.876387865000005 442500.00000000006 386500.00000000006
decision_type=2 2 2 2 8 2 2 8 10 8 10 10 10 10 10 8 10 2 8 10 10 10 10 10 2 8 10 2 10 8
left_child=2 3 5 7 11 20 16 24 10 -6 14 12 13 -3 -5 -9 -4 -8 19 27 -1 -17 -23 -7 25 -2 -26 -19 29 -15
right_child=1 4 6 8 9 23 17 15 -10 -11 -12 -13 -14 28 -16 21 -18 18 -20 -21 -22 22 -24 -25 26 -27 -28 -29 -30 -31
leaf_value=-896.78506423719728 7285.7844568323217 9065.3058150890265 -21.66207944342176 2747.4756821488018 15767.604128196024 -307.23452343034489 1143.844786087235 5478.842831856864 7813.2952410016751 9159.3575020032058 -1938.4068222943476 8808.0707058376738 -2669.0900213813784 4571.4976349205099 1803.2278400707246 1371.9267955246289 -4481.7315124511724 416.6953018995967 361.72872224605726 -4305.0850707420932 -593.11965915766734 1244.1327955292493 -3781.7503595396529 -2174.1587420438241 647.01354519727317 1082.8155030917549 -2100.0460891723633 -1699.8077344122012 7619.0583653041294 -387.10384165445964
leaf_weight=7264 27 43 27914 905 22 23738 691 28 21 39 34 36 20 93 1480 3243 24 274 15088 52 12317 82 43 113 4111 1497 58 121 28 24
leaf_count=7264 27 43 27914 905 22 23738 691 28 21 39 34 36 20 93 1480 3243 24 274 15088 52 12317 82 43 113 4111 1497 58 121 28 24
internal_value=0 1363.69 -184.232 1227.44 6514.14 -491.769 118.208 978.956 2153.04 11542.7 2103.9 5257.01 4642.4 5420.22 2161.53 1337.45 -25.4935 365.635 331.02 -705.518 -705.771 1303.02 -484.771 -316.08 765.108 1192.71 608.796 -231.651 4339.26 3554.35
internal_weight=0 11834 87596 11529 305 43432 44164 9089 2440 61 2419 244 208 188 2385 3396 27938 16226 15535 447 19581 3368 125 23851 5693 1524 4169 395 145 117
internal_count=99430 11834 87596 11529 305 43432 44164 9089 2440 61 2419 244 208 188 2385 3396 27938 16226 15535 447 19581 3368 125 23851 5693 1524 4169 395 145 117
is_linear=0
shrinkage=0.1


Tree=18
num_leaves=31
num_cat=0
split_feature=39 39 39 9 39 11 39 39 41 7 27 11 23 5 17 28 17 29 39 17 28 9 32 30 14 11 14 40 6 31
split_gain=2.0315e+12 7.29801e+11 5.41429e+11 2.32484e+11 2.2861e+11 1.27262e+11 1.22759e+11 8.35376e+10 7.05493e+10 6.7283e+10 5.67976e+10 5.46952e+10 5.38282e+10 6.38099e+10 5.37875e+10 4.86153e+10 4.86996e+10 4.4802e+10 6.24156e+10 4.31418e+10 4.24021e+10 4.09567e+10 5.95329e+10 3.8789e+10 3.78048e+10 4.23382e+10 4.45666e+10 3.61892e+10 3.57673e+10 4.22839e+10
threshold=81582.417582417591 200807.69230769234 40736.263736263747 435500.00000000006 120565.93406593408 508000.00000000006 59532.967032967041 22428.571428571431 58500.000000000007 -136499.99999999997 480500.00000000006 173500.00000000003 734500.00000000012 9.5000000000000018 381000.00000000006 41500.000000000007 114500.00000000001 200500.00000000003 154879.12087912092 230500.00000000003 5500.0000000000009 96500.000000000015 19500.000000000004 56500.000000000007 364000.00000000006 289500.00000000006 279500.00000000006 33516.666666666679 1.5000000000000002 202500.00000000003
decision_type=2 2 2 10 2 8 2 2 8 8 10 8 8 2 10 8 10 10 2 10 8 10 8 10 10 8 10 8 2 10
left_child=2 4 7 9 28 10 27 -1 -6 -3 -5 15 -7 -14 24 16 -10 19 -19 -13 -8 -22 23 -23 25 26 -11 -4 29 -2
right_child=1 3 6 5 8 12 20 -9 11 14 -12 17 13 -15 -16 -17 -18 18 -20 -21 21 22 -24 -25 -26 -27 -28 -29 -30 -31
leaf_value=-695.09561692580678 889.4892912863711 8332.430174607498 1916.2724079478787 7484.9527591589722 6643.8804701585032 14798.384521484375 1136.7673364852399 -377.04879265111799 7747.0905037652883 2989.5836827318003 1300.4942789713541 2027.201413223424 12854.714686650816 5623.8311748798078 7923.2718661221588 1159.8517086312449 2218.1655507405599 -4891.3890673828128 1128.6873250284505 4868.7727854047507 230.29167452560469 192.53657470703126 -231.24417073512723 -5158.1623471214662 -1391.6431256103515 5401.6795714393029 -875.39091759884002 -114.61362186968782 514.25177957299115 5104.0372965494789
leaf_weight=13542 2934 26 88 33 26 24 490 21167 21 311 27 1164 23 26 22 3525 66 20 124 56 17006 20 925 42 20 65 33 29924 7656 24
leaf_count=13542 2934 26 88 33 26 24 490 21167 21 311 27 1164 23 26 22 3525 66 20 124 56 17006 20 925 42 20 65 33 29924 7656 24
internal_value=0 1023.57 -199.61 4416.82 891.017 8113.96 16.1996 -501.137 1448.37 3385.96 4701.95 1421.22 10918.3 9017.92 3100.8 1217.49 3552.73 1960.74 292.566 2157.63 218.94 193.945 -432.313 -3432.13 2853.49 3061.08 2618.82 -108.659 628.356 923.684
internal_weight=0 16226 83204 610 15616 133 48495 34709 5002 477 60 4976 73 49 451 3612 87 1364 144 1220 18483 17993 987 62 429 409 344 30012 10614 2958
internal_count=99430 16226 83204 610 15616 133 48495 34709 5002 477 60 4976 73 49 451 3612 87 1364 144 1220 18483 17993 987 62 429 409 344 30012 10614 2958
is_linear=0
shrinkage=0.1


Tree=19
num_leaves=31
num_cat=0
split_feature=42 16 42 42 18 42 32 18 18 23 21 13 21 12 16 9 8 18 6 35 6 16 32 12 6 17 5 0 12 8
split_gain=1.37437e+12 4.67039e+11 4.17403e+11 1.8518e+11 1.08181e+11 8.97593e+10 8.63056e+10 7.14393e+10 7.12617e+10 7.03852e+10 6.32924e+10 6.23122e+10 6.08145e+10 5.85225e+10 5.37611e+10 5.12291e+10 4.9973e+10 4.83717e+10 4.66402e+10 4.54285e+10 6.48396e+10 4.0719e+10 5.66679e+10 7.67376e+10 4.06061e+10 3.88146e+10 4.34767e+10 3.73278e+10 3.53486e+10 3.43304e+10
threshold=92500.000000000015 304500.00000000006 48833.333333333336 178833.33333333334 489000.00000000006 26166.666666666668 250500.00000000003 116500.00000000001 60500.000000000007 734500.00000000012 253500.00000000003 756000.00000000012 219500.00000000003 217500.00000000003 203500.00000000003 175500.00000000003 -67499.999999999985 233500.00000000003 1.5000000000000002 38500.000000000007 1.0000000180025095e-35 15500.000000000002 90500.000000000015 1.0000000180025095e-35 1.5000000000000002 94500.000000000015 18.500000000000004 689144.50000000012 160500.00000000003 100500.00000000001
decision_type=10 10 8 10 8 10 8 8 8 8 10 10 10 10 10 10 10 8 2 8 2 10 10 10 2 10 2 2 10 10
left_child=2 3 5 7 6 12 -3 10 21 -6 19 -11 -1 28 15 18 -8 29 -10 20 -2 22 25 -24 -19 -4 -27 -20 -7 -5
right_child=1 4 8 17 9 13 16 -9 14 11 -12 -13 -14 -15 -16 -17 -18 24 27 -21 -22 -23 23 -25 -26 26 -28 -29 -30 -31
leaf_value=-532.16755092427286 6390.0203381347665 -552.57758146343815 1.9510710728632941 1841.1824839316043 11668.000025699013 -236.16224181763224 8590.9012992858898 1056.1085227104691 394.01880654313578 2579.2831111027645 -4212.4284685407365 9724.8077530570645 4985.3249499511721 5171.1434051513679 4822.226920898438 2111.7044540739407 3549.5528365789673 4313.1305461018883 134.55797635641645 499.89213950577437 1253.7925032447367 -121.32429052777125 7857.066828125 603.09851736886162 2200.0958513664477 443.92101300349009 4624.7002054850263 -378.99636469347791 -3371.677806260851 -765.18254609284577
leaf_weight=17136 30 33 462 788 38 28496 32 5198 7071 26 28 23 20 20 25 137 51 150 18586 4889 136 14039 25 35 231 61 42 1532 36 54
leaf_count=17136 30 33 462 788 38 28496 32 5198 7071 26 28 23 20 20 25 137 51 150 18586 4889 136 14039 25 35 231 61 42 1532 36 54
internal_value=0 1017.72 -135.819 933.816 5772.5 -344.954 3773.28 795.438 91.6987 8438.11 528.869 5933.3 -525.735 -236.328 187.059 182.818 5493.21 2097.08 173.099 555.131 2182.03 -86.1647 703.605 3625.59 3032 393.306 2148.7 95.4504 -240.118 1674.03
internal_weight=0 11707 87723 11504 203 45708 116 10281 42015 87 5083 49 17156 28552 27351 27326 83 1223 27189 5055 166 14664 625 60 381 565 103 20118 28532 842
internal_count=99430 11707 87723 11504 203 45708 116 10281 42015 87 5083 49 17156 28552 27351 27326 83 1223 27189 5055 166 14664 625 60 381 565 103 20118 28532 842
is_linear=0
shrinkage=0.1


Tree=20
num_leaves=31
num_cat=0
split_feature=39 39 39 39 4 28 39 23 41 24 7 7 8 11 35 7 33 11 28 40 5 40 30 28 33 23 5 39 20 19
split_gain=1.39538e+12 5.26812e+11 3.20831e+11 2.04143e+11 1.7465e+11 9.59114e+10 7.98465e+10 6.52283e+10 5.95567e+10 5.4875e+10 5.18305e+10 4.8614e+10 4.91694e+10 4.83885e+10 4.29682e+10 7.84802e+10 8.80879e+10 5.23667e+10 4.11414e+10 3.86997e+10 6.59271e+10 3.71589e+10 3.66795e+10 3.66315e+10 4.36959e+10 4.13049e+10 3.70276e+10 3.68149e+10 3.59957e+10 6.27024e+10
threshold=73714.285714285725 200807.69230769234 33697.802197802208 120565.93406593408 55.950833515000006 482500.00000000006 50010.989010989018 492500.00000000006 59642.857142857152 312500.00000000006 12500.000000000002 -149499.99999999997 201500.00000000003 11500.000000000002 63500.000000000007 -20499.999999999996 43500.000000000007 78500.000000000015 68500.000000000015 85816.666666666672 11.500000000000002 45550.000000000007 214500.00000000003 126500.00000000001 97500.000000000015 131500.00000000003 16.500000000000004 149879.12087912092 57500.000000000007 85500.000000000015
decision_type=2 2 2 2 2 10 2 10 8 10 10 8 10 10 8 10 10 8 10 10 2 10 10 10 8 10 2 2 8 8
left_child=2 3 13 14 7 -6 -4 11 -5 10 23 -3 -13 -1 15 16 -2 -16 -18 -8 -21 -15 -12 24 25 26 -10 -25 -26 -30
right_child=1 4 6 8 5 -7 19 -9 9 -11 22 12 -14 21 17 -17 18 -19 -20 20 -22 -23 -24 27 28 -27 -28 -29 29 -31
leaf_value=-691.64496187011832 7431.1782290988504 7620.1794628906255 -182.04274678163227 5880.4998345269096 13981.840640536222 5724.1907838479074 67.659194503219013 7372.3383219401048 2976.2616443452384 6272.2197524661115 774.98758851813216 2844.1755416714586 -1332.5371232096356 -385.60787030713061 85.740256310530413 646.48090622940185 3929.5227620787541 529.06854436457877 492.47644126892095 2278.9872046429177 -4132.179511534493 -3363.7826706659225 -1479.2302972893967 592.57664157803856 4271.5427322785063 1332.0005254572088 8784.1147503396751 1544.002455676791 -1958.4271047554766 1602.6014688637372
leaf_weight=8014 36 20 25803 27 22 39 28045 33 21 21 1437 466 30 16771 3549 648 59 10690 85 23 53 42 76 900 48 33 23 742 51 1623
leaf_count=8014 36 20 25803 27 22 39 28045 33 21 21 1437 466 30 16771 3549 648 59 10690 85 23 53 42 76 900 48 33 23 742 51 1623
internal_value=0 731.055 -191.966 643.059 3626.14 8702.36 -55.0096 3062.11 1196.59 1171.17 1149.55 2786.46 2591.55 -489.433 459.294 1159.59 3006.8 418.571 1900.71 61.5523 -2191.96 -393.048 661.755 1364.03 1675.75 4006.39 6012.18 1022.51 1571.53 1494.11
internal_weight=0 20679 78751 20069 610 61 53924 549 5002 4975 4954 516 496 24827 15067 828 180 14239 144 28121 76 16813 1513 3441 1799 77 44 1642 1722 1674
internal_count=99430 20679 78751 20069 610 61 53924 549 5002 4975 4954 516 496 24827 15067 828 180 14239 144 28121 76 16813 1513 3441 1799 77 44 1642 1722 1674
is_linear=0
shrinkage=0.1


Tree=21
num_leaves=31
num_cat=0
split_feature=42 16 42 42 12 22 38 21 36 5 21 6 35 29 21 17 31 6 31 13 28 31 34 20 21 12 29 15 0 31
split_gain=9.05567e+11 3.1637e+11 2.78386e+11 1.25157e+11 8.97101e+10 7.71773e+10 8.69195e+10 6.3871e+10 7.78937e+10 4.51425e+10 6.89954e+10 4.49249e+10 4.66183e+10 1.17265e+11 4.38525e+10 4.31668e+10 3.81166e+10 3.73705e+10 4.29676e+10 4.16793e+10 3.4757e+10 5.66436e+10 9.20476e+10 3.45594e+10 3.45458e+10 3.11588e+10 5.00628e+10 5.07459e+10 3.08429e+10 3.06926e+10
threshold=92500.000000000015 304500.00000000006 37500.000000000007 178833.33333333334 61500.000000000007 590500.00000000012 481500.00000000006 152500.00000000003 199500.00000000003 10.500000000000002 546500.00000000012 1.5000000000000002 30500.000000000004 76500.000000000015 9500.0000000000018 405000.00000000006 79500.000000000015 1.5000000000000002 255500.00000000003 269500.00000000006 1.0000000180025095e-35 73500.000000000015 76500.000000000015 215500.00000000003 284500.00000000006 122500.00000000001 1.0000000180025095e-35 122500.00000000001 689171.50000000012 24500.000000000004
decision_type=10 10 8 10 10 10 10 10 8 2 8 2 8 10 10 10 10 2 8 10 10 10 10 10 10 10 8 10 2 8
left_child=2 3 7 11 20 9 -7 16 -9 -3 15 12 13 -2 -6 -11 29 18 -5 -20 21 28 -23 25 -19 -13 27 -27 -4 -1
right_child=1 5 4 17 14 6 -8 8 -10 10 -12 23 -14 -15 -16 -17 -18 24 19 -21 -22 22 -24 -25 -26 26 -28 -29 -30 -31
leaf_value=-526.08991886862793 9765.5076538085941 6572.3067311356708 60.752876499151583 1596.2041290783491 480.51088008402417 13314.832440185548 4388.6814107259115 -589.99366531372073 6502.7016894531253 1923.5504031775135 -2476.3611025855657 389.69134685324059 900.80936284499876 958.90260574905972 111.61896031050919 6160.9208039717241 717.64488388757286 1480.1288442421619 3205.3500738188977 8014.626918247769 -155.22763334496142 838.94022805469376 7215.9724338107644 -1090.7951774654532 -2365.9205746968587 1190.4061987069938 771.14981596128689 7890.4492504882819 -446.24137714022982 -307.97567185680339
leaf_weight=9852 21 41 14398 183 4011 20 24 32 30 53 21 4746 3017 54 16393 44 318 868 127 21 22521 140 27 133 24 26 2264 20 1309 18692
leaf_count=9852 21 41 14398 183 4011 20 24 32 30 53 21 4746 3017 54 16393 44 318 868 127 21 22521 140 27 133 24 26 2264 20 1309 18692
internal_value=0 826.105 -110.247 757.05 14.6957 4739.48 8446.02 -364.241 2841.96 3713.77 2720.55 643.288 962.03 3424.75 184.135 3845.66 -371.128 1713.38 2620.82 3887.75 -75.3486 37.9786 1869.96 506.196 1376.65 536.298 837.508 4103.47 18.5007 -383.258
internal_weight=0 11707 87723 11504 58799 203 44 28924 62 159 118 10281 3092 75 20404 97 28862 1223 331 148 38395 15874 167 7189 892 7056 2310 46 15707 28544
internal_count=99430 11707 87723 11504 58799 203 44 28924 62 159 118 10281 3092 75 20404 97 28862 1223 331 148 38395 15874 167 7189 892 7056 2310 46 15707 28544
is_linear=0
shrinkage=0.1


Tree=22
num_leaves=31
num_cat=0
split_feature=39 39 39 1 18 11 8 14 18 29 14 11 41 23 21 1 28 39 41 18 2 6 33 19 41 23 38 9 33 8
split_gain=9.65883e+11 3.9428e+11 1.9121e+11 1.83331e+11 1.2822e+11 1.01593e+11 7.07437e+10 5.94432e+10 7.70075e+10 7.69013e+10 5.3884e+10 4.91968e+10 4.90836e+10 4.29692e+10 4.26117e+10 4.06377e+10 6.60467e+10 6.16676e+10 4.24504e+10 4.77489e+10 7.71799e+10 4.10885e+10 4.23819e+10 6.69237e+10 3.86146e+10 3.84769e+10 3.53371e+10 3.48624e+10 3.51507e+10 4.89114e+10
threshold=68945.054945054959 158895.60439560443 31840.659340659342 373000.00000000006 655500.00000000012 113500.00000000001 -335499.99999999994 148500.00000000003 152500.00000000003 165500.00000000003 197500.00000000003 52500.000000000007 79928.571428571435 263500.00000000006 546500.00000000012 44500.000000000007 46500.000000000007 85637.362637362647 74214.285714285725 11500.000000000002 188500.00000000003 1.0000000180025095e-35 37500.000000000007 80500.000000000015 16500.000000000004 75500.000000000015 73500.000000000015 194500.00000000003 118500.00000000001 66500.000000000015
decision_type=2 2 2 2 8 8 10 10 8 8 10 8 10 10 10 2 8 2 8 10 2 2 8 10 8 10 8 10 10 8
left_child=2 5 -1 7 14 10 -6 9 -9 -3 15 24 -13 -10 -5 16 17 -2 19 20 -18 22 23 -17 -4 -14 -21 -23 29 -29
right_child=1 3 11 4 6 -7 -8 8 13 -11 -12 12 25 -15 -16 21 18 -19 -20 26 -22 27 -24 -25 -26 -27 -28 28 -30 -31
leaf_value=-420.18174424287758 2048.8802621841432 5831.9429515165448 945.81716802364508 3990.3304104453637 12947.297770182293 772.61895576597806 6079.8022109985359 -1105.8452335911938 1420.126874927937 2076.2250751162442 -1492.5504146575929 47.208663739676417 -843.43141191382165 3791.0787841052547 -1098.6875440688361 -187.09475540161134 1347.0318241242439 8086.0630540930715 45.637073871937204 4061.2103814894153 9314.8843701171882 231.78151188582513 619.20657098017273 7993.5962341308596 -172.77519638841792 -4364.4030044946912 341.51965716657969 -483.84941540527348 1752.5618754882814 -5317.9745659722221
leaf_weight=22692 64 68 312 76 24 6311 40 117 1127 275 166 23448 152 82 21 20 31 23 376 31 20 13015 2237 20 28387 39 145 50 25 36
leaf_count=22692 64 68 312 76 24 6311 40 117 1127 275 166 23448 152 82 21 20 31 23 376 31 20 13015 2237 20 28387 39 145 50 25 36
internal_value=0 546.545 -177.738 1958.26 5180.87 432.082 8655.11 1647.39 1343.87 2820.8 299.901 -72.6229 34.2035 1580.94 2888.58 318.39 1069.19 3644.92 697.567 1777.42 4471.68 284.757 676.897 3903.25 -160.614 -1562.37 996.692 216.731 -1547.98 -2507.44
internal_weight=0 24400 75030 1830 161 22570 64 1669 1326 343 16259 52338 23639 1209 97 16093 690 87 603 227 51 15403 2277 40 28699 191 176 13126 111 86
internal_count=99430 24400 75030 1830 161 22570 64 1669 1326 343 16259 52338 23639 1209 97 16093 690 87 603 227 51 15403 2277 40 28699 191 176 13126 111 86
is_linear=0
shrinkage=0.1


Tree=23
num_leaves=31
num_cat=0
split_feature=39 39 39 39 7 39 18 24 14 32 28 14 7 40 23 22 7 41 2 5 6 10 28 35 21 2 19 5 34 32
split_gain=7.98536e+11 2.61747e+11 2.53151e+11 9.07968e+10 8.84049e+10 6.59378e+10 5.22143e+10 7.14636e+10 5.07348e+10 4.71688e+10 4.63641e+10 5.5393e+10 5.04872e+10 4.47957e+10 4.45184e+10 4.56917e+10 5.4086e+10 4.20128e+10 4.09395e+10 3.76588e+10 3.61053e+10 3.81253e+10 3.35025e+10 8.72631e+10 4.8764e+10 3.32932e+10 3.3143e+10 3.66445e+10 3.8137e+10 3.24705e+10
threshold=91686.81318681319 48697.802197802208 252285.71428571432 145791.20879120883 187500.00000000003 28780.219780219784 1.0000000180025095e-35 286500.00000000006 295500.00000000006 75500.000000000015 34500.000000000007 26500.000000000004 -36499.999999999993 150483.33333333337 263500.00000000006 590500.00000000012 22500.000000000004 119642.85714285716 813500.00000000012 13.500000000000002 1.0000000180025095e-35 157500.00000000003 91500.000000000015 8500.0000000000018 192500.00000000003 340500.00000000006 122500.00000000001 26.500000000000004 118500.00000000001 127500.00000000001
decision_type=2 2 2 2 8 2 8 10 10 8 8 10 10 10 8 10 10 8 2 2 2 8 10 8 10 2 10 2 10 10
left_child=1 5 3 13 14 -1 -5 8 17 -3 11 12 -11 22 -4 16 -16 -8 -18 -15 -19 -22 23 -2 29 -21 -25 -28 -29 -24
right_child=2 9 4 6 -6 -7 7 -9 -10 10 -12 -13 -14 19 15 -17 18 20 -20 25 21 -23 24 26 -26 -27 27 28 -30 -31
leaf_value=-403.06419731764174 5486.0937216734274 -31.547546390487351 454.22739213423296 -2301.1119835830318 8268.4844828287769 -164.92008190932944 3690.7227076570753 7105.857142857144 -3146.5763607318586 7429.690118963068 169.25255978640948 519.48117060149832 2091.4526601560824 543.6152161574945 4246.5809675278206 7262.7501855468763 -3104.8715930175786 2169.5609913851163 2436.3009973144531 -596.93742908296133 363.96169138106092 1338.6831553501538 291.38415077701234 612.0939804216423 -1526.7028862768366 -5905.8620659722219 1187.7373633768652 7116.7781036376955 1158.9706307547433 900.86365306743107
leaf_weight=19154 39 17616 55 41 36 29585 71 21 26 22 20839 289 91 41 124 30 20 341 40 21 567 1373 3483 3523 129 27 616 22 21 1167
leaf_count=19154 39 17616 55 41 36 29585 71 21 26 22 20839 289 91 41 124 30 20 341 40 21 567 1373 3483 3523 129 27 616 22 21 1167
internal_value=0 -104.163 771.019 695.791 3614.63 -258.509 1237.42 1297.9 1246.61 89.4361 189.773 1253.5 3130.76 550.387 2991.81 3643.99 3053.97 1295.17 589.243 -1682.09 1220.6 1053.8 572.464 777.758 391.139 -3583.21 733.85 1384.76 4207.15 444.344
internal_weight=0 87596 11834 11529 305 48739 2440 2399 2378 38857 21241 402 113 9089 269 214 184 2352 60 89 2281 1940 9000 4221 4779 48 4182 659 43 4650
internal_count=99430 87596 11834 11529 305 48739 2440 2399 2378 38857 21241 402 113 9089 269 214 184 2352 60 89 2281 1940 9000 4221 4779 48 4182 659 43 4650
is_linear=0
shrinkage=0.1


Tree=24
num_leaves=31
num_cat=0
split_feature=39 39 39 7 18 25 39 21 25 22 41 18 29 27 7 6 38 21 17 21 25 18 34 37 41 2 39 6 8 12
split_gain=6.50439e+11 2.27582e+11 1.96971e+11 7.1623e+10 6.29059e+10 5.60926e+10 5.13987e+10 4.43854e+10 3.89874e+10 3.9404e+10 3.87275e+10 3.63661e+10 4.63357e+10 3.488e+10 3.48599e+10 3.30009e+10 3.84731e+10 5.65297e+10 3.26462e+10 3.56334e+10 3.23031e+10 4.59304e+10 3.72967e+10 5.98872e+10 3.48224e+10 3.22506e+10 2.86005e+10 2.81071e+10 2.73633e+10 3.93402e+10
threshold=95675.824175824164 45763.736263736275 252285.71428571432 190500.00000000003 127500.00000000001 69500.000000000015 13796.703296703299 238500.00000000003 247500.00000000003 532500.00000000012 29214.285714285717 240500.00000000003 71500.000000000015 127500.00000000001 14500.000000000002 1.5000000000000002 121500.00000000001 95500.000000000015 223500.00000000003 236500.00000000003 52500.000000000007 38500.000000000007 1.0000000180025095e-35 90500.000000000015 63214.285714285717 813500.00000000012 92538.461538461546 5.5000000000000009 -114499.99999999999 1.0000000180025095e-35
decision_type=2 2 2 8 8 8 2 10 8 10 10 10 8 10 10 2 10 10 10 10 8 10 8 10 10 2 2 2 8 8
left_child=1 6 4 8 7 10 -1 20 -4 14 27 28 -13 -9 18 16 -7 -18 -10 -20 21 -2 23 -22 -24 -16 -12 -3 -6 -30
right_child=2 5 3 -5 11 15 -8 13 9 -11 26 12 -14 -15 25 -17 17 -19 19 -21 22 -23 24 -25 -26 -27 -28 -29 29 -31
leaf_value=-508.14785558926036 -4148.4411097935272 963.22560096220536 -412.29138916015631 7509.3844287109378 1869.8169511214546 330.06282772858754 -205.79558373536133 -4554.3085517883301 6513.711868601833 6209.6452501932781 -54.165374626165715 6450.2629596212646 1680.6637509678189 488.83947804768877 -2095.2856662597655 98.20284679763472 993.52250862121582 6972.7940294901537 -570.99183447265625 3760.7407380309287 7259.4096057165243 -70.560995856132223 4517.2630371093755 792.1086725531685 435.37823388342997 2461.7140190310597 -1997.5077331542971 4751.3390298594595 -2637.6515597256748 826.67771603878634
leaf_weight=6649 35 132 35 35 253 6832 36417 32 29 36 21422 23 178 24 25 17424 64 21 25 79 21 131 21 45 4370 41 76 23 33 4899
leaf_count=6649 35 132 35 35 253 6832 36417 32 29 36 21422 23 178 24 25 17424 64 21 25 79 21 131 21 45 4370 41 76 23 33 4899
internal_value=0 -87.2755 749.543 3253.16 673.675 67.4083 -252.476 405.453 2701.43 3165.18 -49.6797 906.689 2226.44 -2392.96 2614.42 171.566 356.369 2470.75 3546.78 2719.46 439.351 -930.355 490.365 2849.89 454.9 735.578 -61.0355 1525.33 855.529 803.498
internal_weight=0 89060 10370 305 10065 45994 43066 4679 270 235 21653 5386 201 56 199 24341 6917 85 133 104 4623 166 4457 66 4391 66 21498 155 5185 4932
internal_count=99430 89060 10370 305 10065 45994 43066 4679 270 235 21653 5386 201 56 199 24341 6917 85 133 104 4623 166 4457 66 4391 66 21498 155 5185 4932
is_linear=0
shrinkage=0.1


Tree=25
num_leaves=31
num_cat=0
split_feature=39 39 11 1 27 11 14 8 12 14 29 32 34 34 29 35 28 39 13 32 32 12 25 26 10 12 2 8 25 26
split_gain=5.38661e+11 2.20667e+11 1.05454e+11 1.02852e+11 1.10989e+11 6.09486e+10 4.88137e+10 4.75679e+10 4.65064e+10 4.92447e+10 6.00728e+10 4.03388e+10 5.58841e+10 3.97969e+10 3.9148e+10 3.91258e+10 5.00148e+10 6.12708e+10 3.87711e+10 3.77493e+10 3.45663e+10 3.44834e+10 3.38805e+10 3.19902e+10 2.97556e+10 2.89814e+10 5.43018e+10 4.2795e+10 3.83093e+10 3.23981e+10
threshold=68505.494505494527 158895.60439560443 32500.000000000004 546500.00000000012 720000.00000000012 120500.00000000001 197500.00000000003 83500.000000000015 240500.00000000003 148500.00000000003 167500.00000000003 258500.00000000003 127500.00000000001 171500.00000000003 109500.00000000001 63500.000000000007 47500.000000000007 111313.18681318683 24500.000000000004 160500.00000000003 222500.00000000003 143500.00000000003 31500.000000000004 88500.000000000015 143500.00000000003 153500.00000000003 489500.00000000006 102500.00000000001 233500.00000000003 165500.00000000003
decision_type=2 2 10 2 8 10 10 10 8 10 8 10 10 8 10 10 8 2 10 8 10 10 8 10 10 10 2 10 10 10
left_child=2 5 -1 8 -5 6 15 -6 9 10 13 14 -13 -3 25 16 17 -2 -12 -11 -16 -20 24 -8 -18 28 27 29 -7 -27
right_child=1 3 -4 4 7 11 23 -9 -10 19 18 12 -14 -15 20 -17 22 -19 21 -21 -22 -23 -24 -25 -26 26 -28 -29 -30 -31
leaf_value=-288.55299925195817 1201.3311782093792 6788.849744233632 -42.636310276289919 -122.25975561523438 11095.984800781251 805.32187944527288 -2758.7254444642504 4552.9680957031251 2238.2564822487211 -816.16158357204358 4480.9981054687505 7408.2351225353432 273.18614201753036 1684.1972605387373 346.02854715658594 108.56686941466722 -555.96224249133354 5936.0106206586288 -3330.0778621673585 976.68031920550823 -3833.3164184570314 1246.9947024109542 385.43615896228283 -91.807504371974787 -4602.3770449683789 2638.7125125784037 288.64330300484937 -1678.1432934570312 -3595.4329776000977 6203.1411104329427
leaf_weight=27755 231 42 46909 25 25 1807 88 20 414 133 30 21 23 24 1881 8957 135 31 20 1004 20 93 9234 92 21 170 155 20 20 30
leaf_count=27755 231 42 46909 25 25 1807 88 20 414 133 30 21 23 24 1881 8957 135 31 20 1004 20 93 9234 92 21 170 155 20 20 30
internal_value=0 404.135 -134.051 1460.89 5220.04 319.82 243.236 8187.98 1311.38 1026.29 2437.09 666.802 3678.55 4932.61 634.505 259.088 398.771 1761.54 1285.31 766.964 302.059 436.893 360.747 -1395.63 -1100.67 921.508 1722.27 2732.33 757.147 3173.38
internal_weight=0 24766 74664 1830 70 22936 18789 45 1760 1346 209 4147 44 66 4103 18609 9652 262 143 1137 1901 113 9390 180 156 2202 375 220 1827 200
internal_count=99430 24766 74664 1830 70 22936 18789 45 1760 1346 209 4147 44 66 4103 18609 9652 262 143 1137 1901 113 9390 180 156 2202 375 220 1827 200
is_linear=0
shrinkage=0.1


Tree=26
num_leaves=31
num_cat=0
split_feature=39 39 11 11 11 38 39 25 11 29 40 31 40 20 42 17 14 41 17 20 13 3 36 7 10 11 25 13 10 4
split_gain=4.41122e+11 1.51809e+11 1.324e+11 6.02883e+10 5.83959e+10 7.89474e+10 5.37086e+10 5.08016e+10 5.15069e+10 4.43032e+10 4.26143e+10 4.4171e+10 4.22668e+10 7.39713e+10 1.01377e+11 3.77413e+10 4.35253e+10 5.30489e+10 3.62469e+10 3.6232e+10 3.57325e+10 6.64329e+10 7.30232e+10 3.53469e+10 3.29911e+10 3.20578e+10 3.1496e+10 4.90949e+10 2.96786e+10 2.95492e+10
threshold=84983.516483516505 200807.69230769234 56500.000000000007 123500.00000000001 655500.00000000012 463500.00000000006 33697.802197802208 45500.000000000007 119500.00000000001 532500.00000000012 30883.333333333339 7500.0000000000009 77950.000000000015 83500.000000000015 92500.000000000015 204500.00000000003 5500.0000000000009 57071.42857142858 5500.0000000000009 502500.00000000006 57500.000000000007 37.587232645000007 71500.000000000015 -21499.999999999996 36500.000000000007 9500.0000000000018 75500.000000000015 151500.00000000003 289500.00000000006 55.745566050000008
decision_type=2 2 10 8 10 10 2 8 8 10 8 8 8 10 10 10 8 10 10 10 8 2 10 10 10 10 8 10 10 2
left_child=2 3 6 12 7 -6 25 -3 -9 19 24 18 13 29 -15 16 17 -14 -12 23 21 22 -5 -10 -8 -1 27 -18 -28 -2
right_child=1 4 -4 20 5 -7 10 8 9 -11 11 -13 15 14 -16 -17 26 -19 -20 -21 -22 -23 -24 -25 -26 -27 28 -29 -30 -31
leaf_value=-474.16207968499879 2399.9044852878737 -2833.2932256283966 104.86870663752802 2018.4446913556358 9271.9537734375008 954.92666945684527 995.59917209655293 6945.4163354492193 3016.5600729000798 6389.472842063904 -1817.0825009241762 -79.352467805453955 5725.4765904017859 10670.117285156251 601.49218715667723 -1496.6315643058335 -224.37330916451626 1075.1772679169974 -401.56765713268487 -2044.9606107271634 656.56300706166985 654.07791484250856 8875.5443457031251 1182.73038646695 5274.3552751813622 -214.24730314081387 289.67754331098809 -4184.4337918368255 3811.6339454650879 -2566.6956813964844
leaf_weight=6483 23 23 25068 41 25 21 127 20 157 20 247 34341 28 20 20 121 610 198 676 26 5077 118 25 318 21 17705 7789 33 24 25
leaf_count=6483 23 23 25068 41 25 21 127 20 157 20 247 34341 28 20 20 121 610 198 676 26 5077 118 25 318 21 17705 7789 33 24 25
internal_value=0 504.438 -87.9495 437.86 2049.06 5475.05 -169.05 1769.63 1965.32 1774.14 -90.5941 -97.7008 279.09 2459.8 5635.8 257.291 281.735 1651.32 -780.367 1589.9 706.177 2075.14 4615.83 1788.86 1602.72 -283.911 245.131 -427.611 300.496 -186.866
internal_weight=0 14762 84668 14152 610 46 59600 564 541 521 35412 35264 8891 88 40 8803 8682 226 923 501 5261 184 66 475 148 24188 8456 643 7813 48
internal_count=99430 14762 84668 14152 610 46 59600 564 541 521 35412 35264 8891 88 40 8803 8682 226 923 501 5261 184 66 475 148 24188 8456 643 7813 48
is_linear=0
shrinkage=0.1


Tree=27
num_leaves=31
num_cat=0
split_feature=39 39 11 38 11 25 16 15 42 11 20 20 40 14 40 5 16 36 21 20 7 18 7 35 21 11 36 39 40 1
split_gain=3.624e+11 1.67316e+11 8.59786e+10 7.37589e+10 5.89879e+10 4.80138e+10 7.16636e+10 7.60399e+10 5.20622e+10 4.7105e+10 4.65518e+10 3.88544e+10 3.77234e+10 3.61993e+10 3.32704e+10 5.18931e+10 3.26234e+10 3.08538e+10 3.67426e+10 4.39798e+10 2.94765e+10 3.44245e+10 2.94471e+10 5.83942e+10 3.25473e+10 2.72984e+10 2.71757e+10 2.6477e+10 2.65122e+10 2.55498e+10
threshold=62252.747252747264 145791.20879120883 655500.00000000012 463500.00000000006 32500.000000000004 30500.000000000004 282500.00000000006 357500.00000000006 248333.33333333334 91500.000000000015 143500.00000000003 327500.00000000006 77950.000000000015 171500.00000000003 157100.00000000003 13.500000000000002 93500.000000000015 230500.00000000003 127500.00000000001 166500.00000000003 -12499.999999999998 294000.00000000006 -76499.999999999985 27500.000000000004 65500.000000000007 283500.00000000006 483500.00000000006 8675.8241758241784 6816.666666666667 26500.000000000004
decision_type=2 2 10 10 10 8 10 10 10 8 10 10 10 10 10 2 10 10 10 10 10 10 8 8 8 10 10 2 8 2
left_child=4 9 5 -4 16 10 7 11 -8 13 -3 20 -6 17 22 -16 27 18 29 -20 21 -7 23 -11 -25 -22 -10 -1 -29 -2
right_child=1 2 3 -5 12 6 8 -9 26 14 -12 -13 -14 -15 15 -17 -18 -19 19 -21 25 -23 -24 24 -26 -27 -28 28 -30 -31
leaf_value=-567.04964060232771 836.79080192164372 885.72430071149563 8827.6275766225972 859.43395647321438 -51.412060936699135 1222.6434389406468 6741.0416933121223 6873.3640404110865 1371.3818671948984 6518.1695043945319 -4933.8178186487276 -2746.5012166341148 -4290.8391566685268 -1265.9480735447532 422.4188753128052 -5580.6543945312505 -1467.6907356897991 3782.1066369098171 -523.24789690785599 -4913.7908691406255 651.88629650766529 5416.067748107911 352.36525426121523 2869.5423910221584 467.94583214222303 -2748.2487150828047 4764.2219087662234 3265.5188197742809 -207.47759745200665 119.97442296425197
leaf_weight=2191 513 28 26 21 40838 924 31 21 99 20 27 30 21 190 36 24 216 23 462 24 1463 20 10779 71 275 24 31 22 24788 16192
leaf_count=2191 513 28 26 21 40838 924 31 21 99 20 27 30 21 190 36 24 216 23 462 24 1463 20 10779 71 275 24 31 22 24788 16192
internal_value=0 281.311 1027.08 5267.37 -129.564 953.209 1014.06 881.443 3058.57 209.755 -1971.14 830.313 -53.591 106.797 369.674 -1978.81 -243.618 121.948 117.051 -740.065 874.453 1311.49 382.318 1264.44 960.759 597.009 2180.44 -233.825 -204.398 141.987
internal_weight=0 31354 2745 47 68076 2698 2643 2482 161 28609 55 2461 40859 17404 11205 60 27217 17214 17191 486 2431 944 11145 366 346 1487 130 27001 24810 16705
internal_count=99430 31354 2745 47 68076 2698 2643 2482 161 28609 55 2461 40859 17404 11205 60 27217 17214 17191 486 2431 944 11145 366 346 1487 130 27001 24810 16705
is_linear=0
shrinkage=0.1


Tree=28
num_leaves=31
num_cat=0
split_feature=39 39 39 32 25 22 27 18 20 18 2 40 8 6 8 31 18 33 8 25 29 39 41 40 41 19 22 27 41 16
split_gain=3.02069e+11 1.21076e+11 8.34485e+10 5.2754e+10 4.15226e+10 5.83414e+10 4.78001e+10 4.95336e+10 4.94103e+10 4.213e+10 5.45524e+10 4.01384e+10 5.27273e+10 3.78492e+10 4.02829e+10 4.85519e+10 3.63404e+10 7.11171e+10 4.75038e+10 7.6257e+10 3.83791e+10 3.63167e+10 1.08567e+11 5.5364e+10 4.93729e+10 3.23947e+10 3.04038e+10 4.57405e+10 3.5217e+10 2.86736e+10
threshold=102758.24175824177 48697.802197802208 252285.71428571432 320500.00000000006 867500.00000000012 990500.00000000012 480500.00000000006 474500.00000000006 502500.00000000006 774000.00000000012 813500.00000000012 95350.000000000015 -5499.9999999999991 1.5000000000000002 76500.000000000015 195500.00000000003 79500.000000000015 200500.00000000003 69500.000000000015 79500.000000000015 101500.00000000001 128813.18681318681 179642.85714285719 115150.00000000001 88071.428571428594 13500.000000000002 26500.000000000004 85500.000000000015 86642.857142857145 55500.000000000007
decision_type=2 2 2 10 8 8 10 10 10 8 2 8 10 2 10 10 8 10 10 10 10 2 10 8 10 8 8 10 8 10
left_child=1 25 3 11 6 -6 7 -4 -8 -7 -11 12 -2 14 15 -3 17 18 -13 -20 26 22 24 -23 -22 29 27 -18 -28 -1
right_child=2 13 4 -5 5 9 8 -9 -10 10 -12 16 -14 -15 -16 -17 20 -19 19 -21 21 23 -24 -25 -26 -27 28 -29 -30 -31
leaf_value=-296.44862375412384 7298.9538745117188 252.02564665473244 1576.8173792253463 5398.7604686390268 7543.9945499674477 -1605.2878344726564 2548.7579041114222 6664.1965308147937 -3050.93190574646 6355.9735290527351 -301.63802265167237 -152.96944421459094 624.71405829067896 11.780961010361123 -687.99251735507164 5183.4613110351565 6921.792551269531 5146.8388128371471 -5299.6704477163466 687.59308815002441 -4842.3441552734375 5586.2480379971594 -6062.671055024246 545.68149966091607 151.6683881369365 -124.26428818202872 4634.9860075577444 660.31317879813059 708.84592013930455 -1101.9113941461039
leaf_weight=7668 20 11261 114 22 30 20 26 23 40 32 20 253 29 30404 466 20 20 21 52 36 20 22 29 2289 1946 40602 23 28 3425 469
leaf_count=7668 20 11261 114 22 30 20 26 23 40 32 20 253 29 30404 466 20 20 21 52 36 20 22 29 2289 1946 40602 23 28 3425 469
internal_value=0 -53.4275 568.622 508.463 2192.91 3838.95 1365.83 2430.9 -844.993 2295.18 3795.35 495.363 3348.89 70.6819 223.131 260.769 478.237 -501.235 -849.064 -2850.34 523.683 323.838 11.2693 593.666 100.865 -160.761 769.83 3269.26 735.035 -342.874
internal_weight=0 90890 8540 8235 305 102 203 137 66 72 52 8213 49 42151 11747 11281 8164 362 341 88 7802 4306 1995 2311 1966 48739 3496 48 3448 8137
internal_count=99430 90890 8540 8235 305 102 203 137 66 72 52 8213 49 42151 11747 11281 8164 362 341 88 7802 4306 1995 2311 1966 48739 3496 48 3448 8137
is_linear=0
shrinkage=0.1


Tree=29
num_leaves=31
num_cat=0
split_feature=39 39 39 23 28 7 21 27 9 3 6 11 5 14 1 28 2 9 17 34 17 33 11 17 2 16 35 11 27 1
split_gain=2.50081e+11 1.0499e+11 5.58122e+10 4.65923e+10 4.91719e+10 4.8229e+10 5.25905e+10 4.64345e+10 4.48814e+10 4.28668e+10 4.16999e+10 3.94136e+10 3.46591e+10 3.38125e+10 3.13536e+10 4.49912e+10 4.78321e+10 3.78916e+10 4.50862e+10 5.31639e+10 4.2777e+10 4.38456e+10 3.11646e+10 3.33658e+10 3.55132e+10 4.08039e+10 2.71511e+10 2.7133e+10 2.64842e+10 2.58516e+10
threshold=69961.538461538483 187060.43956043958 30445.054945054948 263500.00000000006 315500.00000000006 -149499.99999999997 289500.00000000006 184500.00000000003 508000.00000000006 37.587232645000007 1.5000000000000002 120500.00000000001 11.500000000000002 197500.00000000003 44500.000000000007 67500.000000000015 603500.00000000012 79500.000000000015 14500.000000000002 123500.00000000001 100500.00000000001 60500.000000000007 396000.00000000006 8500.0000000000018 135500.00000000003 127500.00000000001 238500.00000000003 300500.00000000006 120500.00000000001 1.0000000180025095e-35
decision_type=2 2 2 10 10 10 10 10 10 2 2 8 2 10 2 8 2 10 8 10 10 10 10 8 2 10 8 10 8 2
left_child=2 11 -1 4 5 9 8 -5 -7 -3 -4 13 29 14 15 16 -2 18 -17 20 -20 -22 23 24 -13 28 -9 -25 -26 -12
right_child=1 3 10 7 -6 6 -8 26 -10 -11 12 22 -14 -15 -16 17 -18 -19 19 -21 21 -23 -24 27 25 -27 -28 -29 -30 -31
leaf_value=-225.6623568406894 1320.602860048502 7648.5229687500005 105.96128594853167 5878.892105679899 -3933.0788769531255 886.191782116289 -3548.7250574845539 -1495.5375134277344 5702.3089727783208 1781.3825409860322 634.42210699241525 -1771.1672628651495 -160.32879150997655 -1182.3741754768992 147.81825861324259 4570.5656856960723 5523.3916861044399 -359.21985056978042 560.16263974946128 -3589.2977524414064 7076.4667883831535 901.78853388247285 4400.3995922851564 422.76146296150438 1992.0687806396484 987.09678885544406 2436.5189289463892 -2643.5740878401134 6279.6261761833639 4.8018410467018819
leaf_weight=21350 101 20 15164 37 20 595 26 20 20 33 685 23 24976 185 15776 36 37 293 174 25 23 23 20 5870 25 79 144 29 34 13587
leaf_count=21350 101 20 15164 37 20 595 26 20 20 33 685 23 24976 185 15776 36 37 293 174 25 23 23 20 5870 25 79 144 29 34 13587
internal_value=0 283.744 -88.6413 1334.02 955.403 1096.28 856.573 2678.94 1042.81 3995.4 -34.8775 241.507 -89.2925 162.029 177.114 826.223 2447.44 436.454 1266.11 780.554 1277.13 3989.13 459.458 446.452 1866.79 2473.11 1957 407.687 4462.86 35.0211
internal_weight=0 23668 75762 915 714 694 641 201 615 53 54412 22753 39248 16673 16488 712 138 574 281 245 220 46 6080 6060 161 138 164 5899 59 14272
internal_count=99430 23668 75762 915 714 694 641 201 615 53 54412 22753 39248 16673 16488 712 138 574 281 245 220 46 6080 6060 161 138 164 5899 59 14272
is_linear=0
shrinkage=0.1


Tree=30
num_leaves=31
num_cat=0
split_feature=11 25 1 25 31 6 13 10 38 35 24 1 37 21 28 32 34 5 5 21 28 0 25 33 23 24 12 31 5 6
split_gain=2.01536e+11 8.44153e+10 4.9568e+10 4.50018e+10 4.95556e+10 4.24639e+10 4.06355e+10 4.91337e+10 3.62504e+10 1.03044e+11 3.52051e+10 3.34756e+10 3.29983e+10 4.01541e+10 3.04969e+10 2.96057e+10 3.04634e+10 2.95196e+10 3.58479e+10 2.6884e+10 2.68236e+10 2.55667e+10 2.41384e+10 3.3943e+10 3.01471e+10 3.58529e+10 2.6853e+10 2.35326e+10 7.53737e+10 2.32804e+10
threshold=72500.000000000015 215500.00000000003 480500.00000000006 19500.000000000004 220500.00000000003 1.5000000000000002 756000.00000000012 546500.00000000012 123500.00000000001 1.0000000180025095e-35 470500.00000000006 70500.000000000015 183500.00000000003 222500.00000000003 245500.00000000003 127500.00000000001 102500.00000000001 9.5000000000000018 8.5000000000000018 259500.00000000003 116500.00000000001 605366.50000000012 467000.00000000006 284500.00000000006 107500.00000000001 123500.00000000001 154500.00000000003 83500.000000000015 27.500000000000004 1.5000000000000002
decision_type=10 10 2 8 10 2 10 10 8 8 10 2 10 10 10 10 10 2 2 10 10 2 10 10 10 10 10 10 2 2
left_child=2 5 3 11 12 8 7 10 -2 -10 22 27 13 14 29 16 -13 18 -7 -19 -21 -11 23 24 25 -3 -26 -1 -29 -5
right_child=1 6 -4 4 -6 17 -8 -9 9 21 -12 15 -14 -15 -16 -17 -18 19 -20 20 -22 -23 -24 -25 26 -27 -28 28 -30 -31
leaf_value=-249.05946509780998 179.0216572883096 1311.5563013025233 4563.9185546875005 48.19991716190993 4084.2155037715515 222.13878276194635 5252.5961156774456 -3351.2254916104403 6790.8504344798903 1913.9236581924115 4584.3354197782637 -938.4740709793989 -2190.1244583924613 3387.5489681468289 3854.4272961425786 1643.902404142681 -3218.1023642147288 60.917711029776548 974.0198945629229 -461.30315373118333 -4728.0068059506621 542.42794214499406 -1906.3450439453127 3929.9041890462245 -923.20772969013944 6409.2753817471594 1219.5139229695858 -155.04915893554687 5499.7486238606771 -86.6262715631064
leaf_weight=9769 3144 37 23 17390 29 3468 27 22 27 141 34 425 72 34 20 38 68 10870 776 41 23 3773 23 48 74 22 279 110 30 48593
leaf_count=9769 3144 37 23 17390 29 3468 27 22 27 141 34 425 72 34 20 38 68 10870 776 41 23 3773 23 48 74 22 279 110 30 48593
internal_value=0 260.79 -77.722 -79.1161 -48.6591 230.13 1466.8 1277.16 432.271 634.305 1474.11 -272.063 -50.4721 -48.1392 -49.909 -1045.6 -1252.91 135.771 359.618 48.8859 -1994.65 591.835 1255.17 1413.25 1120.05 3212.4 770.331 -230.611 1056.69 -51.0925
internal_weight=0 22829 76601 76578 66138 22263 566 539 7085 3941 517 10440 66109 66037 66003 531 493 15178 4244 10934 64 3914 483 460 412 59 353 9909 140 65983
internal_count=99430 22829 76601 76578 66138 22263 566 539 7085 3941 517 10440 66109 66037 66003 531 493 15178 4244 10934 64 3914 483 460 412 59 353 9909 140 65983
is_linear=0
shrinkage=0.1


end of trees

feature_importances:
mean_income_all=200
income_3_day_before=75
mean_income_last_30_days=49
mean_income_last_7_days=37
income_10_day_before=35
mean_income_last_3_days=32
income_17_day_before=27
yesterday_income_growth=26
income_15_day_before=23
income_1_day_before=22
income_23_day_before=22
income_9_day_before=21
income_13_day_before=21
income_24_day_before=21
day=18
weekday=18
income_2_day_before=18
income_4_day_before=18
income_6_day_before=18
money_in=16
yesterday_growth_of_income_growth=16
income_16_day_before=16
income_20_day_before=15
income_21_day_before=13
money=12
income_8_day_before=12
income_12_day_before=12
latitude=11
income_30_day_before=11
income_5_day_before=10
income_26_day_before=10
income_19_day_before=9
income_25_day_before=9
income_14_day_before=8
income_27_day_before=8
income_28_day_before=8
TID=7
income_22_day_before=7
longitude=5
income_11_day_before=5
income_7_day_before=3
income_18_day_before=3
income_29_day_before=3

parameters:
[boosting: gbdt]
[objective: regression]
[metric: l2]
[tree_learner: serial]
[device_type: cpu]
[data: ]
[valid: ]
[num_iterations: 31]
[learning_rate: 0.1]
[num_leaves: 31]
[num_threads: -1]
[deterministic: 0]
[force_col_wise: 0]
[force_row_wise: 0]
[histogram_pool_size: -1]
[max_depth: -1]
[min_data_in_leaf: 20]
[min_sum_hessian_in_leaf: 0.001]
[bagging_fraction: 0.7]
[pos_bagging_fraction: 1]
[neg_bagging_fraction: 1]
[bagging_freq: 0]
[bagging_seed: 3014]
[feature_fraction: 0.7]
[feature_fraction_bynode: 1]
[feature_fraction_seed: 29554]
[extra_trees: 0]
[extra_seed: 19515]
[early_stopping_round: 0]
[first_metric_only: 0]
[max_delta_step: 0]
[lambda_l1: 0]
[lambda_l2: 0]
[linear_lambda: 0]
[min_gain_to_split: 0]
[drop_rate: 0.1]
[max_drop: 50]
[skip_drop: 0.5]
[xgboost_dart_mode: 0]
[uniform_drop: 0]
[drop_seed: 12050]
[top_rate: 0.2]
[other_rate: 0.1]
[min_data_per_group: 100]
[max_cat_threshold: 32]
[cat_l2: 10]
[cat_smooth: 10]
[max_cat_to_onehot: 4]
[top_k: 20]
[monotone_constraints: ]
[monotone_constraints_method: basic]
[monotone_penalty: 0]
[feature_contri: ]
[forcedsplits_filename: ]
[refit_decay_rate: 0.9]
[cegb_tradeoff: 1]
[cegb_penalty_split: 0]
[cegb_penalty_feature_lazy: ]
[cegb_penalty_feature_coupled: ]
[path_smooth: 0]
[interaction_constraints: ]
[verbosity: -1]
[saved_feature_importance_type: 0]
[linear_tree: 0]
[max_bin: 255]
[max_bin_by_feature: ]
[min_data_in_bin: 3]
[bin_construct_sample_cnt: 200000]
[data_random_seed: 126]
[is_enable_sparse: 1]
[enable_bundle: 1]
[use_missing: 1]
[zero_as_missing: 0]
[feature_pre_filter: 1]
[pre_partition: 0]
[two_round: 0]
[header: 0]
[label_column: ]
[weight_column: ]
[group_column: ]
[ignore_column: ]
[categorical_feature: ]
[forcedbins_filename: ]
[precise_float_parser: 0]
[objective_seed: 25204]
[num_class: 1]
[is_unbalance: 0]
[scale_pos_weight: 1]
[sigmoid: 1]
[boost_from_average: 1]
[reg_sqrt: 0]
[alpha: 0.9]
[fair_c: 1]
[poisson_max_delta_step: 0.7]
[tweedie_variance_power: 1.5]
[lambdarank_truncation_level: 30]
[lambdarank_norm: 1]
[label_gain: ]
[eval_at: ]
[multi_error_top_k: 1]
[auc_mu_weights: ]
[num_machines: 1]
[local_listen_port: 12400]
[time_out: 120]
[machine_list_filename: ]
[machines: ]
[gpu_platform_id: -1]
[gpu_device_id: -1]
[gpu_use_dp: 0]
[num_gpu: 1]

end of parameters

pandas_categorical:[]
