tree
version=v3
num_class=1
num_tree_per_iteration=1
label_index=0
max_feature_idx=42
objective=regression
feature_names=TID money_in money longitude latitude day weekday yesterday_income_growth yesterday_growth_of_income_growth income_1_day_before income_2_day_before income_3_day_before income_4_day_before income_5_day_before income_6_day_before income_7_day_before income_8_day_before income_9_day_before income_10_day_before income_11_day_before income_12_day_before income_13_day_before income_14_day_before income_15_day_before income_16_day_before income_17_day_before income_18_day_before income_19_day_before income_20_day_before income_21_day_before income_22_day_before income_23_day_before income_24_day_before income_25_day_before income_26_day_before income_27_day_before income_28_day_before income_29_day_before income_30_day_before mean_income_all mean_income_last_30_days mean_income_last_7_days mean_income_last_3_days
feature_infos=[406136:699664] [0:2697000] [0:6019000] [35.500558769999998:39.842458970000003] [54.458422939999998:56.757842529999998] [1:31] [0:6] [-2214000:2697000] [-4911000:2697000] [0:2697000] [0:2697000] [0:2697000] [0:2697000] [0:2697000] [0:2697000] [0:2697000] [0:2697000] [0:2697000] [0:2697000] [0:2697000] [0:2697000] [0:2697000] [0:2697000] [0:2697000] [0:2697000] [0:2697000] [0:2697000] [0:2697000] [0:2697000] [0:2697000] [0:2697000] [0:2697000] [0:2697000] [0:2697000] [0:2697000] [0:2697000] [0:2697000] [0:2697000] [0:2697000] [2274.7252747252742:734461.5384615385] [0:843500] [0:917142.85714285716] [0:1247000]
tree_sizes=2852 2859 2873 2869 2871 2852 2885 2857 2902 2867 2862 2909 2869 2860 2836 2841 2870 2840 2872 2865 2848 2864 2844 2855 2828 2817 2855 2824 2853 2832 2864 2837 2849

Tree=0
num_leaves=31
num_cat=0
split_feature=39 39 39 39 4 39 39 39 39 13 39 39 34 39 39 39 9 39 39 39 14 32 19 41 38 14 41 13 4 21
split_gain=7.99018e+13 2.97285e+13 1.79052e+13 1.29821e+13 5.40486e+12 3.17804e+12 2.71916e+12 2.15194e+12 1.80366e+12 1.1087e+12 4.40352e+11 4.34666e+11 3.67236e+11 3.25597e+11 2.91581e+11 2.78165e+11 2.83777e+11 2.65694e+11 2.38609e+11 2.3436e+11 2.04531e+11 2.04418e+11 1.9867e+11 1.45132e+11 2.13132e+11 1.34753e+11 1.24717e+11 1.05619e+11 1.00232e+11 9.89115e+10
threshold=76483.516483516505 252285.71428571432 40065.934065934074 128813.18681318681 55.950833515000006 56357.142857142862 23291.208791208792 99912.087912087925 171978.02197802201 379000.00000000006 48252.747252747264 66554.94505494507 517000.00000000006 31840.659340659342 85637.362637362647 145791.20879120883 1.0000000180025095e-35 200807.69230769234 14615.384615384619 111313.18681318683 1.0000000180025095e-35 358500.00000000006 297500.00000000006 150500.00000000003 137500.00000000003 173500.00000000003 55928.571428571435 236500.00000000003 55.610443000000011 277500.00000000006
decision_type=2 2 2 2 2 2 2 2 2 10 2 2 10 2 2 2 8 2 2 2 8 8 8 10 10 8 8 10 2 10
left_child=2 3 6 7 9 10 18 14 15 22 -4 -7 -6 -8 -2 -5 -17 -10 -1 -9 -18 -11 -3 26 28 -19 -21 -24 -25 -29
right_child=1 4 5 8 12 11 13 19 17 21 -12 -13 -14 -15 -16 16 20 25 -20 23 -22 -23 27 24 -26 -27 -28 29 -30 -31
leaf_value=51553.355173458644 58675.433648061728 77605.793917674499 54940.021462917393 64199.150722184895 127952.87304713878 56634.289200630723 53299.70499449093 61003.008626990115 68868.637057189524 86432.870870799496 55751.136436105902 57607.4139463174 112382.41773396239 54115.142317920931 59758.999993287143 75099.300368567347 58200.599262134725 64546.919643120928 52382.233272297242 69884.393765816378 66185.250493915883 97953.244080920762 88638.681966660981 65842.872042674499 53859.122034536478 72848.2945448752 62488.578176878596 76207.871710643245 59401.642500057947 85823.523197565795
leaf_weight=7503 4819 77 14091 1525 28 12139 8723 2196 915 20 12749 7381 33 11163 5124 35 33 21 6466 23 1152 67 37 40 48 284 2634 20 61 23
leaf_count=7503 4819 77 14091 1525 28 12139 8723 2196 915 20 12749 7381 33 11163 5124 35 33 21 6466 23 1152 67 37 40 48 284 2634 20 61 23
internal_value=56142.1 61934.1 54754.6 61434.5 92905.6 56031.4 53006.3 60084.9 66521.4 86249.6 55325.3 57002.3 119530 53757.5 59233.8 65099.5 66225 69720.7 51937 61776.8 65962.9 95304.9 81231.7 62382.3 59345.3 72276.7 62552.6 84721.6 61952.6 81351.1
internal_weight=0 19215 80215 18910 305 46360 33855 14945 3965 244 26840 19520 61 19886 9943 2745 1220 1220 13969 5002 1185 87 157 2806 149 305 2657 80 101 43
internal_count=99430 19215 80215 18910 305 46360 33855 14945 3965 244 26840 19520 61 19886 9943 2745 1220 1220 13969 5002 1185 87 157 2806 149 305 2657 80 101 43
is_linear=0
shrinkage=1


Tree=1
num_leaves=31
num_cat=0
split_feature=39 39 39 39 4 39 39 39 39 13 40 39 39 39 34 39 39 39 23 39 39 21 27 12 40 42 27 0 40 5
split_gain=6.47204e+13 2.40801e+13 1.45316e+13 1.05155e+13 4.37794e+12 2.4322e+12 2.34939e+12 1.74307e+12 1.46097e+12 8.98047e+11 3.854e+11 3.5555e+11 3.10921e+11 3.07337e+11 2.97461e+11 2.8433e+11 2.38796e+11 2.25314e+11 2.36058e+11 2.19484e+11 2.15213e+11 2.08644e+11 1.76317e+11 1.72345e+11 1.55958e+11 1.51509e+11 1.17752e+11 1.09619e+11 8.72273e+10 8.30174e+10
threshold=76483.516483516505 252285.71428571432 41401.098901098907 128813.18681318681 55.950833515000006 23967.03296703297 57725.274725274743 99912.087912087925 171978.02197802201 379000.00000000006 145383.33333333334 49543.956043956052 33697.802197802208 67664.835164835167 517000.00000000006 115593.4065934066 86967.032967032981 145791.20879120883 1.0000000180025095e-35 15829.670329670331 200807.69230769234 21500.000000000004 432500.00000000006 315500.00000000006 85816.666666666672 45166.666666666679 198500.00000000003 634541.00000000012 69383.333333333358 9.5000000000000018
decision_type=2 2 2 2 2 2 2 2 2 10 10 2 2 2 10 2 2 2 8 2 2 8 8 8 10 8 10 2 8 2
left_child=2 3 5 7 9 19 11 16 17 23 15 -4 -7 -8 -6 -9 28 -5 -19 -1 -10 -20 -11 -3 -15 -17 -18 -25 -2 -26
right_child=1 4 6 8 14 12 13 10 20 22 -12 -13 -14 24 -16 25 26 18 21 -21 -22 -23 -24 27 29 -27 -28 -29 -30 -31
leaf_value=-4086.1079849841335 4418.6796275858978 20044.673903093437 -983.32405318575206 7251.3636784567907 64629.712500000001 -2462.9498197966441 531.44502711255984 4546.7754110624228 11453.900991611168 27265.654222470239 -2350.6957540760868 -249.8297037209104 -1695.2036297474108 1454.5278662097567 50616.303409090913 14541.817708333336 3298.5053064958829 18150.507397460937 764.88060105846773 -3296.0595127823931 14521.179805327869 9077.6263210089637 37785.889970999058 23634.098247466216 2121.8672894021743 6003.0393190353152 10989.1 32679.906079682849 2270.8288417829694 -4977.9827855603453
leaf_weight=8418 196 99 14335 1525 28 10370 11773 2928 915 21 69 12261 10736 6202 33 21 4372 28 31 6039 305 1161 66 37 23 1984 20 21 5355 58
leaf_count=8418 196 99 14335 1525 28 10370 11773 2928 915 21 69 12261 10736 6202 33 21 4372 28 31 6039 305 1161 66 37 23 1984 20 21 5355 58
internal_value=0 5212.78 -1248.69 4763.2 33087.1 -2756.86 -47.5085 3548.57 9341.4 27096.8 5071.21 -645.176 -2072.42 832.84 57048.7 5175.02 2782.58 8061.7 9074.63 -3756.09 12220.7 8861.44 35246.5 22580.7 1397.59 6092.47 3333.53 26909.3 2346.67 -2961.98
internal_weight=0 19215 80215 18910 305 35563 44652 14945 3965 244 5002 26596 21106 18056 61 4933 9943 2745 1220 14457 1220 1192 87 157 6283 2005 4392 58 5551 81
internal_count=99430 19215 80215 18910 305 35563 44652 14945 3965 244 5002 26596 21106 18056 61 4933 9943 2745 1220 14457 1220 1192 87 157 6283 2005 4392 58 5551 81
is_linear=0
shrinkage=0.1


Tree=2
num_leaves=31
num_cat=0
split_feature=39 39 39 39 4 39 39 39 39 19 40 39 39 39 39 14 34 21 28 39 39 14 42 40 5 14 30 14 1 41
split_gain=5.24939e+13 1.89659e+13 1.30117e+13 7.48592e+12 3.54613e+12 2.38522e+12 2.10971e+12 1.19467e+12 1.08409e+12 6.81276e+11 3.28391e+11 2.8702e+11 2.86258e+11 2.765e+11 2.65248e+11 2.47645e+11 2.40943e+11 2.34329e+11 1.8303e+11 1.75723e+11 1.64464e+11 1.42251e+11 1.16801e+11 1.01997e+11 9.77797e+10 9.16449e+10 9.47905e+10 9.15633e+10 9.91836e+10 8.64786e+10
threshold=80351.648351648371 252285.71428571432 43461.538461538468 128813.18681318681 55.950833515000006 26313.186813186818 60736.26373626374 158895.60439560443 102758.24175824177 400000.00000000006 145383.33333333334 71423.076923076951 51846.153846153851 35324.175824175829 16978.021978021981 214500.00000000003 517000.00000000006 310000.00000000006 288000.00000000006 120565.93406593408 91686.81318681319 163500.00000000003 45166.666666666679 77950.000000000015 14.500000000000002 168500.00000000003 170500.00000000003 1.0000000180025095e-35 125500.00000000001 150500.00000000003
decision_type=2 2 2 2 2 2 2 2 2 10 10 2 2 2 2 10 10 8 10 2 2 10 8 10 2 8 8 8 2 10
left_child=2 3 5 8 9 14 12 18 20 17 19 23 -4 -7 -1 25 -6 -3 21 -10 -2 27 -21 -8 -25 26 29 28 -5 -9
right_child=1 4 6 7 16 13 11 15 10 -11 -12 -13 -14 -15 -16 -17 -18 -19 -20 22 -22 -23 -24 24 -26 -27 -28 -29 -30 -31
leaf_value=-3625.8695958582839 2416.5846174805915 16916.69171951096 -706.92480692875881 -3043.3651123046875 58166.742801339286 -2077.2483371228327 772.40669826503745 15651.764270833333 4413.1076610773644 32717.990904017861 -2115.6261824898097 1621.2655406738184 -50.936278464932393 -1381.6424932717905 -2799.0089110762906 13204.996879634535 45554.672537878796 24305.199500644332 16562.030517578125 13402.169744873048 3322.2624349152888 8636.5665887407267 5699.4024086187292 1183.4910382439109 -4573.3323046875003 10572.521490105726 7645.0353710203244 6718.9627405705851 5831.5138269761037 9523.02734375
leaf_weight=9699 5124 77 14213 20 28 10797 10981 30 2928 70 69 5551 12505 12139 6466 295 33 97 20 20 3294 417 1253 51 70 835 266 1949 34 99
leaf_count=9699 5124 77 14213 20 28 10797 10981 30 2928 70 69 5551 12505 12139 6466 295 33 97 20 20 3294 417 1253 51 70 835 266 1949 34 99
internal_value=0 5067.13 -1041.91 4614.54 29778.4 -2364.79 150.727 8407.26 3429.31 24387.1 4727.17 1034.15 -399.898 -1709.1 -3295.13 10602.9 51343.8 21035.6 7034.98 4839.56 2770.98 6956.24 5820.42 740.589 -2146.9 9978.84 8723.83 6606.42 2544.52 10948.3
internal_weight=0 16958 82472 16653 305 39101 43371 3965 12688 244 4270 16653 26718 22936 16165 1525 61 174 2440 4201 8418 2420 1273 11102 121 1230 395 2003 54 129
internal_count=99430 16958 82472 16653 305 39101 43371 3965 12688 244 4270 16653 26718 22936 16165 1525 61 174 2440 4201 8418 2420 1273 11102 121 1230 395 2003 54 129
is_linear=0
shrinkage=0.1


Tree=3
num_leaves=31
num_cat=0
split_feature=39 39 39 39 13 39 39 9 39 39 39 40 39 27 39 39 20 31 39 39 2 19 39 40 40 42 39 37 17 27
split_gain=4.25752e+13 1.49506e+13 1.14541e+13 5.37764e+12 2.2486e+12 2.14394e+12 1.90114e+12 9.5871e+11 8.87074e+11 7.36007e+11 3.17966e+11 3.02588e+11 2.78542e+11 2.59858e+11 2.51151e+11 1.90674e+11 1.80248e+11 1.73942e+11 1.55931e+11 1.32331e+11 1.23362e+11 1.1215e+11 1.0517e+11 1.41928e+11 1.01358e+11 1.00814e+11 9.46896e+10 9.33166e+10 8.92263e+10 8.60138e+10
threshold=83862.637362637368 252285.71428571432 44659.340659340676 133060.43956043958 400000.00000000006 25016.48351648352 62252.747252747264 641500.00000000012 108791.20879120882 171978.02197802201 36829.670329670334 145383.33333333334 73714.285714285725 530500.00000000012 53241.758241758253 13247.252747252749 286500.00000000006 294000.00000000006 200807.69230769234 95675.824175824164 1158500.0000000002 297500.00000000006 125153.84615384617 103383.33333333336 85816.666666666672 61166.666666666679 149879.12087912092 106500.00000000001 38500.000000000007 202500.00000000003
decision_type=2 2 2 2 8 2 2 10 2 2 2 10 2 10 2 2 10 10 2 2 2 10 2 8 10 8 2 10 8 10
left_child=2 3 5 8 21 15 14 13 19 16 -7 22 24 20 -4 -1 25 -9 -11 29 -6 -3 -10 27 -8 -5 -27 -24 -14 -2
right_child=1 4 6 9 7 10 12 17 11 18 -12 -13 28 -15 -16 -17 -18 -19 -20 -21 -22 -23 23 -25 -26 26 -28 -29 -30 -31
leaf_value=-3432.5788474455403 2432.2204629414791 15778.765314370014 -534.39413168699991 12597.417850047146 23218.816290118244 -1853.3280927898945 845.86486902586955 54210.067812499998 4422.6499087227221 9261.9886672656776 -1152.5758298911849 -1904.0635903178784 3400.7466795401738 39560.151409646744 79.459950249877352 -2714.0832619920875 15840.538831676136 41805.545552884614 11872.8647265625 3315.6434500131454 30743.225619103774 21566.531452824522 14613.569321986608 5336.7619697702467 -2819.1388111917599 6069.9126150155498 7429.8498705987258 5910.4684126420461 1598.9784673322813 8699.4999445134945
leaf_weight=6222 4736 94 14518 29 37 13359 10599 20 2562 915 12566 69 290 23 12322 9089 22 26 305 2928 53 52 28 1101 76 1179 905 22 5261 22
leaf_count=6222 4736 94 14518 29 37 13359 10599 20 2562 915 12566 69 290 23 12322 9089 22 26 305 2928 53 52 28 1101 76 1179 905 22 5261 22
internal_value=0 4884.81 -876.58 4433.87 26800.6 -2067.8 264.02 35028.4 3403.65 7955.35 -1513.67 4657.44 1118.54 30074.1 -252.579 -3006.06 6835.72 47198.8 9914.71 2786.7 27649.9 17840.2 4779.37 5573.4 819.772 6741.96 6660.48 10784.2 1693.11 2461.2
internal_weight=0 15128 84302 14823 305 41236 43066 159 11468 3355 25925 3782 16226 113 26840 15311 2135 46 1220 7686 90 146 3713 1151 10675 2113 2084 50 5551 4758
internal_count=99430 15128 84302 14823 305 41236 43066 159 11468 3355 25925 3782 16226 113 26840 15311 2135 46 1220 7686 90 146 3713 1151 10675 2113 2084 50 5551 4758
is_linear=0
shrinkage=0.1


Tree=4
num_leaves=31
num_cat=0
split_feature=39 39 39 39 4 39 39 39 39 19 39 39 40 39 19 35 20 39 21 2 21 39 40 24 39 37 21 40 40 5
split_gain=3.44859e+13 1.211e+13 9.27785e+12 4.35589e+12 2.38808e+12 1.75542e+12 1.54423e+12 7.19395e+11 5.96165e+11 4.54642e+11 3.01813e+11 2.53694e+11 2.38416e+11 1.83126e+11 1.71751e+11 1.69971e+11 1.46001e+11 1.39762e+11 1.38253e+11 1.30028e+11 1.18765e+11 1.14911e+11 1.24261e+11 9.73793e+10 8.7401e+10 7.57921e+10 7.23516e+10 7.08758e+10 7.04992e+10 7.27077e+10
threshold=83862.637362637368 252285.71428571432 44659.340659340676 133060.43956043958 55.950833515000006 28780.219780219784 61769.230769230773 106637.36263736265 171978.02197802201 400000.00000000006 18461.538461538468 72186.813186813204 145383.33333333334 52807.692307692312 796500.00000000012 304500.00000000006 286500.00000000006 37868.131868131873 214500.00000000003 517500.00000000006 173500.00000000003 120565.93406593408 103383.33333333336 312500.00000000006 93934.065934065948 100500.00000000001 99500.000000000015 35250.000000000007 77950.000000000015 14.500000000000002
decision_type=2 2 2 2 2 2 2 2 2 10 2 2 10 2 10 8 10 2 10 2 10 2 8 10 2 10 8 8 10 2
left_child=2 3 5 7 9 10 13 24 16 15 -1 28 21 -4 -6 -3 20 -7 26 -17 -5 -9 25 -21 -2 -23 -10 -15 -8 -30
right_child=1 4 6 8 14 17 11 12 18 -11 -12 -13 -14 27 -16 19 -18 -19 -20 23 -22 22 -24 -25 -26 -27 -28 -29 29 -31
leaf_value=-2904.0667582535875 2154.510415310393 12171.042157451924 -498.83462653372271 5744.6523219938099 46546.268841911769 -1490.0825495248284 684.23662987515615 3722.5444785495056 2842.3158988620926 26501.816579241073 -2101.5023618749924 1439.4802922838719 -1713.657228331635 4660.317927135121 35863.267418981486 12875.091116898147 14256.484694602274 -985.99198076930554 11025.404110190764 23075.064204259073 7807.3081219168953 13924.157560398267 4653.0506019987697 16350.837908380683 2849.0788755466669 6112.3554398148153 8518.6183132767164 19.746051629564541 1089.8524205824908 -3905.0171386718753
leaf_weight=10980 4026 52 13664 1782 34 11712 9885 2196 23 70 8174 7015 69 33 27 27 22 10370 249 62 331 23 1833 33 3294 27 948 12350 51 68
leaf_count=10980 4026 52 13664 1782 34 11712 9885 2196 23 70 8174 7015 69 33 27 27 22 10370 249 62 331 23 1833 33 3294 27 948 12350 51 68
internal_value=0 4396.33 -788.922 3990.48 24120.5 -1861.02 237.618 3063.28 7159.82 19696.2 -2561.57 978.417 4115.43 -246.417 41817.7 16958.4 6152.15 -1253.35 8923.24 18998.8 6067.77 4214.03 4787.22 20739.3 2467.07 9705.78 8384.16 32.1129 655.11 -1764.36
internal_weight=0 15128 84302 14823 305 41236 43066 11468 3355 244 19154 17019 4148 26047 61 174 2135 22082 1220 122 2113 4079 1883 95 7320 50 971 12383 10004 119
internal_count=99430 15128 84302 14823 305 41236 43066 11468 3355 244 19154 17019 4148 26047 61 174 2135 22082 1220 122 2113 4079 1883 95 7320 50 971 12383 10004 119
is_linear=0
shrinkage=0.1


Tree=5
num_leaves=31
num_cat=0
split_feature=39 39 39 39 13 39 39 39 39 13 1 39 39 13 39 16 10 39 41 27 27 6 1 1 16 2 39 21 1 39
split_gain=2.79827e+13 1.03572e+13 6.3027e+12 4.52169e+12 1.56106e+12 1.17759e+12 9.28583e+11 7.34934e+11 6.73079e+11 6.27052e+11 2.65644e+11 1.81232e+11 1.65359e+11 1.53264e+11 1.52082e+11 1.5048e+11 3.91077e+11 1.18858e+11 1.11912e+11 1.57245e+11 9.67289e+10 1.46949e+11 1.2551e+11 9.4262e+10 9.25125e+10 1.08998e+11 7.97799e+10 7.56673e+10 1.37817e+11 7.5328e+10
threshold=76483.516483516505 252285.71428571432 39252.747252747264 126521.97802197804 646000.00000000012 55686.813186813197 20576.923076923082 158895.60439560443 95675.824175824164 379000.00000000006 546500.00000000012 67664.835164835167 46115.384615384624 230500.00000000003 30445.054945054948 57500.000000000007 79500.000000000015 111313.18681318683 154785.71428571432 135500.00000000003 392000.00000000006 3.5000000000000004 396000.00000000006 225500.00000000003 453000.00000000006 517500.00000000006 11060.439560439563 63500.000000000007 95500.000000000015 141604.39560439563
decision_type=2 2 2 2 10 2 2 2 2 8 2 2 2 10 2 8 10 2 10 10 10 2 2 2 8 2 2 8 2 2
left_child=2 3 6 8 9 12 26 15 -2 24 20 -7 -4 23 -8 16 -5 -10 -19 -20 22 -22 -11 -9 25 -3 -1 28 -17 -29
right_child=1 4 5 7 -6 11 14 13 17 10 -12 -13 -14 -15 -16 27 -18 18 19 -21 21 -23 -24 -25 -26 -27 -28 29 -30 -31
leaf_value=-2944.4281164435092 1748.8224048472177 11999.406854363209 -808.34678418717272 20262.843459154214 38684.324456521739 294.84668210549603 -1780.050325549681 7123.3185461686362 2740.7251496820504 14219.213978794643 33887.654367897732 941.08328919019868 -305.15564161425004 10654.052737894819 -1234.2871245330573 -4111.3339993990385 5446.0572809533232 3779.8008518181118 3999.3048334536347 -4693.4554944490137 19781.894296875002 30987.896519886366 24074.216650390626 9828.8458075629351 8581.419683593751 18222.898468424479 -2396.8709195244637 4491.3016754040636 4484.4586274118137 5585.6528331160334
leaf_weight=3904 8845 53 11163 23 46 14030 9089 1218 3294 28 22 6283 15738 163 11651 26 79 2417 46 38 25 22 24 144 25 60 8357 1425 66 1126
leaf_count=3904 8845 53 11163 23 46 14030 9089 1218 3294 28 22 6283 15738 163 11651 26 79 2417 46 38 25 22 24 144 25 60 8357 1425 66 1126
internal_value=0 3427.63 -821.066 3132.77 21708.5 -79.9888 -1881.31 5996.04 2297.66 18693.5 23948.2 494.734 -513.963 7756.17 -1473.46 5018.18 8787.1 3135.35 3655.1 66.8656 21739.4 25027.3 18767.7 7409.37 14086.1 15303.9 -2571.22 4872.73 2055.21 4974.34
internal_weight=0 19215 80215 18910 305 47214 33001 4270 14640 259 121 20313 26901 1525 20740 2745 102 5795 2501 84 99 47 52 1362 138 113 12261 2643 92 2551
internal_count=99430 19215 80215 18910 305 47214 33001 4270 14640 259 121 20313 26901 1525 20740 2745 102 5795 2501 84 99 47 52 1362 138 113 12261 2643 92 2551
is_linear=0
shrinkage=0.1


Tree=6
num_leaves=31
num_cat=0
split_feature=42 41 41 1 1 18 41 41 1 41 25 41 41 9 19 41 1 9 1 11 21 37 41 41 9 0 41 17 41 20
split_gain=1.85621e+13 6.80418e+12 4.98148e+12 2.61142e+12 1.3693e+12 1.09875e+12 8.76333e+11 7.38155e+11 5.64035e+11 4.76932e+11 4.55248e+11 3.6015e+11 3.17856e+11 2.8744e+11 2.82639e+11 2.73589e+11 2.67435e+11 2.65614e+11 2.02195e+11 1.98083e+11 1.80764e+11 1.77906e+11 1.72562e+11 1.56482e+11 1.51381e+11 1.21304e+11 1.08837e+11 9.76894e+10 9.33405e+10 9.06262e+10
threshold=82500.000000000015 265285.71428571438 45071.42857142858 138500.00000000003 61500.000000000007 582500.00000000012 29214.285714285717 100214.28571428572 202500.00000000003 165642.85714285719 172500.00000000003 54500.000000000007 69071.428571428594 263500.00000000006 400000.00000000006 1.0000000180025095e-35 238500.00000000003 30500.000000000004 102500.00000000001 283500.00000000006 124500.00000000001 895000.00000000012 18785.714285714294 88071.428571428594 104500.00000000001 676433.00000000012 95071.428571428594 85500.000000000015 196642.85714285716 170500.00000000003
decision_type=10 10 8 2 2 10 10 10 2 8 10 10 8 8 10 10 2 8 2 10 8 8 10 8 8 2 10 10 10 10
left_child=2 3 6 7 11 14 10 23 12 -5 15 17 -6 -10 25 -1 28 -4 -14 -18 -9 -7 -17 -2 -20 -3 -13 -28 -11 -22
right_child=1 5 4 9 8 21 -8 20 13 16 -12 26 18 -15 -16 22 19 -19 24 -21 29 -23 -24 -25 -26 -27 27 -29 -30 -31
leaf_value=1292.7599901480505 1013.8600932331028 15017.554745869254 -1580.5368538228413 4288.2727414541087 270.70526923419112 26896.939937160329 -990.66340088218988 2654.0385624130713 4258.0753788844795 5758.3795487048583 13110.188772125246 136.0419506066163 934.84375001140916 14055.772676705026 21493.712903003965 -2308.6923968222959 9117.4762147645706 -453.16101362348701 1474.3269063493481 19287.112766335227 3687.2763401425909 38865.29867983218 -1677.7728055577923 1958.8965471048637 3841.1865153471258 6549.5562642415371 898.28567578125012 10274.874755859375 7732.5197974451821 6241.1494680175783
leaf_weight=251 2969 87 2388 1810 8713 23 18797 2993 157 1020 20 9453 8244 37 71 9892 148 16738 736 22 1886 27 7717 4275 427 21 25 20 313 150
leaf_count=251 2969 87 2388 1810 8713 23 18797 2993 157 1020 20 9453 8244 37 71 9892 148 16738 736 22 1886 27 7717 4275 427 21 25 20 313 150
internal_value=0 3141.69 -594.221 2890.26 88.0738 20253.8 -1467.4 2217.74 763.317 5381.62 -1968.58 -343.955 705.894 6126.71 16592.9 -1985.47 6698.29 -593.921 1108.98 10433.5 3148.52 33359.9 -2032.2 1571.57 2343.33 13371 159.398 5065.66 6221.92 3875.43
internal_weight=0 15815 83615 15586 46938 229 36677 12273 18314 3313 17880 28624 18120 194 179 17860 1503 19126 9407 170 5029 50 17609 7244 1163 108 9498 45 1333 2036
internal_count=99430 15815 83615 15586 46938 229 36677 12273 18314 3313 17880 28624 18120 194 179 17860 1503 19126 9407 170 5029 50 17609 7244 1163 108 9498 45 1333 2036
is_linear=0
shrinkage=0.1


Tree=7
num_leaves=31
num_cat=0
split_feature=39 39 39 39 4 39 39 39 39 13 40 34 39 42 39 39 35 6 39 24 9 13 6 41 39 40 3 39 40 40
split_gain=1.87159e+13 6.71235e+12 4.66995e+12 2.73013e+12 1.33958e+12 8.37416e+11 7.84893e+11 4.76404e+11 3.21862e+11 2.85879e+11 1.88908e+11 1.52728e+11 1.43037e+11 1.25337e+11 1.17362e+11 1.1327e+11 9.64911e+10 9.38888e+10 9.7336e+10 9.19638e+10 8.63216e+10 9.69757e+10 8.11921e+10 1.20974e+11 7.92857e+10 7.85323e+10 7.43546e+10 7.24677e+10 6.72279e+10 6.63599e+10
threshold=80351.648351648371 252285.71428571432 42313.186813186818 133060.43956043958 55.950833515000006 59802.197802197807 21983.516483516487 106637.36263736265 171978.02197802201 379000.00000000006 145383.33333333334 517000.00000000006 33697.802197802208 58166.666666666679 69961.538461538483 49181.318681318684 457500.00000000006 4.5000000000000009 200807.69230769234 52500.000000000007 435500.00000000006 225500.00000000003 5.5000000000000009 102500.00000000001 90609.890109890126 97650.000000000015 37.547404760000006 11692.307692307693 108650.00000000001 35250.000000000007
decision_type=2 2 2 2 2 2 2 2 2 8 10 10 2 8 2 2 10 2 2 8 10 10 2 10 2 10 2 2 10 8
left_child=2 3 6 7 9 15 27 24 13 20 19 -6 -8 -5 -7 -4 -11 18 -10 22 21 -3 23 -9 28 -16 -23 -1 -2 -17
right_child=1 4 5 8 11 14 12 10 17 16 -12 -13 -14 -15 25 29 -18 -19 -20 -21 -22 26 -24 -25 -26 -27 -28 -29 -30 -31
leaf_value=-2383.2298095901961 1452.4445232031389 18408.351813299007 -507.20532664808019 11094.465612372038 36413.258663504464 401.2119992582692 -1363.0343811904147 13375.192986505683 6554.5617919732613 16411.698241553368 -2186.4999058820199 26371.994093276517 -877.28038645522656 4475.1786060161176 956.25879892705461 3139.3127407497832 23097.130911458335 5245.312128846911 9011.4579626180966 2999.1383396469082 5316.7049804687504 14621.839909532335 513.49516789362985 5153.9151115735376 2016.6193395401829 -4550.302388822116 8854.9913433527545 -1894.3309524921051 -4218.113206845238 -112.78643684718473
leaf_weight=4758 4737 22 12139 29 28 10675 11712 22 645 77 69 33 12566 2106 6684 63 30 360 215 3935 20 36 26 96 4392 26 59 8357 21 15492
leaf_count=4758 4737 22 12139 29 28 10675 11712 22 645 77 69 33 12566 2106 6684 63 30 360 215 3935 20 36 26 96 4392 26 59 8357 21 15492
internal_value=0 3025.61 -622.13 2756.36 17726.6 63.2176 -1448.35 2113.23 5305.49 14413 3002.2 30981.1 -1111.61 4565.09 607.205 -278.272 18286.1 6601.2 7168.79 3089.97 11387.9 12425.8 5572.09 6686.7 1710.23 934.922 11040.3 -2071.7 1427.42 -99.615
internal_weight=0 16958 82472 16653 305 45079 37393 13298 3355 244 4148 61 24278 2135 17385 27694 107 1220 860 4079 137 117 144 118 9150 6710 95 13115 4758 15555
internal_count=99430 16958 82472 16653 305 45079 37393 13298 3355 244 4148 61 24278 2135 17385 27694 107 1220 860 4079 137 117 144 118 9150 6710 95 13115 4758 15555
is_linear=0
shrinkage=0.1


Tree=8
num_leaves=31
num_cat=0
split_feature=42 41 41 41 13 41 21 41 9 42 42 9 20 41 41 25 41 11 29 9 41 20 0 2 41 6 2 35 41 28
split_gain=1.21218e+13 4.45412e+12 3.2913e+12 1.7224e+12 8.99276e+11 7.25319e+11 4.4644e+11 4.12614e+11 3.78565e+11 3.53862e+11 2.96057e+11 2.72782e+11 2.51334e+11 2.32738e+11 2.24111e+11 2.18192e+11 2.03763e+11 1.61964e+11 1.46123e+11 1.49756e+11 1.41842e+11 1.24497e+11 9.85924e+10 8.83558e+10 8.36389e+10 8.33045e+10 7.89423e+10 7.57374e+10 7.50973e+10 7.36206e+10
threshold=82500.000000000015 265285.71428571438 41642.857142857152 117642.85714285716 646000.00000000012 64642.857142857152 154500.00000000003 26500.000000000004 181500.00000000003 173500.00000000003 1.0000000180025095e-35 50500.000000000007 373000.00000000006 89500.000000000015 196642.85714285716 148500.00000000003 57642.857142857152 31500.000000000004 112500.00000000001 278500.00000000006 90214.285714285725 255500.00000000003 676433.00000000012 696500.00000000012 14642.857142857143 1.5000000000000002 517500.00000000006 89500.000000000015 50500.000000000007 175500.00000000003
decision_type=10 10 8 10 10 10 8 10 10 10 10 8 10 8 10 10 8 10 8 10 10 10 2 2 10 2 2 8 10 10
left_child=2 3 7 9 12 8 29 10 11 13 15 17 22 -2 21 -1 -13 -4 -11 -20 -7 -8 -3 -18 -12 -14 -10 -15 -19 -5
right_child=1 4 5 6 -6 20 14 -9 26 18 24 16 25 27 -16 -17 23 28 19 -21 -22 -23 -24 -25 -26 -27 -28 -29 -30 -31
leaf_value=324.65818379773594 870.13653989408851 11633.287419433595 -1073.8544583817777 2841.2222164219565 29233.482000177559 633.99344882536434 4323.4561918684403 -929.84865990674302 3977.9960305350173 -1281.709538341704 -1996.9776752902083 -308.76675433209738 12446.593705240886 1139.3208053072397 6941.7680746208644 10987.193110351564 274.64534941437131 -477.42787901725654 6246.244862139667 15666.657280273439 2561.3709186293204 12254.377460937501 4074.2692116477274 2088.4787216352984 -1521.2735336933604 19434.411927304023 10086.608748133043 2022.2556172648401 18.947542434528561 5073.5353851512737
leaf_weight=475 3451 80 3731 2504 44 11452 1913 16273 56 21 6589 9338 24 1167 425 20 11467 10854 108 20 395 20 22 275 8418 59 34 5800 4238 157
leaf_count=475 3451 80 3731 2504 44 11452 1913 16273 56 21 6589 9338 24 1167 425 20 11467 10854 108 20 395 20 22 275 8418 59 34 5800 4238 157
internal_value=0 2538.83 -480.195 2335.4 16383.9 10.9977 3860.74 -1281.56 -192.587 1610.91 -1650.77 -207.198 13327.8 1541.71 4862.64 755.468 39.8684 -483.89 6449.74 7718.18 698.256 4405.51 10002.9 317.126 -1730.14 17413.8 6285.69 1874.36 -338.04 2972.93
internal_weight=0 15815 83615 15586 229 51840 5019 31775 39993 10567 15502 39903 185 10418 2358 495 21080 18823 149 128 11847 1933 102 11742 15007 83 90 6967 15092 2661
internal_count=99430 15815 83615 15586 229 51840 5019 31775 39993 10567 15502 39903 185 10418 2358 495 21080 18823 149 128 11847 1933 102 11742 15007 83 90 6967 15092 2661
is_linear=0
shrinkage=0.1


Tree=9
num_leaves=31
num_cat=0
split_feature=39 39 39 39 4 39 39 39 39 20 21 0 42 40 15 39 40 13 28 18 21 28 40 39 40 8 40 21 39 27
split_gain=1.26305e+13 4.6669e+12 2.77399e+12 2.1967e+12 8.99224e+11 5.28942e+11 3.57341e+11 3.40808e+11 2.89299e+11 2.13329e+11 1.50653e+11 1.47296e+11 1.36392e+11 1.1828e+11 9.14518e+10 8.6682e+10 8.60745e+10 8.52705e+10 8.49085e+10 1.11559e+11 8.22441e+10 1.25904e+11 9.68819e+10 7.68418e+10 7.579e+10 7.09138e+10 6.71598e+10 6.54264e+10 6.28569e+10 6.96215e+10
threshold=75104.395604395613 252285.71428571432 37868.131868131873 126521.97802197804 55.950833515000006 54752.747252747264 20576.923076923082 158895.60439560443 98329.670329670349 373000.00000000006 860000.00000000012 634541.00000000012 45166.666666666679 150483.33333333337 250500.00000000003 64324.175824175829 84916.666666666672 230500.00000000003 197500.00000000003 108500.00000000001 58500.000000000007 63500.000000000007 124350.00000000001 46115.384615384624 43383.333333333336 -147499.99999999997 69383.333333333358 84500.000000000015 84983.516483516505 202500.00000000003
decision_type=2 2 2 2 2 2 2 2 2 8 8 2 8 10 10 2 10 10 10 10 8 8 8 2 10 8 8 8 2 10
left_child=2 3 6 8 9 23 -1 12 26 -3 -6 -11 -5 -10 -13 -7 -17 25 20 -20 21 -14 -22 -4 -8 -9 -2 -27 -28 -30
right_child=1 4 5 7 10 15 24 17 13 11 -12 14 18 -15 -16 16 -18 -19 19 -21 22 -23 -24 -25 -26 27 28 -29 29 -31
leaf_value=-1725.1784816837151 2963.5593628182796 8804.1103487141936 -555.58498083812572 9890.2724273681652 20495.525522933469 110.55979476850464 -1013.2283249726233 9515.2540211397063 2152.8179871015618 8617.7872526041665 30436.133014322917 22145.898097826088 -5959.8279713948577 -5195.5421519886368 14890.403361575705 552.56063539524177 -2590.6043742786756 7425.8739257812504 12600.739325241817 4497.7586553680767 6500.3961631443199 2481.2273344580808 3194.1927815397912 -221.14678258070558 -3483.8994339355472 -786.1001446533204 908.36387621246797 4977.0072342665553 1383.1209466934954 7020.7573308771307
leaf_weight=12261 211 120 13298 32 31 12261 18480 34 5041 30 30 23 24 22 71 8757 88 163 21 89 92 67 2420 14213 125 20 4987 1308 5089 22
leaf_count=12261 211 120 13298 32 31 12261 18480 34 5041 30 30 23 24 22 71 8757 88 163 21 89 92 67 2420 14213 125 20 4987 1308 5089 22
internal_value=0 2249.83 -564.615 2059.22 14524.7 -93.8963 -1306.04 4065.75 1501.86 11809.8 25384.3 14718.6 3399.85 2120.89 16665.7 282.686 521.289 5264.35 3323.3 6044.69 3208.29 255.015 3315.28 -382.804 -1029.83 5005.67 1197.83 4890.21 1160.94 1407.39
internal_weight=0 19947 79483 19642 305 48617 30866 4270 15372 244 61 124 2745 5063 94 21106 8845 1525 2713 110 2603 91 2512 27511 18605 1362 10309 1328 10098 5111
internal_count=99430 19947 79483 19642 305 48617 30866 4270 15372 244 61 124 2745 5063 94 21106 8845 1525 2713 110 2603 91 2512 27511 18605 1362 10309 1328 10098 5111
is_linear=0
shrinkage=0.1


Tree=10
num_leaves=31
num_cat=0
split_feature=39 39 39 39 13 39 39 9 39 39 21 40 32 28 41 39 24 10 13 39 40 21 15 28 28 17 41 40 16 13
split_gain=1.02307e+13 3.78019e+12 2.24915e+12 1.78719e+12 5.92644e+11 4.66347e+11 2.66614e+11 2.57131e+11 2.5354e+11 2.41852e+11 1.40487e+11 1.39401e+11 1.1846e+11 1.04663e+11 7.84299e+10 7.35426e+10 7.15977e+10 7.04787e+10 8.64724e+10 7.03268e+10 7.13329e+10 6.53943e+10 8.71722e+10 7.03737e+10 6.50684e+10 6.45093e+10 6.41827e+10 6.25889e+10 5.52364e+10 7.11149e+10
threshold=75104.395604395613 252285.71428571432 37000.000000000007 128813.18681318681 400000.00000000006 54752.747252747264 101494.50549450552 641500.00000000012 20236.26373626374 158895.60439560443 860000.00000000012 150483.33333333337 525500.00000000012 288000.00000000006 55928.571428571435 46115.384615384624 52500.000000000007 134500.00000000003 230500.00000000003 64796.703296703301 83150.000000000015 32500.000000000004 43500.000000000007 116500.00000000001 167500.00000000003 479500.00000000006 102500.00000000001 43383.333333333336 453000.00000000006 223500.00000000003
decision_type=2 2 2 2 8 2 2 10 2 2 8 10 10 10 8 2 8 10 10 2 10 8 8 10 8 10 10 10 10 10
left_child=2 3 8 6 28 15 -2 12 -1 13 -9 14 25 21 -8 -4 26 -11 24 -7 -21 23 -23 -5 -19 -6 -16 -10 29 -3
right_child=1 4 5 9 7 19 11 10 27 17 -12 -13 -14 -15 16 -17 -18 18 -20 20 -22 22 -24 -25 -26 -27 -28 -29 -30 -31
leaf_value=-1564.6880745517408 1106.3616841607654 14577.408096168156 -516.1338519208598 -3846.5573329380586 14822.441774338944 110.1749144047602 7893.8173318614135 18072.802539062501 -947.69488295508438 6827.2130911631139 29125.503439198372 -3089.153375589623 21315.524289772729 10336.911511263848 8244.8247952368965 -199.03210861128491 1966.7667510530789 2768.8306213000592 6766.585022775751 520.82144938051169 -1998.3938987330389 7050.0386106218612 3057.0653795381854 3378.4183274489183 4598.9589216451113 8928.7352426382222 3131.7726519051248 -3220.7438206031675 3726.6520032610215 8197.5779409555289
leaf_weight=11834 11041 21 15067 28 65 12993 23 23 17141 146 23 53 22 20 31 14213 4411 242 152 7999 114 56 2310 26 985 26 118 122 21 104
leaf_count=11834 11041 21 15067 28 65 12993 23 23 17141 146 23 53 22 20 31 14213 4411 242 152 7999 114 56 2310 26 985 26 118 122 21 104
internal_value=0 2024.84 -508.154 1853.3 13072.3 -103.912 1373.59 17296.3 -1208.16 3750.02 23599.2 2010 14730.5 3132.58 2068.97 -362.207 2039.59 4737.92 4516.72 254.418 485.423 3073.04 3151.57 -367.865 4238 13138.5 4195.56 -963.759 8472.15 9269.39
internal_weight=0 19947 79483 19642 305 50386 15677 159 29097 3965 46 4636 113 2440 4583 29280 4560 1525 1379 21106 8113 2420 2366 54 1227 91 149 17263 146 125
internal_count=99430 19947 79483 19642 305 50386 15677 159 29097 3965 46 4636 113 2440 4583 29280 4560 1525 1379 21106 8113 2420 2366 54 1227 91 149 17263 146 125
is_linear=0
shrinkage=0.1


Tree=11
num_leaves=31
num_cat=0
split_feature=41 41 42 14 14 41 14 9 42 26 13 41 9 19 19 28 41 23 14 11 2 14 17 41 8 9 28 9 37 35
split_gain=6.44732e+12 2.25605e+12 1.99897e+12 8.89331e+11 5.85453e+11 4.30623e+11 4.153e+11 3.92488e+11 2.62411e+11 2.26298e+11 1.99954e+11 1.40441e+11 1.25997e+11 1.13095e+11 1.11743e+11 1.06878e+11 1.05627e+11 9.50929e+10 9.28497e+10 8.68088e+10 8.65966e+10 8.57805e+10 9.50296e+10 8.0268e+10 7.52028e+10 9.01821e+10 6.16141e+10 5.94758e+10 5.90484e+10 5.42243e+10
threshold=87357.142857142884 265285.71428571438 46500.000000000007 131500.00000000003 672500.00000000012 31357.142857142859 60500.000000000007 359500.00000000006 138500.00000000003 164500.00000000003 167500.00000000003 1.0000000180025095e-35 75500.000000000015 796500.00000000012 297500.00000000006 121500.00000000001 16071.428571428574 261500.00000000003 215500.00000000003 92500.000000000015 1158500.0000000002 82500.000000000015 247500.00000000003 50500.000000000007 174500.00000000003 42500.000000000007 147500.00000000003 1.0000000180025095e-35 3500.0000000000005 55500.000000000007
decision_type=10 10 8 10 10 10 8 10 10 10 10 8 10 8 8 10 8 8 10 8 2 10 10 10 8 8 8 10 8 8
left_child=2 3 5 15 14 9 29 8 12 11 26 -1 24 -6 -3 21 -13 -16 -12 -14 -19 22 -2 -7 -8 -26 -5 -28 -17 -4
right_child=1 4 6 10 13 23 7 -9 -10 -11 18 16 19 -15 17 28 -18 20 -20 -21 -22 -23 -24 -25 25 -27 27 -29 -30 -31
leaf_value=1246.408753894335 579.18019554425985 5790.0447113037117 -413.19597985978976 2149.6809685711214 27971.307841796879 -501.8514291109442 363.97110782387813 14425.915603637695 3655.4142400702967 9041.1620783025573 3730.6329802111068 -1427.148021652185 530.93665075281945 17689.342279318105 17295.008286830358 6327.3863801843981 -972.46563734890844 7153.2178619939632 5692.02757144928 1330.3612409845264 12790.703601865416 1377.8031364035628 -6369.4651049804688 421.11167247014464 -813.72953140951029 162.77287340265133 7473.5713174143157 3042.2825811519047 2102.7856936728472 -64.331549577339061
leaf_weight=251 1236 56 7056 1157 20 18443 13458 20 247 22 982 7877 5197 23 21 34 14541 55 320 1839 54 5965 20 993 1284 3590 31 1320 1230 12088
leaf_count=251 1236 56 7056 1157 20 18443 13458 20 247 22 982 7877 5197 23 21 34 14541 55 320 1839 54 5965 20 993 1284 3590 31 1320 1230 12088
internal_value=0 2121.21 -305.688 1938.04 11955.6 -800.152 159.493 422.667 411.733 -1096.05 3207.25 -1105.89 380.151 22471.7 9524.53 1368.14 -1132.23 11133.2 4212.7 739.882 9946.1 1219.65 468.533 -454.697 242.082 -94.4756 2685.28 3143.96 2216.42 -192.914
internal_weight=0 12524 86906 12295 229 42127 44779 25635 25615 22691 3810 22669 25368 43 186 8485 22418 130 1302 7036 109 7221 1256 19436 18332 4874 2508 1351 1264 19144
internal_count=99430 12524 86906 12295 229 42127 44779 25635 25615 22691 3810 22669 25368 43 186 8485 22418 130 1302 7036 109 7221 1256 19436 18332 4874 2508 1351 1264 19144
is_linear=0
shrinkage=0.1


Tree=12
num_leaves=31
num_cat=0
split_feature=1 13 41 41 41 1 18 15 35 1 1 41 41 6 28 40 41 40 11 8 41 28 28 35 9 1 9 28 35 13
split_gain=5.45893e+12 1.98058e+12 1.49971e+12 7.87218e+11 5.13757e+11 4.98488e+11 2.49999e+11 1.9099e+11 1.79894e+11 1.76188e+11 1.6423e+11 1.57595e+11 1.37965e+11 1.23961e+11 1.09563e+11 9.3265e+10 9.13442e+10 8.82796e+10 7.47263e+10 7.39272e+10 7.3402e+10 9.40332e+10 7.69907e+10 7.28444e+10 7.17489e+10 6.9591e+10 6.49372e+10 1.18073e+11 6.4469e+10 6.01347e+10
threshold=90500.000000000015 400000.00000000006 41928.571428571435 113500.00000000001 67357.142857142884 198500.00000000003 582500.00000000012 27500.000000000004 215500.00000000003 50500.000000000007 497500.00000000006 1.0000000180025095e-35 81642.857142857145 3.5000000000000004 174500.00000000003 124350.00000000001 196642.85714285716 66050.000000000015 250500.00000000003 161500.00000000003 87357.142857142884 243500.00000000003 44500.000000000007 64500.000000000007 104500.00000000001 9500.0000000000018 29500.000000000004 95500.000000000015 94500.000000000015 46500.000000000007
decision_type=2 10 8 8 10 2 10 10 10 2 2 10 10 2 10 8 8 10 10 8 10 10 8 8 8 2 10 10 10 10
left_child=2 3 7 12 9 14 18 11 20 26 16 -1 19 -8 24 -10 -7 -9 -3 -2 -6 22 28 -11 -5 29 27 -4 -22 -24
right_child=1 6 4 5 8 10 13 17 15 23 -12 -13 -14 -15 -16 -17 -18 -19 -20 -21 21 -23 25 -25 -26 -27 -28 -29 -30 -31
leaf_value=1458.0990350203083 432.31891020166586 5413.2415405273441 -844.68718717862748 1201.6278640961425 433.42789107038192 3149.1991637914325 24417.090792968753 -593.56689973876917 2629.4635836514562 -186.62041218635042 13180.53064519709 -1112.2362267612875 1244.3056728835445 13995.292903645835 3413.8882676418998 12064.80328857422 5241.6033416762184 6054.6733984375005 12172.096580051732 -2028.9461555598334 -2193.3061475964923 7249.3955647786461 7279.7919052734378 195.17089971651433 2153.605324611955 921.17604553741603 -283.28410814826998 4556.453263147866 2235.1468978881835 2135.9364516479491
leaf_weight=242 1992 21 3156 961 9443 340 25 14886 22 8009 22 16689 4985 21 596 20 540 20 74 130 130 24 25 13290 4494 2321 16617 41 44 250
leaf_count=242 1992 21 3156 961 9443 340 25 14886 22 8009 22 16689 4985 21 596 20 540 20 74 130 130 24 25 13290 4494 2321 16617 41 44 250
internal_value=0 1815.22 -302.455 1696.96 21.4651 2453.46 13608.1 -845.683 589.074 -148.06 4646.52 -1075.5 956.843 19659.3 2126.55 7122.48 4433.17 -584.647 10678 281.535 566.65 1016.9 962.904 51.607 1985.9 1099.39 -362.691 -775.42 -1073.47 2603.56
internal_weight=0 14201 85229 14060 53392 6953 141 31837 12279 41113 902 16931 7107 46 6051 42 880 14906 95 2122 12237 2794 2770 21299 5455 2596 19814 3197 174 275
internal_count=99430 14201 85229 14060 53392 6953 141 31837 12279 41113 902 16931 7107 46 6051 42 880 14906 95 2122 12237 2794 2770 21299 5455 2596 19814 3197 174 275
is_linear=0
shrinkage=0.1


Tree=13
num_leaves=31
num_cat=0
split_feature=39 39 39 39 13 39 28 39 39 40 27 39 19 9 19 28 25 40 17 40 37 28 42 8 42 40 5 39 40 42
split_gain=5.7313e+12 2.11869e+12 1.25024e+12 1.05987e+12 3.6195e+11 2.56481e+11 2.00506e+11 1.84948e+11 1.45091e+11 1.40499e+11 1.20208e+11 1.05518e+11 1.04539e+11 1.0915e+11 7.82969e+10 7.26931e+10 6.27405e+10 7.99478e+10 6.15762e+10 9.37259e+10 7.45638e+10 6.58266e+10 6.02307e+10 7.77663e+10 5.97623e+10 5.72053e+10 1.04768e+11 5.46746e+10 5.45648e+10 5.36139e+10
threshold=74642.857142857145 252285.71428571432 36829.670329670334 133060.43956043958 646000.00000000012 54010.989010989018 306000.00000000006 108791.20879120882 17692.307692307695 145383.33333333334 323000.00000000006 187060.43956043958 796500.00000000012 641500.00000000012 492500.00000000006 154500.00000000003 45500.000000000007 101816.66666666667 56500.000000000007 68616.666666666672 66500.000000000015 147500.00000000003 108833.33333333336 76500.000000000015 61500.000000000007 77950.000000000015 15.500000000000002 67664.835164835167 43383.333333333336 32166.666666666668
decision_type=2 2 2 2 8 2 10 2 2 10 8 2 8 10 10 8 8 8 10 8 10 10 8 10 10 10 2 2 10 8
left_child=2 3 8 7 10 -4 11 18 -1 16 -3 22 -6 -14 -12 -13 17 -9 19 20 -2 -21 23 24 -5 27 -27 29 -10 -7
right_child=1 4 5 6 12 25 -8 9 28 -11 14 15 13 -15 -16 -17 -18 -19 -20 21 -22 -23 -24 -25 -26 26 -28 -29 -30 -31
leaf_value=-1216.4377735883279 8162.7923966324342 4871.7293635828355 -282.50291435637217 10793.120893554689 21944.910007440478 1663.7439143941149 12976.534593505859 8842.3744365985585 -731.81255474809154 -2810.7249844316125 8172.0440313268591 -940.07104910391354 9224.9947970920148 18599.558355978264 13304.93017101753 4368.9211620966589 1663.6102963145984 2671.1672149938186 753.85357631789384 1132.915879498328 1724.1321319167678 5272.843114608374 2561.7776957754086 -329.65825549316406 4761.7810358462129 929.55085499103268 -3382.2368034300766 479.57194323754959 -2853.6389715163436 81.580925382433634
leaf_weight=10126 35 85 28548 20 21 217 20 26 18422 69 108 27 27 23 41 576 3578 109 10232 2528 37 39 2595 25 92 104 123 4985 122 16470
leaf_count=10126 35 85 28548 20 21 217 20 26 18422 69 108 27 27 23 41 576 3578 109 10232 2528 37 39 2595 25 92 104 123 4985 122 16470
internal_value=0 1498.36 -384.698 1372.26 9770.12 -85.0179 2993.79 1045.58 -912.007 1660.37 7872.56 2933.92 16024.1 13537.3 9584.45 4131.21 1743.46 3859.7 864.935 1295.62 4854.04 1195.81 2669.66 4713.17 5838.81 172.428 -1406.79 188.969 -745.772 102.156
internal_weight=0 20313 79117 20008 305 50447 3355 16653 28670 3782 234 3335 71 50 149 603 3713 135 12871 2639 72 2567 2732 137 112 21899 227 21672 18544 16687
internal_count=99430 20313 79117 20008 305 50447 3355 16653 28670 3782 234 3335 71 50 149 603 3713 135 12871 2639 72 2567 2732 137 112 21899 227 21672 18544 16687
is_linear=0
shrinkage=0.1


Tree=14
num_leaves=31
num_cat=0
split_feature=39 39 39 39 4 39 39 21 39 1 21 35 40 10 5 40 26 39 39 37 40 40 24 9 12 6 17 23 29 18
split_gain=4.66352e+12 1.6031e+12 1.26757e+12 6.80569e+11 3.22521e+11 2.53942e+11 2.27227e+11 1.59463e+11 1.36206e+11 1.27926e+11 1.1644e+11 1.13194e+11 1.07498e+11 7.53537e+10 7.47367e+10 7.23233e+10 6.95521e+10 6.56325e+10 6.31801e+10 5.91275e+10 5.43531e+10 5.37353e+10 5.29881e+10 5.03612e+10 4.95256e+10 7.22848e+10 4.71603e+10 4.95705e+10 4.70724e+10 4.27591e+10
threshold=83862.637362637368 252285.71428571432 42692.307692307702 145791.20879120883 55.950833515000006 61478.021978021985 29296.703296703301 21500.000000000004 115593.4065934066 762500.00000000012 264500.00000000006 280500.00000000006 157100.00000000003 126500.00000000001 9.5000000000000018 103383.33333333336 286500.00000000006 10285.714285714286 187060.43956043958 105500.00000000001 37983.333333333336 97650.000000000015 5500.0000000000009 1.0000000180025095e-35 268000.00000000006 3.5000000000000004 132500.00000000003 57500.000000000007 146500.00000000003 306000.00000000006
decision_type=2 2 2 2 2 2 2 8 2 2 8 10 10 10 2 8 10 2 2 10 8 10 8 8 10 2 10 8 10 8
left_child=2 3 6 8 10 20 17 28 -2 -6 16 13 15 23 -14 19 -3 -1 -15 -10 -4 22 -7 -9 25 -12 -17 -28 -5 -26
right_child=1 4 5 7 9 21 -8 11 12 -11 24 -13 14 18 -16 26 -18 -19 -20 -21 -22 -23 -24 -25 29 -27 27 -29 -30 -31
leaf_value=-1346.1842807342996 955.95545833546169 944.91280029296877 1994.006737764217 -5927.577392578125 20435.702307581021 1410.615350802773 -460.21019309328267 9336.0521282958998 7854.1421738978797 11215.881736845129 3062.5904153262873 10415.835574776786 1511.4203351056135 2487.0887348970518 -5490.9809654017863 1982.533086905054 7846.2227517832889 -868.20459893165298 3740.6164190598647 1486.6794921875 -129.8460883905079 -4095.6542679398149 339.66992837353075 4151.2665878708303 13544.157897418479 9797.2157438151044 -1804.3541684664212 1347.2397397835794 555.39807012648805 8733.7787778164475
leaf_weight=3477 8784 40 121 24 27 475 17812 20 35 34 34 21 27 1510 35 2185 23 16531 548 25 28976 27 16883 296 23 30 52 1240 21 94
leaf_count=3477 8784 40 121 24 27 475 17812 20 35 34 34 21 27 1510 35 2185 23 16531 548 25 28976 27 16883 296 23 30 52 1240 21 94
internal_value=0 1616.69 -290.115 1469.03 8793.11 59.6567 -719.996 2995.49 1168.25 15296.8 7167.19 3106.3 1686.38 3041.64 -2441.55 1758.74 3464.44 -951.268 2820.88 5201.03 -121.014 362.042 368.976 4479.42 8456 6219.45 1699.33 1220.4 -2902.19 9679.41
internal_weight=0 15128 84302 14823 305 46482 37820 2440 12383 61 244 2395 3599 2374 62 3537 63 20008 2058 60 29097 17385 17358 316 181 64 3477 1292 45 117
internal_count=99430 15128 84302 14823 305 46482 37820 2440 12383 61 244 2395 3599 2374 62 3537 63 20008 2058 60 29097 17385 17358 316 181 64 3477 1292 45 117
is_linear=0
shrinkage=0.1


Tree=15
num_leaves=31
num_cat=0
split_feature=39 39 39 39 14 14 20 39 39 39 40 14 21 38 24 2 7 32 17 35 7 13 40 40 40 5 39 41 20 29
split_gain=3.79465e+12 1.37119e+12 8.62328e+11 6.65922e+11 2.96302e+11 1.62407e+11 1.59871e+11 1.51192e+11 1.51009e+11 1.10414e+11 8.60527e+10 8.74734e+10 7.86803e+10 7.61275e+10 7.08536e+10 6.84273e+10 6.38846e+10 6.21153e+10 6.53911e+10 6.10075e+10 6.09089e+10 5.81768e+10 5.81556e+10 5.40308e+10 5.27926e+10 6.7163e+10 5.1821e+10 4.87033e+10 5.02127e+10 4.85141e+10
threshold=76483.516483516505 252285.71428571432 40736.263736263747 133060.43956043958 672500.00000000012 168500.00000000003 709000.00000000012 28780.219780219784 59532.967032967041 95675.824175824164 145383.33333333334 127500.00000000001 264500.00000000006 38500.000000000007 54500.000000000007 286500.00000000006 -81499.999999999985 504500.00000000006 286500.00000000006 58500.000000000007 35500.000000000007 505500.00000000006 70183.333333333358 108650.00000000001 77950.000000000015 16.500000000000004 9456.0439560439572 123785.7142857143 82500.000000000015 38500.000000000007
decision_type=2 2 2 2 8 8 10 2 2 2 10 8 8 8 8 2 10 8 10 8 8 10 8 10 10 2 2 10 10 8
left_child=2 3 7 9 12 13 20 26 -4 22 11 -11 17 -5 15 -13 -14 18 -3 -15 -6 -18 -2 -24 -10 -26 -1 28 -21 -7
right_child=1 4 8 5 6 29 -8 -9 24 10 -12 14 16 19 -16 -17 21 -19 -20 27 -22 -23 23 -25 25 -27 -28 -29 -30 -31
leaf_value=-1278.7901957033157 2260.3334335117165 4734.7722121465777 -146.89619233716544 7026.307642505787 6285.9899838654892 8044.9266845703132 19736.126467660757 -446.18048721369581 265.50350658656697 978.69774252036666 -2328.0568274456523 942.00643986293255 2488.5655268351238 -2235.115549879808 1651.0708148759122 7238.3866311306429 7078.6339153061563 7525.3495535714292 -3254.856137695313 1200.0195392447458 13416.603548828127 12153.061537388394 623.81425746715138 -3015.0287984708461 416.99764479129993 -2361.5157748936249 -800.34290128589134 1574.0644682500035 4582.1109687871522 3089.2078995549073
leaf_weight=2623 218 21 30012 27 23 20 26 15555 15146 4585 69 28 24 39 1983 45 117 21 20 71 25 28 8586 41 173 175 16531 1477 115 1606
leaf_count=2623 218 21 30012 27 23 20 26 15555 15146 4585 69 28 24 39 1983 45 117 21 20 71 25 28 8586 41 173 175 16531 1477 115 1606
internal_value=0 1262.22 -302.357 1154.93 7913.8 2432.71 13420.7 -677.78 -16.0079 879.336 1185.23 1221.73 6149.68 1758 1763.7 4823.34 7267.52 3102.67 837.393 1674.42 9999.85 8058.52 647.282 606.521 237.524 -980.243 -865.863 1766.11 3291.1 3150.16
internal_weight=0 19215 80215 18910 305 3355 74 34709 45506 15555 6710 6641 231 1729 2056 73 169 62 41 1702 48 145 8845 8627 15494 348 19154 1663 186 1626
internal_count=99430 19215 80215 18910 305 3355 74 34709 45506 15555 6710 6641 231 1729 2056 73 169 62 41 1702 48 145 8845 8627 15494 348 19154 1663 186 1626
is_linear=0
shrinkage=0.1


Tree=16
num_leaves=31
num_cat=0
split_feature=39 39 39 39 14 39 39 18 14 28 21 14 27 42 28 14 28 42 40 14 42 28 40 24 39 35 40 24 40 21
split_gain=3.08554e+12 1.03688e+12 8.81682e+11 4.31903e+11 2.40005e+11 1.88186e+11 1.42984e+11 1.32356e+11 1.30008e+11 1.44276e+11 8.86213e+10 8.39177e+10 7.49069e+10 1.55728e+11 7.48273e+10 9.68825e+10 9.09621e+10 6.366e+10 6.34711e+10 5.6658e+10 4.96237e+10 4.86313e+10 4.78598e+10 4.73399e+10 4.68348e+10 4.65973e+10 4.60527e+10 4.35112e+10 4.23931e+10 4.16746e+10
threshold=85637.362637362647 252285.71428571432 45763.736263736275 145791.20879120883 672500.00000000012 29582.417582417587 68505.494505494527 582500.00000000012 1.0000000180025095e-35 295500.00000000006 121500.00000000001 115500.00000000001 200500.00000000003 92500.000000000015 543500.00000000012 486000.00000000006 306000.00000000006 29500.000000000004 157100.00000000003 189500.00000000003 77166.666666666672 88500.000000000015 50516.666666666679 312500.00000000006 12170.329670329673 60500.000000000007 129616.66666666667 5500.0000000000009 97650.000000000015 37500.000000000007
decision_type=2 2 2 2 8 2 2 10 8 10 10 8 10 8 10 10 8 8 10 8 10 10 10 8 2 8 8 8 10 8
left_child=2 3 5 11 14 24 17 -6 10 19 -5 12 -2 -14 15 16 -3 21 -13 26 25 -4 -7 -18 -1 -19 -10 -8 29 -29
right_child=1 4 6 8 7 22 27 -9 9 -11 -12 18 13 -15 -16 -17 23 20 -20 -21 -22 -23 -24 -25 -26 -27 -28 28 -30 -31
leaf_value=-1026.6959355613099 721.97457146804027 2278.0121004971593 799.51806337978428 -6672.1861741286066 8284.4298887671503 -334.85050724579838 1530.047367641863 16792.645737156723 5110.6901992797857 10998.94986328125 2061.9857782273066 1345.41183497527 9483.901484375001 223.04700476604958 122.29187967051631 11194.625169372559 10799.131208984376 -168.45004065956064 -1983.4070314604662 3061.6049946015692 -738.82542085113846 4102.470275634766 -1904.2965732107359 5848.840089613971 -678.78945852863831 89.996537368877156 1959.15289612733 -684.63332139160866 -3575.724681712963 430.78633561866513
leaf_weight=5185 6909 66 411 26 41 22435 341 33 48 20 21 4608 30 46 23 32 25 10942 58 962 947 50 196 85 15250 19248 1363 347 27 9655
leaf_count=5185 6909 66 411 26 41 22435 341 33 48 20 21 4608 30 46 23 32 25 10942 58 962 947 50 196 85 15250 19248 1363 347 27 9655
internal_value=0 1353.89 -229.209 1229.03 7122.42 -547.081 96.9788 12078.6 2438.81 2541.11 -2769.68 975.669 756.321 3878.65 5534.72 6133.2 5212.95 -8.76224 1304.03 2469.83 -26.0332 1157.76 -348.443 6973.91 -767.064 -3.6743 2066.36 419.178 381.407 392.089
internal_weight=0 14396 85034 14091 305 43066 41968 74 2440 2393 47 11651 6985 76 231 208 176 31598 4666 2373 31137 461 22631 110 20435 30190 1411 10370 10029 10002
internal_count=99430 14396 85034 14091 305 43066 41968 74 2440 2393 47 11651 6985 76 231 208 176 31598 4666 2373 31137 461 22631 110 20435 30190 1411 10370 10029 10002
is_linear=0
shrinkage=0.1


Tree=17
num_leaves=31
num_cat=0
split_feature=39 39 39 39 14 14 39 20 39 30 1 14 21 42 37 28 14 28 40 40 16 7 20 39 39 17 28 40 39 10
split_gain=2.50534e+12 8.77829e+11 6.20771e+11 4.09031e+11 1.94404e+11 1.52905e+11 1.52602e+11 1.14445e+11 8.1861e+10 7.08497e+10 7.50965e+10 6.53468e+10 1.01586e+11 8.00124e+10 7.30197e+10 6.06101e+10 7.84749e+10 7.36793e+10 5.18739e+10 5.05876e+10 5.05784e+10 4.90409e+10 4.85336e+10 4.80367e+10 4.53196e+10 5.32714e+10 4.87313e+10 4.42152e+10 5.10418e+10 4.29346e+10
threshold=79587.912087912104 252285.71428571432 45763.736263736275 126521.97802197804 672500.00000000012 163500.00000000003 29296.703296703301 709000.00000000012 59532.967032967041 118500.00000000001 139500.00000000003 69500.000000000015 58500.000000000007 112166.66666666667 92500.000000000015 543500.00000000012 486000.00000000006 306000.00000000006 34950.000000000007 150483.33333333337 20500.000000000004 35500.000000000007 121500.00000000001 187060.43956043958 115593.4065934066 179500.00000000003 104500.00000000001 129616.66666666667 141604.39560439563 130500.00000000001
decision_type=2 2 2 2 8 8 2 10 2 8 2 10 10 10 8 10 10 8 8 10 10 8 10 2 2 10 10 8 2 10
left_child=2 3 6 19 15 11 -1 21 18 10 -7 12 -5 14 -13 16 17 -3 -4 24 -10 -6 -14 -11 -2 -26 -27 28 -15 -28
right_child=1 4 8 5 7 9 -8 -9 20 23 -12 13 22 27 -16 -17 -18 -19 -20 -21 -22 -23 -24 -25 25 26 29 -29 -30 -31
leaf_value=-694.45155776954562 646.79389171934304 2050.2109642722389 2379.5756904424625 -3996.7729618467138 4643.9866338315214 9653.2661584924772 -317.0234636738063 16214.144786658653 602.62122214870328 2037.0013408118446 3349.8061566065226 8689.5087704865837 -1625.1262367466518 1786.4061140458978 2675.0985089851147 110.0627738620924 10075.162575912476 6276.5155978116127 -81.297436729948288 -4077.322709517046 143.83038426410081 11042.303125610351 3075.1683329953989 3153.8782690184212 1322.3243733659576 1560.2972659549198 -471.3253490306713 1105.1640634566184 5711.8979758522728 -6284.3355931599945
leaf_weight=20008 10980 66 86 58 23 27 23058 26 2880 1301 63 23 35 134 165 23 32 110 21569 22 14505 25 59 547 1659 37 27 1814 44 24
leaf_count=20008 10980 66 86 58 23 27 23058 26 2880 1301 63 23 35 134 165 23 32 110 21569 22 14505 25 59 547 1659 37 27 1814 44 24
internal_value=0 1092.79 -230.575 997.501 6410.18 1844.6 -492.372 10870.8 58.221 2501.02 5240.84 1299.08 -705.64 1438.86 3410.9 4981.24 5519.88 4691.65 -71.5244 713.783 219.834 7976.44 1325.06 2367.59 722.064 1195.14 -1202.49 1252.75 2756.75 -3206.86
internal_weight=0 17324 82106 17019 305 4270 43066 74 39040 1938 90 2332 152 2180 188 231 208 176 21655 12749 17385 48 94 1848 12727 1747 88 1992 178 51
internal_count=99430 17324 82106 17019 305 4270 43066 74 39040 1938 90 2332 152 2180 188 231 208 176 21655 12749 17385 48 94 1848 12727 1747 88 1992 178 51
is_linear=0
shrinkage=0.1


Tree=18
num_leaves=31
num_cat=0
split_feature=39 39 39 39 14 39 39 28 1 14 34 40 23 19 14 6 12 6 6 40 40 39 41 40 35 40 29 14 9 35
split_gain=2.04421e+12 6.54844e+11 6.38588e+11 2.52805e+11 1.57467e+11 1.41805e+11 1.03544e+11 9.95056e+10 9.24646e+10 9.0209e+10 6.06068e+10 5.85711e+10 5.82951e+10 6.6757e+10 5.38514e+10 5.38017e+10 5.00879e+10 4.79477e+10 4.58764e+10 8.33502e+10 4.24364e+10 3.99171e+10 3.86663e+10 3.74469e+10 4.05817e+10 5.34486e+10 3.69473e+10 3.88482e+10 3.55834e+10 6.88585e+10
threshold=89961.538461538483 252285.71428571432 47291.208791208795 145791.20879120883 672500.00000000012 26681.318681318684 68505.494505494527 295500.00000000006 590500.00000000012 1.0000000180025095e-35 467000.00000000006 97650.000000000015 532500.00000000012 512500.00000000006 474500.00000000006 4.5000000000000009 172500.00000000003 4.5000000000000009 2.5000000000000004 84916.666666666672 50516.666666666679 128813.18681318681 77642.857142857145 47450.000000000007 75500.000000000015 33916.666666666679 171500.00000000003 199500.00000000003 29500.000000000004 126500.00000000001
decision_type=2 2 2 2 8 2 2 10 2 8 10 10 10 10 10 2 10 2 2 8 10 2 10 10 10 8 10 10 10 10
left_child=2 3 5 15 12 -1 22 9 -6 16 -10 -8 13 14 -3 18 -5 -11 21 -20 -7 28 23 24 -4 -26 27 -21 29 -2
right_child=1 4 6 7 8 20 11 -9 10 17 -12 -13 -14 -15 -16 -17 -18 -19 19 26 -22 -23 -24 -25 25 -27 -28 -29 -30 -31
leaf_value=-659.61123333297019 1199.6479058901468 3549.8736464843751 117.73117529209085 613.67303136189776 5734.0067497253422 -282.61123445151776 377.72521239314119 8684.1899702592327 16491.095334694601 2301.4598243654304 8885.0509008789068 -2655.4250135183338 -294.12689580502717 9971.8094482421875 7957.6765359317551 490.18864831312351 -6073.7264694940477 1313.2986339288764 7740.0674642944332 1278.2014645577528 -1436.8439139822256 1519.4563746362305 -1108.6123529936137 -92.622888881779744 6405.9569006347665 990.09702007758915 -588.42285969073953 3962.6347212982178 588.58799283145629 7402.2337857333105
leaf_weight=16592 96 150 13957 24 32 29568 12136 22 22 1679 20 64 23 24 34 2898 21 694 20 2719 322 625 304 13696 20 205 104 55 3282 22
leaf_count=16592 96 150 13957 24 32 29568 12136 22 22 1679 20 64 23 24 34 2898 21 694 20 2719 322 625 304 13696 20 205 104 55 3282 22
internal_value=0 1192.14 -172.458 1078.28 5769.16 -425.179 118.439 1989.27 9783.69 1928.35 12869.2 361.814 4483.12 5011.37 4364.36 851.947 -2507.11 2012.47 1003.38 1306.76 -295.046 784.949 13.0822 25.3139 139.209 1471.51 1262.05 1331.43 649.93 2356.06
internal_weight=0 12566 86864 12261 305 46482 40382 2440 74 2418 42 12200 231 208 184 9821 45 2373 6923 2898 29890 4025 28182 27878 14182 225 2878 2774 3400 118
internal_count=99430 12566 86864 12261 305 46482 40382 2440 74 2418 42 12200 231 208 184 9821 45 2373 6923 2898 29890 4025 28182 27878 14182 225 2878 2774 3400 118
is_linear=0
shrinkage=0.1


Tree=19
num_leaves=31
num_cat=0
split_feature=14 13 14 13 21 14 21 41 14 26 21 12 35 23 28 8 42 18 13 28 9 8 8 9 40 17 14 20 8 0
split_gain=1.24454e+12 5.43313e+11 3.27772e+11 2.30112e+11 1.00632e+11 8.47169e+10 8.2922e+10 8.07883e+10 7.67181e+10 7.41202e+10 7.25239e+10 6.60087e+10 6.17657e+10 7.8322e+10 5.65965e+10 5.18963e+10 5.01976e+10 6.6553e+10 5.96779e+10 4.79425e+10 4.75201e+10 4.64687e+10 4.63614e+10 4.59946e+10 6.03681e+10 5.72197e+10 5.16031e+10 4.54521e+10 4.23567e+10 3.75078e+10
threshold=83500.000000000015 400000.00000000006 48500.000000000007 144500.00000000003 24500.000000000004 185500.00000000003 87500.000000000015 1.0000000180025095e-35 788000.00000000012 68500.000000000015 84500.000000000015 281500.00000000006 457500.00000000006 479500.00000000006 94500.000000000015 -8499.9999999999982 95166.666666666672 12500.000000000002 97500.000000000015 43500.000000000007 110500.00000000001 -67499.999999999985 180500.00000000003 39500.000000000007 70950.000000000015 74500.000000000015 67500.000000000015 182500.00000000003 170500.00000000003 406799.50000000006
decision_type=10 10 8 10 8 10 8 8 10 8 10 10 10 10 8 10 10 10 10 10 10 10 8 8 10 10 8 10 10 2
left_child=2 3 4 6 7 28 22 14 12 -7 -6 23 13 -3 -1 -14 18 -18 -9 -19 -11 -12 -2 24 -4 -26 -25 -23 -5 -22
right_child=1 8 11 5 10 9 -8 16 -10 20 21 -13 15 -15 -16 -17 17 19 -20 -21 29 27 -24 26 25 -27 -28 -29 -30 -31
leaf_value=966.39609754723119 278.3592269779258 6557.0787027994802 -249.12542101129267 1277.1508690847447 -271.56098357018374 8388.8803253173828 760.82938025913575 -610.55542325786462 11578.340934507309 -971.52304673628373 2038.2391919978713 5655.0238164992561 5506.358217985734 -1127.4690080915179 6677.6668249511713 12471.396857910157 295.56304483616606 -6378.5414164225258 1208.3164682690565 -978.07521289062504 4209.1816028103967 110.40391346998459 -1554.8497373140776 -22.213143350219855 7202.3158068847661 924.8933997352168 221.36724737531765 4371.9745539738578 -1647.437356148514 2161.2802496603599
leaf_weight=131 3909 36 5759 1708 28970 20 8752 12642 31 44 189 21 23 21 20 20 47 48 183 25 101 669 143 18807 20 53 16180 26 51 781
leaf_count=131 3909 36 5759 1708 28970 20 8752 12642 31 44 189 21 23 21 20 20 47 48 183 25 101 669 143 18807 20 53 16180 26 51 781
internal_value=0 818.887 -152.851 764.718 -345.715 1602.76 587.671 -576.825 7231.91 2365.88 -244.335 49.9772 5884.52 3725.93 1722.86 8745.91 -603.65 -2639.42 -584.602 -4529.07 2235.79 647.917 213.663 47.0936 -212.903 2644.74 90.4324 269.83 1192.36 2395.79
internal_weight=0 15640 83790 15509 42950 2705 12804 13096 131 946 29854 40840 100 57 151 43 12945 120 12825 73 926 884 4052 40819 5832 73 34987 695 1759 882
internal_count=99430 15640 83790 15509 42950 2705 12804 13096 131 946 29854 40840 100 57 151 43 12945 120 12825 73 926 884 4052 40819 5832 73 34987 695 1759 882
is_linear=0
shrinkage=0.1


Tree=20
num_leaves=31
num_cat=0
split_feature=39 39 20 39 23 35 39 39 4 39 24 41 33 41 42 40 20 8 13 40 30 42 8 7 17 39 7 22 30 28
split_gain=1.39923e+12 5.04185e+11 3.62616e+11 3.2459e+11 2.20296e+11 8.59251e+10 8.48146e+10 8.46767e+10 1.3755e+11 7.39747e+10 5.93773e+10 1.12985e+11 5.81977e+10 4.92309e+10 4.8598e+10 4.70955e+10 4.82249e+10 1.01786e+11 4.65813e+10 4.41207e+10 4.34723e+10 4.17363e+10 4.33434e+10 4.10009e+10 5.77156e+10 4.07138e+10 3.99198e+10 5.21262e+10 4.5227e+10 3.74281e+10
threshold=74642.857142857145 145791.20879120883 373000.00000000006 33697.802197802208 192500.00000000003 59500.000000000007 51142.857142857152 200807.69230769234 55.937786545000009 115593.4065934066 126500.00000000001 179642.85714285719 546500.00000000012 16500.000000000004 58166.666666666679 70183.333333333358 36500.000000000007 -19499.999999999996 8500.0000000000018 52983.333333333336 122500.00000000001 146500.00000000003 -147499.99999999997 105500.00000000001 590500.00000000012 10005.494505494507 -70499.999999999985 92500.000000000015 174500.00000000003 90500.000000000015
decision_type=2 2 10 2 10 8 2 2 2 2 10 10 8 8 8 8 10 10 10 10 10 8 8 10 10 2 8 10 10 8
left_child=3 9 5 25 -4 -3 13 14 21 15 -11 18 -6 -5 -7 16 17 -2 20 -8 -12 -9 -23 24 -14 -1 27 -16 -28 -17
right_child=1 2 4 6 12 7 19 8 -10 10 11 -13 23 -15 26 29 -18 -19 -20 -21 -22 22 -24 -25 -26 -27 28 -29 -30 -31
leaf_value=-831.78622993456747 8961.8695443960351 -2859.8198236083986 15527.861203125001 1412.4606936202767 2514.4158945719405 6323.6464890252973 187.27570639843984 7089.074580078126 10392.019063313803 1282.4841285230286 6763.1042533542804 -4720.1690024771342 9084.8706566220244 -190.4168619016065 -4554.2283654530847 186.56594970352251 1048.5520708093691 477.61245924426669 487.3064912616241 -67.858143997719012 1133.9835452809054 5899.3260927142519 2128.2954100529951 10879.016928710938 1670.8838611421133 -441.67906047633215 1879.1580419373081 866.55019122852991 811.61980297317928 534.08663918111904
leaf_weight=3050 26 40 25 193 48 21 14878 20 24 2143 23 41 21 26769 24 4732 199 31 1358 12450 34 33 399 20 21 21777 1432 68 549 8981
leaf_count=3050 26 40 25 193 48 21 14878 20 24 2143 23 41 21 26769 24 4732 199 31 1358 12450 34 33 399 20 21 21777 1432 68 549 8981
internal_value=0 740.344 2000.71 -190.081 7054.37 1739.32 -53.1076 1810.9 3014.83 543.411 947.681 454.905 5128.57 -178.943 1537.23 439.254 1783.11 4347.62 604.854 71.0427 3405.38 2623.12 2416.36 7152.44 5377.88 -489.604 1488.74 -547.566 1583.31 414.166
internal_weight=0 20313 2745 79117 135 2610 54290 2570 476 17568 3599 1456 110 26962 2094 13969 256 57 1415 27328 57 452 432 62 42 24827 2073 92 1981 13713
internal_count=99430 20313 2745 79117 135 2610 54290 2570 476 17568 3599 1456 110 26962 2094 13969 256 57 1415 27328 57 452 432 62 42 24827 2073 92 1981 13713
is_linear=0
shrinkage=0.1


Tree=21
num_leaves=31
num_cat=0
split_feature=15 21 15 27 21 20 38 35 21 22 8 22 12 27 42 28 6 42 42 13 6 8 22 35 22 5 12 17 40 42
split_gain=8.10285e+11 3.03616e+11 2.83337e+11 1.27322e+11 1.16774e+11 1.13645e+11 7.90282e+10 7.42074e+10 6.8705e+10 5.85468e+10 5.69918e+10 5.58769e+10 5.3802e+10 4.94328e+10 4.9822e+10 4.69765e+10 4.42055e+10 4.56298e+10 4.06659e+10 5.38856e+10 3.84123e+10 3.27892e+10 3.45687e+10 3.16585e+10 4.96659e+10 3.04316e+10 2.87993e+10 2.8737e+10 3.06833e+10 2.7208e+10
threshold=89500.000000000015 264500.00000000006 42500.000000000007 202500.00000000003 127500.00000000001 292500.00000000006 172500.00000000003 16500.000000000004 57500.000000000007 532500.00000000012 190500.00000000003 800500.00000000012 281500.00000000006 75500.000000000015 141166.66666666672 91500.000000000015 4.5000000000000009 220833.33333333334 29500.000000000004 98500.000000000015 2.5000000000000004 143500.00000000003 139500.00000000003 176500.00000000003 60500.000000000007 17.500000000000004 7500.0000000000009 276500.00000000006 90083.333333333358 31166.666666666668
decision_type=10 10 8 10 10 10 8 8 8 10 10 10 10 8 10 10 2 10 8 10 2 10 10 10 10 2 10 10 10 10
left_child=2 4 5 8 13 7 -3 10 -4 20 -1 -11 18 14 -2 21 17 -15 19 -10 25 22 -9 27 -25 -8 -24 28 -6 -17
right_child=1 6 3 -5 23 -7 9 15 12 11 -12 -13 -14 16 -16 29 -18 -19 -20 -21 -22 -23 26 24 -26 -27 -28 -29 -30 -31
leaf_value=-617.42388631759843 74.859571815029867 248.10710623604911 -124.78137515972571 5900.779685685442 1420.6525560444693 6693.917268172554 4842.1675302358772 -280.56431530847658 -418.69375594320019 12125.525755615236 -3688.8747143604724 5094.9075026292076 4663.8713782677287 719.39382818714193 -3196.8293024698896 2457.8359954627786 220.4990980482778 4109.3942572021488 138.78141405156984 4561.7776596069334 5368.7576543172208 -1403.2735699580267 4675.9253378906251 6684.1394323730465 1626.5997600261155 402.25896317331416 407.75699725483742 -2172.38200705392 746.43574946382682 382.95825071268769
leaf_weight=6270 1536 42 18085 37 1220 23 26 27277 1729 20 61 26 26 5391 48 74 2290 40 32067 22 96 260 25 20 666 38 43 28 1511 433
leaf_count=6270 1536 42 18085 37 1220 23 26 27277 1729 20 61 26 26 5391 48 74 2290 40 32067 22 96 260 25 20 666 38 43 28 1511 433
internal_value=0 736.138 -110.703 36.7482 668.733 -333.023 4201.54 -337.716 32.5701 5007.58 -647.018 8151.7 116.653 484.59 -24.2825 -268.059 588.987 744.362 113.157 -356.118 4103.64 -285.578 -274.95 1166.11 1774.05 2205.97 1976.94 1014.95 1047.62 685.8
internal_weight=0 12998 86432 51966 12750 34466 248 34443 51929 206 6331 46 33844 9305 1584 28112 7721 5431 33818 1751 160 27605 27345 3445 686 64 68 2759 2731 507
internal_count=99430 12998 86432 51966 12750 34466 248 34443 51929 206 6331 46 33844 9305 1584 28112 7721 5431 33818 1751 160 27605 27345 3445 686 64 68 2759 2731 507
is_linear=0
shrinkage=0.1


Tree=22
num_leaves=31
num_cat=0
split_feature=39 39 39 28 1 42 21 14 27 42 1 14 28 35 11 6 39 41 42 14 42 27 1 13 19 21 8 1 28 8
split_gain=9.75715e+11 3.81003e+11 2.00485e+11 1.771e+11 1.68292e+11 1.06256e+11 9.80449e+10 6.50462e+10 6.71184e+10 1.15689e+11 6.09014e+10 6.19887e+10 9.52986e+10 5.47595e+10 5.22043e+10 4.92249e+10 4.21745e+10 4.06548e+10 4.05331e+10 3.84684e+10 4.51124e+10 3.80515e+10 3.72845e+10 3.93166e+10 3.41963e+10 3.27549e+10 3.22585e+10 3.22525e+10 5.97263e+10 6.30442e+10
threshold=69961.538461538483 145791.20879120883 33697.802197802208 315500.00000000006 590500.00000000012 58166.666666666679 30500.000000000004 104500.00000000001 200500.00000000003 93500.000000000015 240500.00000000003 672500.00000000012 543500.00000000012 97500.000000000015 427000.00000000006 2.5000000000000004 51351.648351648357 16500.000000000004 87166.666666666672 158500.00000000003 133833.33333333334 170500.00000000003 187500.00000000003 45500.000000000007 26500.000000000004 280500.00000000006 167500.00000000003 1.0000000180025095e-35 87500.000000000015 -20499.999999999996
decision_type=2 2 2 10 2 8 8 8 10 10 2 10 10 10 10 2 2 8 10 8 10 8 2 10 8 10 10 2 10 10
left_child=2 7 -1 4 5 -3 13 8 22 -10 -5 12 15 -7 19 -12 17 24 -18 20 21 -8 27 -24 -4 -21 -19 28 -2 -30
right_child=1 3 16 10 -6 6 14 -9 9 -11 11 -13 -14 -15 -16 -17 18 26 -20 25 -22 -23 23 -25 -26 -27 -28 -29 29 -31
leaf_value=-408.09130290936594 332.34502807099943 7423.6331627155178 2183.3939698859826 9587.3026386718757 9996.6528447690216 -5221.9395193917408 4223.4339076450897 642.58228472154633 7560.9539981617654 -468.42504682038964 1580.3413355334053 8069.6443981933598 -3069.194047619048 1144.8704922762786 5442.9881927490242 7082.900695470862 51.62503485346781 -147.49197219244348 -1090.3767977420869 1553.5916142299413 410.73609252654927 507.85221632354114 -5102.3845865885414 -590.92327968713005 -705.88561277227893 4101.4506215022166 -1494.3844726221523 248.71816225626014 5689.3972814941408 1214.3760639863856
leaf_weight=24827 295 29 134 25 23 35 63 7854 34 38 29 30 21 22 32 37 23292 26956 315 1701 597 49 24 99 59 52 179 12444 50 85
leaf_count=24827 295 29 134 25 23 35 63 7854 34 38 29 30 21 22 32 37 23292 26956 315 1701 597 49 24 99 59 52 179 12444 50 85
internal_value=0 560.464 -175.089 1668.17 1480.56 1404.65 1336.22 415.138 278.453 3323.23 5107.16 4149.86 2798.21 -2764.57 1429.94 4665.11 -61.5172 -146.09 36.3867 1377.78 756.235 2597.87 261.585 -1471.21 1300.14 1629.17 -156.377 278.141 1129.61 2871.79
internal_weight=0 23668 75762 2745 2603 2580 2551 20923 13069 72 142 117 87 57 2494 66 50935 27328 23607 2462 709 112 12997 123 193 1753 27135 12874 430 135
internal_count=99430 23668 75762 2745 2603 2580 2551 20923 13069 72 142 117 87 57 2494 66 50935 27328 23607 2462 709 112 12997 123 193 1753 27135 12874 430 135
is_linear=0
shrinkage=0.1


Tree=23
num_leaves=31
num_cat=0
split_feature=39 20 39 39 23 10 14 39 30 9 14 41 40 31 39 21 40 21 9 40 20 28 40 1 10 19 24 41 21 29
split_gain=8.01862e+11 2.61469e+11 2.45496e+11 1.36122e+11 1.13084e+11 8.01233e+10 7.62221e+10 6.57378e+10 5.871e+10 5.20631e+10 5.14515e+10 5.11375e+10 4.91486e+10 4.82486e+10 4.6819e+10 4.58176e+10 4.56313e+10 4.38018e+10 5.07695e+10 4.52187e+10 7.67181e+10 4.33055e+10 4.23657e+10 3.73942e+10 3.49126e+10 4.17588e+10 3.41631e+10 6.76112e+10 4.20081e+10 3.22554e+10
threshold=89961.538461538483 373000.00000000006 41401.098901098907 158895.60439560443 17500.000000000004 148500.00000000003 152500.00000000003 62945.054945054952 171500.00000000003 24500.000000000004 116500.00000000001 55928.571428571435 97650.000000000015 311500.00000000006 14049.450549450552 243500.00000000003 73083.333333333358 73500.000000000015 151500.00000000003 90083.333333333358 104500.00000000001 133500.00000000003 44283.333333333336 84500.000000000015 459500.00000000006 796500.00000000012 126500.00000000001 179642.85714285719 155500.00000000003 222500.00000000003
decision_type=2 10 2 2 10 10 8 2 8 10 8 8 10 8 2 8 10 8 10 8 10 10 10 2 10 10 10 10 10 10
left_child=2 3 14 10 -3 8 21 16 -5 -10 11 23 -9 -6 -1 -8 -4 18 -13 20 -19 -7 -16 -2 -15 -26 28 -28 -12 -21
right_child=1 4 7 5 13 6 15 12 9 -11 26 17 -14 24 22 -17 -18 19 -20 29 -22 -23 -24 -25 25 -27 27 -29 -30 -31
leaf_value=-540.14418599837711 6819.8978294735862 11604.159766179866 -46.963453258739406 5781.8936239858776 -678.60848632812508 -3081.7423395524947 1083.7447430396132 195.40162736563411 5396.642035060976 1334.8034121603862 879.18423963642681 -283.2820821390788 -2580.7081802368166 7774.1811193395542 -242.03082645355005 2350.1243919932472 -3100.8570729781172 1194.9012051088591 -3949.5927725655692 340.81821446246266 7544.1430772261192 472.54684812412711 -1641.4477182510798 852.18733258928569 5239.3478266501916 148.01296183268229 532.53151850624886 -3316.3068993101729 2220.7662633805048 3744.3324209485736
leaf_weight=7076 21 22 33196 65 20 57 898 17992 41 137 3162 375 64 27 28269 419 49 141 42 5031 22 86 218 21 49 24 1579 47 252 28
leaf_count=7076 21 22 33196 65 20 57 898 17992 41 137 3162 375 64 27 28269 419 49 141 42 5031 22 86 218 21 49 24 1579 47 252 28
internal_value=0 746.642 -108.011 697.875 5013.4 1528.38 1248.55 31.9596 3209.69 2270.4 565.951 359.611 185.562 3805.09 -309.925 1486.64 -51.4646 333.718 -652.551 412.476 2051.85 -944.198 -252.74 3836.04 4701.83 3565.48 798.535 421.28 978.211 359.656
internal_weight=0 12566 86864 12424 142 1703 1460 51301 243 178 10721 5681 18056 120 35563 1317 33245 5639 417 5222 163 143 28487 42 100 73 5040 1626 3414 5059
internal_count=99430 12566 86864 12424 142 1703 1460 51301 243 178 10721 5681 18056 120 35563 1317 33245 5639 417 5222 163 143 28487 42 100 73 5040 1626 3414 5059
is_linear=0
shrinkage=0.1


Tree=24
num_leaves=31
num_cat=0
split_feature=39 39 20 14 25 27 34 1 39 4 17 21 41 10 39 25 25 37 39 35 21 2 0 14 0 7 14 37 16 15
split_gain=6.51068e+11 2.10575e+11 2.09275e+11 1.10403e+11 7.59633e+10 8.39291e+10 6.42441e+10 6.15559e+10 5.71937e+10 4.99182e+10 4.9216e+10 4.44524e+10 4.22263e+10 3.87362e+10 3.85046e+10 8.08484e+10 3.75347e+10 3.74421e+10 4.15694e+10 3.61524e+10 3.50538e+10 4.01988e+10 3.87402e+10 3.45097e+10 3.36936e+10 3.05264e+10 2.94161e+10 3.32409e+10 3.13017e+10 2.80926e+10
threshold=91686.81318681319 47818.681318681323 373000.00000000006 157500.00000000003 103500.00000000001 392000.00000000006 448500.00000000006 227500.00000000003 20576.923076923082 55.937786545000009 243500.00000000003 69500.000000000015 41928.571428571435 311500.00000000006 126521.97802197804 170500.00000000003 38500.000000000007 67500.000000000015 93934.065934065948 170500.00000000003 85500.000000000015 624500.00000000012 669269.50000000012 92500.000000000015 683753.00000000012 -64499.999999999993 78500.000000000015 124500.00000000001 78500.000000000015 191500.00000000003
decision_type=2 2 10 8 10 10 10 2 2 2 10 8 8 10 2 10 8 8 2 10 8 2 2 10 2 8 10 10 10 10
left_child=1 8 3 10 -4 -6 -7 13 -1 24 12 -3 -2 14 15 -5 -16 18 -14 -20 21 26 -23 -12 25 -9 27 28 -19 -28
right_child=2 11 4 7 5 6 -8 9 -10 -11 23 -13 17 -15 16 -17 -18 20 19 -21 -22 22 -24 -25 -26 -27 29 -29 -30 -31
leaf_value=-423.27530628220995 4957.409622047061 -29.842588256284291 9178.9869349888395 713.58468216743051 -2516.5788586425783 9082.104032389323 3086.5968266950335 -1057.2305738294447 -172.25755703338612 5849.568541124132 -4625.9737379964199 180.01633615236568 5985.8747814360122 -2432.4807668974909 5126.1582290039069 -3531.1317416251973 1226.0676212274784 3300.0205657196043 739.97303600424141 4506.9338594563806 505.87463303488943 -220.6952621631408 -2607.7979214754973 -505.17471730065728 5097.552578636908 1990.505525404742 509.36330587618022 -4315.2509271240233 -1123.0477329444886 4340.3148364257813
leaf_weight=12261 21 20478 28 991 20 24 70 37 34953 36 30 19904 21 33 25 47 1907 20 169 30 7078 178 110 63 31 294 446 25 80 20
leaf_count=12261 21 20478 28 991 20 24 70 37 34953 36 30 19904 21 33 25 47 1907 20 169 30 7078 178 110 63 31 294 446 25 80 20
internal_value=0 -94.0542 696.195 649.851 4512.06 3365.8 4617.36 1129.64 -237.444 2298.24 453.041 73.5954 478.991 974.756 1012.61 521.387 1276.53 467.49 1754.39 1307.86 431.909 -163.69 -1132.44 -1834.46 1945.07 1649.82 308.389 -1053.8 -238.434 673.782
internal_weight=0 87596 11834 11692 142 114 94 3401 47214 398 8291 40382 8198 3003 2970 1038 1932 8177 220 199 7957 879 288 93 362 331 591 125 100 466
internal_count=99430 87596 11834 11692 142 114 94 3401 47214 398 8291 40382 8198 3003 2970 1038 1932 8177 220 199 7957 879 288 93 362 331 591 125 100 466
is_linear=0
shrinkage=0.1


Tree=25
num_leaves=31
num_cat=0
split_feature=39 39 20 23 39 9 2 32 27 28 25 24 13 35 10 9 13 7 1 29 36 8 14 9 39 22 34 3 26 8
split_gain=5.33927e+11 2.06931e+11 1.4378e+11 1.51871e+11 1.13217e+11 5.33031e+10 5.41018e+10 4.89843e+10 4.87698e+10 4.26941e+10 4.09825e+10 5.56272e+10 5.89552e+10 4.05084e+10 3.87907e+10 4.61368e+10 3.97213e+10 4.00287e+10 3.51374e+10 3.39806e+10 3.35513e+10 3.3148e+10 5.65887e+10 3.1562e+10 4.08025e+10 3.21486e+10 3.24614e+10 6.91679e+10 3.00188e+10 6.38494e+10
threshold=69961.538461538483 145791.20879120883 373000.00000000006 192500.00000000003 33697.802197802208 641500.00000000012 520500.00000000006 60500.000000000007 561500.00000000012 90500.000000000015 138500.00000000003 7500.0000000000009 139500.00000000003 170500.00000000003 126500.00000000001 2500.0000000000005 276500.00000000006 -44499.999999999993 84500.000000000015 99500.000000000015 728000.00000000012 -19499.999999999996 63500.000000000007 96500.000000000015 122829.67032967033 119500.00000000001 121500.00000000001 37.911116275000005 57500.000000000007 -57499.999999999993
decision_type=2 2 10 10 2 8 2 8 10 8 8 10 10 10 8 10 10 10 2 10 10 10 10 10 2 10 10 2 8 10
left_child=4 9 5 -4 -1 7 -7 19 13 10 11 12 21 -5 15 -9 -16 -18 -17 -3 -10 22 -2 24 25 26 -13 -28 29 -11
right_child=1 2 3 8 -6 6 -8 14 20 28 -12 23 -14 -15 16 18 17 -19 -20 -21 -22 -23 -24 -25 -26 -27 27 -29 -30 -31
leaf_value=-304.61620140277608 7113.7356875465039 -5304.6778076171877 11448.706550781251 -2350.4085377086294 -44.173934706727906 1256.3603317260743 7334.5604361074948 6420.0179829915369 8337.4443615141372 3477.6107327286081 -1042.7787962269138 190.62657208098938 5946.604041883681 2848.7970065015429 838.7472190278628 -2193.8669989013674 -428.01008345992477 4070.2924100308805 2202.219012939453 53.28098512846848 2614.4698339843753 215.1272111563847 1273.3457576703422 -346.82480094749673 4714.4285974121094 -1239.2267115574259 703.5994856668176 6633.6634521484375 384.22307958838246 563.50612457676937
leaf_weight=24827 21 20 25 22 50935 32 27 24 21 98 296 4966 27 47 2157 20 27 74 200 29 20 174 79 1283 20 153 109 24 13350 323
leaf_count=24827 21 20 25 22 50935 32 27 24 21 98 296 4966 27 47 2157 20 27 74 200 29 20 174 79 1283 20 153 109 24 13350 323
internal_value=0 414.598 1230.94 4413.17 -129.52 1066.34 4037.91 997.617 2814.18 307.497 109.28 159.019 1488.28 1191.08 1058.94 2256.75 929.505 2867.78 1802.57 -2133.64 5545.75 1048.96 2499.83 97.9805 206.229 189.061 231.918 1773.69 410.442 1241.85
internal_weight=0 23668 2745 135 75762 2610 59 2551 110 20923 7152 6856 301 69 2502 244 2258 101 220 49 41 274 100 6555 5272 5252 5099 133 13771 421
internal_count=99430 23668 2745 135 75762 2610 59 2551 110 20923 7152 6856 301 69 2502 244 2258 101 220 49 41 274 100 6555 5272 5252 5099 133 13771 421
is_linear=0
shrinkage=0.1


Tree=26
num_leaves=31
num_cat=0
split_feature=39 39 20 14 25 27 34 0 11 14 39 42 17 13 40 35 41 14 7 41 37 14 25 40 11 40 36 37 35 13
split_gain=4.39138e+11 1.53266e+11 1.32562e+11 8.97174e+10 5.27775e+10 6.45119e+10 5.1331e+10 4.72861e+10 4.76881e+10 5.85788e+10 4.47434e+10 4.20607e+10 4.11381e+10 4.04966e+10 4.03825e+10 3.77433e+10 3.74948e+10 3.2798e+10 3.22984e+10 3.29879e+10 3.28982e+10 3.20209e+10 3.4799e+10 3.02979e+10 2.95606e+10 2.78661e+10 2.77277e+10 2.7501e+10 3.4257e+10 3.60177e+10
threshold=94730.769230769234 51142.857142857152 373000.00000000006 157500.00000000003 103500.00000000001 392000.00000000006 448500.00000000006 605366.50000000012 373000.00000000006 364000.00000000006 20236.26373626374 31500.000000000004 243500.00000000003 105500.00000000001 108650.00000000001 79500.000000000015 55928.571428571435 92500.000000000015 -149499.99999999997 68214.285714285725 214500.00000000003 243500.00000000003 217500.00000000003 57150.000000000007 532500.00000000012 13050.000000000002 162500.00000000003 121500.00000000001 140500.00000000003 180500.00000000003
decision_type=2 2 10 8 10 10 10 2 10 10 2 8 10 10 10 8 8 10 10 10 10 8 10 10 10 8 10 10 10 10
left_child=1 10 3 12 -4 -6 -7 21 9 -9 -1 13 16 -3 15 18 -2 -14 19 -13 26 22 -5 25 -8 -12 -20 28 -18 -30
right_child=2 11 4 7 5 6 24 8 -10 -11 23 14 17 -15 -16 -17 27 -19 20 -21 -22 -23 -24 -25 -26 -27 -28 -29 29 -31
leaf_value=-354.8762663222073 3571.0557401090055 772.17506409819509 7529.1804157802035 1904.1243827456522 -2473.5316430664061 7771.8670349121094 580.5468274238782 872.47885926599884 5617.5892299107145 -4558.2613964843758 2042.2909917799095 308.05702880859377 -4591.3564575195314 4199.3642637553967 -4312.6224586123517 161.76997383180776 427.4641902692606 -478.00991947234627 -32.929039139211788 -5140.7166171874997 4017.0422314453131 3041.0247243045424 -1548.3310283460116 -1966.2164077716404 4717.6112761466738 -132.58089559656071 -2169.1508848596795 18.370518038859039 1210.8457564147254 5257.6781618754067
leaf_weight=11834 37 372 28 126 20 24 39 2878 21 20 59 20 28 38 21 20871 5287 63 15477 25 20 178 38 90 31 39806 61 1631 263 24
leaf_count=11834 37 372 28 126 20 24 39 2878 21 20 59 20 28 38 21 20871 5287 63 15477 25 20 178 38 90 31 39806 61 1631 263 24
internal_value=0 -73.1166 604.043 563.361 3639.14 2683.7 3780.98 999.75 869.407 835 -184.085 82.6063 369.298 1089.82 71.2908 73.8149 395.848 -1743.66 -43.8362 -2719.04 -36.0985 2112.24 1104.17 -133.5 2412.68 -129.362 -41.3155 379.542 485.224 1549.26
internal_weight=0 88694 10736 10594 142 114 94 3261 2919 2898 51789 36905 7333 410 36495 36474 7242 91 15603 45 15558 342 164 39955 70 39865 15538 7205 5574 287
internal_count=99430 88694 10736 10594 142 114 94 3261 2919 2898 51789 36905 7333 410 36495 36474 7242 91 15603 45 15558 342 164 39955 70 39865 15538 7205 5574 287
is_linear=0
shrinkage=0.1


Tree=27
num_leaves=31
num_cat=0
split_feature=39 39 20 18 39 21 14 0 40 37 35 21 42 14 42 37 25 37 42 2 29 27 16 38 40 1 21 13 21 11
split_gain=3.65948e+11 1.67098e+11 1.0824e+11 7.12816e+10 5.46265e+10 5.42971e+10 5.23476e+10 4.58439e+10 4.28933e+10 4.62558e+10 3.83e+10 3.61906e+10 3.39155e+10 5.57153e+10 5.46596e+10 6.54839e+10 3.37347e+10 3.30168e+10 3.43561e+10 3.04595e+10 2.99232e+10 5.86897e+10 2.95449e+10 2.94835e+10 3.20656e+10 2.68422e+10 2.5748e+10 2.59172e+10 2.54224e+10 4.40925e+10
threshold=120565.93406593408 59532.967032967041 373000.00000000006 240500.00000000003 30857.142857142859 860000.00000000012 245500.00000000003 605366.50000000012 108650.00000000001 113500.00000000001 20500.000000000004 87500.000000000015 16166.66666666667 71500.000000000015 112166.66666666667 88500.000000000015 71500.000000000015 214500.00000000003 93500.000000000015 286500.00000000006 57500.000000000007 200500.00000000003 97500.000000000015 69500.000000000015 27750.000000000004 123500.00000000001 58500.000000000007 141500.00000000003 145500.00000000003 106500.00000000001
decision_type=2 2 10 10 2 8 8 2 8 10 10 8 10 10 10 10 8 10 10 2 8 10 10 10 8 2 10 10 10 10
left_child=1 4 6 -4 -1 10 8 -8 9 25 -5 17 -10 14 -14 26 -9 18 -3 -17 21 28 -15 24 -6 -2 -16 -28 -13 -30
right_child=2 11 3 5 23 -7 7 16 12 -11 -12 20 13 22 15 19 -18 -19 -20 -21 -22 -23 -24 -25 -26 -27 27 -29 29 -31
leaf_value=-265.14509632680546 6399.9039703369144 88.017281114683371 8625.7940068783973 -1514.493907849542 1512.5621943077676 7133.4130638485867 3110.7525173905969 4967.076993075284 4143.989233398438 -408.63084485284213 2845.5412090879499 486.16801627159123 -4468.8127090845355 1407.161774821375 -636.91413111831207 357.37013818359378 987.25564029752138 3608.8330115685094 -440.93924766878291 -3932.1560037262589 245.83572408410021 6402.3420046997071 513.0835365588531 -519.22727045711906 -60.441990514395968 1921.2124278192937 5765.0059082031257 1228.3433380126953 858.34825357709622 6563.1221368408214
leaf_weight=21838 32 14215 23 29 130 21 138 22 26 29 66 320 39 408 33 25 668 26 1344 49 13110 20 3927 1418 41335 23 20 34 42 20
leaf_count=21838 32 14215 23 29 130 21 138 22 26 29 66 320 39 408 33 25 668 26 1344 49 13110 20 3927 1418 41335 23 20 34 42 20
internal_value=0 -46.9209 784.395 3540.15 -136.405 2531.79 714.406 1446.92 583.832 2823.03 1514.58 152.119 542.593 521.945 -1109.9 -296.247 1114.15 48.2755 42.3256 -2482.99 271.895 1121.73 597.232 -70.8439 -55.5103 4527 1563.74 2908.59 845.253 2698.6
internal_weight=0 93818 5612 139 64721 116 5473 828 4645 84 95 29097 4561 4535 200 161 690 15585 15559 74 13512 402 4335 42883 41465 55 87 54 382 62
internal_count=99430 93818 5612 139 64721 116 5473 828 4645 84 95 29097 4561 4535 200 161 690 15585 15559 74 13512 402 4335 42883 41465 55 87 54 382 62
is_linear=0
shrinkage=0.1


Tree=28
num_leaves=31
num_cat=0
split_feature=39 39 39 13 2 16 40 6 6 37 20 40 17 40 6 20 27 6 35 8 29 8 17 39 14 13 40 21 0 25
split_gain=2.98372e+11 1.00611e+11 8.87219e+10 6.57611e+10 5.28487e+10 4.99022e+10 4.43825e+10 4.31536e+10 4.28002e+10 3.92663e+10 9.79916e+10 4.49669e+10 9.89589e+10 3.64115e+10 3.63419e+10 3.98921e+10 3.5677e+10 5.47992e+10 3.95199e+10 3.46143e+10 3.44035e+10 3.14436e+10 3.11745e+10 4.40931e+10 4.01391e+10 3.69729e+10 3.29632e+10 2.99013e+10 2.88716e+10 2.64022e+10
threshold=85637.362637362647 187060.43956043958 38120.87912087913 646000.00000000012 517500.00000000006 532500.00000000012 34250.000000000007 4.5000000000000009 1.5000000000000002 67500.000000000015 198500.00000000003 84916.666666666672 96500.000000000015 43116.666666666679 4.5000000000000009 65500.000000000007 294000.00000000006 1.5000000000000002 144500.00000000003 -147499.99999999997 84500.000000000015 -14499.999999999998 189500.00000000003 135483.51648351652 240500.00000000003 122500.00000000001 157100.00000000003 15500.000000000002 689144.50000000012 130500.00000000001
decision_type=2 2 2 8 2 10 8 2 2 8 10 10 10 10 2 8 10 2 8 10 8 10 10 2 10 10 10 10 2 8
left_child=2 9 13 5 -5 16 -4 8 28 10 11 12 -2 27 15 20 18 -18 -3 -20 -11 -13 23 24 26 -26 -17 -1 -8 -25
right_child=1 3 6 4 -6 -7 7 -9 -10 14 -12 21 -14 -15 -16 22 17 -19 19 -21 -22 -23 -24 29 25 -27 -28 -29 -30 -31
leaf_value=-299.55202481226354 1040.171518910726 -3386.0387377929687 1512.5790041566506 331.43855137416296 4940.6501968028933 -3041.73022984096 -30.702762146639266 -137.6209556932379 145.31212024539408 -2556.5652920193143 7967.2292259579617 1624.9332586814101 9162.5218780517589 -1881.7280879767368 63.99697203182216 399.31096310965887 -474.84909549836198 4586.6814044454832 4503.876016340585 968.76755854329951 -113.47237517676963 -418.47804958446608 -521.73351270448973 2124.7023887758 519.52863595145095 6453.5242454892114 -3101.4807508680556 -103.53152136794684 -535.74071631723325 846.0168970453459
leaf_weight=15050 60 20 195 35 86 28 13686 15792 22834 72 21 127 20 129 3855 7023 31 69 29 617 289 185 305 185 21 21 27 16114 1234 1270
leaf_count=15050 60 20 195 35 86 28 13686 15792 22834 72 21 127 20 129 3855 7023 31 69 29 617 289 185 305 185 21 21 27 16114 1234 1270
internal_value=0 421.013 -71.2763 1435.75 3607.41 1104.8 6.66898 1.18486 59.2455 352.14 1312.16 955.635 3070.76 -205.136 321.8 429.672 1256.37 3017.61 991.924 1127.46 -600.737 413.295 471.694 507.145 404.266 3486.53 385.904 -198.196 -72.4733 1008.6
internal_weight=0 14396 85034 915 121 794 53741 53546 37754 13481 413 392 80 31293 13068 9213 766 100 666 646 361 312 8852 8547 7092 42 7050 31164 14920 1455
internal_count=99430 14396 85034 915 121 794 53741 53546 37754 13481 413 392 80 31293 13068 9213 766 100 666 646 361 312 8852 8547 7092 42 7050 31164 14920 1455
is_linear=0
shrinkage=0.1


Tree=29
num_leaves=31
num_cat=0
split_feature=39 39 18 17 7 14 33 39 41 11 42 27 1 8 8 9 15 3 41 1 18 17 24 42 24 28 28 39 7 8
split_gain=2.49558e+11 1.00356e+11 7.02411e+10 5.60979e+10 5.63423e+10 5.60238e+10 5.34625e+10 4.83008e+10 4.47536e+10 4.70333e+10 4.06839e+10 4.01877e+10 3.9869e+10 3.98459e+10 3.88242e+10 4.43908e+10 3.7926e+10 3.66223e+10 3.61748e+10 3.37482e+10 6.9653e+10 5.12707e+10 3.05601e+10 3.0042e+10 2.99686e+10 3.44559e+10 4.37723e+10 4.45098e+10 2.96761e+10 2.87198e+10
threshold=67950.549450549457 120565.93406593408 582500.00000000012 124500.00000000001 224500.00000000003 672500.00000000012 97500.000000000015 30857.142857142859 105071.42857142859 152500.00000000003 77166.666666666672 215500.00000000003 105500.00000000001 -160499.99999999997 -335499.99999999994 435500.00000000006 15500.000000000002 37.646657880000014 101500.00000000001 1.0000000180025095e-35 53500.000000000007 101500.00000000001 286500.00000000006 59500.000000000007 17500.000000000004 86500.000000000015 110500.00000000001 59373.626373626379 -127499.99999999999 1500.0000000000002
decision_type=2 2 10 10 10 10 8 2 10 10 10 10 2 10 8 10 8 2 10 2 8 10 10 8 8 10 10 2 8 10
left_child=7 16 3 4 6 -4 8 -1 -3 -10 24 18 -13 -14 -8 23 -2 -6 29 20 21 -18 -20 -16 25 -9 27 -27 -21 -5
right_child=1 2 5 11 17 -7 14 10 9 -11 -12 12 13 -15 15 -17 19 -19 22 28 -22 -23 -24 -25 -26 26 -28 -29 -30 -31
leaf_value=-217.10799953175047 -585.18371125732517 6862.6132643479568 92.032414550781255 478.16017089843757 -5532.9729992094499 6799.4037701231064 -2705.9401144845147 242.86205690903699 709.75947308540344 5824.6659633789068 -676.40626364005755 5673.0169350433353 5326.7189656575529 845.52784957461881 4130.6095776367192 5731.5897661590579 7276.9674924577985 372.82140764508927 337.07768236286296 -1508.150268016997 553.84864488168921 1571.4585191514759 -2378.4754202706476 938.54619319361052 -42.754481701747721 1881.6253708257909 274.4215041272052 7457.2638777299362 177.8446465050643 -4447.6202386264149
leaf_weight=21838 651 26 20 20 21 33 28 1732 64 25 986 20 21 360 30 20 28 21 3118 105 476 36 42 1714 49602 41 77 22 18224 29
leaf_count=21838 651 26 20 20 21 33 28 1732 64 25 986 20 21 360 30 20 28 21 3118 105 476 36 42 1714 49602 41 77 22 18224 29
internal_value=0 272.397 645.079 610.535 1042.87 4268.32 1122.66 -92.1408 3212.78 2146.53 -40.1195 377.121 1320.98 1092.52 988.533 1047.18 165.251 -2580.08 259.176 191.141 970.295 4067.62 300.985 993.456 -27.9313 364.837 1873.84 3828.67 168.186 -2437.1
internal_weight=0 25132 5612 5559 1949 53 1907 74298 115 89 52460 3610 401 381 1792 1764 19520 42 3209 18869 540 64 3160 1744 51474 1872 140 63 18329 49
internal_count=99430 25132 5612 5559 1949 53 1907 74298 115 89 52460 3610 401 381 1792 1764 19520 42 3209 18869 540 64 3160 1744 51474 1872 140 63 18329 49
is_linear=0
shrinkage=0.1


Tree=30
num_leaves=31
num_cat=0
split_feature=15 21 40 10 6 21 1 8 24 14 42 11 21 1 1 24 14 2 38 41 28 23 17 1 25 8 0 32 8 5
split_gain=1.55772e+11 7.79104e+10 6.83915e+10 9.98864e+10 5.39652e+10 5.32383e+10 4.58649e+10 4.13068e+10 4.02629e+10 3.94343e+10 3.61871e+10 3.29246e+10 3.35997e+10 3.22583e+10 3.27129e+10 3.13005e+10 3.34558e+10 3.10186e+10 3.08804e+10 3.50607e+10 3.56132e+10 3.07858e+10 2.90334e+10 3.22231e+10 2.86001e+10 2.88051e+10 4.27057e+10 8.10247e+10 2.82076e+10 2.66961e+10
threshold=73500.000000000015 214500.00000000003 132150.00000000003 157500.00000000003 4.5000000000000009 14500.000000000002 448500.00000000006 143500.00000000003 103500.00000000001 197500.00000000003 248333.33333333334 83500.000000000015 297500.00000000006 327500.00000000006 230500.00000000003 2500.0000000000005 158500.00000000003 93500.000000000015 154500.00000000003 1.0000000180025095e-35 91500.000000000015 64500.000000000007 119500.00000000001 72500.000000000015 183500.00000000003 29500.000000000004 605366.50000000012 200500.00000000003 115500.00000000001 6.5000000000000009
decision_type=10 10 10 10 2 8 2 10 10 10 10 10 10 2 2 8 10 2 10 10 8 8 10 2 10 10 2 8 10 2
left_child=2 4 5 -4 15 7 13 18 11 -10 -6 -3 -13 14 22 17 29 -2 19 20 -1 -9 23 -7 25 26 27 -18 -24 -17
right_child=1 8 3 -5 10 6 -8 21 9 -11 -12 12 -14 -15 -16 16 24 -19 -20 -21 -22 -23 28 -25 -26 -27 -28 -29 -30 -31
leaf_value=639.59717580593701 -845.46143156352798 -379.73596591120184 7827.2948126898882 -218.89755291408966 -27.07933604756774 -58.191565606178614 4161.5022367037263 -943.15512720380502 -681.5835582091745 1444.9332327093207 -3696.4733142994069 2590.3768223964807 6674.1202927161912 -4054.8601733398436 1970.2993002809126 683.59562192460805 43.618747558593753 1322.3230792942277 -4009.0241210937502 -284.46091864098338 5095.3836100260414 -3717.4006932939806 -480.13206568342912 164.47109342974045 -99.832375254775542 239.22842517022278 1251.6307678380135 8937.1863130115325 -2564.6952236175539 190.4811242116283
leaf_weight=123 76 23 27 36 5852 62182 26 140 113 382 27 66 29 20 81 1217 20 502 22 8296 21 56 445 7258 264 271 542 21 76 11216
leaf_count=123 76 23 27 36 5852 62182 26 140 113 382 27 66 29 20 81 1217 20 502 22 8296 21 56 445 7258 264 271 542 21 76 11216
internal_value=0 244.692 -64.0255 3229.47 210.669 -66.6605 -37.7613 -300.604 1355.18 959.486 -43.9315 3015.09 3836.99 -39.3197 -38.1731 316.607 285.867 1037.29 -267.361 -257.608 1289.4 -1735.8 -40.4985 -34.9184 809.85 1091.06 1487.03 4598.86 -784.214 238.749
internal_weight=0 20621 78809 63 20008 78746 70088 8658 613 495 5879 118 95 70062 70042 14129 13551 578 8462 8440 144 196 69961 69440 1118 854 583 41 521 12433
internal_count=99430 20621 78809 63 20008 78746 70088 8658 613 495 5879 118 95 70062 70042 14129 13551 578 8462 8440 144 196 69961 69440 1118 854 583 41 521 12433
is_linear=0
shrinkage=0.1


Tree=31
num_leaves=31
num_cat=0
split_feature=39 39 42 14 1 40 39 2 24 16 24 20 41 39 31 13 1 7 11 19 23 8 33 19 41 16 21 40 7 1
split_gain=1.73242e+11 7.72179e+10 4.57834e+10 4.52562e+10 3.98546e+10 3.63272e+10 3.56029e+10 3.33964e+10 4.66987e+10 3.24585e+10 3.14643e+10 4.00075e+10 4.3772e+10 4.37949e+10 3.7981e+10 4.08613e+10 6.21022e+10 3.279e+10 2.92104e+10 5.31653e+10 3.41551e+10 3.55382e+10 2.8363e+10 2.81963e+10 3.46224e+10 3.62112e+10 2.78796e+10 2.8646e+10 2.78427e+10 3.57557e+10
threshold=66076.923076923093 158895.60439560443 133833.33333333334 788000.00000000012 342000.00000000006 73083.333333333358 40428.571428571442 628500.00000000012 303000.00000000006 126500.00000000001 51500.000000000007 286500.00000000006 179642.85714285719 126521.97802197804 62500.000000000007 87500.000000000015 60500.000000000007 174500.00000000003 582500.00000000012 492500.00000000006 479500.00000000006 -153499.99999999997 48500.000000000007 214500.00000000003 40214.285714285717 60500.000000000007 112500.00000000001 69016.666666666672 -70499.999999999985 422500.00000000006
decision_type=2 2 10 10 2 10 2 2 8 10 10 10 10 2 8 10 2 10 10 10 10 8 10 10 10 10 10 8 10 2
left_child=5 4 7 18 10 6 -1 8 9 -3 14 12 23 -14 15 22 -17 -16 19 20 21 -4 -2 24 25 -12 -26 -28 -23 -30
right_child=1 2 3 -5 -6 -7 -8 -9 -10 -11 11 -13 13 -15 17 16 -18 -19 -20 -21 -22 28 -24 -25 26 -27 27 -29 29 -31
leaf_value=-151.76181687537675 3072.6742975725447 7152.8325328480123 3350.941798319715 4412.0878257751465 -3302.1976421934191 -1930.4006590069466 -11.278200428666977 5978.2150730298918 447.42580594468393 2095.8189462725322 335.55121649539836 4020.8946824293871 -4973.4474494485294 223.50011183215724 278.24486975749784 7400.1273574218758 1690.1661996459961 2220.1752945639869 -2425.5983335433466 4473.1402829488125 -3238.8592157778535 -1418.6807599235983 -124.25234454710092 -1334.5927851472079 40.249763117043742 5325.5869685246398 3945.8771462180398 326.86896667208572 589.86881993675252 4652.6726321133701
leaf_weight=34267 35 22 47 32 33 106 38095 23 87 30 33 26 34 31 7294 25 80 88 31 36 23 68 134 135 13383 26 22 3753 1409 22
leaf_count=34267 35 22 47 32 33 106 38095 23 87 30 33 26 34 31 7294 25 80 88 31 36 23 68 134 135 13383 26 22 3753 1409 22
internal_value=0 216.404 843.553 687.674 170.738 -80.514 -77.8042 2448.53 1864.48 4235.32 175.304 101.127 95.2754 -2494.9 344.306 1500.4 3049.68 301.394 614.825 673.55 586.37 643.278 537.833 104.978 116.266 2534.55 107.95 347.96 558.381 652.33
internal_weight=0 26962 1830 1668 25132 72468 72362 162 139 52 25099 17443 17417 65 7656 274 105 7382 1636 1605 1569 1546 169 17352 17217 59 17158 3775 1499 1431
internal_count=99430 26962 1830 1668 25132 72468 72362 162 139 52 25099 17443 17417 65 7656 274 105 7382 1636 1605 1569 1546 169 17352 17217 59 17158 3775 1499 1431
is_linear=0
shrinkage=0.1


Tree=32
num_leaves=31
num_cat=0
split_feature=21 35 42 18 12 35 1 34 24 25 20 30 10 5 15 14 10 15 1 17 18 13 19 8 1 42 12 13 14 20
split_gain=1.13833e+11 5.08457e+10 5.40607e+10 4.92008e+10 4.49974e+10 3.84143e+10 6.6212e+10 3.8068e+10 3.36381e+10 3.20756e+10 3.13891e+10 6.26547e+10 1.25732e+11 3.1056e+10 2.64947e+10 2.29469e+10 5.5042e+10 4.04003e+10 3.94055e+10 2.80443e+10 4.14421e+10 3.4626e+10 5.29324e+10 2.68725e+10 2.46778e+10 4.17899e+10 3.49156e+10 2.40258e+10 2.38736e+10 2.28281e+10
threshold=87500.000000000015 49500.000000000007 106500.00000000001 532500.00000000012 460500.00000000006 184500.00000000003 82500.000000000015 163500.00000000003 634000.00000000012 102500.00000000001 107500.00000000001 1.0000000180025095e-35 97500.000000000015 6.5000000000000009 25500.000000000004 132500.00000000003 279500.00000000006 96500.000000000015 396000.00000000006 92500.000000000015 132500.00000000003 154500.00000000003 80500.000000000015 113500.00000000001 71500.000000000015 72500.000000000015 108500.00000000001 59500.000000000007 65500.000000000007 255500.00000000003
decision_type=10 8 10 10 10 10 2 10 10 10 10 8 10 2 10 10 10 8 2 10 8 10 10 10 2 10 10 10 10 10
left_child=1 2 -1 5 15 9 7 -7 -5 10 -2 12 -12 29 -13 18 17 24 19 28 21 -21 -23 -22 26 27 -17 -26 -3 -8
right_child=3 4 -4 8 -6 6 13 -9 -10 -11 11 14 -14 -15 -16 16 -18 -19 -20 20 23 22 -24 -25 25 -27 -28 -29 -30 -31
leaf_value=-146.84962918415906 259.91365274806878 -19.35664570525595 -2511.9544645014503 6562.4977807617197 3819.3848798198087 2203.6496311094702 1467.8855297313019 7286.5824972401497 1365.1497911857837 44.8774075444258 10095.098843238469 -1703.0602834743925 -722.62067094282679 377.44940059826621 765.65377128267551 211.13078721489001 -3959.5233922887733 1169.2262013957122 4331.7364949544271 -222.25949278780865 -1088.7322578743406 6408.5927770996095 133.51796815453505 -4694.6756121895532 -5354.0013644748269 -29.276326927771937 4654.0856146240239 -1273.7175661148565 138.88121943828136 4955.4817021908966
leaf_weight=26429 4726 44803 97 20 31 41 102 23 33 5253 21 45 22 602 1281 153 27 552 21 2355 341 20 41 22 27 156 20 31 12112 23
leaf_count=26429 4726 44803 97 20 31 41 102 23 33 5253 21 45 22 602 1281 153 27 552 21 2355 341 20 41 22 27 156 20 31 12112 23
internal_value=0 -40 -155.498 286.214 10.4629 272.94 946.733 4030.33 3326.41 225.974 382.054 803.699 4560.45 675.275 681.874 8.51707 492.008 620.008 0.695712 -0.827923 -311.017 -161.331 2190.92 -1307.27 -163.374 -881.357 724.767 -3173.16 14.3177 2109.6
internal_weight=0 87238 26526 12192 60712 12139 791 64 53 11348 6095 1369 43 727 1326 60681 966 939 59715 59694 2779 2416 61 363 387 214 173 58 56915 125
internal_count=99430 87238 26526 12192 60712 12139 791 64 53 11348 6095 1369 43 727 1326 60681 966 939 59715 59694 2779 2416 61 363 387 214 173 58 56915 125
is_linear=0
shrinkage=0.1


end of trees

feature_importances:
mean_income_all=217
mean_income_last_30_days=71
mean_income_last_7_days=59
income_6_day_before=54
income_13_day_before=43
mean_income_last_3_days=39
money_in=38
income_20_day_before=36
income_5_day_before=35
income_1_day_before=27
yesterday_growth_of_income_growth=26
income_12_day_before=25
income_27_day_before=25
income_9_day_before=19
income_19_day_before=19
weekday=17
income_16_day_before=17
income_11_day_before=16
income_29_day_before=15
money=13
income_17_day_before=13
yesterday_income_growth=12
TID=11
income_2_day_before=11
income_3_day_before=11
income_10_day_before=11
latitude=10
income_7_day_before=10
income_15_day_before=10
day=9
income_8_day_before=9
income_26_day_before=9
income_4_day_before=8
income_21_day_before=8
income_14_day_before=6
income_22_day_before=6
income_24_day_before=5
income_30_day_before=5
income_18_day_before=4
longitude=3
income_23_day_before=3
income_25_day_before=3
income_28_day_before=2

parameters:
[boosting: gbdt]
[objective: regression]
[metric: l2]
[tree_learner: serial]
[device_type: cpu]
[data: ]
[valid: ]
[num_iterations: 33]
[learning_rate: 0.1]
[num_leaves: 31]
[num_threads: -1]
[deterministic: 0]
[force_col_wise: 0]
[force_row_wise: 0]
[histogram_pool_size: -1]
[max_depth: -1]
[min_data_in_leaf: 20]
[min_sum_hessian_in_leaf: 0.001]
[bagging_fraction: 0.7]
[pos_bagging_fraction: 1]
[neg_bagging_fraction: 1]
[bagging_freq: 0]
[bagging_seed: 3014]
[feature_fraction: 0.7]
[feature_fraction_bynode: 1]
[feature_fraction_seed: 29554]
[extra_trees: 0]
[extra_seed: 19515]
[early_stopping_round: 0]
[first_metric_only: 0]
[max_delta_step: 0]
[lambda_l1: 0]
[lambda_l2: 0]
[linear_lambda: 0]
[min_gain_to_split: 0]
[drop_rate: 0.1]
[max_drop: 50]
[skip_drop: 0.5]
[xgboost_dart_mode: 0]
[uniform_drop: 0]
[drop_seed: 12050]
[top_rate: 0.2]
[other_rate: 0.1]
[min_data_per_group: 100]
[max_cat_threshold: 32]
[cat_l2: 10]
[cat_smooth: 10]
[max_cat_to_onehot: 4]
[top_k: 20]
[monotone_constraints: ]
[monotone_constraints_method: basic]
[monotone_penalty: 0]
[feature_contri: ]
[forcedsplits_filename: ]
[refit_decay_rate: 0.9]
[cegb_tradeoff: 1]
[cegb_penalty_split: 0]
[cegb_penalty_feature_lazy: ]
[cegb_penalty_feature_coupled: ]
[path_smooth: 0]
[interaction_constraints: ]
[verbosity: -1]
[saved_feature_importance_type: 0]
[linear_tree: 0]
[max_bin: 255]
[max_bin_by_feature: ]
[min_data_in_bin: 3]
[bin_construct_sample_cnt: 200000]
[data_random_seed: 126]
[is_enable_sparse: 1]
[enable_bundle: 1]
[use_missing: 1]
[zero_as_missing: 0]
[feature_pre_filter: 1]
[pre_partition: 0]
[two_round: 0]
[header: 0]
[label_column: ]
[weight_column: ]
[group_column: ]
[ignore_column: ]
[categorical_feature: ]
[forcedbins_filename: ]
[precise_float_parser: 0]
[objective_seed: 25204]
[num_class: 1]
[is_unbalance: 0]
[scale_pos_weight: 1]
[sigmoid: 1]
[boost_from_average: 1]
[reg_sqrt: 0]
[alpha: 0.9]
[fair_c: 1]
[poisson_max_delta_step: 0.7]
[tweedie_variance_power: 1.5]
[lambdarank_truncation_level: 30]
[lambdarank_norm: 1]
[label_gain: ]
[eval_at: ]
[multi_error_top_k: 1]
[auc_mu_weights: ]
[num_machines: 1]
[local_listen_port: 12400]
[time_out: 120]
[machine_list_filename: ]
[machines: ]
[gpu_platform_id: -1]
[gpu_device_id: -1]
[gpu_use_dp: 0]
[num_gpu: 1]

end of parameters

pandas_categorical:[]
