tree
version=v3
num_class=1
num_tree_per_iteration=1
label_index=0
max_feature_idx=42
objective=regression
feature_names=TID money_in money longitude latitude day weekday yesterday_income_growth yesterday_growth_of_income_growth income_1_day_before income_2_day_before income_3_day_before income_4_day_before income_5_day_before income_6_day_before income_7_day_before income_8_day_before income_9_day_before income_10_day_before income_11_day_before income_12_day_before income_13_day_before income_14_day_before income_15_day_before income_16_day_before income_17_day_before income_18_day_before income_19_day_before income_20_day_before income_21_day_before income_22_day_before income_23_day_before income_24_day_before income_25_day_before income_26_day_before income_27_day_before income_28_day_before income_29_day_before income_30_day_before mean_income_all mean_income_last_30_days mean_income_last_7_days mean_income_last_3_days
feature_infos=[406136:699664] [0:2697000] [0:6019000] [35.500558769999998:39.842458970000003] [54.458422939999998:56.757842529999998] [1:31] [0:6] [-2214000:2697000] [-4911000:2697000] [0:2697000] [0:2697000] [0:2697000] [0:2697000] [0:2697000] [0:2697000] [0:2697000] [0:2697000] [0:2697000] [0:2697000] [0:2697000] [0:2697000] [0:2697000] [0:2697000] [0:2697000] [0:2697000] [0:2697000] [0:2697000] [0:2697000] [0:2697000] [0:2697000] [0:2697000] [0:2697000] [0:2697000] [0:2697000] [0:2697000] [0:2697000] [0:2697000] [0:2697000] [0:2697000] [2274.7252747252742:734461.5384615385] [0:843500] [0:917142.85714285716] [0:1247000]
tree_sizes=2849 2882 2878 2882 2880 2844 2890 2847 2891 2868 2861 2891 2876 2854 2837 2859 2878 2884 2851 2875 2850 2849 2852 2857 2832 2867 2852 2852 2845

Tree=0
num_leaves=31
num_cat=0
split_feature=39 39 39 4 39 39 39 16 39 10 39 39 10 39 10 18 39 19 24 23 39 21 10 3 39 11 39 11 11 39
split_gain=8.04035e+13 2.91616e+13 2.34287e+13 8.91628e+12 8.2524e+12 4.85183e+12 3.65743e+12 1.76204e+12 1.75167e+12 1.21777e+12 7.58848e+11 5.84218e+11 5.20234e+11 4.8315e+11 3.70617e+11 3.49026e+11 2.93019e+11 2.81616e+11 2.63204e+11 2.62242e+11 2.22627e+11 2.20811e+11 1.97292e+11 1.96134e+11 1.87954e+11 1.64262e+11 1.46106e+11 1.41311e+11 1.25936e+11 1.11287e+11
threshold=87912.087912087925 252285.71428571432 43005.494505494513 55.950833515000006 141604.39560439563 61302.197802197807 24637.362637362643 400000.00000000006 108791.20879120882 190500.00000000003 70543.956043956059 51142.857142857152 311500.00000000006 32214.285714285721 130500.00000000001 774000.00000000012 14615.384615384619 379000.00000000006 44500.000000000007 292500.00000000006 158895.60439560443 461500.00000000006 95500.000000000015 37.646657880000014 187060.43956043958 81500.000000000015 98329.670329670349 339000.00000000006 97500.000000000015 125153.84615384617
decision_type=2 2 2 2 2 2 2 10 2 10 2 2 10 2 10 10 2 10 8 8 2 8 10 2 2 10 2 8 8 2
left_child=2 4 6 7 8 11 16 12 26 18 -7 -4 19 -8 28 -5 -1 -9 22 -3 -20 -19 -6 -21 -11 -12 -2 -14 -10 -16
right_child=1 3 5 15 9 10 13 17 14 24 25 -13 27 -15 29 -17 -18 21 20 23 -22 -23 -24 -25 -26 -27 -28 -29 -30 -31
leaf_value=52201.246793329316 60525.447752798311 80973.440350293284 55874.294273424195 136027.57170622551 52885.452505096073 57759.823135632265 54030.645098395675 89624.582622495858 61155.511182477865 69819.635507258761 58680.191962368219 56783.783083699571 82221.321755053621 54982.526453914994 63704.669571507766 120880.80446484618 53088.674078808624 111156.32170622548 66115.329254182667 66377.571864916899 68280.590733831938 97761.946706225484 65846.321767260641 79001.321706225484 72956.920791766956 59510.418074808258 61557.205466271276 92243.380529754897 63133.624802477512 65455.412691610341
leaf_weight=7503 3660 59 13542 32 23 9577 8235 23 370 341 6088 14762 24 15128 581 29 7381 20 1068 32 855 32 24 20 434 3916 2196 34 2473 968
leaf_count=7503 3660 59 13542 32 23 9577 8235 23 370 341 6088 14762 24 15128 581 29 7381 20 1068 32 855 32 24 20 434 3916 2196 34 2473 968
internal_value=56829.2 64066.4 55711.9 94630.9 63348.9 57185.9 53866.5 86082 62044.6 68218.4 58396.1 56348.6 80420.9 54647 63554.2 128827 52641.3 98838.3 66897.3 76410.3 67078 102914 59503.8 71232.9 71576.5 59005.2 60912.4 88096.3 62876.2 64798.7
internal_weight=0 13298 86132 305 12993 47885 38247 244 10248 2745 19581 28304 169 23363 4392 61 14884 75 1970 111 1923 52 47 52 775 10004 5856 58 2843 1549
internal_count=99430 13298 86132 305 12993 47885 38247 244 10248 2745 19581 28304 169 23363 4392 61 14884 75 1970 111 1923 52 47 52 775 10004 5856 58 2843 1549
is_linear=0
shrinkage=1


Tree=1
num_leaves=31
num_cat=0
split_feature=39 42 39 39 39 4 39 39 39 42 42 42 42 39 27 9 39 42 0 39 17 17 10 39 17 10 5 42 7 42
split_gain=6.52181e+13 2.46831e+13 1.70699e+13 1.0034e+13 3.50834e+12 3.40917e+12 2.40104e+12 2.15289e+12 1.95436e+12 5.98048e+11 5.91314e+11 5.7424e+11 4.07972e+11 3.88457e+11 3.58025e+11 3.50719e+11 3.1338e+11 2.99976e+11 2.84772e+11 1.92067e+11 1.77321e+11 1.44679e+11 1.31338e+11 1.28434e+11 1.23907e+11 1.23139e+11 1.15877e+11 1.10547e+11 1.06077e+11 9.49615e+10
threshold=82285.714285714304 339833.33333333337 40736.263736263747 141604.39560439563 58016.483516483524 55.950833515000006 23291.208791208792 106637.36263736265 200807.69230769234 71166.666666666672 168500.00000000003 109833.33333333336 127500.00000000001 48895.604395604401 800500.00000000012 401500.00000000006 31346.153846153855 97166.666666666672 608075.50000000012 13796.703296703299 137500.00000000003 173500.00000000003 199500.00000000003 65181.318681318684 304500.00000000006 48500.000000000007 2.5000000000000004 29833.333333333339 83500.000000000015 113500.00000000001
decision_type=2 10 2 2 2 2 2 2 2 10 10 10 8 2 8 10 2 10 2 2 8 10 10 2 10 10 2 8 10 10
left_child=2 3 6 7 13 15 19 17 10 23 20 26 29 -4 -7 -3 -8 -2 24 -1 25 -14 -12 27 -13 -5 -10 -6 -20 -9
right_child=1 5 4 8 9 14 16 12 11 -11 22 18 21 -15 -16 -17 -18 -19 28 -21 -22 -23 -24 -25 -26 -27 -28 -29 -30 -31
leaf_value=-4213.9281894421647 2843.9390319386384 25090.498029119321 -1009.0043479590722 -340.64301171875002 -2531.1923317382816 52878.250078124998 -2604.9099007666282 4627.1268192515654 22923.116875000003 1780.0313732130924 10752.732781707809 18004.231039663464 6835.6402304173334 -261.14233008826722 69407.91348684211 37436.575051398031 -1811.4485527903353 4138.6041818890844 14369.146147629312 -3471.4649924163614 9010.6079928953259 10033.110070166651 13196.581960199788 1050.8966476883882 26119.184801136365 6940.9450891150618 33687.718515625005 465.42412740806179 7385.5115325927736 5779.9766806435755
leaf_weight=6649 5367 33 14396 25 125 20 8296 1428 20 7492 689 130 1745 13420 38 76 12444 2685 232 7320 1072 154 323 5299 22 327 20 8129 24 1430
leaf_count=6649 5367 33 14396 25 125 20 8296 1428 20 7492 689 130 1745 13420 38 76 12444 2685 232 7320 1072 154 323 5299 22 327 20 8129 24 1430
internal_value=0 5878.94 -1115.71 5471.98 88.8556 44121.1 -2811.42 4272.13 10801 1063.04 9684.6 16871.2 5958.84 -648.194 63708 33698.8 -2128.83 3275.65 15750.2 -3824.86 8371.17 7094.94 11532.7 666.696 19178.8 6423.79 28305.4 420.043 13714.4 5203.96
internal_weight=0 15860 83570 15693 48861 167 34709 12809 2884 21045 2436 448 4757 27816 58 109 20740 8052 408 13969 1424 1899 1012 13553 152 352 40 8254 256 2858
internal_count=99430 15860 83570 15693 48861 167 34709 12809 2884 21045 2436 448 4757 27816 58 109 20740 8052 408 13969 1424 1899 1012 13553 152 352 40 8254 256 2858
is_linear=0
shrinkage=0.1


Tree=2
num_leaves=31
num_cat=0
split_feature=39 42 39 39 39 4 39 39 39 42 2 15 42 42 42 39 15 39 42 20 42 42 38 39 17 39 26 17 0 7
split_gain=5.28916e+13 1.95593e+13 1.49357e+13 7.30878e+12 3.10954e+12 2.76143e+12 2.23417e+12 1.69386e+12 1.24532e+12 5.77025e+11 5.62162e+11 4.9015e+11 3.82291e+11 3.25104e+11 2.50587e+11 2.45857e+11 2.37953e+11 2.37563e+11 2.35051e+11 2.02666e+11 1.92281e+11 1.90271e+11 1.67557e+11 1.23461e+11 1.19568e+11 1.11446e+11 1.11009e+11 1.02522e+11 9.89539e+10 9.23821e+10
threshold=86670.32967032968 339833.33333333337 42137.362637362654 149879.12087912092 60115.384615384624 55.950833515000006 25796.703296703297 113109.89010989011 200807.69230769234 75833.333333333358 739000.00000000012 77500.000000000015 53833.333333333336 133833.33333333334 159833.33333333334 34593.406593406602 155500.00000000003 16384.615384615387 98166.666666666672 304500.00000000006 164166.66666666672 45500.000000000007 895000.00000000012 67423.076923076951 176500.00000000003 47291.208791208795 94500.000000000015 90500.000000000015 608075.50000000012 128500.00000000001
decision_type=2 10 2 2 2 2 2 2 2 10 2 8 10 10 8 2 10 2 8 10 8 8 8 2 10 2 8 10 2 10
left_child=2 3 6 7 12 16 17 18 14 23 11 -10 25 21 -5 -8 -3 -1 -2 -12 -13 -9 -7 -6 -15 -4 -26 -11 -22 -17
right_child=1 5 4 8 9 22 15 13 10 27 19 20 -14 24 -16 29 -18 -19 -20 -21 28 -23 -24 -25 26 -27 -28 -29 -30 -31
leaf_value=-3694.473941918131 2781.1398556613822 20472.631513671877 -979.63746991527046 7507.1939476935413 545.9339274944283 50202.805282738096 -2141.7707492770437 -870.02081274892771 29261.809804687498 1774.1811772831672 33287.903554687502 4900.7621882512021 50.693785239730154 6693.0652914018783 10064.755581579477 -1472.1212060293353 32543.784234550563 -2911.3855208529317 3914.6797578259502 19782.382687500001 16118.732306608608 5296.6127655392738 61386.492314189185 1145.3806101174855 15685.380410156251 -488.42459991924488 8443.3085601364346 2773.9911354228766 12608.49250270113 5166.6665788196387
leaf_weight=8845 3716 20 8672 546 7495 21 9943 51 20 4804 20 26 9933 1407 1284 11264 89 6893 3603 25 122 2645 37 6344 25 9882 138 1304 235 21
leaf_count=8845 3716 20 8672 546 7495 21 9943 51 20 4804 20 26 9933 1407 1284 11264 89 6893 3603 25 122 2645 37 6344 25 9882 138 1304 235 21
internal_value=0 5690.3 -934.835 5280.49 220.507 39709 -2448.6 4262.32 10458.5 1178.05 15184.1 14000.3 -449.977 5846.14 9301.68 -1779.21 30328.9 -3351.49 3339.16 25784.8 13203.4 5179.96 57337.2 820.729 6990.1 -718.014 9554.06 1987.63 13808.1 -1459.77
internal_weight=0 14030 85400 13863 48434 167 36966 11585 2278 19947 448 403 28487 4266 1830 21228 109 15738 7319 45 383 2696 58 13839 1570 18554 163 6108 357 11285
internal_count=99430 14030 85400 13863 48434 167 36966 11585 2278 19947 448 403 28487 4266 1830 21228 109 15738 7319 45 383 2696 58 13839 1570 18554 163 6108 357 11285
is_linear=0
shrinkage=0.1


Tree=3
num_leaves=31
num_cat=0
split_feature=39 42 39 39 39 39 10 39 39 42 42 10 42 9 39 42 42 27 39 42 22 17 9 42 39 34 31 24 13 39
split_gain=4.28825e+13 1.56016e+13 1.27114e+13 5.49122e+12 2.40265e+12 2.24319e+12 2.06359e+12 1.30897e+12 8.88283e+11 5.06085e+11 4.56163e+11 4.42754e+11 3.28064e+11 3.17253e+11 3.02168e+11 2.70877e+11 2.64134e+11 2.11561e+11 2.03673e+11 1.90895e+11 1.63293e+11 1.5557e+11 1.41021e+11 1.27017e+11 1.05561e+11 8.87343e+10 8.51107e+10 8.32632e+10 7.7364e+10 7.25623e+10
threshold=89252.747252747271 339833.33333333337 45186.813186813197 154879.12087912092 27620.879120879123 65181.318681318684 594000.00000000012 117791.20879120879 252285.71428571432 123833.33333333336 58166.666666666679 190500.00000000003 75833.333333333358 401500.00000000006 18461.538461538468 38166.666666666679 149166.66666666672 800500.00000000012 102758.24175824177 53833.333333333336 447000.00000000006 137500.00000000003 532500.00000000012 205833.33333333334 52807.692307692312 18500.000000000004 89500.000000000015 120500.00000000001 137500.00000000003 11302.197802197805
decision_type=2 10 2 2 2 2 10 2 2 10 10 10 10 10 2 10 10 8 2 8 8 8 10 10 2 8 10 10 10 2
left_child=2 3 4 7 14 10 13 18 11 -10 24 21 -7 -3 29 -6 19 -8 -2 -9 -11 -5 -15 -13 -4 -18 -14 -21 -17 -1
right_child=1 6 5 8 15 12 17 16 9 20 -12 23 26 22 -16 28 25 -19 -20 27 -22 -23 -24 -25 -26 -27 -28 -29 -30 -31
leaf_value=-3566.8045795152657 2855.2135872297167 19254.251302608369 -602.14414296844268 4961.5245650007928 -1712.8544043623021 962.74135717135619 43142.055234375002 -528.67654566271551 30339.46225 17043.387018694197 417.02172927015931 9944.0646649639439 1735.3541866054527 28503.462260142547 -2403.553672765956 -1057.1246639966328 13800.0046484375 55969.662717013889 3977.2744913919701 4771.003293519303 8829.5560747931995 8443.9080195251645 37779.982744565219 12611.939308273177 -123.32621424556429 7050.7937677498021 2641.9385807581461 5824.8309310994428 5167.7357958984376 -3040.8062808484456
leaf_weight=4331 4392 31 11439 148 12876 8110 20 58 25 84 10257 390 5369 57 6893 11565 20 36 2561 1605 34 963 23 329 7706 749 1283 1407 20 6649
leaf_count=4331 4392 31 11439 148 12876 8110 20 58 25 84 10257 390 5369 57 6893 11565 20 36 2561 1605 34 963 23 329 7706 749 1283 1407 20 6649
internal_value=0 5370.95 -802.992 4973.67 -2041.17 383.88 35738.1 4086.85 9824.45 17414.9 -121.11 9231.31 1389.69 27842.5 -2922.5 -1397.2 5569 51388.4 3268.5 5153.85 14676.7 7980.01 31170.5 11164.8 -409.416 7226.33 1910.21 5263.28 -1046.38 -3248.28
internal_weight=0 12932 86498 12765 42334 44164 167 10792 1973 143 29402 1830 14762 111 17873 24461 3839 56 6953 3070 118 1111 80 719 19145 769 6652 3012 11585 10980
internal_count=99430 12932 86498 12765 42334 44164 167 10792 1973 143 29402 1830 14762 111 17873 24461 3839 56 6953 3070 118 1111 80 719 19145 769 6652 3012 11585 10980
is_linear=0
shrinkage=0.1


Tree=4
num_leaves=31
num_cat=0
split_feature=39 39 39 39 4 39 39 42 42 39 21 0 42 10 26 42 39 42 42 42 10 39 42 24 42 9 10 9 17 9
split_gain=3.48142e+13 1.34974e+13 8.61392e+12 4.95625e+12 4.08753e+12 1.66546e+12 1.24488e+12 1.15664e+12 7.48422e+11 6.5169e+11 3.37638e+11 2.68161e+11 2.65356e+11 2.42765e+11 2.35616e+11 2.32259e+11 1.77204e+11 1.75035e+11 1.70171e+11 1.38374e+11 1.08902e+11 1.01752e+11 9.56079e+10 8.71918e+10 8.42652e+10 7.73325e+10 7.49744e+10 7.28586e+10 7.24922e+10 7.21861e+10
threshold=79587.912087912104 252285.71428571432 40428.571428571442 125153.84615384617 55.950833515000006 56681.318681318691 22428.571428571431 168500.00000000003 339833.33333333337 101494.50549450552 243500.00000000003 676433.00000000012 71166.666666666672 212500.00000000003 967000.00000000012 53833.333333333336 30857.142857142859 47833.333333333336 149166.66666666672 89833.333333333358 392000.00000000006 12170.329670329673 110833.33333333336 92500.000000000015 25166.666666666668 42500.000000000007 297500.00000000006 36500.000000000007 194500.00000000003 149500.00000000003
decision_type=2 2 2 2 2 2 2 10 10 2 8 2 10 10 8 8 2 10 8 10 10 2 8 8 8 8 8 10 10 10
left_child=2 3 6 9 8 17 21 15 10 19 -3 26 24 -9 -6 -5 -8 -4 23 -2 -10 -1 -11 -17 -7 -24 -12 -21 -20 -18
right_child=1 4 5 7 14 12 16 13 20 22 11 -13 -14 -15 -16 18 29 -19 28 27 -22 -23 25 -25 -26 -27 -28 -29 -30 -31
leaf_value=-3163.0418725562395 1794.2599465495755 26391.730820312503 -784.80136388865253 -872.45416538171594 42898.298697916674 -1553.9676703056082 -1940.3547283633352 8088.1572119905068 19314.366672585227 3156.206050981732 12912.358083951272 3983.7214102909488 1212.8186817223454 11026.219291513975 55535.349500000004 2694.917416629276 -1353.357587072639 -272.78340582288064 6385.1721031143643 7989.247419921875 27237.848247397822 -2599.1272623994701 9362.1104561941956 5215.4654579236349 468.41815650120816 4074.1152547214101 18923.767504882813 2573.079456847101 9907.9605185231849 4659.2264355468751
leaf_weight=5185 4587 20 12692 57 36 209 8296 1022 22 1751 59 29 6362 388 25 148 12424 14087 1010 25 82 8357 28 1888 14474 2247 32 3806 62 20
leaf_count=5185 4587 20 12692 57 36 209 8296 1022 22 1751 59 29 6362 388 25 148 12424 14087 1010 25 82 8357 28 1888 14474 2247 32 3806 62 20
internal_value=0 4073.64 -859.52 3699.97 24924.2 7.68775 -2069.29 6514.43 19136 2665.25 14362.5 12357.6 673.369 8896.65 48077.4 5453.15 -1582.36 -515.456 5569.16 2164.78 25561.7 -2815.04 3711.67 5032.24 439.631 4139.2 15026.3 2608.42 6588.92 -1343.69
internal_weight=0 17324 82106 17019 305 47824 34282 4575 244 12444 140 120 21045 1410 61 3165 20740 26779 3108 8418 104 13542 4026 2036 14683 2275 91 3831 1072 12444
internal_count=99430 17324 82106 17019 305 47824 34282 4575 244 12444 140 120 21045 1410 61 3165 20740 26779 3108 8418 104 13542 4026 2036 14683 2275 91 3831 1072 12444
is_linear=0
shrinkage=0.1


Tree=5
num_leaves=31
num_cat=0
split_feature=39 39 39 39 10 39 39 16 10 39 31 1 39 39 27 17 10 39 39 39 24 12 17 10 16 10 31 11 22 11
split_gain=2.8224e+13 1.07175e+13 7.4011e+12 3.6091e+12 2.90345e+12 1.55662e+12 1.01019e+12 8.93359e+11 8.4994e+11 4.93404e+11 3.0319e+11 2.63288e+11 2.36622e+11 2.23301e+11 2.061e+11 1.98212e+11 1.71427e+11 1.68829e+11 1.45137e+11 1.11037e+11 1.05074e+11 1.04665e+11 9.5726e+10 9.46825e+10 8.42083e+10 7.71584e+10 7.31874e+10 8.63875e+10 7.02306e+10 6.9569e+10
threshold=82285.714285714304 252285.71428571432 40428.571428571442 126521.97802197804 594000.00000000012 58989.010989010996 21445.054945054948 400000.00000000006 179500.00000000003 102758.24175824177 607000.00000000012 181500.00000000003 68945.054945054959 51142.857142857152 800500.00000000012 138500.00000000003 323000.00000000006 29983.516483516487 187060.43956043958 154879.12087912092 71500.000000000015 1.0000000180025095e-35 68500.000000000015 136500.00000000003 233500.00000000003 79500.000000000015 89500.000000000015 151500.00000000003 491500.00000000006 449500.00000000006
decision_type=2 2 2 2 10 2 2 10 10 2 8 2 2 2 8 8 8 2 2 2 8 8 10 10 8 8 10 10 10 8
left_child=2 3 6 9 7 13 -1 11 15 25 28 -3 -7 -4 -6 20 24 -8 -10 21 22 -17 -5 -11 -13 -2 -14 -28 -9 -18
right_child=1 4 5 8 14 12 17 10 18 23 -12 16 26 -15 -16 19 29 -19 -20 -21 -22 -23 -24 -25 -26 -27 27 -29 -30 -31
leaf_value=-2570.5313898250706 1435.9769933812381 2910.3493750000002 -634.2477951102087 -3529.4037194454309 34866.346015625 437.35497609385442 -1804.5350539688848 25277.823295454546 7347.8466265795832 3252.7048080032678 35641.781624999996 18515.631074218749 1036.8104968767568 -76.947687181816733 47527.295920138888 11837.919318688435 16459.88810763889 -1228.038806908994 9624.7137662457153 6699.1125791625154 4336.8578270394673 5030.1384196199606 3331.3092861823316 4590.2800458159099 11251.786098200158 2243.5325557500228 1806.9916269603077 7353.3093110183199 17983.646828391338 23944.117764945651
leaf_weight=12688 1484 20 17507 33 20 11041 8174 33 666 3336 25 20 7623 12200 36 23 27 13420 483 733 1032 1247 53 629 79 5836 888 29 22 23
leaf_count=12688 1484 20 17507 33 20 11041 8174 33 666 3336 25 20 7623 12200 36 23 27 13420 483 733 1032 1247 53 629 79 5836 888 29 22 23
internal_value=0 3867.45 -733.968 3503.44 22431.8 50.8797 -1862.36 17804.8 5979.73 2566.46 26510.7 13683.7 743.082 -405.377 43005.5 5123.69 15129.8 -1446.26 8304.96 5719.07 4057 5153.43 698.71 3464.9 12719.2 2079.82 1138.34 1982.39 22360.2 19902.6
internal_weight=0 15860 83570 15555 305 49288 34282 249 4270 11285 80 169 19581 29707 56 3121 149 21594 1149 2003 1118 1270 86 3965 99 7320 8540 917 55 50
internal_count=99430 15860 83570 15555 305 49288 34282 249 4270 11285 80 169 19581 29707 56 3121 149 21594 1149 2003 1118 1270 86 3965 99 7320 8540 917 55 50
is_linear=0
shrinkage=0.1


Tree=6
num_leaves=31
num_cat=0
split_feature=42 42 42 42 1 10 42 42 21 1 17 42 42 1 15 42 1 24 17 17 41 41 12 10 9 42 12 42 17 17
split_gain=2.13955e+13 8.22552e+12 6.11962e+12 3.06097e+12 1.15521e+12 1.13286e+12 9.39177e+11 5.73407e+11 5.4378e+11 5.41845e+11 5.12522e+11 4.19646e+11 3.33225e+11 2.47583e+11 2.16328e+11 1.73044e+11 1.71362e+11 1.58107e+11 1.40353e+11 1.38217e+11 1.24348e+11 1.23189e+11 1.18901e+11 1.12478e+11 1.10023e+11 9.84841e+10 9.57504e+10 9.29037e+10 8.64847e+10 7.98304e+10
threshold=87166.666666666672 339833.33333333337 43500.000000000007 149166.66666666672 61500.000000000007 594000.00000000012 25833.333333333339 110833.33333333336 192500.00000000003 193500.00000000003 193500.00000000003 55500.000000000007 74500.000000000015 327500.00000000006 403000.00000000006 220833.33333333334 118500.00000000001 321500.00000000006 800500.00000000012 116500.00000000001 36785.714285714297 19928.571428571431 67500.000000000015 35500.000000000007 10500.000000000002 173500.00000000003 259500.00000000003 64166.666666666679 261500.00000000003 105500.00000000001
decision_type=10 10 8 10 2 10 10 10 10 2 10 10 8 2 10 10 2 10 8 10 10 10 8 10 10 10 8 10 10 10
left_child=2 3 6 7 11 14 8 24 21 12 22 23 27 26 17 -12 -14 -3 -7 -9 -8 -1 -5 -4 -2 -24 -11 -6 -17 -22
right_child=1 5 4 10 9 18 20 19 -10 13 15 -13 16 -15 -16 28 -18 -19 -20 -21 29 -23 25 -25 -26 -27 -28 -29 -30 -31
leaf_value=-2294.6570482309971 5781.2673559570321 7968.8187755766376 -1048.1287311489782 3072.5135710242203 108.79447185414899 31398.916249999998 -1320.0303937270967 2952.7326148184306 12637.201738037111 2538.4046681470209 7609.9429695159315 271.37774372198629 1107.6232306408012 15398.171602376304 23215.355280514043 9451.9422898625762 3106.5855704923906 19970.103226902174 41398.986230468756 4097.2976543416617 -857.13584096437341 -1697.898589382168 5190.4824928879243 -412.86177730073996 2050.7568320217197 6776.4789154373011 7153.7353780864205 661.97854620981241 13315.530117626404 2011.85630244041
leaf_weight=11959 80 21 3418 171 6279 25 11167 1940 25 101 510 10093 6738 24 69 166 458 23 32 2313 9374 4867 948 15100 6716 667 81 5878 89 98
leaf_count=11959 80 21 3418 171 6279 25 11167 1940 25 101 510 10093 6738 24 69 166 458 23 32 2313 9374 4867 948 15100 6716 667 81 5878 89 98
internal_value=0 3658.68 -588.14 3385.43 157.523 25519.2 -1546.22 2664.56 -2100.15 749.813 6507.67 -247.377 695.51 5851.4 19721.4 8673.43 1234.85 14242.2 37013 3575.21 -1093.97 -2122.04 5580 -530.118 2094.67 5845.5 4592.48 376.263 10800.4 -827.452
internal_weight=0 13770 85660 13600 48170 170 37490 11049 16851 19559 2551 28611 19353 206 113 765 7196 44 57 4253 20639 16826 1786 18518 6796 1615 182 12157 255 9472
internal_count=99430 13770 85660 13600 48170 170 37490 11049 16851 19559 2551 28611 19353 206 113 765 7196 44 57 4253 20639 16826 1786 18518 6796 1615 182 12157 255 9472
is_linear=0
shrinkage=0.1


Tree=7
num_leaves=31
num_cat=0
split_feature=39 39 39 4 42 39 39 16 39 17 22 18 42 1 39 42 42 42 42 41 24 39 42 39 17 17 42 18 24 3
split_gain=1.87933e+13 6.79909e+12 5.61306e+12 2.29051e+12 1.96197e+12 1.131e+12 9.29045e+11 5.53446e+11 4.28385e+11 2.49945e+11 2.39892e+11 2.21238e+11 1.93141e+11 1.90422e+11 1.71109e+11 1.48047e+11 1.36013e+11 1.2603e+11 1.20135e+11 9.00265e+10 8.60338e+10 8.4095e+10 8.21436e+10 7.64395e+10 6.82766e+10 6.48389e+10 6.23522e+10 5.99859e+10 5.81659e+10 5.71259e+10
threshold=89252.747252747271 252285.71428571432 45978.021978021985 55.950833515000006 149166.66666666672 28780.219780219784 65763.736263736282 400000.00000000006 115593.4065934066 185500.00000000003 459500.00000000006 774000.00000000012 58500.000000000007 181500.00000000003 16978.021978021981 339833.33333333337 75833.333333333358 39500.000000000007 53833.333333333336 77642.857142857145 210500.00000000003 141604.39560439563 103166.66666666667 158895.60439560443 90500.000000000015 494000.00000000006 95166.666666666672 114500.00000000001 250500.00000000003 37.646657880000014
decision_type=2 2 2 2 10 2 2 10 2 10 8 10 10 2 2 10 8 8 8 10 10 2 8 2 10 8 10 8 10 2
left_child=2 4 5 7 8 14 12 13 22 23 -9 -5 -4 -3 -1 28 -8 -7 27 -19 -11 -20 -2 -6 -18 -12 -23 -10 -15 -30
right_child=1 3 6 11 9 17 16 10 18 20 25 -13 -14 15 -16 -17 24 19 21 -21 -22 26 -24 -25 -26 -27 -28 -29 29 -31
leaf_value=-2198.4938272567642 1806.989252148076 1641.2870507812499 -242.86751758152855 41373.997021484378 4430.7504989804247 -1104.3711834030034 625.28882810927462 29123.40709375 -4711.6726132812501 6469.266903566735 13377.990350341797 29314.736789466595 302.49350110980669 8248.3098664830959 -1600.6709027697132 18060.463830566408 1078.3894023413177 -663.01877503449919 3278.6802704174547 6051.6433755493163 8650.9013918698492 6192.0002749203177 2527.2900788039433 5827.8292640337268 1816.0836788286535 20585.919531250001 3988.3891530766764 1664.6189459906684 16682.284623579544 10142.55661764706
leaf_weight=9699 3800 20 18211 32 889 12363 7067 25 25 535 24 29 10093 61 9455 32 5722 12261 2887 20 273 163 2714 700 1607 26 605 36 22 34
leaf_count=9699 3800 20 18211 32 889 12363 7067 25 25 535 24 29 10093 61 9455 32 5722 12261 2887 20 273 163 2714 700 1607 26 605 36 22 34
internal_value=0 3555.6 -531.585 18309 3199.24 -1326.98 284.265 13976 2595.85 5774.37 21125.2 35640.9 -48.3958 10803.3 -1903.39 12033.1 938.31 -878.98 3452.63 -652.084 7206.38 3526.08 2107.1 5046.2 1240.14 17126.1 4456.08 -948.615 10384.7 12711.7
internal_weight=0 12932 86498 305 12627 43798 42700 244 10230 2397 75 61 28304 169 19154 149 14396 24644 3716 12281 808 3655 6514 1589 7329 50 768 61 117 56
internal_count=99430 12932 86498 305 12627 43798 42700 244 10230 2397 75 61 28304 169 19154 149 14396 24644 3716 12281 808 3655 6514 1589 7329 50 768 61 117 56
is_linear=0
shrinkage=0.1


Tree=8
num_leaves=31
num_cat=0
split_feature=42 42 42 42 4 42 42 17 21 9 17 42 9 27 9 42 2 31 42 42 42 17 17 41 17 20 2 13 9 13
split_gain=1.40869e+13 5.43173e+12 3.75036e+12 2.27475e+12 8.73498e+11 6.73361e+11 5.26424e+11 5.13447e+11 4.82734e+11 4.18094e+11 2.84834e+11 1.56419e+11 1.50742e+11 1.50461e+11 1.50115e+11 1.76456e+11 1.03805e+11 9.85478e+10 9.48765e+10 9.44329e+10 8.45709e+10 7.76362e+10 7.59605e+10 7.37451e+10 6.48693e+10 6.16957e+10 5.49262e+10 5.6005e+10 5.44702e+10 5.16697e+10
threshold=83166.666666666672 339833.33333333337 41500.000000000007 131500.00000000003 55.950833515000006 60500.000000000007 23500.000000000004 185500.00000000003 192500.00000000003 187500.00000000003 112500.00000000001 220833.33333333334 401500.00000000006 990500.00000000012 80500.000000000015 59833.333333333336 586500.00000000012 76500.000000000015 173500.00000000003 51166.666666666679 97166.666666666672 38500.000000000007 16500.000000000004 66214.285714285725 261500.00000000003 62500.000000000007 624500.00000000012 152500.00000000003 37500.000000000007 62500.000000000007
decision_type=10 10 8 10 2 10 10 10 10 10 10 10 10 8 10 8 2 10 10 10 10 10 10 10 10 8 2 8 10 8
left_child=2 3 6 10 12 9 8 18 22 14 20 25 -3 -6 19 -16 -11 -7 -5 26 -2 -8 -1 -23 -13 -9 -4 -28 -12 -20
right_child=1 4 5 7 13 17 21 11 -10 16 28 24 -14 -15 15 -17 -18 -19 29 -21 -22 23 -24 -25 -26 -27 27 -29 -30 -31
leaf_value=-1943.6389415460269 1298.7365789558121 9945.5344503348224 -457.82737414573114 3691.5828732940231 26524.758859592013 430.8574391693449 -1104.185236858907 10748.942308593751 12720.392484714675 5107.3086765455164 5847.2312547956199 7598.5018780048085 17860.463471489449 37021.731960227269 -362.09464325238628 1987.9953625754895 13736.820364990235 1045.1606151130616 2196.6872488350705 -67.912048462729899 1925.5785598174771 -701.47850383201501 -1472.8049497060588 3776.4289174672722 10934.234732707164 5690.460577722848 -410.99218089336483 1733.3715480274623 2694.8183428961875 5321.6592812862364
leaf_weight=9744 4865 35 18158 2354 36 14481 13288 25 23 46 56 169 77 22 637 641 20 3186 58 11769 3860 6117 5285 37 89 678 254 234 2583 603
leaf_count=9744 4865 35 18158 2354 36 14481 13288 25 23 46 56 169 77 22 637 641 20 3186 58 11769 3860 6117 5285 37 89 678 254 234 2583 603
internal_value=0 2768.7 -511.707 2571.69 20545.4 46.7605 -1311.93 4630.41 -1755.91 -228.532 1851.39 6643.24 15387 30506.4 -245.089 816.628 7722.31 541.639 3988.84 -289.701 1576.06 -968.194 -1778.07 -674.556 8749.2 5870.35 -429.691 617.248 2761.71 5047.46
internal_weight=0 15510 83920 15340 170 49426 34494 3976 15052 31759 11364 961 112 58 31693 1278 66 17667 3015 30415 8725 19442 15029 6154 258 703 18646 488 2639 661
internal_count=99430 15510 83920 15340 170 49426 34494 3976 15052 31759 11364 961 112 58 31693 1278 66 17667 3015 30415 8725 19442 15029 6154 258 703 18646 488 2639 661
is_linear=0
shrinkage=0.1


Tree=9
num_leaves=31
num_cat=0
split_feature=39 39 39 39 4 39 18 42 39 2 23 39 27 18 39 24 8 42 17 34 42 8 23 42 42 17 35 9 12 9
split_gain=1.25613e+13 4.89141e+12 3.09175e+12 1.83318e+12 1.52842e+12 6.93271e+11 5.01449e+11 3.93712e+11 3.66232e+11 3.46817e+11 3.177e+11 2.85972e+11 2.42667e+11 1.56497e+11 1.25189e+11 1.11109e+11 9.65584e+10 9.57877e+10 9.06665e+10 8.89282e+10 8.22173e+10 8.20033e+10 7.22744e+10 6.99205e+10 6.81504e+10 6.6635e+10 6.46843e+10 6.13519e+10 6.06151e+10 5.05927e+10
threshold=78873.626373626394 252285.71428571432 37868.131868131873 126521.97802197804 55.950833515000006 56021.97802197803 156500.00000000003 159833.33333333334 19703.29670329671 1158500.0000000002 29500.000000000004 96813.186813186825 990500.00000000012 381000.00000000006 200807.69230769234 84500.000000000015 -1.0000000180025095e-35 68166.666666666672 78500.000000000015 35500.000000000007 46833.333333333336 -237499.99999999997 160500.00000000003 113500.00000000001 32166.666666666668 219500.00000000003 107500.00000000001 1.0000000180025095e-35 3500.0000000000005 141500.00000000003
decision_type=2 2 2 2 2 2 8 8 2 2 10 2 8 10 2 8 10 8 10 8 8 8 10 8 10 10 8 8 8 10
left_child=2 3 8 11 6 20 -3 15 -1 10 16 -2 -6 -12 19 18 -8 -7 -5 -9 -4 -21 28 -13 -10 -23 -24 -25 -17 -26
right_child=1 4 5 7 12 17 9 14 24 -11 13 23 -14 -15 -16 22 -18 -19 -20 21 -22 25 26 27 29 -27 -28 -29 -30 -31
leaf_value=-1762.3531330964415 1217.4528225681386 26602.286450195315 -547.05800262798323 -3576.4068359375001 23872.282969835069 204.59710229735214 5137.598786102295 11361.331311035157 -1203.9165335588361 16508.364203381148 8727.1470095398599 1850.6930606207916 36697.036390624999 18105.988920454543 7020.2447360857159 8298.8883098255519 -3840.4435631793481 631.19427759845348 2077.6906717797988 536.70775639960107 -210.36873081151555 4596.5992408329475 10211.576337890627 7955.6247297014506 -835.75438123689264 7184.1048766519425 4336.8191513035918 2526.3151825490772 3019.8089098777054 4200.1498193359375
leaf_weight=11407 7686 20 13006 41 36 12234 25 20 11530 61 93 3068 25 22 282 22 23 9238 92 47 16396 1425 20 21 7909 107 298 2340 1916 20
leaf_count=11407 7686 20 13006 41 36 12234 25 20 11530 61 93 3068 25 22 282 22 23 9238 92 47 16396 1425 20 21 7909 107 298 2340 1916 20
internal_value=0 2416.08 -522.884 2195.83 14970.3 -43.8383 11430.8 3995.47 -1312.46 10076.2 7669.12 1609.91 29128.3 10521.4 5077.63 3143.43 835.62 388.134 334.698 4735.03 -359.304 4651.09 3309.01 2165.51 -1048.72 4777.32 4706.3 2574.61 3079.74 -823.052
internal_weight=0 17690 81740 17385 305 50874 244 4270 30866 224 163 13115 61 115 1881 2389 48 21472 133 1599 29402 1579 2256 5429 19459 1532 318 2361 1938 7929
internal_count=99430 17690 81740 17385 305 50874 244 4270 30866 224 163 13115 61 115 1881 2389 48 21472 133 1599 29402 1579 2256 5429 19459 1532 318 2361 1938 7929
is_linear=0
shrinkage=0.1


Tree=10
num_leaves=31
num_cat=0
split_feature=39 39 39 39 16 42 39 27 10 39 9 39 22 26 17 24 24 2 42 22 42 39 10 17 37 42 32 41 10 39
split_gain=1.01779e+13 3.99642e+12 2.4349e+12 1.54955e+12 1.08257e+12 5.50944e+11 5.12147e+11 4.63587e+11 3.36986e+11 3.05604e+11 2.91835e+11 2.52772e+11 1.63935e+11 1.49129e+11 1.05312e+11 8.66783e+10 8.56105e+10 7.76471e+10 7.38643e+10 7.31242e+10 7.2092e+10 7.0746e+10 6.66393e+10 6.58752e+10 6.30105e+10 5.98008e+10 5.80526e+10 5.42431e+10 6.34971e+10 5.33939e+10
threshold=77708.791208791212 252285.71428571432 38120.87912087913 126521.97802197804 582500.00000000012 339833.33333333337 56021.97802197803 867500.00000000012 183500.00000000003 19703.29670329671 532500.00000000012 96813.186813186825 447000.00000000006 480500.00000000006 72500.000000000015 176500.00000000003 85500.000000000015 1158500.0000000002 64500.000000000007 79500.000000000015 196166.66666666669 48115.384615384624 119500.00000000001 90500.000000000015 172500.00000000003 29166.666666666668 135500.00000000003 36071.42857142858 59500.000000000007 135483.51648351652
decision_type=2 2 2 2 10 8 2 8 10 2 10 2 8 10 8 10 8 2 8 10 10 2 10 10 10 10 10 8 8 2
left_child=2 3 9 11 5 12 21 -6 14 -1 13 23 -3 17 16 29 -5 -7 -8 -17 -10 -4 24 27 -13 -11 -26 -2 -29 -16
right_child=1 4 6 8 7 10 18 -9 20 25 -12 22 -14 -15 15 19 -18 -19 -20 -21 -22 -23 -24 -25 26 -27 -28 28 -30 -31
leaf_value=-1586.1178023681241 6071.5533447265625 8471.8441817722978 -456.97140809615587 -3619.2654146634618 17528.999027958624 7449.5115388569075 115.87676313242862 36426.988859375 4396.6396593273012 -1127.4616146916676 25130.619062500002 1774.3692429790135 625.79606548108552 18837.110912298387 2464.2239944128169 10518.3213671875 1999.5029060963836 14135.180957031251 496.75451140516861 4305.0550104919093 6083.4673081183182 -142.01863096815268 2475.9624745520264 1463.6901000215557 873.14704016860651 -779.08015810918823 -4972.8258826622596 -278.78626257270446 955.52896242567624 3369.3570784910116
leaf_weight=11407 20 89 16287 39 27 38 8979 25 543 9004 25 3690 38 31 1064 20 89 32 11761 358 475 12688 1664 2861 49 10882 26 454 5083 1682
leaf_count=11407 20 89 16287 39 27 38 8979 25 543 9004 25 3690 38 31 1064 20 89 32 11761 358 475 12688 1664 2861 49 10882 26 454 5083 1682
internal_value=0 2121.61 -482.475 1930.5 13473.3 10772.3 -47.5076 26614.6 3595.92 -1173.5 15457.3 1416.94 6124.21 13062.9 3098.88 3214.07 287.534 10505.8 331.861 4633.8 5183.72 -319.055 1948.96 1073.82 1716.05 -936.821 -1153.46 873.1 854.323 3018.64
internal_weight=0 18422 81008 18117 305 253 49715 52 4270 31293 126 13847 127 101 3252 3124 128 70 20740 378 1018 28975 5429 8418 3765 19886 75 5557 5537 2746
internal_count=99430 18422 81008 18117 305 253 49715 52 4270 31293 126 13847 127 101 3252 3124 128 70 20740 378 1018 28975 5429 8418 3765 19886 75 5557 5537 2746
is_linear=0
shrinkage=0.1


Tree=11
num_leaves=31
num_cat=0
split_feature=42 42 42 42 4 42 42 22 9 17 17 8 14 24 4 38 9 7 31 7 24 23 41 9 24 24 31 31 31 9
split_gain=7.59538e+12 2.66082e+12 2.26565e+12 1.00463e+12 4.61866e+11 4.43833e+11 3.41152e+11 2.3208e+11 2.14593e+11 2.05519e+11 2.02272e+11 1.20202e+11 1.03856e+11 8.85847e+10 8.37209e+10 8.13654e+10 7.81418e+10 1.0225e+11 8.09239e+10 7.26679e+10 6.8054e+10 6.72826e+10 8.80608e+10 6.60878e+10 6.46401e+10 6.40347e+10 6.22054e+10 5.33106e+10 5.26445e+10 5.25343e+10
threshold=89833.333333333358 339833.33333333337 43500.000000000007 149166.66666666672 55.950833515000006 64500.000000000007 24166.666666666668 199500.00000000003 193500.00000000003 121500.00000000001 200500.00000000003 -160499.99999999997 44500.000000000007 78500.000000000015 55.707975540000007 307500.00000000006 78500.000000000015 28500.000000000004 60500.000000000007 53500.000000000007 184500.00000000003 33500.000000000007 79357.142857142884 243500.00000000003 242500.00000000003 139500.00000000003 119500.00000000001 10500.000000000002 181500.00000000003 45500.000000000007
decision_type=10 10 8 10 2 10 10 10 10 10 10 10 10 10 2 10 10 10 10 10 8 8 10 10 10 10 10 8 10 10
left_child=2 3 6 9 12 8 7 27 16 26 19 -6 -3 -7 -10 20 18 -18 -4 23 -12 -8 -23 28 -15 -11 -2 -1 -5 -27
right_child=1 4 5 10 11 13 21 -9 14 25 15 -13 -14 24 -16 -17 17 -19 -20 -21 -22 22 -24 -25 -26 29 -28 -29 -30 -31
leaf_value=-1626.6017500901098 1299.41291161699 4427.574061279297 -208.12268251812753 3240.8841856968456 16336.966912974482 399.50052611391425 -916.13046474752957 9486.1848828125003 3137.2131716997196 2131.9726392192565 3010.7714389835396 25643.150580357145 12378.478282099186 898.34916673631687 10968.814927455358 11730.095048828125 1451.352212346027 -154.36164752515015 245.93579530896588 1518.0890454650557 5753.0053338747612 -552.87667507188348 6087.1785339355474 8586.4893930288472 6102.3163655598964 8068.7995960582384 2227.3847292535097 -1189.9312542996863 4661.3292738299506 3103.2824367906924
leaf_weight=3659 6677 20 26993 1394 23 11587 7245 20 39 1806 111 35 92 4371 21 20 726 874 4593 189 490 14695 20 26 24 22 810 11851 321 676
leaf_count=3659 6677 20 26993 1394 23 11587 7245 20 39 1806 111 35 92 4371 21 20 726 874 4593 189 490 14695 20 26 24 22 810 11851 321 676
internal_value=0 2282.78 -334.633 2114.34 14709.6 111.427 -920.353 -1279.07 -96.7577 1662.1 3885.54 21952.8 10958.7 544.497 5878.27 5455.35 -107.561 574.231 -142.097 3380.44 5246.54 -666.673 -543.852 3582.61 926.767 2446.36 1399.81 -1292.95 3506.75 3259.79
internal_weight=0 12712 86718 12542 170 49228 37490 15530 33246 9991 2551 58 112 15982 60 621 33186 1600 31586 1930 601 21960 14715 1741 4395 2504 7487 15510 1715 698
internal_count=99430 12712 86718 12542 170 49228 37490 15530 33246 9991 2551 58 112 15982 60 621 33186 1600 31586 1930 601 21960 14715 1741 4395 2504 7487 15510 1715 698
is_linear=0
shrinkage=0.1


Tree=12
num_leaves=31
num_cat=0
split_feature=10 9 11 9 10 10 22 11 10 1 10 40 7 11 10 1 15 10 24 1 11 11 11 38 1 10 18 15 10 20
split_gain=5.80988e+12 2.5862e+12 1.3117e+12 1.30082e+12 4.72046e+11 4.10992e+11 3.70905e+11 2.69497e+11 2.3855e+11 2.35771e+11 1.30525e+11 1.32463e+11 1.26798e+11 1.26573e+11 1.20747e+11 1.07261e+11 1.06944e+11 1.01206e+11 9.01041e+10 7.7453e+10 1.03531e+11 7.61318e+10 5.99115e+10 5.92195e+10 5.90125e+10 5.5107e+10 5.43174e+10 5.27136e+10 5.09816e+10 5.09154e+10
threshold=76500.000000000015 329000.00000000006 40500.000000000007 121500.00000000001 594000.00000000012 190500.00000000003 240500.00000000003 76500.000000000015 25500.000000000004 61500.000000000007 48500.000000000007 68616.666666666672 349500.00000000006 339000.00000000006 133500.00000000003 342000.00000000006 23500.000000000004 119500.00000000001 247500.00000000003 120500.00000000001 180500.00000000003 118500.00000000001 49500.000000000007 1045500.0000000001 176500.00000000003 459500.00000000006 306000.00000000006 34500.000000000007 58500.000000000007 183500.00000000003
decision_type=10 10 8 10 10 10 10 8 10 2 10 10 10 8 10 2 8 10 10 2 8 10 8 8 2 10 10 10 8 10
left_child=2 3 6 7 13 14 8 16 12 10 11 27 24 -3 22 19 -2 -9 -7 28 -21 -13 -5 -6 29 -15 -20 -4 -11 -1
right_child=1 4 9 5 23 18 -8 17 -10 15 -12 21 -14 25 -16 -17 -18 -19 26 20 -22 -23 -24 -25 -26 -27 -28 -29 -30 -31
leaf_value=-1170.6208069945349 -961.35166726872546 4665.5601959228516 -663.95808576235902 -1127.3599129813058 17496.86147664388 4277.2647502625032 12413.058356584821 1105.8032703304546 -613.78212629484995 -42.896367351320016 8.6949719860839263 1031.9743606826007 6110.24637298584 9282.853920541158 2843.5072982214442 7416.4660691034223 510.7171530633704 1985.2777901118557 6209.8178805514508 408.11967482780346 2797.6919828762975 6771.1705662777549 1857.770155292872 24113.345488911291 1598.1033813476563 14251.459969407684 11755.889267113096 -286.37866206196742 349.6263675037826 -6219.3065332031256
leaf_weight=16151 552 32 5876 70 24 821 21 8608 16550 5102 14780 59 24 41 2251 21 4658 1543 111 536 274 38 1701 31 77 49 21 9973 9415 20
leaf_count=16151 552 32 5876 70 24 821 21 8608 16550 5102 14780 59 24 41 2251 21 4658 1543 111 536 274 38 1701 31 77 49 21 9973 9415 20
internal_value=0 1499.32 -389.721 1394.57 13534.8 2799.94 -872.6 939.411 -881.1 -45.51 -205.389 -403.818 -1152.99 10067.3 2357.51 274.56 354.751 1239.49 4667.15 264.774 1216.44 3280.32 1739.78 21226.2 -1163.71 11988 7092.15 -426.366 211.674 -1176.86
internal_weight=0 20513 78917 20336 177 4975 32843 15361 32822 46074 30726 15946 16272 122 4022 15348 5210 10151 953 15327 810 97 1771 55 16248 90 132 15849 14517 16171
internal_count=99430 20513 78917 20336 177 4975 32843 15361 32822 46074 30726 15946 16272 122 4022 15348 5210 10151 953 15327 810 97 1771 55 16248 90 132 15849 14517 16171
is_linear=0
shrinkage=0.1


Tree=13
num_leaves=31
num_cat=0
split_feature=39 39 39 16 39 31 39 9 39 24 0 39 42 42 31 17 39 42 31 9 31 13 11 9 17 42 11 34 24 17
split_gain=5.60487e+12 2.0431e+12 1.7236e+12 6.26356e+11 5.73564e+11 3.92495e+11 3.62998e+11 3.40377e+11 2.87926e+11 2.32728e+11 3.36909e+11 1.45205e+11 1.01605e+11 9.5212e+10 9.33311e+10 6.91624e+10 6.60931e+10 6.2099e+10 5.47901e+10 5.40825e+10 5.22738e+10 5.07455e+10 4.91755e+10 7.24589e+10 4.69984e+10 4.31137e+10 4.22193e+10 7.24324e+10 4.22014e+10 4.18091e+10
threshold=89252.747252747271 252285.71428571432 45978.021978021985 582500.00000000012 133060.43956043958 990500.00000000012 29296.703296703301 508000.00000000006 68505.494505494527 348500.00000000006 676433.00000000012 171978.02197802201 107500.00000000001 11500.000000000002 525500.00000000012 72500.000000000015 54247.252747252758 205833.33333333334 77500.000000000015 38500.000000000007 88500.000000000015 1.0000000180025095e-35 58500.000000000007 171500.00000000003 57500.000000000007 122166.66666666667 1.0000000180025095e-35 139500.00000000003 132500.00000000003 19500.000000000004
decision_type=2 2 2 10 2 8 2 10 2 10 2 2 8 10 8 8 2 8 10 8 10 10 8 10 10 10 8 8 8 8
left_child=2 4 6 7 12 -5 13 9 16 10 -3 15 -2 -1 -11 18 -4 28 -6 -14 29 24 23 -17 -22 -8 27 -21 -13 -10
right_child=1 3 8 5 11 -7 25 -9 20 14 -12 17 19 -15 -16 22 -18 -19 -20 26 21 -23 -24 -25 -26 -27 -28 -29 -30 -31
leaf_value=-1390.9417777701485 1022.9804841520578 6692.8250093363094 -161.87684546374786 13156.664385986329 -2601.9236851283486 31014.496402587894 -470.95326768672652 16837.026045185812 -531.43857970872693 8653.2242231889213 -5021.7807695942538 190.11357407680779 5658.6248147403494 -907.43308112485374 16513.908899456521 2924.4764547658524 132.46706808311248 4760.5188358163477 2457.7283945184008 2405.5848787132063 6514.7545465284784 953.60297647848029 2399.5289451322387 10210.102618789673 1805.6695179270275 4173.9336628723149 1695.9082608098699 -3768.744044574938 3408.2990123091749 533.8136276820486
leaf_weight=5692 4822 118 13786 32 49 20 23770 37 383 44 31 43 34 14316 23 43 17080 399 38 38 31 1662 1985 20 67 20 4340 38 778 9691
leaf_count=5692 4822 118 13786 32 49 20 23770 37 383 44 31 43 34 14316 23 43 17080 399 38 38 31 1662 1985 20 67 20 4340 38 778 9691
internal_value=0 1941.75 -290.304 10029.2 1746.4 20025.1 -731.064 7974.74 161.789 6456.67 4255.56 2866.82 1340.99 -1044.98 11351.7 2369.52 1.00121 3737.11 -391.961 1685.58 581.162 1083.99 2486.83 5237.37 3295.28 -467.048 1654.99 -681.58 3239.75 493.314
internal_weight=0 12932 86498 305 12627 52 43798 253 42700 216 149 3355 9272 20008 67 2135 30866 1220 87 4450 11834 1760 2048 63 98 23790 4416 76 821 10074
internal_count=99430 12932 86498 305 12627 52 43798 253 42700 216 149 3355 9272 20008 67 2135 30866 1220 87 4450 11834 1760 2048 63 98 23790 4416 76 821 10074
is_linear=0
shrinkage=0.1


Tree=14
num_leaves=31
num_cat=0
split_feature=39 39 39 39 4 18 39 9 10 18 10 39 39 17 10 17 24 22 39 2 16 10 17 41 40 9 17 21 40 42
split_gain=4.55923e+12 1.79432e+12 1.1318e+12 6.91495e+11 5.61186e+11 3.77957e+11 2.6051e+11 1.91237e+11 1.59245e+11 1.49435e+11 1.33104e+11 1.18942e+11 1.14814e+11 6.16788e+10 6.69903e+10 5.20494e+10 5.17019e+10 6.46517e+10 5.07538e+10 5.02822e+10 5.00963e+10 4.67559e+10 4.45674e+10 4.39302e+10 4.35751e+10 4.29014e+10 4.26013e+10 3.95489e+10 3.9371e+10 6.55942e+10
threshold=77708.791208791212 252285.71428571432 36390.109890109896 126521.97802197804 55.950833515000006 156500.00000000003 54247.252747252758 180500.00000000003 179500.00000000003 774000.00000000012 297500.00000000006 15302.197802197805 94730.769230769234 69500.000000000015 104500.00000000001 543500.00000000012 176500.00000000003 90500.000000000015 171978.02197802201 388500.00000000006 344500.00000000006 69500.000000000015 112500.00000000001 32214.285714285717 150483.33333333337 20500.000000000004 103500.00000000001 136500.00000000003 36816.666666666679 5166.666666666667
decision_type=2 2 2 2 2 8 2 10 8 10 10 2 2 8 10 8 10 10 2 2 8 8 8 8 10 10 10 8 8 8
left_child=2 3 11 12 5 -3 -4 -7 13 -6 20 -1 23 14 19 -12 25 -18 -10 -5 -9 28 -14 -2 -24 27 -25 -15 -8 -30
right_child=1 4 6 8 9 7 21 10 18 -11 15 -13 22 16 -16 -17 17 -19 -20 -21 -22 -23 24 26 -26 -27 -28 -29 29 -31
leaf_value=-1162.264999584376 4962.7108896891277 20053.073903808596 -247.98479873352903 1165.830771151456 22317.019778442384 -3626.1948925781253 3011.9244055706522 4969.2735136572992 2506.2219653504162 12406.038166756465 7779.7578758726731 -705.59774180494253 999.54762934754297 7850.0477133046024 2165.7633789062502 13087.050772758153 8776.9355273437504 2913.0784109759484 3809.3100511434322 -4871.1681594436232 -733.81453369140627 383.53432088301463 1568.4093488114133 590.348520420402 -3002.3072730654767 1877.3810525773029 1314.4188642569952 2511.9926067243305 -2154.523893761268 101.73452750495439
leaf_weight=7930 24 20 29341 22 32 20 46 67 471 29 94 20313 3058 23 58 23 20 314 818 37 20 8670 3082 6738 21 2472 924 35 130 14578
leaf_count=7930 24 20 29341 22 32 20 46 67 471 29 94 20313 3058 23 58 23 20 314 818 37 20 8670 3082 6738 21 2472 924 35 130 14578
internal_value=0 1419.98 -322.918 1291.93 9026.3 6881.57 -49.452 5705.54 2404.47 17605.2 6620.41 -833.82 948.856 2002.9 -247.613 8823.07 2094.83 3264.21 3333.16 -2620.08 3658.22 199.231 1270.48 691.048 1537.48 1940.46 677.668 4628.81 90.9276 81.7921
internal_weight=0 18422 81008 18117 305 244 52765 224 4270 61 204 28243 13847 2981 117 117 2864 334 1289 59 87 23424 6161 7686 3103 2530 7662 58 14754 14708
internal_count=99430 18422 81008 18117 305 244 52765 224 4270 61 204 28243 13847 2981 117 117 2864 334 1289 59 87 23424 6161 7686 3103 2530 7662 58 14754 14708
is_linear=0
shrinkage=0.1


Tree=15
num_leaves=31
num_cat=0
split_feature=39 39 39 39 16 31 10 39 9 39 10 39 31 14 10 24 17 17 21 19 17 23 36 18 8 8 38 40 41 40
split_gain=3.70227e+12 1.48792e+12 8.47399e+11 6.37986e+11 4.31489e+11 3.14732e+11 2.84497e+11 1.84497e+11 1.81726e+11 1.60759e+11 1.22517e+11 9.24112e+10 8.97874e+10 7.64922e+10 5.82853e+10 5.24768e+10 5.19072e+10 4.74178e+10 4.77486e+10 4.48877e+10 4.06882e+10 3.99167e+10 5.55113e+10 4.20997e+10 3.88995e+10 3.86267e+10 3.59997e+10 3.54815e+10 4.45335e+10 3.49883e+10
threshold=73714.285714285725 252285.71428571432 35868.131868131873 120565.93406593408 582500.00000000012 990500.00000000012 709000.00000000012 51708.791208791219 163500.00000000003 171978.02197802201 392000.00000000006 12785.714285714288 101500.00000000001 486000.00000000006 230500.00000000003 71500.000000000015 66500.000000000015 83500.000000000015 204500.00000000003 105500.00000000001 210500.00000000003 206500.00000000003 149500.00000000003 286500.00000000006 235500.00000000003 -335499.99999999994 307500.00000000006 38816.666666666679 6500.0000000000009 105183.33333333336
decision_type=2 2 2 2 10 8 8 2 10 2 10 2 10 8 8 8 10 8 10 10 10 10 8 10 10 8 10 8 8 10
left_child=2 3 11 12 6 -6 8 -4 -3 15 13 -1 17 26 -11 19 24 18 -2 29 -14 23 -23 25 27 -17 -10 -9 -29 -5
right_child=1 4 7 9 5 -7 -8 16 10 14 -12 -13 20 -15 -16 21 -18 -19 -20 -21 -22 22 -24 -25 -26 -27 -28 28 -30 -31
leaf_value=-1118.8622119892914 395.51698829447287 -3726.6105273437497 -263.57627734561225 401.35227783203129 10269.668090820312 26260.898947753911 17284.553604403409 2420.1506822155366 4587.3883217551493 2720.2702333393554 9425.9397518009337 -667.37801323852761 1226.976213890465 -828.22451808763583 4544.4234066369399 -1186.2116087510851 334.55937284558263 783.29473734751843 -4275.1379938299006 995.84604968054828 4929.6842354329428 8525.7272753906254 2561.3184303820976 5843.3151889648434 -2539.8817288867499 1761.0525108747461 9030.6907184103256 -3118.1146354166667 31.653854720950871 -5210.1972109375001
leaf_weight=5734 4297 20 25559 20 32 20 22 62 88 1008 77 21655 2762 23 212 45 7621 7956 22 118 30 20 71 25 59 3763 23 45 18016 25
leaf_count=5734 4297 20 25559 20 32 20 22 62 88 1008 77 21655 2762 23 212 45 7621 7956 22 118 30 20 71 25 59 3763 23 45 18016 25
internal_value=0 1190.8 -312.689 1087.01 8123.67 16420.1 6418.47 -73.1458 5383.6 2029.89 6247.13 -761.898 754.906 4420.5 3037.25 1729.19 115.484 638.483 371.726 -28.9451 1266.76 1802.22 3872.18 1753.08 23.6584 1726.22 5508.07 32.0041 23.806 -2716.18
internal_weight=0 20679 78751 20374 305 52 253 51362 231 5307 211 27389 15067 134 1220 4087 25803 12275 4319 163 2792 3924 91 3833 18182 3808 111 18123 18061 45
internal_count=99430 20679 78751 20374 305 52 253 51362 231 5307 211 27389 15067 134 1220 4087 25803 12275 4319 163 2792 3924 91 3833 18182 3808 111 18123 18061 45
is_linear=0
shrinkage=0.1


Tree=16
num_leaves=31
num_cat=0
split_feature=39 39 39 16 1 42 27 39 9 39 31 11 17 17 1 37 42 24 21 9 24 25 13 1 13 23 13 11 8 22
split_gain=3.01824e+12 1.03951e+12 1.02011e+12 3.49506e+11 3.79818e+11 2.93421e+11 2.87496e+11 2.16238e+11 1.89721e+11 1.79552e+11 7.66704e+10 7.07469e+10 6.67486e+10 5.34432e+10 5.00643e+10 5.80827e+10 4.98143e+10 4.13182e+10 4.38852e+10 6.75894e+10 4.03363e+10 4.02219e+10 3.88074e+10 3.85376e+10 3.84138e+10 3.77063e+10 6.34774e+10 4.69732e+10 3.67094e+10 4.5726e+10
threshold=93934.065934065948 252285.71428571432 44489.010989010996 582500.00000000012 590500.00000000012 149166.66666666672 867500.00000000012 63153.846153846163 163500.00000000003 26313.186813186818 215500.00000000003 339000.00000000006 116500.00000000001 78500.000000000015 163500.00000000003 53500.000000000007 9833.3333333333339 109500.00000000001 36500.000000000007 112500.00000000001 99500.000000000015 179500.00000000003 255500.00000000003 48500.000000000007 227500.00000000003 22500.000000000004 134500.00000000003 17500.000000000004 174500.00000000003 105500.00000000001
decision_type=2 2 2 10 2 8 8 2 10 2 10 10 10 10 2 8 10 10 10 10 10 10 10 2 8 8 10 10 10 10
left_child=2 5 9 4 8 12 -5 -4 -3 16 14 -10 21 28 15 -7 -1 -14 19 -19 -15 -2 23 -17 -16 26 27 -11 -9 -30
right_child=1 3 7 6 -6 10 -8 13 11 25 -12 -13 17 20 24 22 -18 18 -20 -21 -22 -23 -24 -25 -26 -27 -28 -29 29 -31
leaf_value=-1122.8129676795513 887.59287831500683 -4453.6339564732143 -55.693060428040511 7623.2500144675932 18655.013803827194 7027.204679336548 22505.395140625002 280.30205867570527 3823.9983472991407 -1515.4916903619464 3947.3545608897275 7498.1464777051797 937.75070415480377 505.33246803641572 2261.9144922785149 3931.5758584465784 -718.92099066532342 9133.4081933593752 1645.5352790404545 1262.1370429992676 1202.0615817512432 -1119.2665467505362 -2773.6642352104191 1538.210079550576 3607.1231484712062 -352.95488820115065 4826.2191784667975 -524.19847992286088 -435.6883723506221 -4542.6679327195698
leaf_weight=4087 4779 21 28365 27 21 20 25 12141 114 694 243 97 1043 5796 1021 71 12078 20 1903 24 970 102 20 1283 268 22394 20 1536 216 31
leaf_count=4087 4779 21 28365 27 21 20 25 12141 114 694 243 97 1043 5796 1021 71 12078 20 1903 24 970 102 20 1283 268 22394 20 1536 216 31
internal_value=0 1554.06 -195.33 7311.3 5776.62 1391.42 14778.1 119.602 4610.9 -562.046 2246.43 5513.06 1073.58 379.196 2092.38 1677 -821.037 1445.65 1717.73 4839.99 605.218 845.655 1599.12 1663.71 2541.6 -392.163 -782.398 -832.7 255.749 -951.139
internal_weight=0 11102 88328 305 253 10797 52 47519 232 40809 2926 211 7871 19154 2683 1394 16165 2990 1947 44 6766 4881 1374 1354 1289 24644 2250 2230 12388 247
internal_count=99430 11102 88328 305 253 10797 52 47519 232 40809 2926 211 7871 19154 2683 1394 16165 2990 1947 44 6766 4881 1374 1354 1289 24644 2250 2230 12388 247
is_linear=0
shrinkage=0.1


Tree=17
num_leaves=31
num_cat=0
split_feature=39 39 39 16 31 10 1 39 10 10 17 11 8 10 42 20 10 17 15 17 14 15 7 7 17 8 10 1 28 8
split_gain=2.44478e+12 8.42001e+11 8.35271e+11 2.83897e+11 2.99107e+11 2.38691e+11 2.19975e+11 1.87913e+11 1.58165e+11 1.46107e+11 7.08935e+10 6.36534e+10 6.01122e+10 6.67402e+10 4.78095e+10 4.66831e+10 5.75828e+10 4.28366e+10 6.04666e+10 3.98529e+10 3.9573e+10 3.94158e+10 3.69203e+10 3.35213e+10 3.31925e+10 3.30511e+10 3.91286e+10 1.36158e+11 3.25952e+10 3.0141e+10
threshold=93934.065934065948 252285.71428571432 47609.890109890119 532500.00000000012 990500.00000000012 136500.00000000003 546500.00000000012 28780.219780219784 181500.00000000003 69500.000000000015 185500.00000000003 313500.00000000006 279500.00000000006 210500.00000000003 10833.333333333334 184500.00000000003 59500.000000000007 112500.00000000001 225500.00000000003 78500.000000000015 198500.00000000003 1.0000000180025095e-35 -60499.999999999993 161500.00000000003 59500.000000000007 -335499.99999999994 55500.000000000007 52500.000000000007 104500.00000000001 180500.00000000003
decision_type=2 2 2 10 8 10 2 2 10 8 10 8 10 10 10 10 10 8 10 10 8 8 10 10 10 8 8 2 8 10
left_child=2 5 7 6 -5 15 8 14 -3 24 12 -10 13 -7 -1 17 -17 -2 25 29 -14 22 -9 -23 -4 -19 27 -27 -12 -11
right_child=1 3 9 4 -6 10 -8 21 11 19 28 -13 20 -15 -16 16 -18 18 -20 -21 -22 23 -24 -25 -26 26 -28 -29 -30 -31
leaf_value=-966.67749863569907 705.54983020890995 -3502.0474005126957 -87.917976562544595 7687.4847569056919 22304.172825985865 1639.1444461554704 13713.494861778847 -2058.2525840265835 2917.872203440947 301.47517429539721 5270.9210864777269 6591.2456405927551 421.14759107317241 3676.9506650614185 -610.23397101147191 -3488.6910787353518 354.46087606936527 -1630.6723056611563 4974.528319949196 596.25765668821896 -4005.8232539062501 -273.1660464278977 -601.94411887535682 3822.3736431884772 145.8657826220298 8330.3521419749541 1116.0597951915395 1270.4573770536795 2562.0381227406051 -630.36163568629172
leaf_weight=5145 3322 25 15631 42 21 2450 26 201 85 9701 47 106 105 172 14009 50 177 42 42 5856 25 26173 1300 20 9932 34 3383 139 809 360
leaf_count=5145 3322 25 15631 42 21 2450 26 201 85 9701 47 106 105 172 14009 50 177 42 42 5856 25 26173 1300 20 9932 34 3383 139 809 360
internal_value=0 1398.65 -175.797 6580.17 12559.7 1252.28 5023.52 -465.157 3977.5 151.009 1915.97 4956.5 1668.76 1772.82 -705.979 919.188 -492.048 965.202 1202.17 388.853 -430.193 -298.598 -796.959 -270.039 2.9141 1158.13 1191.07 2657.95 2710.77 268.132
internal_weight=0 11102 88328 305 63 10797 242 46848 216 41480 3608 191 2752 2622 19154 7189 227 6962 3640 15917 130 27694 1501 26193 25563 3598 3556 173 856 10061
internal_count=99430 11102 88328 305 63 10797 242 46848 216 41480 3608 191 2752 2622 19154 7189 227 6962 3640 15917 130 27694 1501 26193 25563 3598 3556 173 856 10061
is_linear=0
shrinkage=0.1


Tree=18
num_leaves=31
num_cat=0
split_feature=39 39 39 39 16 38 1 12 11 11 31 17 29 17 37 7 22 39 23 0 9 12 9 17 36 41 17 12 16 1
split_gain=1.99686e+12 7.88726e+11 4.63391e+11 3.51554e+11 2.29957e+11 3.02744e+11 1.83644e+11 1.11469e+11 1.05369e+11 9.69387e+10 8.22895e+10 6.42681e+10 6.91365e+10 5.43704e+10 5.12099e+10 4.95973e+10 4.92992e+10 4.74584e+10 6.10787e+10 5.3404e+10 4.75011e+10 5.38459e+10 4.70488e+10 4.02204e+10 3.74477e+10 3.6992e+10 3.5841e+10 6.02521e+10 3.56348e+10 5.01673e+10
threshold=73714.285714285725 252285.71428571432 34835.16483516484 133060.43956043958 532500.00000000012 745000.00000000012 480500.00000000006 546500.00000000012 55500.000000000007 163500.00000000003 104500.00000000001 137500.00000000003 166500.00000000003 21500.000000000004 223500.00000000003 124500.00000000001 133500.00000000003 105175.82417582419 24500.000000000004 663933.50000000012 32500.000000000004 171500.00000000003 230500.00000000003 255500.00000000003 101500.00000000001 28785.714285714294 200500.00000000003 174500.00000000003 160500.00000000003 72500.000000000015
decision_type=2 2 2 2 10 8 2 8 10 10 10 8 8 10 10 10 10 2 8 2 8 8 8 10 10 8 8 8 10 2
left_child=2 3 13 10 6 -6 9 -8 16 -3 14 12 -5 -1 17 -14 24 -2 19 -19 21 -20 28 -11 -4 -10 -24 -28 -13 -30
right_child=1 4 8 11 5 -7 7 -9 25 23 -12 22 15 -15 -16 -17 -18 18 20 -21 -22 -23 26 -25 -26 -27 27 -29 29 -31
leaf_value=-692.89155896586635 426.67248516233133 -3628.8602038574218 -153.87694641017674 1718.2523570598944 2466.9631754557295 16741.760493038862 6039.3463675247995 14983.716805752842 4419.1306909179684 1458.669981619028 1051.8969614422454 1453.7086615434655 67.186280888971297 -398.79391600757407 -3846.752419704861 -4874.0521883877836 -2219.4016764583753 1742.4743896484376 1914.126142227839 -4571.3182669974658 912.69078520294579 7869.7891894531249 764.07873297532399 4833.7382439491967 -1434.4327135666558 116.29980248679892 8299.4635675136869 3161.765353989219 6847.8438858695654 2129.6033587482266
leaf_weight=15562 11194 20 32107 404 24 39 38 22 20 52 3434 1265 265 10546 27 22 117 21 63 37 2223 20 48 110 230 20169 26 187 23 1115
leaf_count=15562 11194 20 32107 404 24 39 38 22 20 52 3434 1265 265 10546 27 22 117 21 63 37 2223 20 48 110 230 20169 26 187 23 1115
internal_value=0 874.537 -229.642 798.973 5922.16 11303.7 4521.16 9318.95 -58.8128 2939.48 614.541 1734.55 875.18 -574.094 503.987 -311.585 -170.399 512.651 919.776 -2285.29 1000.39 3349.23 1957.46 3750.38 -162.985 120.562 3232.61 3788.9 1818.96 2224.96
internal_weight=0 20679 78751 20374 305 63 242 60 52643 182 17019 3355 691 26108 13585 287 32454 13558 2364 58 2306 83 2664 162 32337 20189 261 213 2403 1138
internal_count=99430 20679 78751 20374 305 63 242 60 52643 182 17019 3355 691 26108 13585 287 32454 13558 2364 58 2306 83 2664 162 32337 20189 261 213 2403 1138
is_linear=0
shrinkage=0.1


Tree=19
num_leaves=31
num_cat=0
split_feature=42 41 42 21 42 23 17 9 9 28 17 26 12 17 16 17 14 14 24 38 41 24 13 23 30 8 14 9 0 26
split_gain=1.46996e+12 4.44317e+11 4.21297e+11 2.83605e+11 2.40849e+11 1.32295e+11 9.58068e+10 7.61387e+10 6.41327e+10 8.08501e+10 5.83472e+10 6.54937e+10 5.34634e+10 4.84297e+10 4.61165e+10 4.40505e+10 7.74058e+10 4.1042e+10 4.07771e+10 3.95159e+10 3.79643e+10 3.69424e+10 3.46057e+10 3.04305e+10 3.0323e+10 3.02625e+10 4.97782e+10 3.56807e+10 4.62269e+10 3.84587e+10
threshold=81833.333333333358 265285.71428571438 37500.000000000007 223500.00000000003 131500.00000000003 734500.00000000012 61500.000000000007 256500.00000000003 223500.00000000003 68500.000000000015 22500.000000000004 134500.00000000003 2500.0000000000005 121500.00000000001 160500.00000000003 800500.00000000012 508000.00000000006 32500.000000000004 138500.00000000003 463500.00000000006 56214.285714285717 151500.00000000003 204500.00000000003 40500.000000000007 97500.000000000015 190500.00000000003 171500.00000000003 9500.0000000000018 676365.00000000012 92500.000000000015
decision_type=10 10 8 10 10 10 10 10 10 8 10 10 8 10 8 8 10 8 10 10 10 8 10 8 10 10 8 10 2 10
left_child=2 4 3 10 13 15 7 23 12 -10 11 20 17 25 24 16 19 -6 22 -3 -1 -14 -15 -4 -11 27 -27 28 29 -2
right_child=1 5 6 -5 8 -7 -8 -9 9 14 -12 -13 21 18 -16 -17 -18 -19 -20 -21 -22 -23 -24 -25 -26 26 -28 -29 -30 -31
leaf_value=-594.71694798615624 5838.3076561904536 3929.2284315060347 -294.71363678039023 11426.583520507813 -2399.1769261094391 11211.74117126465 209.69218641601861 5794.1906793767757 7995.6789017288775 -2221.1892208214963 -330.1951718224235 -4708.3803784492693 999.47784575697506 929.2711653269713 2851.5544782046168 8496.8399857954555 -783.62169071320568 726.25900282118062 2141.9699850489301 8173.3947487160012 -2880.5134239719341 1696.9942340995858 -2561.7551101158406 -52.511563593459641 2134.3140002835185 58.771535309324875 -3786.8475448980566 514.82714612284497 -709.88173665364593 489.52256515502933
leaf_weight=15635 41 117 6148 20 61 32 15033 22 27 33 13157 39 1168 1361 293 22 31 135 300 27 73 2170 29 33202 31 188 41 9944 30 20
leaf_count=15635 41 117 6148 20 61 32 15033 22 27 33 13157 39 1168 1361 293 22 31 135 300 27 73 2170 29 33202 31 188 41 9944 30 20
internal_value=0 874.714 -169.014 -477.394 811.615 5248.1 -5.06596 -87.0648 1492.04 2719.41 -485.631 -615.502 1358.68 588.601 2320.36 4279.39 3749.19 -246.453 1084.64 4725.01 -605.34 1452.93 856.437 -90.3529 -111.492 506.927 -629.745 532.866 2504.01 4084.61
internal_weight=0 16101 83329 28924 15872 229 54405 39372 3918 384 28904 15747 3534 11954 357 197 175 196 1690 144 15708 3338 1390 39350 64 10264 229 10035 91 61
internal_count=99430 16101 83329 28924 15872 229 54405 39372 3918 384 28904 15747 3534 11954 357 197 175 196 1690 144 15708 3338 1390 39350 64 10264 229 10035 91 61
is_linear=0
shrinkage=0.1


Tree=20
num_leaves=31
num_cat=0
split_feature=39 39 39 39 42 23 42 42 24 13 39 5 4 17 17 42 13 15 8 19 30 4 24 42 19 28 30 26 23 11
split_gain=1.35253e+12 5.41436e+11 2.85944e+11 2.58326e+11 2.29979e+11 1.32626e+11 7.90092e+10 5.84595e+10 5.26739e+10 5.22012e+10 4.96021e+10 4.46925e+10 1.1868e+11 7.13688e+10 4.38739e+10 3.6648e+10 4.10437e+10 1.23941e+11 3.66315e+10 4.43224e+10 3.64491e+10 3.58105e+10 3.31123e+10 3.14236e+10 4.14823e+10 3.1264e+10 4.35474e+10 3.99713e+10 3.10782e+10 3.7985e+10
threshold=70543.956043956059 252285.71428571432 37868.131868131873 115593.4065934066 123833.33333333336 734500.00000000012 152166.66666666672 14833.333333333334 66500.000000000015 134500.00000000003 51708.791208791219 25.500000000000004 55.543903175000004 800500.00000000012 83500.000000000015 27500.000000000004 62500.000000000007 199500.00000000003 180500.00000000003 26500.000000000004 217500.00000000003 55.587371020000013 99500.000000000015 73833.333333333358 118500.00000000001 76500.000000000015 133500.00000000003 3500.0000000000005 101500.00000000001 108500.00000000001
decision_type=2 2 2 2 10 10 8 10 8 10 2 2 2 8 8 10 8 8 10 8 10 2 10 10 10 8 10 8 10 8
left_child=2 3 7 14 -3 11 8 -1 -5 -9 -4 12 -6 -14 18 -10 17 -17 -2 -20 25 -13 -16 24 -24 26 -8 -27 29 -18
right_child=1 4 10 6 5 -7 20 9 15 -11 -12 21 13 -15 22 16 28 -19 19 -21 -22 -23 23 -25 -26 27 -28 -29 -30 -31
leaf_value=-647.04479159303207 245.53531028671264 14042.01914453125 -151.26173683393264 -999.98683823479553 -2595.566099717882 10090.566860961915 7576.4533056640621 -352.57485575338046 -2862.6586093750002 4758.6781854248047 58.169254369483212 8977.3225452769893 2647.0284320948676 7678.3874136183003 431.31037175612755 1348.5039068728079 -567.71269315935535 9986.6527392578137 -3569.0913978854096 -154.1162265188326 2826.3213210821154 3391.7573404947916 1591.5603239762156 758.4610656601086 6529.1648266601569 -2714.2537130604619 1466.9218553815572 1476.7170193951295 1126.3001147689035 813.66693923997889
leaf_weight=9379 6250 25 22082 144 36 32 20 21467 25 20 23180 22 130 36 7778 98 265 20 55 123 224 24 114 2618 20 23 28 2156 2236 800
leaf_count=9379 6250 25 22082 144 36 32 20 21467 25 20 23180 22 130 36 7778 98 265 20 55 123 224 24 114 2618 20 23 28 2156 2236 800
internal_value=0 666.637 -204.051 611.125 4852.29 4031.77 1172.76 -438.741 873.807 -347.817 -44.006 3249.99 2609.38 3738.17 411.118 952.154 980.048 2812.6 205.249 -1209.31 1610.39 6063.11 536.791 834.91 2328.52 1488.09 4012.56 1432.48 914.54 469.943
internal_weight=0 23302 76128 22997 305 280 6039 30866 3588 21487 45262 248 202 166 16958 3444 3419 118 6428 178 2451 46 10530 2752 134 2227 48 2179 3301 1065
internal_count=99430 23302 76128 22997 305 280 6039 30866 3588 21487 45262 248 202 166 16958 3444 3419 118 6428 178 2451 46 10530 2752 134 2227 48 2179 3301 1065
is_linear=0
shrinkage=0.1


Tree=21
num_leaves=31
num_cat=0
split_feature=42 42 31 23 42 31 17 22 31 21 8 17 0 34 8 27 30 8 13 31 27 12 15 22 21 13 17 12 20 41
split_gain=9.86333e+11 3.55704e+11 3.08312e+11 2.15401e+11 1.38996e+11 9.46512e+10 8.2972e+10 7.38384e+10 7.17256e+10 6.61583e+10 6.00427e+10 6.75095e+10 5.4125e+10 4.57917e+10 3.90763e+10 4.12429e+10 9.54698e+10 3.87424e+10 3.69493e+10 3.66451e+10 5.2195e+10 4.80433e+10 3.51451e+10 4.71229e+10 3.39454e+10 3.38058e+10 3.83803e+10 4.16351e+10 3.26005e+10 3.31656e+10
threshold=97166.666666666672 46833.333333333336 607000.00000000012 240500.00000000003 205833.33333333334 65500.000000000007 16500.000000000004 61500.000000000007 142500.00000000003 69500.000000000015 -237499.99999999997 512500.00000000006 676433.00000000012 98500.000000000015 190500.00000000003 1.0000000180025095e-35 225500.00000000003 -335499.99999999994 217500.00000000003 98500.000000000015 138500.00000000003 93500.000000000015 1.0000000180025095e-35 167500.00000000003 163500.00000000003 400000.00000000006 442500.00000000006 396000.00000000006 119500.00000000001 165642.85714285719
decision_type=10 8 10 10 10 10 8 10 10 10 8 10 2 8 10 8 8 8 8 10 10 10 8 10 10 8 10 10 8 10
left_child=1 3 4 6 8 17 7 -1 14 -9 12 13 -6 -12 15 16 24 -3 -16 -8 21 -21 23 -19 -2 28 27 -27 -15 -30
right_child=2 5 -4 -5 10 -7 19 9 -10 -11 11 -13 -14 25 18 -17 -18 22 -20 20 -22 -23 -24 -25 -26 26 -28 -29 29 -31
leaf_value=-512.82550008416126 838.63119862694407 4198.7644309303978 9921.3130279541019 10060.469295806884 -2763.4079577934453 335.64855983174289 -250.23765323431195 -1246.5722742733203 1380.3032837879241 -4377.6284232633661 -2320.893952636719 7496.8873480902785 3581.9618469238285 6046.0707542782739 -155.01049466434415 668.7706301448012 8332.3609241832382 -499.76171483665433 -4057.1068246024001 1063.3919522523881 -3470.0686244419649 5856.1700845336918 17.1773106623892 -5085.4610009234893 4948.8388364045522 3786.4913208007815 1502.4186996459962 9252.900213068182 -1771.2008128773084 2213.5608376879381
leaf_weight=9604 159 22 38 20 41 11362 32462 361 1741 83 20 27 20 21 182 7370 22 872 28 128 21 25 34228 23 23 38 32 22 22 413
leaf_count=9604 159 22 38 20 41 11362 32462 361 1741 83 20 27 20 21 182 7370 22 872 28 128 21 25 34228 23 23 38 32 22 22 413
internal_value=0 -106.598 930.589 -314.98 897.032 84.7442 -319.841 -571.112 800.064 -1831.88 2304.98 2611.31 -682.959 2379.07 670.286 707.594 2110.18 3.62953 -675.29 -242.48 1204.87 1846.53 1.00183 -617.607 1358.05 2550.6 4299.22 5790.84 2197.81 2012.03
internal_weight=0 89211 10219 42704 10181 46507 42684 10048 9525 444 656 595 61 568 7784 7574 204 35145 210 32636 174 153 35123 895 182 548 92 60 456 435
internal_count=99430 89211 10219 42704 10181 46507 42684 10048 9525 444 656 595 61 568 7784 7574 204 35145 210 32636 174 153 35123 895 182 548 92 60 456 435
is_linear=0
shrinkage=0.1


Tree=22
num_leaves=31
num_cat=0
split_feature=39 39 18 39 9 11 11 7 19 9 5 24 1 6 14 9 7 42 42 21 24 18 14 21 1 16 23 28 35 11
split_gain=9.25594e+11 3.83216e+11 2.78865e+11 1.94773e+11 1.61603e+11 1.15642e+11 8.63135e+10 8.20111e+10 8.91442e+10 7.65087e+10 5.49152e+10 4.98112e+10 5.50815e+10 6.55473e+10 4.85945e+10 4.84435e+10 5.87523e+10 3.94828e+10 3.8273e+10 3.77726e+10 5.0982e+10 4.57745e+10 3.46907e+10 3.19432e+10 3.01259e+10 2.95708e+10 2.89153e+10 2.82305e+10 2.65287e+10 2.56478e+10
threshold=68945.054945054959 177840.65934065936 1.0000000180025095e-35 34230.769230769241 641500.00000000012 103500.00000000001 77500.000000000015 112500.00000000001 439000.00000000006 8500.0000000000018 9.5000000000000018 49500.000000000007 21500.000000000004 4.5000000000000009 160500.00000000003 113500.00000000001 -64499.999999999993 53833.333333333336 8500.0000000000018 194500.00000000003 242500.00000000003 117500.00000000001 58500.000000000007 98500.000000000015 124500.00000000001 292500.00000000006 59500.000000000007 82500.000000000015 75500.000000000015 1.0000000180025095e-35
decision_type=2 2 8 2 8 8 8 10 10 8 2 8 2 2 10 10 8 8 10 10 10 10 10 10 2 10 10 10 8 10
left_child=3 5 -3 18 6 14 -4 8 25 11 -6 -7 13 -13 19 -11 -17 27 26 20 -2 -21 -14 24 -24 -8 -1 -5 -16 -29
right_child=1 2 4 17 10 9 7 -9 -10 15 -12 12 22 -15 28 16 -18 -19 -20 21 -22 -23 23 -25 -26 -27 -28 29 -30 -31
leaf_value=-712.6670938661274 303.21984316491017 12507.960847355769 -4593.1420805431544 -121.95160037566893 9733.4460641571986 -1043.3607743915759 1670.4670571020852 -2510.3953681759722 5578.3662368091191 423.00496230020963 3964.3972389914775 1556.9052687872024 -64.824437854908126 8892.8111496497859 -3063.4333272298177 4036.8943161786615 860.24650017621707 44.214987628986364 -348.36454193373459 -381.2786550052831 4363.0680160030242 -5616.3489247197695 7074.4769199218754 1172.9638513380482 2942.7300981140138 3925.4795385053085 3099.6963290405274 -2024.447325819817 -539.2133334639725 -450.73937288674961
leaf_weight=3782 13946 26 21 28033 33 38 937 41 67 3994 33 21 54 29 48 59 4415 21190 21452 61 31 23 25 62 60 62 20 138 314 415
leaf_count=3782 13946 26 21 28033 33 38 937 41 67 3994 33 21 54 29 48 59 4415 21190 21452 61 31 23 25 62 60 62 20 138 314 415
internal_value=0 535.025 2262.47 -173.992 2039.37 444.107 1757.96 1878.44 2047.24 730.757 6848.92 2330.75 2841.58 5811.73 270.066 676.151 902.138 -59.229 -400.191 299.518 312.224 -1814.69 2102.73 2898.98 4157.95 1810.42 -692.613 -135.909 -873.917 -843.455
internal_weight=0 24400 1220 75030 1194 23180 1128 1107 1066 8757 66 289 251 50 14423 8468 4474 49776 25254 14061 13977 84 201 147 85 999 3802 28586 362 553
internal_count=99430 24400 1220 75030 1194 23180 1128 1107 1066 8757 66 289 251 50 14423 8468 4474 49776 25254 14061 13977 84 201 147 85 999 3802 28586 362 553
is_linear=0
shrinkage=0.1


Tree=23
num_leaves=31
num_cat=0
split_feature=39 19 39 24 1 12 10 31 5 42 10 20 9 21 29 7 31 41 24 28 31 7 31 20 40 16 23 6 24 39
split_gain=7.54107e+11 2.88167e+11 2.66188e+11 1.67578e+11 1.61426e+11 1.26174e+11 1.03407e+11 9.24627e+10 6.59112e+10 6.44547e+10 6.33791e+10 6.22202e+10 5.38501e+10 5.28106e+10 4.98869e+10 4.98125e+10 3.78442e+10 3.5378e+10 3.22004e+10 3.87414e+10 2.96624e+10 2.90828e+10 2.83074e+10 3.53677e+10 2.797e+10 3.16262e+10 2.68391e+10 2.58304e+10 2.85921e+10 3.18299e+10
threshold=93934.065934065948 458000.00000000006 46631.868131868141 990500.00000000012 460500.00000000006 157500.00000000003 136500.00000000003 607000.00000000012 20.500000000000004 16166.66666666667 69500.000000000015 217500.00000000003 236500.00000000003 169500.00000000003 166500.00000000003 -241499.99999999997 120500.00000000001 78214.285714285725 230500.00000000003 199500.00000000003 46500.000000000007 83500.000000000015 181500.00000000003 78500.000000000015 44283.333333333336 84500.000000000015 98500.000000000015 4.5000000000000009 162500.00000000003 70543.956043956059
decision_type=2 10 2 8 2 10 10 10 2 10 8 10 10 8 8 10 10 10 10 10 10 10 10 8 10 10 10 2 10 2
left_child=2 4 9 7 6 -6 11 8 -3 24 27 18 15 16 -14 -8 -13 20 19 -2 -11 -16 23 26 25 -1 -17 28 -4 -30
right_child=1 3 10 -5 5 -7 12 -9 -10 17 -12 13 14 -15 21 22 -18 -19 -20 -21 -22 -23 -24 -25 -26 -27 -28 -29 29 -31
leaf_value=-472.00365389282445 527.27519178864657 -872.1801663785368 -81.210451346699315 14105.083930664063 11967.309006569603 2302.8654990931918 -2851.4020949854998 8584.4122444661461 5697.7721426156859 -236.29864424915382 238.41280202077948 -1887.8786901746478 6913.9367707625688 -5218.4444065903181 2429.7937854585193 -3335.0334323021671 2858.3084269205733 3294.1385763234102 3415.8626638312089 -1323.3400620435632 41.92129415061769 -929.90123164735996 1677.5610378756571 991.09072236313534 -3520.6189925130211 2676.1502992868427 143.28154140374599 141.47386751899293 -651.75148838588166 4460.2857664963294
leaf_weight=11427 6923 37 19152 20 22 35 33 30 26 29461 16008 56 23 33 231 31 24 29 38 115 4405 29 598 2720 30 32 78 7734 21 29
leaf_count=11427 6923 37 19152 20 22 35 33 30 26 29461 16008 56 23 33 231 31 24 29 38 115 4405 29 598 2720 30 32 78 7734 21 29
internal_value=0 776.795 -97.6358 5800.93 725.132 6033 697.456 4015.09 1839.23 -266.503 80.826 475.534 1123.69 -1852.48 2449.95 1015.21 -464.023 -197.121 512.711 497.036 -200.11 2055.06 1052.45 920.31 -471.196 -463.212 -845.964 -12.8275 -74.9756 2313.23
internal_weight=0 11102 88328 113 10989 57 10932 93 63 45384 42944 7189 3743 113 283 3460 80 33895 7076 7038 33866 260 3427 2829 11489 11459 109 26936 19202 50
internal_count=99430 11102 88328 113 10989 57 10932 93 63 45384 42944 7189 3743 113 283 3460 80 33895 7076 7038 33866 260 3427 2829 11489 11459 109 26936 19202 50
is_linear=0
shrinkage=0.1


Tree=24
num_leaves=31
num_cat=0
split_feature=39 22 14 39 39 1 10 17 22 10 15 10 10 7 10 34 38 22 41 21 22 1 8 2 22 2 8 7 39 15
split_gain=6.15661e+11 2.61818e+11 2.65099e+11 1.42798e+11 1.33725e+11 1.06103e+11 1.08208e+11 7.52531e+10 6.45711e+10 5.72551e+10 4.58977e+10 5.23656e+10 4.26868e+10 4.11512e+10 4.38879e+10 3.98288e+10 3.52967e+10 3.51336e+10 3.68364e+10 6.09978e+10 3.26575e+10 3.09049e+10 9.25469e+10 9.29207e+10 4.42829e+10 3.40172e+10 3.39948e+10 4.1923e+10 3.02949e+10 2.91529e+10
threshold=72186.813186813204 284500.00000000006 87500.000000000015 33697.802197802208 145791.20879120883 497500.00000000006 1.0000000180025095e-35 512500.00000000006 125500.00000000001 72500.000000000015 37500.000000000007 110500.00000000001 52500.000000000007 -187499.99999999997 215500.00000000003 728000.00000000012 117500.00000000001 168500.00000000003 52785.714285714297 36500.000000000007 168500.00000000003 10500.000000000002 -114499.99999999999 649500.00000000012 93500.000000000015 35500.000000000007 104500.00000000001 64500.000000000007 9456.0439560439572 198500.00000000003
decision_type=2 10 10 2 2 2 8 10 10 8 8 10 8 8 10 8 8 10 10 10 10 2 8 2 8 2 8 8 2 10
left_child=3 4 -3 28 10 6 8 16 -6 -8 17 21 20 -11 -15 -9 -4 18 19 -2 -5 22 23 24 -12 -24 -27 -28 -1 -13
right_child=1 2 7 12 5 -7 9 15 -10 13 11 29 -14 14 -16 -17 -18 -19 -20 -21 -22 -23 25 -25 -26 26 27 -29 -30 -31
leaf_value=-652.17432517132784 5438.9654147444107 14567.502347237725 -2323.020456542969 -122.2153393481515 -7475.1411837370506 6832.5299392700199 5034.2929357580242 2493.7298874627977 -201.25566781850964 -2491.6347738742829 -1422.6205396569294 617.33475930422128 54.709390832724836 923.52335355480727 2056.3091645026034 8032.7202794692103 2196.672003894716 -3072.2556241948555 -490.16195270718555 -524.00660705566406 -3369.76825187437 247.93413960770096 -3580.2647412109382 9270.9259629669195 4499.267185756139 270.45696655718262 6484.1400768461681 237.59906227805402 -292.81263657323609 2092.6952033056727
leaf_weight=2623 29 21 20 27388 23 32 37 21 26 32 23 4544 25041 1990 413 34 127 47 635 42 31 13510 20 25 28 283 21 22 22204 138
leaf_count=2623 29 21 20 27388 23 32 37 21 26 32 23 4544 25041 1990 413 34 127 47 635 42 31 13510 20 25 28 283 21 22 22204 138
internal_value=0 464.887 3874.06 -133.192 430.204 1110.49 1037.86 2762.37 -3615.53 1130.1 340.527 371.49 -39.682 1070.77 1118.21 5917.83 1581.75 -424.87 -248.628 1911.57 -125.887 274.257 1116.97 4276.74 1828.61 422.914 668.507 3288.24 -330.78 660.82
internal_weight=0 22143 223 77287 21920 2553 2521 202 49 2472 19367 18614 52460 2435 2403 55 147 753 706 71 27419 13932 422 76 51 346 326 43 24827 4682
internal_count=99430 22143 223 77287 21920 2553 2521 202 49 2472 19367 18614 52460 2435 2403 55 147 753 706 71 27419 13932 422 76 51 346 326 43 24827 4682
is_linear=0
shrinkage=0.1


Tree=25
num_leaves=31
num_cat=0
split_feature=39 19 26 39 9 10 29 20 11 24 34 23 11 10 38 13 22 10 10 9 25 36 28 36 7 26 11 30 8 19
split_gain=5.02195e+11 2.07881e+11 2.185e+11 1.5288e+11 1.31696e+11 8.79671e+10 6.68227e+10 4.72825e+10 6.22933e+10 6.11572e+10 7.35544e+10 4.36687e+10 4.20654e+10 4.18952e+10 4.18838e+10 4.07149e+10 3.9213e+10 4.59825e+10 3.6004e+10 5.61001e+10 3.01314e+10 4.62611e+10 3.00949e+10 3.77712e+10 3.70945e+10 2.93341e+10 4.32328e+10 3.11023e+10 2.79694e+10 5.20651e+10
threshold=83862.637362637368 458000.00000000006 967000.00000000012 42137.362637362654 532500.00000000012 133500.00000000003 800500.00000000012 198500.00000000003 68500.000000000015 230500.00000000003 58500.000000000007 84500.000000000015 20500.000000000004 58500.000000000007 557000.00000000012 126500.00000000001 245500.00000000003 230500.00000000003 227500.00000000003 94500.000000000015 45500.000000000007 139500.00000000003 16500.000000000004 47500.000000000007 -118499.99999999999 77500.000000000015 1.0000000180025095e-35 81500.000000000015 -262499.99999999994 104500.00000000001
decision_type=2 10 8 2 10 8 8 10 10 10 10 8 10 10 8 10 10 10 10 10 8 8 8 8 10 10 10 8 8 10
left_child=3 4 6 12 5 7 14 9 -9 -2 -11 16 15 25 -3 -1 17 -7 20 -20 21 -13 23 -15 -24 28 27 -27 29 -5
right_child=1 2 -4 13 -6 11 -8 8 -10 10 -12 18 -14 22 -16 -17 -18 -19 19 -21 -22 -23 24 -25 -26 26 -28 -29 -30 -31
leaf_value=-380.81580711231425 336.76736551279066 2079.1269390708526 13746.854169810902 256.20016926732558 7117.3449153645843 -598.00917230136156 -1886.1689300537109 -5803.1939528245202 -518.62169896022533 8546.9047998046881 73.232609049479166 6812.1056187220984 -158.20201185557067 1995.0376764470884 7125.3877205684275 4134.069052734375 2464.6402979233685 -5520.7329856178985 -2438.1267194112143 2032.5275290672935 779.49374325719077 1107.4598908857868 -1411.1681041908266 314.71318224318486 117.31770619767788 -737.5116038660849 -343.15871743967784 -3905.0049261277727 -45.471430189198458 5969.579145951705
leaf_weight=15229 10156 38 22 58 30 138 24 26 157 20 21 21 21717 187 29 20 34 22 30 436 3880 44 160 470 20769 62 1014 62 24532 22
leaf_count=15229 10156 38 22 58 30 138 24 26 157 20 21 21 21717 187 29 20 34 22 30 436 3880 44 160 470 20769 62 1014 62 24532 22
internal_value=0 530.525 4803.59 -95.2027 498.366 485.115 2641.48 323.736 -1269.44 352.328 4206.73 848.876 -247.591 23.8013 4263.33 -374.894 -619.503 -1274.88 913.456 1744.72 815.264 2950.5 126.553 792.979 105.633 -62.3345 -558.699 -2321.26 -39.3838 1827.38
internal_weight=0 15128 113 84302 15015 14985 91 10380 183 10197 41 4605 36966 47336 67 15249 194 160 4411 466 3945 65 21586 657 20929 25750 1138 124 24612 80
internal_count=99430 15128 113 84302 15015 14985 91 10380 183 10197 41 4605 36966 47336 67 15249 194 160 4411 466 3945 65 21586 657 20929 25750 1138 124 24612 80
is_linear=0
shrinkage=0.1


Tree=26
num_leaves=31
num_cat=0
split_feature=39 39 18 31 10 10 31 15 41 25 37 42 36 14 18 17 18 13 11 7 18 4 14 18 17 14 39 35 31 41
split_gain=4.13137e+11 1.78474e+11 2.14678e+11 1.02728e+11 8.88061e+10 6.96861e+10 5.56558e+10 4.75374e+10 6.60962e+10 8.7999e+10 3.87074e+10 4.33623e+10 5.13254e+10 7.44628e+10 5.09044e+10 5.1173e+10 3.78036e+10 3.87497e+10 3.76922e+10 4.9757e+10 4.69071e+10 6.92623e+10 3.22688e+10 3.22447e+10 3.62066e+10 2.99944e+10 2.75164e+10 2.73322e+10 2.67849e+10 2.56974e+10
threshold=67950.549450549457 171978.02197802201 1.0000000180025095e-35 796500.00000000012 35500.000000000007 7500.0000000000009 114500.00000000001 37500.000000000007 53071.42857142858 80500.000000000015 204500.00000000003 138500.00000000003 105500.00000000001 117500.00000000001 35500.000000000007 233500.00000000003 132500.00000000003 155500.00000000003 339000.00000000006 73500.000000000015 655500.00000000012 55.950833515000006 94500.000000000015 147500.00000000003 102500.00000000001 225500.00000000003 8675.8241758241784 292500.00000000006 55500.000000000007 80500.000000000015
decision_type=2 2 8 10 10 8 10 8 10 10 10 10 8 10 8 10 8 10 8 10 10 2 10 8 10 8 2 10 10 10
left_child=4 6 -3 5 22 -4 7 8 9 -2 11 -9 13 -13 -14 -16 -10 23 19 27 21 -20 26 -18 -25 -21 -1 -7 -6 -28
right_child=1 2 3 -5 28 18 -8 10 16 -11 -12 12 14 -15 15 -17 17 -19 20 25 -22 -23 -24 24 -26 -27 29 -29 -30 -31
leaf_value=-582.12181838949243 5578.079710629112 10407.892490328275 -4716.3215136718745 8361.6102148437494 -70.887246076442608 1073.5123310206388 646.6308848788118 222.70174810412828 -478.1566585495716 -1736.4358712031926 -2288.264588216146 7084.5360984325416 -4259.6737084960942 363.6409328685088 719.77900203028196 5842.693485107422 -4942.5977805397733 -5576.2195384058468 2295.4037401629321 229.14781646728517 -1479.8224500868055 8252.4537730823868 -1467.597272127646 -1860.6481080518452 2572.7506298828125 -4882.7517711292612 -211.46051054371708 4801.7151495361331 113.12236119997092 -3418.9684152832033
leaf_weight=2193 38 26 20 20 33469 1171 3568 18374 508 29 60 32 20 34 778 20 22 29 173 24 27 22 216 70 25 22 28036 20 10359 25
leaf_count=2193 38 26 20 20 33469 1171 3568 18374 508 29 60 32 20 34 778 20 22 29 173 24 27 22 216 70 25 22 28036 20 10359 25
internal_value=0 350.48 1398.96 1242.7 -118.553 1146.43 282.749 217.959 -579.289 2412.1 247.714 255.615 939.726 3622.26 723.287 848.173 -885.746 -2303.93 1226.8 1011.48 2426.59 2967.48 -249.674 -1492.85 -693.964 -2215.67 -240.979 1136.12 -27.3955 -214.318
internal_weight=0 25132 1525 1499 74298 1479 23607 20039 721 67 19318 19258 884 66 818 798 654 146 1459 1237 222 195 30470 117 95 46 30254 1191 43828 28061
internal_count=99430 25132 1525 1499 74298 1479 23607 20039 721 67 19318 19258 884 66 818 798 654 146 1459 1237 222 195 30470 117 95 46 30254 1191 43828 28061
is_linear=0
shrinkage=0.1


Tree=27
num_leaves=31
num_cat=0
split_feature=39 16 13 11 1 27 7 42 39 25 11 18 30 28 7 20 27 36 34 7 29 38 14 28 22 11 20 29 15 42
split_gain=3.39453e+11 1.4758e+11 2.04859e+11 1.26915e+11 7.95924e+10 6.25494e+10 5.07786e+10 4.9621e+10 4.2616e+10 4.21326e+10 4.94777e+10 3.87012e+10 3.72707e+10 3.34925e+10 3.42604e+10 3.00876e+10 4.0113e+10 6.27033e+10 3.22322e+10 3.4268e+10 2.76066e+10 2.74661e+10 2.67921e+10 3.57713e+10 2.47769e+10 2.47322e+10 2.44525e+10 2.42699e+10 2.42589e+10 2.58149e+10
threshold=93934.065934065948 435500.00000000006 250500.00000000003 52500.000000000007 497500.00000000006 800500.00000000012 289500.00000000006 149166.66666666672 28939.560439560442 183500.00000000003 77500.000000000015 655500.00000000012 327500.00000000006 73500.000000000015 58500.000000000007 7500.0000000000009 124500.00000000001 85500.000000000015 29500.000000000004 67500.000000000015 76500.000000000015 165500.00000000003 198500.00000000003 105500.00000000001 67500.000000000015 170500.00000000003 125500.00000000001 193500.00000000003 163500.00000000003 48833.333333333336
decision_type=2 10 10 10 2 10 10 8 2 10 10 10 10 10 10 8 10 8 8 10 10 8 10 10 10 10 10 10 10 10
left_child=3 4 -3 6 7 11 8 9 -1 22 -11 -4 21 28 26 16 18 -18 24 25 -16 27 -2 -24 -5 -20 -15 -9 -10 -30
right_child=1 2 5 15 -6 -7 -8 12 13 10 -12 -13 -14 14 20 -17 17 -19 19 -21 -22 -23 23 -25 -26 -27 -28 -29 29 -31
leaf_value=-281.47375582393698 401.13254804470739 13173.923068847656 2266.0394679612377 776.05929935606537 5385.0380777994797 6953.7179643110794 4878.6716772460941 413.81332970929662 -80.744749270090608 -4278.1745974809701 -331.01939601340496 -2432.8494384765627 4051.7485281808035 -331.08866582822384 -975.66636131397195 68.071504693030633 5211.1333465576172 -717.76429351806644 217.3744509155955 -1802.3088864405015 -4138.3242022970453 917.89623959614244 -2410.1598327255247 396.65507486979169 2764.3616305881078 3690.7229083424522 -2418.9091892565712 -1448.8137060848285 -439.87533569335938 4137.6387346540178
leaf_weight=19126 7468 20 65 277 33 22 20 513 34324 39 171 24 35 1140 69 32094 44 30 862 85 46 2446 80 105 81 21 59 81 22 28
leaf_count=19126 7468 20 65 277 33 22 20 513 34324 39 171 24 35 1140 69 32094 44 30 862 85 46 2446 80 105 81 21 59 81 22 28
internal_value=0 521.17 3857.74 -65.5062 481.329 2179.15 -159.19 466.535 -161.028 333.339 -1064.06 998.923 807.128 -96.4791 -591.964 87.8668 541.66 2807.53 415.209 115.378 -2240.73 769.772 371.684 -817.103 1225.93 299.98 -433.825 159.819 -77.5384 2123.53
internal_weight=0 11102 131 88328 10971 111 54834 10938 54814 7863 210 89 3075 35688 1314 33494 1400 74 1326 968 115 3040 7653 185 358 883 1199 594 34374 50
internal_count=99430 11102 131 88328 10971 111 54834 10938 54814 7863 210 89 3075 35688 1314 33494 1400 74 1326 968 115 3040 7653 185 358 883 1199 594 34374 50
is_linear=0
shrinkage=0.1


Tree=28
num_leaves=31
num_cat=0
split_feature=39 22 14 42 17 13 40 25 31 8 19 18 42 39 9 4 35 6 14 36 27 18 17 33 34 20 37 39 21 17
split_gain=2.84211e+11 1.42512e+11 2.37908e+11 7.78034e+10 5.25786e+10 4.88756e+10 3.68558e+10 3.61296e+10 3.75048e+10 6.23499e+10 6.49572e+10 4.03867e+10 3.33062e+10 3.32991e+10 4.49106e+10 3.32016e+10 3.2608e+10 2.84196e+10 2.92747e+10 2.71904e+10 2.69885e+10 2.62924e+10 2.55161e+10 2.46099e+10 4.43071e+10 7.17763e+10 8.8565e+10 2.44612e+10 2.59407e+10 4.67253e+10
threshold=61923.076923076929 284500.00000000006 84500.000000000015 108833.33333333336 39500.000000000007 756000.00000000012 39083.333333333336 141500.00000000003 88500.000000000015 -129499.99999999999 126500.00000000001 240500.00000000003 122166.66666666667 171978.02197802201 508000.00000000006 55.937786545000009 198500.00000000003 4.5000000000000009 154500.00000000003 162500.00000000003 561500.00000000012 437000.00000000006 99500.000000000015 208500.00000000003 19500.000000000004 117500.00000000001 124500.00000000001 133060.43956043958 39500.000000000007 52500.000000000007
decision_type=2 10 10 8 10 10 8 10 10 10 10 10 10 2 8 2 10 2 10 10 10 10 8 10 8 10 10 2 10 10
left_child=4 3 -3 6 12 20 -2 8 11 10 -10 17 -1 23 22 -16 -9 18 -8 -19 21 -4 -15 24 25 26 -5 28 29 -11
right_child=1 2 5 13 -6 -7 7 16 9 27 -12 -13 -14 14 15 -17 -18 19 -20 -21 -22 -23 -24 -25 -26 -27 -28 -29 -30 -31
leaf_value=-196.10653427473258 3757.7414001464845 12886.063086228145 687.50410913640803 1825.2961127871561 -15.780667463060864 5514.2948275862072 28.046138020023268 -577.88379879355159 1437.0832172535083 4543.8184881591797 7991.5565011160716 -3781.5659983317055 3194.1226074218753 -2336.827953125 1660.6593554687502 6775.22684881037 -4709.185766601563 276.61231468047868 -1376.9760493570966 3722.8867102581521 -2374.7952746582032 3534.6028132563051 889.61479570070901 -1077.5672129828652 395.07233205357602 -1686.0211835507996 9778.9568591889893 3308.5169110979355 290.7154450915906 624.57532888998196
leaf_weight=38069 28 21 110 42 29551 29 13044 427 54 40 21 27 29 25 30 22 20 4952 150 23 20 46 1254 111 7162 27 21 28 3920 127
leaf_count=38069 28 21 110 42 29551 29 13044 427 54 40 21 27 29 25 30 22 20 4952 150 23 20 46 1254 111 7162 27 21 28 3920 127
internal_value=0 246.666 2748.86 228.745 -115.882 1710.42 131.911 127.465 145.24 414.974 3272.34 83.1279 -193.526 483.371 943.675 3824.51 -762.73 88.871 12.0727 292.545 1083.64 1527.03 826.549 400.162 422.781 2627.76 4476.52 362.896 342.716 1563.32
internal_weight=0 31781 226 31555 67649 205 22861 22833 22386 4190 75 18196 38098 8694 1331 52 447 18169 13194 4975 176 156 1279 7363 7252 90 63 4115 4087 167
internal_count=99430 31781 226 31555 67649 205 22861 22833 22386 4190 75 18196 38098 8694 1331 52 447 18169 13194 4975 176 156 1279 7363 7252 90 63 4115 4087 167
is_linear=0
shrinkage=0.1


end of trees

feature_importances:
mean_income_all=157
mean_income_last_3_days=105
income_9_day_before=63
income_2_day_before=56
income_1_day_before=40
income_16_day_before=31
income_3_day_before=29
income_23_day_before=29
money_in=23
income_14_day_before=20
yesterday_income_growth=19
income_10_day_before=19
yesterday_growth_of_income_growth=18
income_5_day_before=16
income_8_day_before=16
mean_income_last_7_days=16
income_6_day_before=15
income_13_day_before=15
income_15_day_before=15
latitude=14
income_7_day_before=13
income_19_day_before=12
income_4_day_before=11
income_12_day_before=11
income_11_day_before=9
income_30_day_before=9
money=8
income_18_day_before=8
income_20_day_before=8
income_26_day_before=8
TID=7
income_28_day_before=7
mean_income_last_30_days=7
income_22_day_before=6
income_17_day_before=5
income_21_day_before=5
income_29_day_before=5
day=4
income_27_day_before=4
weekday=3
longitude=2
income_24_day_before=1
income_25_day_before=1

parameters:
[boosting: gbdt]
[objective: regression]
[metric: l2]
[tree_learner: serial]
[device_type: cpu]
[data: ]
[valid: ]
[num_iterations: 29]
[learning_rate: 0.1]
[num_leaves: 31]
[num_threads: -1]
[deterministic: 0]
[force_col_wise: 0]
[force_row_wise: 0]
[histogram_pool_size: -1]
[max_depth: -1]
[min_data_in_leaf: 20]
[min_sum_hessian_in_leaf: 0.001]
[bagging_fraction: 0.7]
[pos_bagging_fraction: 1]
[neg_bagging_fraction: 1]
[bagging_freq: 0]
[bagging_seed: 3014]
[feature_fraction: 0.7]
[feature_fraction_bynode: 1]
[feature_fraction_seed: 29554]
[extra_trees: 0]
[extra_seed: 19515]
[early_stopping_round: 0]
[first_metric_only: 0]
[max_delta_step: 0]
[lambda_l1: 0]
[lambda_l2: 0]
[linear_lambda: 0]
[min_gain_to_split: 0]
[drop_rate: 0.1]
[max_drop: 50]
[skip_drop: 0.5]
[xgboost_dart_mode: 0]
[uniform_drop: 0]
[drop_seed: 12050]
[top_rate: 0.2]
[other_rate: 0.1]
[min_data_per_group: 100]
[max_cat_threshold: 32]
[cat_l2: 10]
[cat_smooth: 10]
[max_cat_to_onehot: 4]
[top_k: 20]
[monotone_constraints: ]
[monotone_constraints_method: basic]
[monotone_penalty: 0]
[feature_contri: ]
[forcedsplits_filename: ]
[refit_decay_rate: 0.9]
[cegb_tradeoff: 1]
[cegb_penalty_split: 0]
[cegb_penalty_feature_lazy: ]
[cegb_penalty_feature_coupled: ]
[path_smooth: 0]
[interaction_constraints: ]
[verbosity: -1]
[saved_feature_importance_type: 0]
[linear_tree: 0]
[max_bin: 255]
[max_bin_by_feature: ]
[min_data_in_bin: 3]
[bin_construct_sample_cnt: 200000]
[data_random_seed: 126]
[is_enable_sparse: 1]
[enable_bundle: 1]
[use_missing: 1]
[zero_as_missing: 0]
[feature_pre_filter: 1]
[pre_partition: 0]
[two_round: 0]
[header: 0]
[label_column: ]
[weight_column: ]
[group_column: ]
[ignore_column: ]
[categorical_feature: ]
[forcedbins_filename: ]
[precise_float_parser: 0]
[objective_seed: 25204]
[num_class: 1]
[is_unbalance: 0]
[scale_pos_weight: 1]
[sigmoid: 1]
[boost_from_average: 1]
[reg_sqrt: 0]
[alpha: 0.9]
[fair_c: 1]
[poisson_max_delta_step: 0.7]
[tweedie_variance_power: 1.5]
[lambdarank_truncation_level: 30]
[lambdarank_norm: 1]
[label_gain: ]
[eval_at: ]
[multi_error_top_k: 1]
[auc_mu_weights: ]
[num_machines: 1]
[local_listen_port: 12400]
[time_out: 120]
[machine_list_filename: ]
[machines: ]
[gpu_platform_id: -1]
[gpu_device_id: -1]
[gpu_use_dp: 0]
[num_gpu: 1]

end of parameters

pandas_categorical:[]
