tree
version=v3
num_class=1
num_tree_per_iteration=1
label_index=0
max_feature_idx=42
objective=regression
feature_names=TID money_in money longitude latitude day weekday yesterday_income_growth yesterday_growth_of_income_growth income_1_day_before income_2_day_before income_3_day_before income_4_day_before income_5_day_before income_6_day_before income_7_day_before income_8_day_before income_9_day_before income_10_day_before income_11_day_before income_12_day_before income_13_day_before income_14_day_before income_15_day_before income_16_day_before income_17_day_before income_18_day_before income_19_day_before income_20_day_before income_21_day_before income_22_day_before income_23_day_before income_24_day_before income_25_day_before income_26_day_before income_27_day_before income_28_day_before income_29_day_before income_30_day_before mean_income_all mean_income_last_30_days mean_income_last_7_days mean_income_last_3_days
feature_infos=[406136:699664] [0:2697000] [0:6019000] [35.500558769999998:39.842458970000003] [54.458422939999998:56.757842529999998] [1:31] [0:6] [-2214000:2697000] [-4911000:2697000] [0:2697000] [0:2697000] [0:2697000] [0:2697000] [0:2697000] [0:2697000] [0:2697000] [0:2697000] [0:2697000] [0:2697000] [0:2697000] [0:2697000] [0:2697000] [0:2697000] [0:2697000] [0:2697000] [0:2697000] [0:2697000] [0:2697000] [0:2697000] [0:2697000] [0:2697000] [0:2697000] [0:2697000] [0:2697000] [0:2697000] [0:2697000] [0:2697000] [0:2697000] [0:2697000] [2274.7252747252742:734461.5384615385] [0:843500] [0:917142.85714285716] [0:1247000]
tree_sizes=2847 2869 2836 2860 2844 2846 2861 2862 2909 2856 2847 2906 2885 2847 2836 2847 2845 2860 2861 2894 2832 2873 2844 2855 2867 2836 2843 2867 2837 2848 2860 2833 2866 2838 2849 2817 2869 2844 2871

Tree=0
num_leaves=31
num_cat=0
split_feature=39 39 39 4 39 39 39 39 14 1 39 39 1 39 1 20 16 15 21 36 39 1 39 9 15 15 11 39 39 9
split_gain=8.00439e+13 2.90002e+13 2.34206e+13 8.35403e+12 8.25337e+12 4.87716e+12 3.63799e+12 1.77683e+12 1.61748e+12 1.25552e+12 7.77999e+11 5.77923e+11 5.36539e+11 4.82421e+11 3.82763e+11 3.52718e+11 3.4026e+11 3.39243e+11 3.19812e+11 3.11928e+11 2.95762e+11 2.51567e+11 1.91156e+11 1.73136e+11 1.66952e+11 1.53895e+11 1.48085e+11 1.79648e+11 1.4648e+11 1.34893e+11
threshold=87912.087912087925 252285.71428571432 43005.494505494513 55.950833515000006 141604.39560439563 61302.197802197807 24637.362637362643 108791.20879120882 410000.00000000006 190500.00000000003 70543.956043956059 51142.857142857152 306000.00000000006 32214.285714285721 130500.00000000001 550000.00000000012 774000.00000000012 137500.00000000003 289500.00000000006 292500.00000000006 14615.384615384619 58500.000000000007 187060.43956043958 347000.00000000006 83500.000000000015 173500.00000000003 71500.000000000015 158895.60439560443 98329.670329670349 97500.000000000015
decision_type=2 2 2 2 2 2 2 2 10 2 2 2 2 2 2 8 10 8 8 10 2 2 2 8 10 10 8 2 2 8
left_child=2 4 6 8 7 11 20 28 12 17 -7 -4 18 -8 29 19 -5 21 -3 -10 -1 -6 -11 -14 -12 -16 -19 -28 -2 -9
right_child=1 3 5 16 9 10 13 14 15 22 24 -13 23 -15 25 -17 -18 26 -20 -21 -22 -23 -24 -25 -26 -27 27 -29 -30 -31
leaf_value=52122.649658638104 60419.941403341938 80996.101197905649 55794.301111776585 134894.54391203244 56188.629925399808 57674.625829773315 53949.231015028548 61009.95798265186 111857.67695734736 69713.917288456563 58656.920022007485 56698.876888389263 82503.213266871171 54900.393956950262 64377.549857749953 86736.963266871171 119955.2966002045 74159.463260767647 69690.14508505298 96521.96326415849 53014.220410290727 64950.593401783939 72839.524788123963 92826.508721416612 59534.443575444704 67647.588266260806 66206.473069867236 68383.000500783848 61453.019730355241 63038.836458400241
leaf_weight=7503 3660 58 13542 31 36 9577 8235 379 21 348 6827 14762 32 15128 1432 20 30 32 44 36 7381 365 447 33 3177 160 765 752 2196 2421
leaf_count=7503 3660 58 13542 31 36 9577 8235 379 21 348 6827 14762 32 15128 1432 20 30 32 44 36 7381 365 447 33 3177 160 765 752 2196 2421
internal_value=56746.6 63967.6 55631.8 94447.4 63252.1 57105.5 53786.7 61947.7 86172.4 68121.9 58318.9 56266.1 80643.8 54565.1 63468.1 98162.9 127547 66756.3 76119 102172 52564.8 64164 71471.3 87744.3 58935.6 64706.2 67427.4 67285.4 60807.3 62764.2
internal_weight=0 13298 86132 305 12993 47885 38247 10248 244 2745 19581 28304 167 23363 4392 77 61 1950 102 57 14884 401 795 65 10004 1592 1549 1517 5856 2800
internal_count=99430 13298 86132 305 12993 47885 38247 10248 244 2745 19581 28304 167 23363 4392 77 61 1950 102 57 14884 401 795 65 10004 1592 1549 1517 5856 2800
is_linear=0
shrinkage=1


Tree=1
num_leaves=31
num_cat=0
split_feature=39 39 39 39 4 39 39 1 1 39 39 21 22 15 39 25 39 39 39 11 9 39 1 39 15 13 9 15 1 15
split_gain=6.49696e+13 2.44906e+13 1.70656e+13 8.30715e+12 6.76676e+12 3.51864e+12 2.39014e+12 1.90382e+12 1.23019e+12 1.005e+12 5.83296e+11 4.90627e+11 5.84463e+11 4.00311e+11 3.81806e+11 3.6408e+11 3.34877e+11 3.09816e+11 2.52829e+11 2.4308e+11 2.13339e+11 1.91966e+11 1.50019e+11 1.37334e+11 1.35571e+11 1.22852e+11 1.09595e+11 9.03126e+10 8.65285e+10 8.24622e+10
threshold=82285.714285714304 252285.71428571432 40736.263736263747 125153.84615384617 55.950833515000006 58016.483516483524 23291.208791208792 179500.00000000003 373000.00000000006 102758.24175824177 68505.494505494527 448500.00000000006 327500.00000000006 138500.00000000003 48895.604395604401 805000.00000000012 187060.43956043958 31346.153846153855 145791.20879120883 71500.000000000015 76500.000000000015 13247.252747252749 240500.00000000003 89252.747252747271 44500.000000000007 379000.00000000006 76500.000000000015 112500.00000000001 64500.000000000007 219500.00000000003
decision_type=2 2 2 2 2 2 2 2 2 2 2 8 8 8 2 8 2 2 2 8 10 2 2 2 10 10 10 8 2 10
left_child=2 3 6 9 8 14 21 13 11 23 28 12 -3 20 -4 -6 -9 -8 -15 -20 24 -1 -13 -2 -5 -10 -12 -11 -7 -18
right_child=1 4 5 7 15 10 17 16 25 27 26 22 -14 18 -16 -17 29 -19 19 -21 -22 -23 -24 -25 -26 -27 -28 -29 -30 -31
leaf_value=-4233.8656287040949 2618.7687760858589 20354.323721644392 -1005.0091251491475 -5061.5719570312503 53058.297693452383 364.14009919754182 -2601.4016679768279 10900.670114577664 30240.401354980469 4602.7365371068727 1370.3951848514093 5264.8150488281253 38072.767252604172 7366.4104053668598 -263.57709171846619 69318.418046874998 13281.29965107267 -1812.4655383306851 20509.053759765626 9380.4268124314385 6579.0914139030619 -3487.9960743998163 17366.357738095237 3502.9211715079832 4281.5952190120042 37829.002246093754 2077.163544711409 5607.1372667778787 899.08254526520852 15950.378231728142
leaf_weight=6222 2928 83 14396 25 21 6435 8296 732 32 1561 4991 20 24 980 13420 40 315 12444 20 1054 1225 7747 21 4392 41 64 3915 2099 5704 183
leaf_count=6222 2928 83 14396 25 21 6435 8296 732 32 1561 4991 20 24 980 13420 40 315 12444 20 1054 1225 7747 21 4392 41 64 3915 2099 5704 183
internal_value=0 5867.73 -1113.58 5317.47 33930.7 90.8297 -2809.07 8897.58 26483.2 3825.76 1066.45 20764.5 24328.6 7660.58 -647.301 63720.7 12261.6 -2128.04 8527.86 9587.66 6280.71 -3820.22 11463.2 3149.26 742.517 35299.5 1681.08 5178.76 615.504 14262.1
internal_weight=0 15860 83570 15555 305 48861 34709 4575 244 10980 21045 148 107 3345 27816 61 1230 20740 2054 1074 1291 13969 41 7320 66 96 8906 3660 12139 498
internal_count=99430 15860 83570 15555 305 48861 34709 4575 244 10980 21045 148 107 3345 27816 61 1230 20740 2054 1074 1291 13969 41 7320 66 96 8906 3660 12139 498
is_linear=0
shrinkage=0.1


Tree=2
num_leaves=31
num_cat=0
split_feature=39 39 39 39 4 39 39 1 14 39 39 39 1 20 39 15 39 29 39 21 32 1 1 16 39 1 20 34 2 14
split_gain=5.26253e+13 1.98374e+13 1.38285e+13 6.72879e+12 5.48108e+12 2.91341e+12 1.88426e+12 1.55808e+12 1.12623e+12 8.14051e+11 5.04443e+11 3.9927e+11 3.55005e+11 3.12372e+11 2.90362e+11 2.68056e+11 2.57319e+11 2.54284e+11 2.48109e+11 2.18823e+11 1.91363e+11 1.71274e+11 1.69104e+11 1.52703e+11 1.42098e+11 1.21975e+11 1.02673e+11 1.01523e+11 1.01295e+11 9.33198e+10
threshold=82285.714285714304 252285.71428571432 40428.571428571442 125153.84615384617 55.950833515000006 57532.967032967041 22428.571428571431 167500.00000000003 410000.00000000006 102758.24175824177 68945.054945054959 171978.02197802201 306000.00000000006 449500.00000000006 48115.384615384624 69500.000000000015 29983.516483516487 800500.00000000012 141604.39560439563 289500.00000000006 72500.000000000015 230500.00000000003 104500.00000000001 453000.00000000006 12170.329670329673 91500.000000000015 856500.00000000012 295500.00000000006 340500.00000000006 245500.00000000003
decision_type=2 2 2 2 2 2 2 2 10 2 2 2 2 8 2 8 2 8 2 8 8 2 2 8 2 2 8 8 2 10
left_child=2 3 6 9 8 14 24 15 12 25 -7 -9 19 -10 -4 22 -8 -6 -17 27 -20 -13 28 -15 -1 -2 -19 -3 -5 -21
right_child=1 4 5 7 17 10 16 11 13 -11 -12 21 -14 23 -16 18 -18 26 20 29 -22 -23 -24 -25 -26 -27 -28 -29 -30 -31
leaf_value=-3873.372227341184 2427.6866156680335 16183.709531250001 -949.30725124707396 4173.6262442129628 48104.365781250002 548.14981126190901 -2422.4966106619081 8630.9031866709392 43910.910688920456 4660.8818204504551 1533.933081726369 11183.919367308939 24997.281847956732 22841.455288085941 -299.19701569133866 6002.4404384811724 -1685.4273213267434 56974.380208333343 16063.010696847101 5403.578273809524 7704.1847969116025 14640.80713334517 6135.9613055604877 33795.023526785713 -3206.9705101686018 3244.1046560818982 66985.784375000003 24736.295448369565 -3427.4115081787113 14623.765930706522
leaf_weight=5185 3674 35 13298 27 20 13237 7320 666 22 3660 8540 772 65 20 14213 1536 13420 21 28 21 1254 176 66 35 8357 3646 20 23 50 23
leaf_count=5185 3674 35 13298 27 20 13237 7320 666 22 3660 8540 772 65 20 14213 1536 13420 21 28 21 1254 176 66 35 8357 3646 20 23 50 23
internal_value=0 5280.95 -1002.22 4785.73 30537.6 70.5907 -2544.64 8007.83 23834.9 3443.18 934.731 10507.4 19221.6 33840.2 -613.441 6645.34 -1945.57 57348.6 6859.67 15541 7886.75 11825.7 2421.61 29811.9 -3462.12 2834.33 61858 19575.3 -762.113 10223.2
internal_weight=0 15860 83570 15555 305 49288 34282 4575 244 10980 21777 1614 167 77 27511 2961 20740 61 2818 102 1282 948 143 55 13542 7320 41 58 77 44
internal_count=99430 15860 83570 15555 305 49288 34282 4575 244 10980 21777 1614 167 77 27511 2961 20740 61 2818 102 1282 948 143 55 13542 7320 41 58 77 44
is_linear=0
shrinkage=0.1


Tree=3
num_leaves=31
num_cat=0
split_feature=39 39 39 39 9 39 39 39 17 24 39 39 18 2 2 22 13 23 39 39 22 9 39 22 39 9 9 39 30 10
split_gain=4.26728e+13 1.63091e+13 1.07048e+13 5.89933e+12 3.30938e+12 2.12319e+12 1.52976e+12 1.27885e+12 1.08955e+12 7.94619e+11 7.7334e+11 3.62729e+11 2.35313e+11 3.19721e+11 2.63155e+11 2.32151e+11 2.15541e+11 2.30413e+11 2.03011e+11 1.78829e+11 1.66148e+11 1.60361e+11 1.54817e+11 1.37486e+11 1.19086e+11 1.07601e+11 1.07183e+11 1.02211e+11 9.47983e+10 1.04945e+11
threshold=80351.648351648371 252285.71428571432 40428.571428571442 125153.84615384617 575500.00000000012 56357.142857142862 23967.03296703297 158895.60439560443 405000.00000000006 634000.00000000012 99912.087912087925 65763.736263736282 210500.00000000003 813500.00000000012 517500.00000000006 210500.00000000003 505500.00000000006 813000.00000000012 49741.758241758253 34230.769230769241 447000.00000000006 141500.00000000003 15829.670329670331 66500.000000000015 113109.89010989011 179500.00000000003 84500.000000000015 89252.747252747271 58500.000000000007 98500.000000000015
decision_type=2 2 2 2 8 2 2 2 10 8 2 2 8 2 2 10 10 10 2 2 10 8 2 8 2 8 10 2 8 10
left_child=2 3 6 10 8 18 22 21 12 20 27 -7 -3 14 -14 25 -6 -18 -4 -8 -10 23 -1 -5 -12 -9 -13 -2 29 -25
right_child=1 4 5 7 16 11 19 15 9 -11 24 26 13 -15 -16 -17 17 -19 -20 -21 -22 -23 -24 28 -26 -27 -28 -29 -30 -31
leaf_value=-3349.5952149235063 2037.9426461027917 27542.973298339843 -805.15407420664292 1202.1453860592533 39164.240662202377 363.40985792054192 -1994.3654471200343 7982.6597313940947 18741.770126488096 48961.320117187504 3608.974629037516 1026.1620490738085 15328.705950520834 21504.489622395835 2542.9693226207387 12201.991321022728 58083.826432291666 43550.704062500008 -238.01370015035096 -1391.280255147235 29878.313893581086 6774.100252143473 -2686.0643477629228 15426.946140136719 4665.1767433941959 9844.9625391057125 1849.9079188633359 2768.1078612147267 5387.1188098507037 6075.2466764322926
leaf_weight=8418 4026 20 15982 77 21 11407 10797 572 21 20 2562 8426 60 60 22 275 24 20 10431 9028 37 1475 6039 20 1830 678 1944 3660 1448 30
leaf_count=8418 4026 20 15982 77 21 11407 10797 572 21 20 2562 8426 60 60 22 275 24 20 10431 9028 37 1475 6039 20 1830 678 1944 3660 1448 30
internal_value=0 4568.6 -939.401 4148.91 27483.8 21.527 -2290.17 7207.04 22062.9 31773.1 2990.52 752.541 17387.6 15957.3 11898.4 9571.48 47499.6 51477.9 -581.179 -1719.73 25846.1 6024.82 -3072.42 5323.12 4049.06 8992.77 1180.58 2385.64 5534.94 9815.93
internal_weight=0 16958 82472 16653 305 48190 34282 4575 240 78 12078 21777 162 142 82 1525 65 44 26413 19825 58 3050 14457 1575 4392 1250 10370 7686 1498 50
internal_count=99430 16958 82472 16653 305 48190 34282 4575 240 78 12078 21777 162 142 82 1525 65 44 26413 19825 58 3050 14457 1575 4392 1250 10370 7686 1498 50
is_linear=0
shrinkage=0.1


Tree=4
num_leaves=31
num_cat=0
split_feature=39 39 39 39 4 39 39 39 21 39 1 1 29 25 39 1 1 21 39 39 15 9 9 15 1 9 1 17 11 15
split_gain=3.45796e+13 1.32718e+13 8.55897e+12 4.90577e+12 3.67714e+12 1.46673e+12 1.4596e+12 1.24419e+12 7.95125e+11 4.77394e+11 4.13312e+11 2.82951e+11 2.64606e+11 2.63713e+11 2.19725e+11 1.96665e+11 1.79218e+11 1.78405e+11 1.64279e+11 1.63902e+11 1.45098e+11 1.34398e+11 1.273e+11 1.48681e+11 1.14189e+11 9.89447e+10 9.0683e+10 8.87572e+10 8.01303e+10 7.68125e+10
threshold=79587.912087912104 252285.71428571432 42137.362637362654 120565.93406593408 55.950833515000006 25796.703296703297 59532.967032967041 154879.12087912092 385500.00000000006 96813.186813186825 199500.00000000003 306000.00000000006 512500.00000000006 990500.00000000012 51142.857142857152 133500.00000000003 70500.000000000015 319000.00000000006 34835.16483516484 16554.945054945059 135500.00000000003 347000.00000000006 97500.000000000015 43500.000000000007 119500.00000000001 452500.00000000006 80500.000000000015 258500.00000000003 127500.00000000001 484500.00000000006
decision_type=2 2 2 2 2 2 2 2 10 2 2 2 8 8 2 2 2 8 2 2 8 8 8 8 2 10 2 10 10 8
left_child=2 3 5 9 8 19 14 15 11 26 20 17 25 -6 -4 22 -8 27 -7 -1 -9 -13 23 -5 -11 -10 -2 -3 -20 -23
right_child=1 4 6 7 13 18 16 10 12 24 -12 21 -14 -15 -16 -17 -18 -19 28 -21 -22 29 -24 -25 -26 -27 -28 -29 -30 -31
leaf_value=-2985.9230014648801 1529.3240512343507 19771.66359375 -645.52659547634403 -3828.6883572048609 41400.106777871624 -1727.1527356489323 518.08698681995963 4365.157704142116 18541.830747767857 3083.490483970133 10517.262946643568 15303.308502604166 36380.654968750001 54859.469596354167 -81.487121789403062 5825.4085716006366 1170.8649547625726 5979.8762695312507 -1182.5901087210123 -2329.9854652841359 7690.9405112642971 19887.162602306547 4651.3948968893847 3227.9645597076415 4275.8767968046195 27770.706069711538 2288.9984784092194 12310.096102627842 5000.5514845257712 28546.471757812502
leaf_weight=9272 2284 25 14823 36 37 10370 10255 149 21 3334 584 30 25 24 12932 1803 7130 32 10837 6466 1097 21 1463 175 1058 26 5036 44 21 20
leaf_count=9272 2284 25 14823 36 37 10370 10255 149 21 3334 584 30 25 24 12932 1803 7130 32 10837 6466 1097 21 1463 175 1058 26 5036 44 21 20
internal_value=0 4059.9 -856.62 3689.37 24735.5 -1984.86 67.3198 6211.55 19245.4 2546.5 8322.1 15552 28068.5 46695.6 -382.721 5100.74 785.807 12151.4 -1442.5 -2716.43 7293.23 20389.6 4320.22 2023.99 3370.73 23647.2 2051.96 15013.6 -1170.63 24111.2
internal_weight=0 17324 82106 17019 305 36966 45140 5307 244 11712 1830 172 72 61 27755 3477 17385 101 21228 15738 1246 71 1674 211 4392 47 7320 69 10858 41
internal_count=99430 17324 82106 17019 305 36966 45140 5307 244 11712 1830 172 72 61 27755 3477 17385 101 21228 15738 1246 71 1674 211 4392 47 7320 69 10858 41
is_linear=0
shrinkage=0.1


Tree=5
num_leaves=31
num_cat=0
split_feature=39 39 39 1 1 39 39 39 21 39 22 1 1 1 39 39 25 21 41 39 26 41 22 36 25 39 34 29 21 1
split_gain=2.80727e+13 1.02326e+13 8.01375e+12 3.15178e+12 2.82729e+12 1.57327e+12 1.3146e+12 8.02846e+11 6.98573e+11 4.77367e+11 3.75318e+11 2.77373e+11 2.52014e+11 2.36211e+11 2.02884e+11 1.60337e+11 1.49597e+11 1.46777e+11 1.3421e+11 1.227e+11 1.15919e+11 8.90895e+10 9.11636e+10 8.45891e+10 8.21688e+10 8.05353e+10 7.95298e+10 7.84365e+10 9.05492e+10 7.62055e+10
threshold=86670.32967032968 252285.71428571432 45186.813186813197 136500.00000000003 590500.00000000012 27620.879120879123 65181.318681318684 154879.12087912092 385500.00000000006 106637.36263736265 511000.00000000006 54500.000000000007 209500.00000000003 306000.00000000006 18461.538461538468 36390.109890109896 805000.00000000012 289500.00000000006 75357.142857142884 99912.087912087925 492500.00000000006 53357.142857142862 125500.00000000001 79500.000000000015 1.0000000180025095e-35 56357.142857142862 295500.00000000006 192500.00000000003 60500.000000000007 238500.00000000003
decision_type=2 2 2 2 2 2 2 2 10 2 8 2 2 2 2 2 8 8 10 2 8 8 10 8 8 2 8 10 8 2
left_child=2 3 5 9 8 14 11 19 13 -2 20 -4 -9 17 -1 -7 -6 26 -8 -5 -10 -11 23 -23 -24 -13 -3 28 -21 -19
right_child=1 4 6 7 16 15 18 12 10 21 -12 25 -14 -15 -16 -17 -18 29 -20 27 -22 22 24 -25 -26 -27 -28 -29 -30 -31
leaf_value=-2638.2165566749436 2241.251421710846 11218.023947482639 -413.40324771544715 2264.4624711125534 35389.40729166667 -1435.4411533424136 833.76498846616687 7139.68580993258 24700.724218750001 -2836.8952241443458 35567.367812500001 -61.074953300326982 10000.162711866426 18527.094214221015 -1946.0386351032112 -917.36512445968663 45956.7421875 1950.5154296875 1473.4107661492385 1404.3562165204219 15144.034055397728 439.87429484915231 9372.5948419744327 3491.3582914401095 4307.3929383248033 404.2048381557604 18745.959375000002 7808.0295231745804 5120.8363029895945 10479.383735795454
leaf_weight=10980 5980 36 14277 161 21 10370 8194 1238 30 21 25 6601 410 69 6893 14091 37 20 5470 68 22 94 33 2705 1086 8524 23 104 1825 22
leaf_count=10980 5980 36 14277 161 21 10370 8194 1238 30 21 25 6601 410 69 6893 14091 37 20 5470 68 22 94 33 2705 1086 8524 23 104 1825 22
internal_value=0 4145.56 -681.056 3742.98 22261.9 -1658.09 279.375 6189.34 17596.4 2804.29 25498.4 -97.2679 7851.33 14017.2 -2371.27 -1137 42130.6 10936.3 1089.83 4920.13 20657.5 3659.06 3693.87 3388.88 4456.77 201.143 14152.6 5134.23 4987.33 6418.02
internal_weight=0 14030 85400 13725 305 42334 43066 3806 247 9919 77 29402 1648 170 17873 24461 58 101 13664 2158 52 3939 3918 2799 1119 15125 59 1997 1893 42
internal_count=99430 14030 85400 13725 305 42334 43066 3806 247 9919 77 29402 1648 170 17873 24461 58 101 13664 2158 52 3939 3918 2799 1119 15125 59 1997 1893 42
is_linear=0
shrinkage=0.1


Tree=6
num_leaves=31
num_cat=0
split_feature=1 42 9 41 1 41 1 9 41 1 21 9 1 1 41 15 1 1 9 1 15 15 15 41 32 41 15 1 23 1
split_gain=2.03632e+13 8.05478e+12 4.93456e+12 3.96001e+12 1.30501e+12 1.0973e+12 1.0135e+12 9.29281e+11 7.70646e+11 5.46377e+11 4.62261e+11 3.73601e+11 3.06792e+11 2.51947e+11 2.20403e+11 2.08384e+11 2.06501e+11 2.04037e+11 1.98059e+11 1.48719e+11 1.23227e+11 1.14242e+11 1.10984e+11 1.09577e+11 1.08105e+11 1.04071e+11 1.00639e+11 9.13454e+10 8.9659e+10 8.63087e+10
threshold=80500.000000000015 339833.33333333337 40500.000000000007 123785.7142857143 590500.00000000012 59357.142857142862 190500.00000000003 101500.00000000001 30071.428571428576 210500.00000000003 222500.00000000003 50500.000000000007 48500.000000000007 373000.00000000006 265285.71428571438 156500.00000000003 20500.000000000004 127500.00000000001 116500.00000000001 306000.00000000006 505500.00000000006 126500.00000000001 97500.000000000015 70357.142857142884 867500.00000000012 77071.428571428594 202500.00000000003 306000.00000000006 162500.00000000003 136500.00000000003
decision_type=2 10 8 10 2 10 2 8 10 2 10 10 2 2 10 10 2 2 10 2 8 10 10 10 8 10 10 2 10 2
left_child=2 3 8 7 13 12 15 11 16 17 -10 25 -4 -3 26 -5 28 -9 23 -11 -15 -20 -13 -7 -6 -2 -8 -16 -1 -17
right_child=1 4 5 6 24 18 14 9 10 19 -12 22 -14 20 27 29 -18 -19 21 -21 -22 -23 -24 -25 -26 -27 -28 -29 -30 -31
leaf_value=-2248.6021457542902 -141.13376666501239 11213.968740234377 -694.53886938318874 4080.4847371814599 32729.25654761905 356.53757783560923 6893.6580839985545 2624.744590771154 -1025.4827156864462 8252.9371478837784 13482.199866832387 1504.4363220063635 -56.530030978319793 19052.068314376531 10120.778553602431 3999.6122002204606 -1600.49651937724 4276.2577921440561 1672.0819113111318 17723.480322265626 27308.690625000003 4942.7733026760725 2368.5894346945779 898.69040641820595 42021.773765120975 1979.0850503653066 9138.3474390072497 17150.145651726976 4452.2484790039061 6142.337898240673
leaf_weight=12473 1624 30 15214 2110 21 9570 396 3758 13049 97 22 5752 14936 51 36 233 8570 934 526 20 28 134 2004 6107 31 270 403 38 20 973
leaf_count=12473 1624 30 15214 2110 21 9570 396 3758 13049 97 22 5752 14936 51 36 233 8570 934 526 20 28 134 2004 6107 31 270 403 38 20 973
internal_value=0 2962.82 -691.231 2770.54 25234.2 -20.841 5477.9 1986.18 -1604.23 3121.82 -1001.06 1420.24 -378.476 19015.8 8509.39 4679.8 -1978.54 2953.5 639.176 9871.83 21978.5 2336.13 1727.72 567.734 38269 161.115 8025.84 13730.5 -2237.87 5728.36
internal_weight=0 18809 80621 18648 161 46487 4189 14459 34134 4809 13071 9650 30150 109 873 3316 21063 4692 16337 117 79 660 7756 15677 52 1894 799 74 12493 1206
internal_count=99430 18809 80621 18648 161 46487 4189 14459 34134 4809 13071 9650 30150 109 873 3316 21063 4692 16337 117 79 660 7756 15677 52 1894 799 74 12493 1206
is_linear=0
shrinkage=0.1


Tree=7
num_leaves=31
num_cat=0
split_feature=39 39 39 4 39 39 39 16 3 1 1 22 4 1 25 39 22 29 31 1 9 39 16 22 1 39 9 25 11 31
split_gain=1.86906e+13 6.68667e+12 5.65286e+12 2.00873e+12 1.94882e+12 1.05378e+12 9.93104e+11 5.24351e+11 4.63145e+11 4.11007e+11 3.33385e+11 2.52387e+11 3.01861e+11 1.87058e+11 1.85129e+11 1.69469e+11 1.44118e+11 1.25062e+11 1.18825e+11 1.13068e+11 1.01307e+11 9.41963e+10 8.60295e+10 8.34854e+10 7.82718e+10 7.78178e+10 7.09209e+10 6.68693e+10 6.28317e+10 6.03946e+10
threshold=89252.747252747271 252285.71428571432 45186.813186813197 55.950833515000006 141604.39560439563 28780.219780219784 65181.318681318684 156500.00000000003 37.97622848000001 116500.00000000001 191500.00000000003 247500.00000000003 55.543903175000004 56500.000000000007 805000.00000000012 19703.29670329671 44500.000000000007 88500.000000000015 54500.000000000007 95500.000000000015 106500.00000000001 37868.131868131873 379000.00000000006 175500.00000000003 70500.000000000015 125153.84615384617 182500.00000000003 153500.00000000003 138500.00000000003 483500.00000000006
decision_type=2 2 2 2 2 2 2 8 2 2 2 10 2 2 8 2 8 10 8 2 8 2 10 10 2 2 8 10 10 10
left_child=2 4 5 7 9 15 13 -3 11 20 16 12 -9 -4 -5 -1 19 24 -18 -6 27 28 -13 -20 -8 -11 -12 -2 -7 -16
right_child=1 3 6 14 10 21 17 8 -10 25 26 22 -14 -15 29 -17 18 -19 23 -21 -22 -23 -24 -25 -26 -27 -28 -29 -30 -31
leaf_value=-2149.8106020564505 1820.3251851342725 29633.150000000001 -297.49555433768609 26804.520107886907 -5203.6183796386722 -1111.5916471993442 517.1806456302844 -3970.5937245244568 20166.909342981558 3030.3403644135519 5983.6611401277432 11723.547953287762 10010.442134581222 210.84458966411495 42285.006562499999 -1543.7405429715755 11032.739044189453 1671.4157019441009 4521.5998211411907 4307.1195029296878 2555.3669702331827 -698.58101942636517 18997.816396949405 6103.4283867480026 1020.9029244283668 4001.7644470388241 7980.4511252317916 -577.56128524144492 4363.2221819196429 34513.608984375001
leaf_weight=11407 3769 20 16513 21 25 11691 5196 23 61 2036 272 72 47 12889 20 7747 32 1974 1443 25 2571 11468 21 434 7592 1386 514 120 21 20
leaf_count=11407 3769 20 16513 21 25 11691 5196 23 61 2036 272 72 47 12889 20 7747 32 1974 1443 25 2571 11468 21 434 7592 1386 514 120 21 20
internal_value=0 3545.87 -530.13 18176.8 3192.47 -1355.83 261.353 14119.1 12733.9 2537.7 5549.62 9952.25 5416.67 -74.6537 34407.7 -1904.68 4851.55 930.588 4990.36 -448.249 2068.32 -902.3 13366.1 4887.35 816.231 3423.79 7289.45 1746.34 -1101.78 38399.3
internal_weight=0 12932 86498 305 12627 42334 44164 244 224 9882 2745 163 70 29402 61 19154 1959 14762 1909 50 6460 23180 93 1877 12788 3422 786 3889 11712 40
internal_count=99430 12932 86498 305 12627 42334 44164 244 224 9882 2745 163 70 29402 61 19154 1959 14762 1909 50 6460 23180 93 1877 12788 3422 786 3889 11712 40
is_linear=0
shrinkage=0.1


Tree=8
num_leaves=31
num_cat=0
split_feature=9 42 42 15 4 41 21 41 41 41 9 9 22 13 15 15 15 29 25 29 22 41 29 9 21 41 2 41 21 21
split_gain=1.3381e+13 5.15539e+12 3.38061e+12 2.3641e+12 8.85529e+11 7.98526e+11 6.23747e+11 5.87905e+11 5.21947e+11 5.10253e+11 2.52212e+11 2.25876e+11 2.23316e+11 1.46761e+11 1.41674e+11 1.379e+11 1.35227e+11 1.20016e+11 1.17042e+11 1.0654e+11 9.46346e+10 9.2108e+10 8.58172e+10 8.1718e+10 7.43549e+10 6.8631e+10 6.78838e+10 6.42486e+10 6.41426e+10 6.22009e+10
threshold=83500.000000000015 339833.33333333337 40833.333333333336 129500.00000000001 55.950833515000006 61214.285714285717 240500.00000000003 196642.85714285716 92785.714285714304 26071.428571428576 155500.00000000003 51500.000000000007 158500.00000000003 176500.00000000003 268000.00000000006 295500.00000000006 83500.000000000015 118500.00000000001 805000.00000000012 83500.000000000015 95500.000000000015 15071.428571428574 99500.000000000015 141500.00000000003 32500.000000000004 47357.142857142862 701500.00000000012 24642.857142857149 51500.000000000007 164500.00000000003
decision_type=10 10 8 10 2 10 10 10 8 10 10 8 10 8 10 10 10 10 8 10 10 8 10 10 8 10 2 8 8 10
left_child=2 3 6 8 14 11 9 12 19 21 17 25 23 -12 -3 -9 -7 -10 -6 28 -18 -1 24 -5 -11 27 -13 -4 -2 -22
right_child=1 4 5 7 18 16 -8 15 10 22 13 26 -14 -15 -16 -17 20 -19 -20 -21 29 -23 -24 -25 -26 -27 -28 -29 -30 -31
leaf_value=-1960.7044192262777 -238.0679716122595 8479.3853829843029 4841.7307297479538 2978.780594744379 24124.068098958334 435.46500063037649 16349.4069921875 7122.2709101990686 1900.2113220992005 -1227.5165303473414 2711.0510892291404 -23.501018765054301 5211.5930712347727 5563.1220033340906 16856.813706054687 12509.60072781545 866.16841566121332 3080.0353289659624 33471.118750000001 1651.7260207696033 1901.8358643214794 -1494.2226531528922 1418.2261435879263 4180.2100452236828 -772.69193065499348 -280.3271287108679 1997.3236516339439 -695.03992863184067 874.69158901501908 5734.2666507636177
leaf_weight=7333 617 27 21 1335 21 12053 20 459 5727 5519 387 15775 1113 338 80 53 2685 1015 37 1675 719 10012 157 983 10307 7028 168 10492 3229 45
leaf_count=7333 617 27 21 1335 21 12053 20 459 5727 5519 387 15775 1113 338 80 53 2685 1015 37 1675 719 10012 157 983 10307 7028 168 10492 3229 45
internal_value=0 2545.82 -528.62 2374.39 20136.5 0.0772464 -1305.24 4519.01 1723.31 -1315.83 2268.42 -274.639 4047.31 4040.71 14742.9 7679.94 593.458 2077.83 30086.8 986.077 1145.59 -1691.44 -908.224 3488.27 -931.303 -522.252 -2.2065 -683.98 696.176 2127.57
internal_weight=0 17096 82334 16931 165 48986 33348 3943 12988 33328 7467 33484 3431 725 107 512 15502 6742 58 5521 3449 17345 15983 2318 15826 17541 15943 10513 3846 764
internal_count=99430 17096 82334 16931 165 48986 33348 3943 12988 33328 7467 33484 3431 725 107 512 15502 6742 58 5521 3449 17345 15983 2318 15826 17541 15943 10513 3846 764
is_linear=0
shrinkage=0.1


Tree=9
num_leaves=31
num_cat=0
split_feature=39 39 39 39 4 39 39 1 21 1 23 17 0 25 15 1 1 34 39 15 9 1 15 29 20 21 33 39 39 21
split_gain=1.25404e+13 4.84333e+12 3.09218e+12 1.8363e+12 1.3242e+12 5.93874e+11 4.63113e+11 4.38283e+11 3.4836e+11 2.82577e+11 2.69145e+11 1.54183e+11 2.65825e+11 1.43936e+11 1.23636e+11 1.02405e+11 9.19836e+10 8.46232e+10 7.75783e+10 7.75437e+10 7.53592e+10 6.92964e+10 6.90837e+10 6.84348e+10 8.28307e+10 6.74325e+10 1.05111e+11 6.12294e+10 5.40477e+10 5.38169e+10
threshold=78873.626373626394 252285.71428571432 40428.571428571442 126521.97802197804 55.950833515000006 56021.97802197803 21445.054945054948 183500.00000000003 385500.00000000006 105500.00000000001 492500.00000000006 225500.00000000003 676433.00000000012 990500.00000000012 138500.00000000003 69500.000000000015 460500.00000000006 256500.00000000003 30857.142857142859 295500.00000000006 198500.00000000003 46500.000000000007 112500.00000000001 116500.00000000001 205500.00000000003 167500.00000000003 110500.00000000001 10005.494505494507 93934.065934065948 58500.000000000007
decision_type=2 2 2 2 2 2 2 2 10 2 8 8 2 8 8 2 2 10 2 8 10 2 8 10 10 10 8 2 2 8
left_child=2 3 6 9 8 21 27 14 11 28 16 -3 19 -6 23 -7 -10 25 -8 -13 -9 -4 -11 24 29 -16 -27 -1 -2 -5
right_child=1 4 5 7 13 15 18 20 10 22 -12 12 -14 -15 17 -17 -18 -19 -20 -21 -22 -23 -24 -25 -26 26 -28 -29 -30 -31
leaf_value=-2116.1090012907439 1109.8478359704732 17195.707812500001 -513.64441966814172 -2495.8186508178715 24172.430099239864 215.14874956753599 -1185.4189242651059 5048.2891665279276 7789.6477329799109 1834.8143258576401 25116.298032924111 7521.2154132780488 -743.24608851841526 34116.02337239583 3500.5468704020382 663.06552807863739 16943.587916100543 10361.368503417969 -801.84763771583994 12543.082149382561 6765.4118934044473 -182.64700753801833 2648.2586537764091 3359.3311051425003 -2882.0841692243303 11951.240673828126 4547.4639970283097 -1602.0260502166484 1628.2872003400805 2346.3743776357674
leaf_weight=3050 5825 21 10882 24 37 13116 9150 606 21 1897 28 61 28 24 1539 8356 23 20 12444 62 442 15104 2322 593 35 20 465 9638 3071 526
leaf_count=3050 5825 21 10882 24 37 13116 9150 606 21 1897 28 61 28 24 1539 8356 23 20 12444 62 442 15104 2322 593 35 20 465 9638 3071 526
internal_value=0 2414.07 -522.449 2194.91 14906.5 0.301057 -1246.11 3996.08 11611.9 1608.48 17452 9167.23 8050.69 28084.7 3418.27 389.459 12574.7 3888.53 -964.378 10052.6 5772.5 -321.257 2282.51 2602.3 1834.91 3824.57 4852.77 -1725.6 1288.82 2135.08
internal_weight=0 17690 81740 17385 305 47458 34282 4270 244 13115 72 172 151 61 3222 21472 44 2044 21594 123 1048 25986 4219 1178 585 2024 485 12688 8896 550
internal_count=99430 17690 81740 17385 305 47458 34282 4270 244 13115 72 172 151 61 3222 21472 44 2044 21594 123 1048 25986 4219 1178 585 2024 485 12688 8896 550
is_linear=0
shrinkage=0.1


Tree=10
num_leaves=31
num_cat=0
split_feature=39 39 39 39 9 39 39 21 22 39 15 15 9 15 17 9 2 15 24 26 10 22 39 39 9 10 13 12 39 32
split_gain=1.01695e+13 3.95666e+12 2.44062e+12 1.57296e+12 8.287e+11 5.09838e+11 4.19732e+11 4.02141e+11 4.10872e+11 3.17559e+11 1.75549e+11 1.47365e+11 1.00587e+11 9.69049e+10 8.9697e+10 1.45723e+11 1.35033e+11 8.52405e+10 8.24845e+10 1.84965e+11 6.68165e+10 6.46486e+10 6.39829e+10 5.65935e+10 5.54183e+10 6.10629e+10 5.31823e+10 5.15624e+10 4.99093e+10 4.82383e+10
threshold=77708.791208791212 252285.71428571432 38445.054945054952 117791.20879120879 575500.00000000012 54247.252747252758 171978.02197802201 385500.00000000006 532500.00000000012 19703.29670329671 853000.00000000012 103500.00000000001 66500.000000000015 138500.00000000003 227500.00000000003 316500.00000000006 517500.00000000006 219500.00000000003 63500.000000000007 105500.00000000001 417000.00000000006 66500.000000000015 95675.824175824164 29296.703296703301 141500.00000000003 2500.0000000000005 84500.000000000015 143500.00000000003 45978.021978021985 253500.00000000003
decision_type=2 2 2 2 8 2 2 10 8 2 8 10 8 8 8 10 2 10 8 10 10 8 2 2 8 8 8 10 2 10
left_child=2 3 9 11 7 28 13 14 20 -1 -6 22 27 21 -3 16 -16 29 19 -15 -9 -5 -2 -11 26 -26 -20 -7 -4 -8
right_child=1 4 5 6 10 12 17 8 -10 23 -12 -13 -14 18 15 -17 -18 -19 24 -21 -22 -23 -24 -25 25 -27 -28 -29 -30 -31
leaf_value=-1588.7155825708817 949.89907523848115 14191.84814453125 -496.42802727529198 132.29921704902026 18620.509525495258 127.957672095026 4647.990278341862 7687.8614270019534 29019.637060546876 -1124.1579658791709 29045.1653515625 1890.0554483337885 530.33433919455763 14531.866982886906 7655.4685512609649 11276.315825396319 -235.72883507864819 6660.7601788019738 -241.48637390136719 2990.9890083126907 14896.771853298613 2504.2332363344772 1559.0982704503404 -786.34185970516 -677.31650848388676 3746.1640504917327 2829.163026706623 -2467.3988534902601 -217.99411225607639 -196.75053451174782
leaf_weight=11407 6985 20 12078 122 35 13067 963 20 20 8601 30 3170 10280 21 57 52 35 236 60 41 36 1977 2289 11712 32 1259 941 77 13786 21
leaf_count=11407 6985 20 12078 122 35 13067 963 20 20 8601 30 3170 10280 21 57 52 35 236 60 41 36 1977 2289 11712 32 1259 941 77 13786 21
internal_value=0 2120.74 -482.276 1930.59 13415.8 -41.9423 3310.62 10703.1 16716.2 -1166.49 23431.9 1301.45 296.016 2860.39 7916.56 7045 4653.38 4953.95 3300.89 6900 12322.2 2366.37 1100.26 -929.381 3203.53 3636.52 2645.11 112.754 -348.017 4544.6
internal_weight=0 18422 81008 18117 305 49288 5673 240 76 31720 65 12444 23424 4453 164 144 92 1220 2354 62 56 2099 9274 20313 2292 1291 1001 13144 25864 984
internal_count=99430 18422 81008 18117 305 49288 5673 240 76 31720 65 12444 23424 4453 164 144 92 1220 2354 62 56 2099 9274 20313 2292 1291 1001 13144 25864 984
is_linear=0
shrinkage=0.1


Tree=11
num_leaves=31
num_cat=0
split_feature=9 42 42 15 4 15 41 14 15 41 15 9 9 14 13 6 22 41 28 14 22 22 15 41 23 9 37 9 41 22
split_gain=7.27432e+12 2.72175e+12 1.71429e+12 1.34548e+12 4.7442e+11 4.14617e+11 3.83517e+11 3.6705e+11 2.85208e+11 2.3725e+11 1.67302e+11 1.64757e+11 1.40642e+11 1.04492e+11 9.32769e+10 8.62104e+10 8.16987e+10 8.12723e+10 7.60354e+10 6.91006e+10 6.81044e+10 6.76565e+10 6.3638e+10 5.98273e+10 5.52697e+10 5.42382e+10 4.8684e+10 4.81442e+10 6.00797e+10 4.65347e+10
threshold=81500.000000000015 339833.33333333337 40500.000000000007 121500.00000000001 55.950833515000006 61500.000000000007 165642.85714285719 222500.00000000003 23500.000000000004 92785.714285714304 233500.00000000003 155500.00000000003 55500.000000000007 76500.000000000015 176500.00000000003 3.5000000000000004 139500.00000000003 74785.714285714304 243500.00000000003 295500.00000000006 78500.000000000015 108500.00000000001 217500.00000000003 33071.42857142858 165500.00000000003 20500.000000000004 177500.00000000003 38500.000000000007 26071.428571428576 195500.00000000003
decision_type=10 10 8 10 2 10 10 10 10 8 10 10 8 10 8 2 10 10 8 10 10 10 10 10 10 10 10 10 8 10
left_child=2 3 7 9 18 12 16 8 24 20 -8 -11 27 -7 -13 -6 -5 23 -3 -12 -2 -15 -18 -10 25 -1 -23 28 -4 -22
right_child=1 4 5 6 15 13 10 -9 17 11 19 14 -14 21 -16 -17 22 -19 -20 -21 29 26 -24 -25 -26 -27 -28 -29 -30 -31
leaf_value=-1397.3504117554869 440.08261638773979 5256.5204241071433 4646.2426426478796 2201.3295813821132 25237.719587476327 249.62180813966449 4006.2193978436171 12581.610704231263 -888.54299407708027 1422.0988160182928 6120.2220254353124 1902.3681450217782 44.977891816521627 710.89576753618906 4300.0933337610204 17452.573287109375 3100.9105297672486 4356.3286861419683 11968.351248381859 10632.428742675782 1071.1019623315158 2375.6267094092177 7261.1423349480892 -508.00642804668433 3858.6953450520837 -1001.2129772050102 -2468.2272866335784 -304.86250828388017 -716.46589008535068 5912.6896362304688
leaf_weight=11175 3538 21 21 2188 33 10868 1123 20 7845 6282 224 326 12487 3715 323 25 1135 32 86 40 2680 365 38 8728 21 5004 22 17020 4025 20
leaf_count=11175 3538 21 21 2188 33 10868 1123 20 7845 6282 224 326 12487 3715 323 25 1135 32 86 40 2680 365 38 8728 21 5004 22 17020 4025 20
internal_value=0 1814.21 -403.262 1696.47 14598.9 -25.692 3139.68 -961.398 -969.655 1176.14 4538.72 1578.81 -220.944 411.935 3095.69 21882.1 2562.32 -678.416 10651.1 6803.89 728.73 841.975 3235.68 -688.137 -1268.17 -1274.83 2100.27 -378.57 -688.632 1106.97
internal_weight=0 18082 81348 17917 165 48523 4748 32825 32805 13169 1387 6931 33553 14970 649 58 3361 16605 107 264 6238 4102 1173 16573 16200 16179 387 21066 4046 2700
internal_count=99430 18082 81348 17917 165 48523 4748 32825 32805 13169 1387 6931 33553 14970 649 58 3361 16605 107 264 6238 4102 1173 16573 16200 16179 387 21066 4046 2700
is_linear=0
shrinkage=0.1


Tree=12
num_leaves=31
num_cat=0
split_feature=1 1 9 9 1 11 20 41 1 15 9 13 15 15 6 9 2 1 22 22 9 1 13 15 40 11 28 29 31 24
split_gain=6.25079e+12 2.46629e+12 1.3969e+12 1.32414e+12 4.93812e+11 4.89389e+11 3.6498e+11 3.55112e+11 2.87953e+11 2.46422e+11 1.85436e+11 1.48234e+11 1.42301e+11 1.30025e+11 9.62612e+10 9.43347e+10 9.88218e+10 8.89584e+10 8.46812e+10 8.32654e+10 8.30119e+10 7.63914e+10 7.45729e+10 6.6944e+10 1.14032e+11 7.49407e+10 6.53758e+10 5.4575e+10 5.43368e+10 5.06026e+10
threshold=76500.000000000015 480500.00000000006 141500.00000000003 40500.000000000007 209500.00000000003 655500.00000000012 253500.00000000003 103785.7142857143 27500.000000000004 57500.000000000007 56500.000000000007 250500.00000000003 260500.00000000003 156500.00000000003 3.5000000000000004 193500.00000000003 321500.00000000006 42500.000000000007 178500.00000000003 112500.00000000001 115500.00000000001 114500.00000000001 1.0000000180025095e-35 16500.000000000004 45850.000000000007 126500.00000000001 115500.00000000001 73500.000000000015 88500.000000000015 456500.00000000006
decision_type=2 2 10 10 2 8 10 10 2 10 8 10 10 8 2 10 2 2 10 10 10 2 8 10 10 10 10 10 10 10
left_child=3 2 7 6 13 11 8 10 23 17 22 -3 -6 -4 -7 27 -17 19 -9 -5 -21 -12 -2 24 25 28 -20 -11 -1 -14
right_child=1 5 4 9 12 14 -8 18 -10 15 21 -13 29 -15 -16 16 -18 -19 26 20 -22 -23 -24 -25 -26 -27 -28 -29 -30 -31
leaf_value=-1304.0736292098745 -1125.8394422046922 4232.5905683437986 2063.5839790868199 -524.15265023097129 5035.474754490624 27808.242638221156 12638.476650390627 1788.2610024175196 -576.99159464675495 162.93673272719315 913.47992658472833 13793.50661705017 7846.1201896158855 3397.3439432847963 18705.373439825151 -218.20558382231616 7675.5457798549105 -101.98034541515034 1097.3105230195183 433.73975372314453 7224.7435024685328 1790.5335122193117 299.63925335406026 -926.34112252556497 -4487.1712688991001 4836.1892237853999 5174.9289532285757 630.5518487448046 2700.1480763154873 12966.473993716034
leaf_weight=10374 453 24 1447 8430 437 26 20 3966 16929 13123 9886 50 120 1477 21 29 35 18244 56 54 27 1104 1933 7762 112 20 132 3082 34 23
leaf_count=10374 453 24 1447 8430 437 26 20 3966 16929 13123 9886 50 120 1477 21 29 35 18244 56 54 27 1104 1933 7762 112 20 132 3082 34 23
internal_value=0 1525.15 1443.26 -412.196 3266.02 15761 -866.582 1078.92 -874.248 -39.9022 828.096 10692.7 5931.49 2737.31 23741 267.004 4098.69 -226.524 1886.56 -493.493 2697.41 1001.58 29.0014 -1149.21 -1313.33 -1279.24 3960.32 251.872 -1290.99 8669.67
internal_weight=0 21155 21034 78275 3504 121 35251 17530 35231 43024 13376 74 580 2924 47 16269 64 26755 4154 8511 81 10990 2386 18302 10540 10428 188 16205 10408 143
internal_count=99430 21155 21034 78275 3504 121 35251 17530 35231 43024 13376 74 580 2924 47 16269 64 26755 4154 8511 81 10990 2386 18302 10540 10428 188 16205 10408 143
is_linear=0
shrinkage=0.1


Tree=13
num_leaves=31
num_cat=0
split_feature=39 39 39 39 9 16 39 39 23 0 39 11 29 42 29 13 7 18 6 42 8 39 29 8 23 8 18 9 16 7
split_gain=5.61811e+12 2.2253e+12 1.25251e+12 9.93597e+11 4.73199e+11 3.62636e+11 2.47823e+11 2.45015e+11 2.36629e+11 3.74803e+11 1.66912e+11 1.09765e+11 8.95383e+10 7.15526e+10 5.71514e+10 5.44768e+10 5.35418e+10 5.35062e+10 5.30871e+10 6.4569e+10 5.12166e+10 4.96876e+10 4.8042e+10 4.61014e+10 4.50824e+10 5.89058e+10 4.23099e+10 4.19613e+10 4.68919e+10 4.19289e+10
threshold=73714.285714285725 252285.71428571432 37868.131868131873 115593.4065934066 575500.00000000012 165500.00000000003 171978.02197802201 52412.087912087918 334000.00000000006 676433.00000000012 19703.29670329671 755500.00000000012 99500.000000000015 23166.666666666668 225500.00000000003 133500.00000000003 -60499.999999999993 437000.00000000006 4.5000000000000009 60166.666666666679 -262499.99999999994 61302.197802197807 122500.00000000001 235500.00000000003 81500.000000000015 -1.0000000180025095e-35 255500.00000000003 92500.000000000015 104500.00000000001 154500.00000000003
decision_type=2 2 2 2 8 8 2 2 10 2 2 8 10 10 10 8 10 8 2 8 8 2 10 10 10 10 10 10 10 10
left_child=2 3 10 12 5 -3 15 -4 9 17 -1 -6 -2 -14 -8 22 -10 -7 19 -17 -12 -9 26 29 25 -24 -5 28 -20 -23
right_child=1 4 7 6 11 8 14 21 16 -11 20 -13 13 -15 -16 18 -18 -19 27 -21 -22 23 24 -25 -26 -27 -28 -29 -30 -31
leaf_value=-1185.643019660424 761.39475406650899 20787.69888671875 -297.93146553114127 1403.5087194619468 12481.146665602464 5054.5784312855112 3448.6522031106124 14.072389155887704 15319.043997192384 -7538.3631496263588 4353.9898577880858 20869.344573818111 7345.6677880859388 1343.4612680689941 5637.5529120146348 8337.3663085937496 9423.0940961695433 9867.3597641453598 -3926.7455439814821 2624.854278485032 -709.07942218150538 298.74620671039088 9238.6553914024717 -2514.5286642140359 2121.5721301539666 1986.452788925171 -3020.2561395818539 1901.8974141250137 2083.5908115234374 3017.3192395662008
leaf_weight=11407 11455 20 23241 1252 26 77 1086 12444 20 23 20 39 20 2860 134 20 67 33 27 1854 19439 12085 21 58 836 24 22 738 25 57
leaf_count=11407 11455 20 23241 1252 26 77 1086 12444 20 23 20 39 20 2860 134 20 67 33 27 1854 19439 12085 21 58 836 24 22 738 25 57
internal_value=0 1466.9 -385.188 1339.97 9945.38 7895.52 2415.9 -65.0019 6723.51 4071 -881.92 17514.1 886.71 1385.14 3689.07 2093.58 10778.5 6498.41 2395.98 2685.82 -703.876 154.667 1719.75 298.073 2287.54 5370.81 1327.12 1708.44 -1037.16 311.508
internal_weight=0 20679 78751 20374 305 240 6039 47885 220 133 30866 65 14335 2880 1220 4819 87 110 2664 1874 19459 24644 2155 12200 881 45 1274 790 52 12142
internal_count=99430 20679 78751 20374 305 240 6039 47885 220 133 30866 65 14335 2880 1220 4819 87 110 2664 1874 19459 24644 2155 12200 881 45 1274 790 52 12142
is_linear=0
shrinkage=0.1


Tree=14
num_leaves=31
num_cat=0
split_feature=39 39 39 1 1 16 1 39 1 39 8 9 12 39 29 9 1 39 19 23 21 29 18 22 37 1 22 1 4 26
split_gain=4.55407e+12 1.68307e+12 1.28348e+12 6.4077e+11 5.23165e+11 2.84304e+11 2.56541e+11 2.18561e+11 1.44221e+11 1.40069e+11 1.10567e+11 9.56116e+10 7.44279e+10 6.02296e+10 5.72853e+10 5.96302e+10 6.33701e+10 5.66218e+10 5.65469e+10 6.08525e+10 4.81043e+10 4.37424e+10 5.64891e+10 4.33536e+10 4.28838e+10 4.24856e+10 4.05702e+10 6.31692e+10 7.33695e+10 4.02254e+10
threshold=83862.637362637368 252285.71428571432 43285.71428571429 136500.00000000003 590500.00000000012 165500.00000000003 60500.000000000007 27071.428571428576 306000.00000000006 177840.65934065936 75500.000000000015 103500.00000000001 855500.00000000012 73714.285714285725 181500.00000000003 10500.000000000002 206500.00000000003 11302.197802197805 184500.00000000003 153500.00000000003 709000.00000000012 119500.00000000001 258500.00000000003 345500.00000000006 144500.00000000003 230500.00000000003 107500.00000000001 43500.000000000007 55.763912385000005 70500.000000000015
decision_type=2 2 2 2 2 8 2 2 2 2 8 8 8 2 10 8 2 2 10 8 8 10 10 10 8 2 8 2 2 10
left_child=2 3 7 11 5 -3 -4 17 10 14 -7 18 -6 -8 15 -5 -17 -1 -2 -20 23 22 26 -10 -18 -11 -13 28 -28 -16
right_child=1 4 6 9 12 8 13 -9 20 25 -12 21 -14 -15 29 16 24 -19 19 -21 -22 -23 -24 -25 -26 -27 27 -29 -30 -31
leaf_value=-1290.8634144533978 824.01707758326449 18373.763497314456 -135.53723546094525 532.39441677883337 14593.732034040178 4745.810188449499 243.97205098124266 -499.76221153716079 3653.5205114293985 3333.9660313973673 -3588.3845611572269 800.11391568269687 21916.647758152176 649.92578178642702 7392.0271875000008 2095.4441565776133 7456.7682851791387 -872.10044217447921 106.06221415201824 -5265.1491573210687 11641.762470703126 1908.3457560206307 -3261.4128625052317 8352.2682128906254 3336.7173752399285 5122.0866130056565 2556.4586419826601 1378.6896580209459 9181.0593238467263 3197.8533676296588
leaf_weight=4331 5809 20 25778 227 35 78 15020 21655 27 719 20 1334 23 4830 25 2285 32 12688 66 31 30 1183 28 72 120 163 82 2430 21 268
leaf_count=4331 5809 20 25778 227 35 78 15020 21655 27 719 20 1334 23 4830 25 2285 32 12688 66 31 30 1183 28 72 120 163 82 2430 21 268
internal_value=0 1597.6 -286.69 1446.3 8950.84 6943.89 72.5371 -710.511 5936.86 2558.43 3044.95 1057.61 17497.6 342.751 2228.54 2082.57 2226.96 -978.667 784.032 -1610.51 8133.81 1375.79 1214.04 7070.79 4204.1 3664.42 1246.44 1481.5 3907.11 3555.72
internal_weight=0 15128 84302 14823 305 247 45628 38674 227 3839 98 10984 58 19850 2957 2664 2437 17019 5906 97 129 5078 3895 99 152 882 3867 2533 103 293
internal_count=99430 15128 84302 14823 305 247 45628 38674 227 3839 98 10984 58 19850 2957 2664 2437 17019 5906 97 129 5078 3895 99 152 882 3867 2533 103 293
is_linear=0
shrinkage=0.1


Tree=15
num_leaves=31
num_cat=0
split_feature=39 14 39 39 29 39 39 19 39 9 9 9 32 7 23 39 29 9 32 17 36 9 26 13 10 14 23 29 24 29
split_gain=3.70601e+12 1.29212e+12 1.26375e+12 4.72233e+11 3.44161e+11 2.49758e+11 2.29106e+11 1.90555e+11 1.43918e+11 1.41488e+11 7.56408e+10 6.47726e+10 7.46429e+10 5.52849e+10 6.24534e+10 5.36055e+10 5.3202e+10 5.80149e+10 5.31641e+10 5.1858e+10 4.8878e+10 4.55238e+10 4.38501e+10 4.24918e+10 7.05792e+10 1.97477e+11 6.04626e+10 4.17406e+10 3.73953e+10 3.6501e+10
threshold=93934.065934065948 442500.00000000006 45978.021978021985 149879.12087912092 634000.00000000012 67423.076923076951 28939.560439560442 856500.00000000012 200807.69230769234 508000.00000000006 115500.00000000001 401500.00000000006 474500.00000000006 -79499.999999999985 292500.00000000006 10285.714285714286 89500.000000000015 136500.00000000003 215500.00000000003 106500.00000000001 467000.00000000006 60500.000000000007 243500.00000000003 62500.000000000007 40500.000000000007 76500.000000000015 156500.00000000003 33500.000000000007 67500.000000000015 174500.00000000003
decision_type=2 10 2 2 8 2 2 8 2 8 8 10 10 8 10 2 10 10 10 10 8 10 10 8 8 10 10 8 10 10
left_child=2 3 6 10 11 21 15 -6 22 13 23 -3 -13 18 -15 -1 -7 -18 -10 -19 -16 -4 29 26 25 -25 -2 28 -8 -5
right_child=1 4 5 8 7 16 27 -9 9 -11 -12 12 -14 14 20 -17 17 19 -20 -21 -22 -23 -24 24 -26 -27 -28 -29 -30 -31
leaf_value=-1208.2787969554674 359.84955383656074 1691.448316592262 -97.132742489654845 2222.9915536385993 21147.655376233553 410.03764062682751 -592.12249043639974 10582.839097152219 -2589.9731109619142 10934.471404832409 1581.8757685404737 12560.419691051138 4322.87060546875 3843.6868087553385 4962.8044234737281 -775.31351897944523 825.24476357663298 1704.5396002817961 4299.72787155878 6810.9546907552085 11125.950967684659 163.65628484943306 -1463.1970336914064 12599.532045898439 1002.646281543299 1276.417256460617 -4085.2610934787331 -327.86056370863361 -1832.8749020231376 3196.6589345884154
leaf_weight=3477 204 21 19604 1242 38 12299 4431 31 24 31 4004 22 22 359 31 16104 2374 59 21 30 22 10164 28 20 4321 67 36 19529 257 558
leaf_count=3477 204 21 19604 1242 38 12299 4431 31 24 31 4004 22 22 359 31 16104 2374 59 21 30 22 10164 28 20 4321 67 36 19529 257 558
internal_value=0 1722.04 -216.444 1602.79 11482.3 158.686 -597.844 16401.1 2871.04 4396.73 1263.31 6260.81 8441.65 3953.25 4316.75 -852.195 494.993 919.215 625.221 3425.8 7521.09 -8.08881 2463.74 988.874 1059.42 3879.43 -306.917 -392.185 -660.142 2524.83
internal_weight=0 11102 88328 10968 134 44530 43798 69 2316 488 8652 65 44 457 412 19581 14762 2463 45 89 53 29768 1828 4648 4408 87 240 24217 4688 1800
internal_count=99430 11102 88328 10968 134 44530 43798 69 2316 488 8652 65 44 457 412 19581 14762 2463 45 89 53 29768 1828 4648 4408 87 240 24217 4688 1800
is_linear=0
shrinkage=0.1


Tree=16
num_leaves=31
num_cat=0
split_feature=39 39 39 1 14 36 9 9 39 36 9 22 22 3 3 21 23 1 39 1 13 1 21 14 32 18 9 17 34 8
split_gain=3.00628e+12 1.16241e+12 7.32932e+11 5.46324e+11 4.5163e+11 3.32075e+11 2.25602e+11 1.90593e+11 1.19972e+11 9.46743e+10 7.68303e+10 7.13481e+10 6.29199e+10 9.14258e+10 7.01654e+10 6.16057e+10 1.0648e+11 5.88979e+10 6.0918e+10 5.49757e+10 5.02751e+10 4.85277e+10 4.81113e+10 4.73758e+10 4.58324e+10 4.93241e+10 4.40567e+10 4.21746e+10 4.18562e+10 4.25804e+10
threshold=76895.604395604416 252285.71428571432 36082.417582417591 126500.00000000001 582500.00000000012 867500.00000000012 575500.00000000012 57500.000000000007 171978.02197802201 483500.00000000006 20500.000000000004 88500.000000000015 255500.00000000003 37.646657880000014 37.547404760000006 206500.00000000003 81500.000000000015 58500.000000000007 145791.20879120883 40500.000000000007 225500.00000000003 74500.000000000015 112500.00000000001 230500.00000000003 8500.0000000000018 39500.000000000007 169500.00000000003 167500.00000000003 102500.00000000001 -262499.99999999994
decision_type=2 2 2 2 10 8 8 10 2 10 10 8 10 2 2 10 8 2 2 2 10 2 8 10 8 10 10 10 10 8
left_child=2 3 10 11 6 -6 9 19 15 12 -1 17 13 14 -3 22 -17 18 -2 28 -13 26 27 -10 25 -19 -9 -5 29 -4
right_child=1 4 7 8 5 -7 -8 21 23 -11 -12 20 -14 -15 -16 16 -18 24 -20 -21 -22 -23 -24 -25 -26 -27 -28 -29 -30 -31
leaf_value=-848.14169028660149 -432.47001689304011 3336.2254233950662 3508.4922555106032 1124.9315441836654 5728.2435360863092 21814.26287730824 14296.908045372598 104.32488430779884 2576.9276396799514 10394.6888671875 -515.74402157187399 845.0121952700282 5358.7926301505358 5304.632706507241 -4253.7040512611129 10187.807646040485 2474.7092300097152 7103.6599496078488 -5711.7308848505436 -116.20082685812807 3635.9431306105394 500.81069430060609 1780.9893027693086 4470.4510191070403 445.49673077607849 1481.4621987463725 2456.8660041046146 -1479.6539994183711 -2552.4342217339413 -397.29558114194538
leaf_weight=13818 440 21 28 725 21 33 26 16104 1011 24 13998 9198 110 41 29 22 96 20 23 23523 65 4108 2887 152 3705 71 80 68 90 8893
leaf_count=13818 440 21 28 725 21 33 26 16104 1011 24 13998 9198 110 41 29 22 96 20 23 23523 65 4108 2887 152 3705 71 80 68 90 8893
internal_value=0 1139.19 -265.409 1038.15 7262.35 15558.6 5477.5 -46.6455 1935.73 4458.37 -680.867 708.839 3749.55 1804.32 -1065.93 1663.61 3912.74 370.079 -694.723 -196.657 864.597 193.866 1591.49 2824.4 499.953 2717.11 115.954 901.588 -406.684 -385.037
internal_weight=0 18788 80642 18483 305 54 251 52826 4961 225 27816 13522 201 91 50 3798 118 4259 463 32534 9263 20292 3680 1163 3796 91 16184 793 9011 8921
internal_count=99430 18788 80642 18483 305 54 251 52826 4961 225 27816 13522 201 91 50 3798 118 4259 463 32534 9263 20292 3680 1163 3796 91 16184 793 9011 8921
is_linear=0
shrinkage=0.1


Tree=17
num_leaves=31
num_cat=0
split_feature=39 14 39 6 1 39 3 5 1 1 15 26 15 16 1 39 8 15 17 7 7 40 15 1 19 21 10 34 15 31
split_gain=2.46209e+12 8.56248e+11 8.43303e+11 4.62211e+11 3.71033e+11 2.19034e+11 2.0047e+11 2.97409e+11 1.31704e+11 1.18507e+11 1.11898e+11 7.85719e+10 5.29148e+10 4.44534e+10 4.28319e+10 4.26529e+10 4.0794e+10 4.05047e+10 4.02275e+10 3.83158e+10 3.73507e+10 3.65115e+10 3.73638e+10 5.52905e+10 8.60326e+10 4.58351e+10 5.2187e+10 3.29678e+10 3.67562e+10 3.08056e+10
threshold=93934.065934065948 442500.00000000006 51708.791208791219 5.5000000000000009 153500.00000000003 29296.703296703301 37.742414475000004 15.500000000000002 480500.00000000006 69500.000000000015 185500.00000000003 104500.00000000001 112500.00000000001 215500.00000000003 35500.000000000007 9456.0439560439572 -18499.999999999996 89500.000000000015 107500.00000000001 18500.000000000004 -62499.999999999993 43616.666666666679 1.0000000180025095e-35 1.0000000180025095e-35 4500.0000000000009 166500.00000000003 35500.000000000007 168500.00000000003 53500.000000000007 73500.000000000015
decision_type=2 10 2 2 2 2 2 2 2 2 8 8 8 10 2 2 10 10 8 8 10 8 8 2 10 10 10 10 10 10
left_child=2 4 5 6 12 15 7 -3 10 21 20 16 27 18 -7 -1 -12 -11 -13 -20 -6 -4 23 24 29 -24 -27 -2 -29 -23
right_child=1 3 9 -5 8 14 -8 -9 -10 17 11 13 -14 -15 -16 -17 -18 -19 19 -21 -22 22 25 -25 -26 26 -28 28 -30 -31
leaf_value=-1065.8576318424527 750.03400135019092 22120.894215303313 2694.36279296875 -2914.5068046875003 311.28153904270482 -447.61999683322693 6745.0412535167889 8794.3376235499527 8804.6271287487398 333.21517265339139 9471.3839735243073 -1193.2715836588543 1203.0755173604307 3765.8977842142008 -197.0760471831349 -633.25462787102379 3594.7686349051346 740.28509707427042 2040.0953715638859 3442.7958085988366 1835.9479548792988 -853.63303903773215 56.052406102615159 70.210179414691865 -3565.5488714330336 7031.4459460449216 557.82804140033147 -3356.4241848084989 296.06504225957963 2984.7388916015625
leaf_weight=2623 3598 34 52 25 185 9651 42 33 31 11530 27 30 4544 330 23289 17385 21 3102 555 300 1222 69 20075 333 136 20 33 41 84 30
leaf_count=2623 3598 34 52 25 185 9651 42 33 31 11530 27 30 4544 330 23289 17385 21 3102 555 300 1222 69 20075 333 136 20 33 41 84 30
internal_value=0 1403.6 -176.419 9348.9 1306.53 -428.998 12161.6 15557.1 2324.07 201.578 2248.83 2932.11 974.072 2775.34 -270.482 -689.968 6900.36 419.514 2405.98 2532.27 1635.48 47.8843 41.2348 -758.615 -1933.08 63.8061 3000.7 694.568 -901.951 309.51
internal_weight=0 11102 88328 134 10968 52948 109 67 2701 35380 2670 1263 8267 1215 32940 20008 48 14632 885 855 1407 20748 20696 568 235 20128 53 3723 125 99
internal_count=99430 11102 88328 134 10968 52948 109 67 2701 35380 2670 1263 8267 1215 32940 20008 48 14632 885 855 1407 20748 20696 568 235 20128 53 3723 125 99
is_linear=0
shrinkage=0.1


Tree=18
num_leaves=31
num_cat=0
split_feature=39 39 14 1 36 6 22 1 9 1 12 7 1 30 29 11 39 36 22 9 12 1 22 16 40 14 9 1 17 36
split_gain=1.99437e+12 6.99506e+11 6.94235e+11 3.40117e+11 3.31551e+11 2.3048e+11 1.60738e+11 1.42924e+11 1.42659e+11 1.21152e+11 5.90579e+10 5.39994e+10 5.64685e+10 6.40677e+10 5.19873e+10 7.03618e+10 4.75072e+10 4.61713e+10 4.55131e+10 4.52416e+10 4.25833e+10 3.82564e+10 4.87936e+10 3.80897e+10 3.6989e+10 3.2087e+10 3.08693e+10 7.9188e+10 3.22412e+10 3.07066e+10
threshold=94730.769230769234 47098.901098901108 508000.00000000006 153500.00000000003 801000.00000000012 2.5000000000000004 247500.00000000003 66500.000000000015 27500.000000000004 497500.00000000006 198500.00000000003 -57499.999999999993 214500.00000000003 82500.000000000015 10500.000000000002 127500.00000000001 108791.20879120882 467000.00000000006 284500.00000000006 81500.000000000015 96500.000000000015 34500.000000000007 124500.00000000001 108500.00000000001 45250.000000000007 124500.00000000001 306000.00000000006 95500.000000000015 286500.00000000006 168500.00000000003
decision_type=2 2 10 2 8 2 10 2 10 2 10 8 2 8 8 10 2 10 10 10 10 2 10 10 10 10 8 2 10 8
left_child=1 8 3 10 -4 -6 9 -3 14 11 16 25 13 23 24 -16 -2 20 26 -9 -8 22 -10 -13 -1 -5 28 -28 -18 -15
right_child=2 7 4 6 5 -7 17 19 21 -11 -12 12 -14 29 15 -17 18 -19 -20 -21 -22 -23 -24 -25 -26 -27 27 -29 -30 -31
leaf_value=-912.48664761011139 636.14933844405664 -18.089416494390782 3684.2829827724363 -715.69483135720964 23263.537652853265 8773.4928617931564 8576.2669946289079 239.37320080204836 -443.01182718288533 9020.9725524902351 -738.11585386040019 8139.2922678222667 3135.9911343055005 1044.0408036424285 -553.35113867929033 4981.6727836277178 1100.4001438333059 8544.8667968749996 5311.7809748722957 577.30937103464021 3706.8553360982378 -180.77221930961849 4271.8933319091802 2284.3198364257814 -3676.6566934390949 1479.9812701454648 8490.1092822265618 1408.2726264038088 -2085.405270290375 1974.5508902034821
leaf_weight=4027 3199 24878 39 115 23 21 20 11714 9493 24 218 25 391 491 15843 23 4358 28 26 5986 176 16659 22 20 49 158 20 75 32 1277
leaf_count=4027 3199 24878 39 115 23 21 20 11714 9493 24 218 25 391 491 15843 23 4358 28 26 5986 176 16659 22 20 49 158 20 75 32 1277
internal_value=0 -155.818 1287.27 1216.29 10397.5 16347.8 2180.07 136.45 -425.664 1950.22 885.024 1881.71 2046.04 1810.97 -627.164 -545.327 930.918 4746.38 1139.96 353.661 4203.73 -272.141 -432.11 5537.08 -945.716 555.063 1115.77 2899.19 1077.18 1716.13
internal_weight=0 88694 10736 10653 83 44 2725 42578 46116 2501 7928 2477 2204 1813 19942 15866 7710 224 4511 17700 196 26174 9515 45 4076 273 4485 95 4390 1768
internal_count=99430 88694 10736 10653 83 44 2725 42578 46116 2501 7928 2477 2204 1813 19942 15866 7710 224 4511 17700 196 26174 9515 45 4076 273 4485 95 4390 1768
is_linear=0
shrinkage=0.1


Tree=19
num_leaves=31
num_cat=0
split_feature=9 9 42 21 9 21 29 29 29 26 21 13 12 30 16 21 28 21 12 41 14 26 0 42 21 13 42 35 29 0
split_gain=1.4608e+12 4.97323e+11 4.19873e+11 2.81633e+11 1.72525e+11 1.29045e+11 1.25196e+11 1.19292e+11 7.38704e+10 7.06489e+10 6.4749e+10 6.32956e+10 6.2987e+10 6.23279e+10 6.11895e+10 4.97856e+10 4.15938e+10 4.68846e+10 3.96282e+10 4.61957e+10 3.85407e+10 3.63155e+10 3.61682e+10 4.37119e+10 3.53487e+10 3.32398e+10 3.28225e+10 4.17412e+10 3.14615e+10 2.91881e+10
threshold=97500.000000000015 48500.000000000007 339833.33333333337 284500.00000000006 154500.00000000003 709000.00000000012 18500.000000000004 76500.000000000015 120500.00000000001 245500.00000000003 167500.00000000003 34500.000000000007 73500.000000000015 21500.000000000004 279500.00000000006 75500.000000000015 243500.00000000003 513500.00000000006 200500.00000000003 91071.428571428594 56500.000000000007 171500.00000000003 606045.50000000012 248333.33333333334 225500.00000000003 199500.00000000003 1.0000000180025095e-35 64500.000000000007 178500.00000000003 683733.50000000012
decision_type=10 8 10 10 10 10 8 10 10 10 8 10 10 8 10 8 8 10 10 10 8 10 2 10 8 10 10 10 10 2
left_child=1 3 4 6 8 16 12 20 15 11 14 21 26 -12 28 -2 -4 -18 19 -13 -3 -8 24 -24 -15 -17 27 -1 29 -6
right_child=2 7 5 -5 10 -7 9 -9 -10 -11 13 18 -14 22 -16 25 17 -19 -20 -21 -22 -23 23 -25 -26 -27 -28 -29 -30 -31
leaf_value=141.17576954635149 -36.368391413279021 -93.472013295374893 419.84969604492193 10701.28928859545 989.45033782733844 11455.562165178571 -419.54881287372592 517.33807077768267 1311.367634692243 5652.2540917968754 7460.5090866815481 -176.19788801350569 -2238.9937436635259 1080.6167009495978 6570.0020613098141 690.0229435430997 6350.7105900065108 997.98076171875005 -4615.9710662841799 1551.551570892334 124.0852824671789 -4395.5786610478945 1852.9292795309682 -2451.1972081502277 3744.8299553389402 2809.5626462809246 -687.97975035620902 5158.5292553710942 2338.8831432944894 -659.03437399942368
leaf_weight=97 1036 12992 20 23 898 35 18640 6251 1875 20 21 19365 262 67 20 5497 90 20 20 156 21816 23 1400 24 194 75 8200 20 151 122
leaf_count=97 1036 12992 20 23 898 35 18640 6251 1875 20 21 19365 262 67 20 5497 90 20 20 156 21816 23 1400 24 194 75 8200 20 151 122
internal_value=0 -138.924 1057.54 -361.676 984.925 6065.85 -367.113 115.116 757.387 -289.629 1651.2 -292.74 -712.342 2046.21 1085.39 600.196 4614.77 5377.49 -166.949 -162.391 42.8826 -424.449 1978.74 1780.39 3060.91 718.552 -664.25 998.843 991.713 792.279
internal_weight=0 87885 11545 46826 11380 165 46803 41059 8483 38224 2897 38204 8579 1706 1191 6608 130 110 19541 19521 34808 18663 1685 1424 261 5572 8317 117 1171 1020
internal_count=99430 87885 11545 46826 11380 165 46803 41059 8483 38224 2897 38204 8579 1706 1191 6608 130 110 19541 19521 34808 18663 1685 1424 261 5572 8317 117 1171 1020
is_linear=0
shrinkage=0.1


Tree=20
num_leaves=31
num_cat=0
split_feature=39 39 16 39 4 39 15 22 15 39 42 15 7 35 11 32 19 15 32 15 37 35 24 22 35 22 7 38 7 28
split_gain=1.35207e+12 5.75819e+11 3.39648e+11 2.62997e+11 2.57111e+11 2.49604e+11 1.21505e+11 6.71887e+10 6.54264e+10 5.54697e+10 5.27375e+10 5.1757e+10 5.54701e+10 5.24407e+10 5.22839e+10 5.55898e+10 7.44262e+10 4.77762e+10 4.02797e+10 5.94676e+10 4.87845e+10 3.98643e+10 6.71613e+10 3.77275e+10 3.4816e+10 3.4263e+10 4.7158e+10 3.38969e+10 5.3606e+10 3.47503e+10
threshold=67950.549450549457 200807.69230769234 30500.000000000004 34835.16483516484 55.937786545000009 111313.18681318683 853000.00000000012 164500.00000000003 115500.00000000001 52412.087912087918 20833.333333333339 90500.000000000015 -44499.999999999993 40500.000000000007 3500.0000000000005 70500.000000000015 40500.000000000007 16500.000000000004 88500.000000000015 41500.000000000007 102500.00000000001 90500.000000000015 92500.000000000015 5500.0000000000009 163500.00000000003 180500.00000000003 174500.00000000003 136500.00000000003 -12499.999999999998 247500.00000000003
decision_type=2 2 8 2 2 2 8 8 8 2 8 10 8 8 8 10 10 10 8 10 10 8 10 8 10 10 10 8 10 10
left_child=3 5 -3 17 7 11 -6 -4 18 -5 -10 12 13 -2 15 -14 -17 -1 19 -7 -21 22 -12 -15 -20 26 -23 28 -27 -29
right_child=1 2 4 9 6 8 -8 -9 10 -11 21 -13 14 23 -16 16 -18 -19 24 20 -22 25 -24 -25 -26 27 -28 29 -30 -31
leaf_value=-611.62520193880891 -3386.9116329005506 15328.777429199219 -3035.0838399251302 -167.09560113415267 5234.5487193262852 -1427.5136431294104 12154.073486328125 2398.3591392751173 6264.7626621791296 50.352858085641863 7737.2296264648439 616.89673549744964 655.82087031855735 -3164.1676845203747 278.31730386714963 8030.29896955819 1533.8880932617187 -340.79659211446653 487.7973395645854 6766.139762878418 1785.1030089733647 1133.1663083127494 1898.6147774852407 -139.20142283119318 -1547.9108009677466 8038.6377248590643 -1448.4821212768557 1480.8550614377973 1993.0142638466577 5620.3932059151784
leaf_weight=12463 61 24 24 27999 86 31 36 440 21 20191 24 5700 132 44 11390 29 45 13645 1263 32 51 4094 110 655 90 22 72 591 44 21
leaf_count=12463 61 24 24 27999 86 31 36 440 21 20191 24 5700 132 44 11390 29 45 13645 1263 32 51 4094 110 655 90 22 72 591 44 21
internal_value=0 634.04 3668.93 -214.47 3191.39 558.545 7276.38 2117.32 1091.68 -75.9874 1264 367.624 252.631 -575.003 306.874 1885.79 4079.78 -470.08 504.485 2309.68 3705.5 1242.91 2944.34 -329.614 352.384 1195.84 1088.55 1855.1 4008.22 1622.9
internal_weight=0 25132 610 74298 586 24522 122 464 6466 48190 4999 18056 12356 760 11596 206 74 26108 1467 114 83 4978 134 699 1353 4844 4166 678 66 612
internal_count=99430 25132 610 74298 586 24522 122 464 6466 48190 4999 18056 12356 760 11596 206 74 26108 1467 114 83 4978 134 699 1353 4844 4166 678 66 612
is_linear=0
shrinkage=0.1


Tree=21
num_leaves=31
num_cat=0
split_feature=15 22 21 20 29 13 42 15 13 22 17 0 12 22 13 5 8 15 22 16 23 29 8 33 15 23 30 42 35 8
split_gain=8.98694e+11 3.07364e+11 2.6547e+11 2.54025e+11 1.60752e+11 1.43006e+11 8.29967e+10 7.97546e+10 6.95193e+10 6.64755e+10 5.44162e+10 7.23152e+10 5.03868e+10 6.41526e+10 4.95869e+10 4.8317e+10 4.59639e+10 4.2851e+10 4.24722e+10 3.95443e+10 3.8896e+10 3.82685e+10 5.32907e+10 3.82198e+10 3.77099e+10 3.6529e+10 3.58244e+10 3.44388e+10 4.85416e+10 3.30738e+10
threshold=78500.000000000015 243500.00000000003 38500.000000000007 261500.00000000003 512500.00000000006 132500.00000000003 55833.333333333336 439000.00000000006 208500.00000000003 99500.000000000015 182500.00000000003 673298.00000000012 102500.00000000001 188500.00000000003 16500.000000000004 18.500000000000004 201500.00000000003 41500.000000000007 152500.00000000003 172500.00000000003 150500.00000000003 14500.000000000002 -262499.99999999994 133500.00000000003 185500.00000000003 128500.00000000001 125500.00000000001 1.0000000180025095e-35 44500.000000000007 -179499.99999999997
decision_type=10 10 8 10 10 10 8 10 10 10 8 2 10 10 10 2 10 10 8 10 10 8 10 8 10 8 10 10 10 10
left_child=2 5 12 6 16 9 17 18 -8 14 23 -12 13 21 -2 -6 24 20 -7 25 -4 27 -23 -10 -3 26 -14 28 -1 -26
right_child=1 4 3 -5 15 7 8 -9 10 -11 11 -13 19 -15 -16 -17 -18 -19 -20 -21 -22 22 -24 -25 29 -27 -28 -29 -30 -31
leaf_value=50.762974822215547 -630.75232456158813 920.36009011339797 -255.36632670385495 11248.996719970703 12150.197429865058 731.3644829533373 96.516073101088807 6899.3872660319021 2902.8153293956411 759.49575726475314 6693.9265804036468 -412.82110537574408 -1512.4525414966402 5267.231240234375 346.98093104618897 6062.3963531494146 -1389.9660588191107 -22.638679381908915 1432.1233754924053 -6061.6022680664064 -4668.4369065475466 4481.0623760720955 -335.3425134355366 -2927.2736298934274 7307.3805730646309 -5054.6069477539068 2320.2854474748888 -650.61804079292142 5369.3766368172392 3222.3817725639346
leaf_weight=78 551 67 14299 20 22 1580 26091 24 22 4431 45 21 189 20 8852 32 26 15787 1911 20 20 23 19096 23 22 25 28 5883 22 200
leaf_count=78 551 67 14299 20 22 1580 26091 24 22 4431 45 21 189 20 8852 32 26 15787 1911 20 20 23 19096 23 22 25 28 5883 22 200
internal_value=0 645.629 -139.995 -18.9955 3501.53 584.886 -22.9977 1154.46 107.14 440.166 2604.43 4432.69 -408.496 -394.108 289.687 8542.61 2637.35 -136.26 1114.97 -1788.1 -261.53 -398.619 -329.548 -77.0079 2999.66 -1434.92 -1017.91 -619.338 1220.86 3627.2
internal_weight=0 17718 81712 56328 369 17349 56308 3515 26202 13834 111 66 25384 25122 9403 54 315 30106 3491 262 14319 25102 19119 45 289 242 217 5983 100 222
internal_count=99430 17718 81712 56328 369 17349 56308 3515 26202 13834 111 66 25384 25122 9403 54 315 30106 3491 262 14319 25102 19119 45 289 242 217 5983 100 222
is_linear=0
shrinkage=0.1


Tree=22
num_leaves=31
num_cat=0
split_feature=39 14 1 24 1 39 9 11 13 8 29 18 23 29 37 21 7 37 41 29 7 42 6 8 39 24 7 19 27 35
split_gain=9.2229e+11 3.90338e+11 2.58718e+11 2.39465e+11 2.22565e+11 9.79468e+10 9.47899e+10 7.53137e+10 6.59095e+10 6.29538e+10 5.7931e+10 5.78947e+10 6.76605e+10 5.66761e+10 5.42556e+10 4.14129e+10 4.08727e+10 4.81933e+10 4.04028e+10 4.01369e+10 4.28114e+10 3.83693e+10 1.47182e+11 3.65921e+10 3.58505e+10 3.47028e+10 4.24262e+10 3.44051e+10 3.40034e+10 2.91476e+10
threshold=72186.813186813204 508000.00000000006 133500.00000000003 990500.00000000012 35500.000000000007 200807.69230769234 508000.00000000006 755500.00000000012 2500.0000000000005 337500.00000000006 61500.000000000007 199500.00000000003 198500.00000000003 110500.00000000001 240500.00000000003 243500.00000000003 -39499.999999999993 47500.000000000007 81071.428571428594 303000.00000000006 -102499.99999999999 19833.333333333339 1.5000000000000002 256500.00000000003 14049.450549450552 75500.000000000015 174500.00000000003 87500.000000000015 175500.00000000003 101500.00000000001
decision_type=2 10 2 8 2 2 8 10 8 10 10 10 10 10 10 10 8 8 10 10 8 8 2 10 2 10 10 8 8 10
left_child=4 2 11 7 18 8 19 14 9 -4 -6 13 27 16 -3 -10 17 -2 24 20 -7 22 -18 -15 -1 26 -26 -13 -17 -25
right_child=1 3 5 -5 10 6 -8 -9 15 -11 -12 12 -14 23 -16 28 21 -19 -20 -21 -22 -23 -24 29 25 -27 -28 -29 -30 -31
leaf_value=-573.0458565541079 -2947.6481802133417 -2192.1256323242192 -1803.9354471687145 15814.976584116617 -81.744377255630354 -2536.992120916193 7205.9398449707041 9006.4618066406256 1094.8176210471258 4093.8315220424106 206.0816773955961 670.67365816235542 -6073.1177844707781 786.47483669678968 5173.7112695312499 1553.7835390288255 9049.3062983194995 -126.16676240129537 -3088.9122185724432 4413.8299600312203 2002.5568880076062 347.20091840670517 -575.71734099692492 6535.6659014892575 -299.69719361488035 -1185.6000770193352 4308.2035913085938 -2127.789962994611 6586.3465986328129 1136.8137980461122
leaf_weight=7009 65 20 131 24 39653 22 40 20 3811 21 8490 96 26 2391 20 29 24 882 55 66 373 13889 47 20 21613 447 20 81 25 20
leaf_count=7009 65 20 131 24 39653 22 40 20 3811 21 8490 96 26 2391 20 29 24 882 55 66 373 13889 47 20 21613 447 20 81 25 20
internal_value=0 568.997 543.088 7372.86 -163.02 1217.89 2536.31 3996.02 1053.45 -989.112 -30.9864 369.281 -1309.69 388.939 1490.79 1133.78 315.927 -319.827 -381.126 2131.13 1749.72 359.054 2677.81 836.656 -376.006 -313.458 -295.437 -609.979 3883.67 3836.24
internal_weight=0 22143 22059 84 77287 4518 501 60 4017 152 48143 17541 203 17338 40 3865 14907 947 29144 461 395 13960 71 2431 29089 22080 21633 177 54 40
internal_count=99430 22143 22059 84 77287 4518 501 60 4017 152 48143 17541 203 17338 40 3865 14907 947 29144 461 395 13960 71 2431 29089 22080 21633 177 54 40
is_linear=0
shrinkage=0.1


Tree=23
num_leaves=31
num_cat=0
split_feature=39 1 14 6 1 22 39 7 9 10 13 3 18 29 14 22 20 21 16 19 32 42 2 20 6 18 35 21 12 10
split_gain=7.52325e+11 3.13561e+11 2.79669e+11 2.21994e+11 1.19389e+11 1.06928e+11 7.42595e+10 7.24705e+10 6.33356e+10 5.94457e+10 4.67651e+10 4.25145e+10 4.24908e+10 4.76903e+10 3.81129e+10 3.7662e+10 5.31911e+10 4.07789e+10 3.73226e+10 3.62742e+10 6.96844e+10 3.54588e+10 3.51352e+10 3.19789e+10 3.18213e+10 3.17714e+10 5.06376e+10 3.94521e+10 4.32839e+10 3.83867e+10
threshold=105175.82417582419 52500.000000000007 508000.00000000006 2.5000000000000004 209500.00000000003 511000.00000000006 26313.186813186818 -102499.99999999999 72500.000000000015 447000.00000000006 1.0000000180025095e-35 37.587232645000007 255500.00000000003 286500.00000000006 127500.00000000001 189500.00000000003 97500.000000000015 57500.000000000007 112500.00000000001 42500.000000000007 117500.00000000001 53833.333333333336 696500.00000000012 125500.00000000001 5.5000000000000009 1.0000000180025095e-35 85500.000000000015 14500.000000000002 102500.00000000001 5500.0000000000009
decision_type=2 2 10 2 2 10 2 8 10 8 8 2 10 10 8 10 10 8 10 8 8 8 2 10 2 8 10 8 10 10
left_child=1 6 4 -4 12 -5 -1 23 10 -9 22 -11 13 14 15 17 -17 -2 -18 20 -19 -16 -3 -6 -23 26 29 28 -27 -8
right_child=2 8 3 5 7 -7 25 9 -10 11 -12 -13 -14 -15 21 16 18 19 -20 -21 -22 24 -24 -25 -26 27 -28 -29 -30 -31
leaf_value=-419.10466455558202 -1361.5707429691545 -520.61782530350536 12322.183791471783 -2825.6299366826597 -2403.9613569176718 6926.002286044034 656.44488235043957 2044.9987864478162 307.20656128986559 7961.2793389682111 69.516275615009334 3298.0290740458172 -1262.8664791870117 4958.2557835896814 4863.5876297660498 6893.1433291480662 -1766.0161253752533 7403.2844571200294 2936.8661044650612 447.7372260034233 180.3952725578757 1044.5657630642313 -4650.8458891369046 1154.473217528207 264.71639345994453 -581.87781859066524 2156.727339935303 -162.34599833422584 -3072.3052254702598 -287.19504988173213
leaf_weight=15988 123 1072 38 23 46 22 728 590 13902 29 22974 60 105 27 23 21 27 22 45 2823 34 3443 21 56 617 1226 128 34086 74 1057
leaf_count=15988 123 1072 38 23 46 22 728 590 13902 29 22974 60 105 27 23 21 27 22 45 2823 34 3443 21 56 617 1226 128 34086 74 1057
internal_value=0 -82.3248 919.089 6694.28 859.845 1941.83 -238.796 2035.05 137.272 2408.41 39.1115 4817.52 734.286 763.391 747.612 482.949 2464.87 421.551 1173.29 497.731 3017.96 948.232 -599.973 -450.311 926.052 -161.508 235.435 -182.967 -723.641 97.662
internal_weight=0 91256 8174 83 8091 45 53287 781 37969 679 24067 89 7310 7205 7178 3095 93 3002 72 2879 56 4083 1093 102 4060 37299 1913 35386 1300 1785
internal_count=99430 91256 8174 83 8091 45 53287 781 37969 679 24067 89 7310 7205 7178 3095 93 3002 72 2879 56 4083 1093 102 4060 37299 1913 35386 1300 1785
is_linear=0
shrinkage=0.1


Tree=24
num_leaves=31
num_cat=0
split_feature=1 1 39 20 39 15 37 7 1 21 12 29 14 6 21 14 7 15 21 33 18 10 15 37 20 30 39 21 33 7
split_gain=6.26762e+11 2.0707e+11 1.73523e+11 1.47045e+11 1.37092e+11 7.72343e+10 5.8075e+10 4.90309e+10 4.87638e+10 4.00334e+10 6.1103e+10 3.82932e+10 3.84796e+10 3.78103e+10 4.91048e+10 3.64856e+10 4.9179e+10 4.52941e+10 3.36204e+10 3.46336e+10 3.19561e+10 3.08825e+10 3.02079e+10 3.0023e+10 2.99648e+10 4.85607e+10 2.99263e+10 2.93409e+10 5.81579e+10 2.92419e+10
threshold=86500.000000000015 590500.00000000012 45978.021978021985 286500.00000000006 133060.43956043958 255500.00000000003 895000.00000000012 -187499.99999999997 16500.000000000004 233500.00000000003 168500.00000000003 63500.000000000007 149500.00000000003 5.5000000000000009 185500.00000000003 60500.000000000007 157500.00000000003 98500.000000000015 319000.00000000006 112500.00000000001 1.0000000180025095e-35 147500.00000000003 184500.00000000003 173500.00000000003 502500.00000000006 448500.00000000006 187060.43956043958 206500.00000000003 102500.00000000001 224500.00000000003
decision_type=2 2 2 10 2 10 8 8 2 8 10 8 10 2 10 8 10 10 10 8 8 10 8 10 10 10 2 10 8 10
left_child=2 4 8 13 11 7 -3 -6 -1 -7 -11 12 21 15 -15 16 23 20 19 -9 -18 -2 -21 -4 25 -12 29 -13 -29 -17
right_child=1 6 3 -5 5 9 -8 18 -10 10 24 27 -14 14 -16 26 17 -19 -20 22 -22 -23 -24 -25 -26 -27 -28 28 -30 -31
leaf_value=-422.98281090121509 -175.69289834181635 2546.3411846454328 -40.966448902817646 7558.1390099158662 -3619.8516486126446 344.5771590887332 8647.7815166766832 2467.0250537283628 -183.97214808533965 8728.2052880859392 2618.0671483656943 434.17383451300384 -3268.0217400966549 -173.92361091042974 -4298.6439844591869 172.61385395580655 3714.3493350074409 6684.3443786621101 -2638.6378652343751 716.46250309869288 -1739.3383700284094 2768.9085023622256 1372.8752159009573 -3318.4341657366076 -170.51648039641205 7466.2641185302746 -3513.6293357155541 6955.4558764648436 987.74582334368426 3998.4421636962893
leaf_weight=11682 953 26 15553 26 23 51 39 162 31699 20 119 11311 39 6090 29 18275 21 20 25 1847 22 37 1130 28 27 25 22 20 89 20
leaf_count=11682 953 26 15553 26 23 51 39 162 31699 20 119 11311 39 6090 29 18275 21 20 25 1847 22 37 1130 28 27 25 22 20 89 20
internal_value=0 574.535 -109.716 40.2234 551.477 1111.35 6207.21 980.574 -248.335 2833.64 3498.26 397.262 -187.015 35.3465 -193.472 76.5744 -35.582 2752.74 1014.02 1043.11 924.091 -65.6421 965.622 -46.8563 2886.57 3459.77 172.364 449.909 2082.74 176.796
internal_weight=0 15943 83487 40106 15878 3429 65 3187 43381 242 191 12449 1029 40080 6119 33961 15644 63 3164 3139 43 990 2977 15581 171 144 18317 11420 109 18295
internal_count=99430 15943 83487 40106 15878 3429 65 3187 43381 242 191 12449 1029 40080 6119 33961 15644 63 3164 3139 43 990 2977 15581 171 144 18317 11420 109 18295
is_linear=0
shrinkage=0.1


Tree=25
num_leaves=31
num_cat=0
split_feature=39 14 25 9 1 29 12 1 36 35 34 9 38 0 29 20 36 39 9 26 28 38 39 1 29 22 8 26 35 22
split_gain=5.10637e+11 2.22141e+11 2.53402e+11 1.62017e+11 1.18134e+11 7.29294e+10 7.06839e+10 7.05077e+10 4.65805e+10 3.96927e+10 3.95775e+10 3.52377e+10 3.52197e+10 3.5664e+10 3.42476e+10 3.3814e+10 3.22599e+10 2.77458e+10 2.71723e+10 2.6701e+10 2.60427e+10 2.54173e+10 4.00305e+10 3.87065e+10 3.18164e+10 2.68161e+10 3.5841e+10 3.83909e+10 2.52589e+10 2.55969e+10
threshold=67950.549450549457 508000.00000000006 990500.00000000012 154500.00000000003 35500.000000000007 101500.00000000001 198500.00000000003 209500.00000000003 801000.00000000012 223500.00000000003 289500.00000000006 846500.00000000012 84500.000000000015 622382.00000000012 59500.000000000007 73500.000000000015 159500.00000000003 8675.8241758241784 14500.000000000002 187500.00000000003 32500.000000000004 151500.00000000003 158895.60439560443 86500.000000000015 154500.00000000003 189500.00000000003 75500.000000000015 99500.000000000015 117500.00000000001 106500.00000000001
decision_type=2 10 8 8 2 10 10 2 8 10 10 8 8 2 10 10 8 2 10 8 8 10 2 2 10 10 10 10 10 10
left_child=4 3 8 5 15 6 9 12 -3 -2 21 -9 13 -5 -6 17 -14 -1 -17 -8 -18 22 25 24 -23 -7 27 -27 29 -15
right_child=1 2 -4 7 14 10 19 11 -10 -11 -12 -13 16 28 -16 18 20 -19 -20 -21 -22 23 -24 -25 -26 26 -28 -29 -30 -31
leaf_value=-616.63348125154096 204.87934158499559 -225.17300686306427 14207.856250890098 5176.36354414996 -72.012975595076512 601.14191607556984 -512.34080987034076 1844.9981103821847 5462.3193684895841 -3376.6906883978077 4854.2754704562103 5754.8296941121425 41.666265984906573 -796.32648159849884 152.75610719047751 -2211.9187982447011 4411.2749450683596 -246.35166547587102 -617.74811845524209 -2979.7393881684993 871.10378657095362 -611.90269513811381 3182.2436380779932 210.86343437396081 -5834.0892407226565 6742.3706254438921 -1380.6179332386364 1880.0188421433975 3827.70394405242 3351.9283761160718
leaf_weight=2192 16860 36 24 34 36949 4033 83 583 24 31 22 24 547 51 8302 153 21 26347 355 93 1980 28 63 417 20 22 22 62 31 21
leaf_count=2192 16860 36 24 34 36949 4033 83 583 24 31 22 24 547 51 8302 153 21 26347 355 93 1980 28 63 417 20 22 22 62 31 21
internal_value=0 389.648 5523.55 372.431 -131.802 273.5 177.533 1026.24 2049.82 198.306 622.801 1999.59 806.2 2368.12 -30.7756 -289.187 722.219 -274.792 -1097.88 -1816.14 908.257 602.854 680.487 -98.6774 -2787.81 642.408 2212.45 3153.49 1441.13 413.581
internal_weight=0 25132 84 25048 74298 21756 17067 3292 60 16891 4689 607 2685 137 45251 29047 2548 28539 508 176 2001 4667 4202 465 48 4139 106 84 103 72
internal_count=99430 25132 84 25048 74298 21756 17067 3292 60 16891 4689 607 2685 137 45251 29047 2548 28539 508 176 2001 4667 4202 465 48 4139 106 84 103 72
is_linear=0
shrinkage=0.1


Tree=26
num_leaves=31
num_cat=0
split_feature=39 39 14 25 29 13 10 18 4 38 29 40 14 35 10 36 27 7 15 7 17 12 38 29 33 39 33 26 36 3
split_gain=4.21785e+11 1.7357e+11 1.5715e+11 2.08885e+11 6.24015e+10 6.16811e+10 4.34479e+10 5.40507e+10 4.17126e+10 4.16169e+10 3.60169e+10 3.43033e+10 3.1887e+10 3.17993e+10 5.517e+10 4.23136e+10 3.68371e+10 2.96124e+10 2.93682e+10 4.28334e+10 3.63983e+10 2.93877e+10 2.88128e+10 2.76781e+10 2.74784e+10 2.7892e+10 2.74585e+10 2.70338e+10 2.59747e+10 2.65457e+10
threshold=105175.82417582419 54247.252747252758 508000.00000000006 805000.00000000012 215500.00000000003 30500.000000000004 323000.00000000006 276500.00000000006 55.950833515000006 663000.00000000012 87500.000000000015 43616.666666666679 160500.00000000003 227500.00000000003 113500.00000000001 100500.00000000001 155500.00000000003 40500.000000000007 36500.000000000007 105500.00000000001 98500.000000000015 29500.000000000004 15500.000000000002 4500.0000000000009 173500.00000000003 131434.06593406596 132500.00000000003 76500.000000000015 194500.00000000003 37.632132785000003
decision_type=2 2 10 8 10 10 8 10 2 8 10 8 10 8 10 8 10 10 8 10 10 10 8 8 10 2 10 10 10 2
left_child=1 5 4 9 6 23 7 12 -8 -4 11 -3 -2 15 -15 -6 -16 -7 19 20 26 -21 -19 -1 28 -26 27 -13 -14 -30
right_child=2 10 3 -5 13 17 8 -9 -10 -11 -12 18 24 14 16 -17 -18 22 -20 21 -22 -23 -24 -25 25 -27 -28 -29 29 -31
leaf_value=-646.79780976788425 439.48717956646692 2059.5175388555417 3381.5658086362091 10476.527356599508 -3537.2937438964846 -93.050734490940158 1308.8957754561372 -2128.8804075040316 4998.0216423483462 -2702.1043900923296 374.10214742859591 -140.84530189476203 1068.0723693766993 7553.7166436767584 6194.428354034424 1315.270069566285 1711.055562716532 1401.3959084268345 90.374843121603249 -1022.9382436523438 -2026.1614268308995 3136.3766196196939 171.43497080025099 -252.45905278948013 -3234.5258049704812 428.27204749697734 3043.7083236030912 -1537.3419722663032 5929.350366349654 1734.5201137542726
leaf_weight=1923 5609 87 23 38 20 30518 311 76 34 22 4744 603 1135 20 20 177 219 236 27800 25 157 53 987 23920 22 378 23 180 22 48
leaf_count=1923 5609 87 23 38 20 30518 311 76 34 22 4744 603 1135 20 20 177 219 236 27800 25 157 53 987 23920 22 378 23 180 22 48
internal_value=0 -61.6415 688.177 5017.32 643.767 -167.102 575.898 524.003 1672.46 407.327 118.711 76.8287 551.951 1780.13 2508.43 822.624 2086.23 -73.715 70.8478 -450.623 -633.181 1803.26 408.778 -281.802 944.979 226.818 -361.844 -461.879 1183.37 3052.9
internal_weight=0 91256 8174 83 8091 57584 7635 7290 345 45 33672 28928 7214 456 259 197 239 31741 28841 1041 963 78 1223 25843 1605 400 806 783 1205 70
internal_count=99430 91256 8174 83 8091 57584 7635 7290 345 45 33672 28928 7214 456 259 197 239 31741 28841 1041 963 78 1223 25843 1605 400 806 783 1205 70
is_linear=0
shrinkage=0.1


Tree=27
num_leaves=31
num_cat=0
split_feature=1 21 1 15 13 42 29 1 13 22 14 40 42 15 27 21 11 18 35 22 32 25 30 7 14 30 11 30 38 35
split_gain=3.51815e+11 1.1979e+11 1.1709e+11 9.90734e+10 9.36224e+10 6.39721e+10 5.55249e+10 5.14876e+10 4.95672e+10 3.97528e+10 4.58626e+10 3.45573e+10 3.53948e+10 3.22994e+10 4.44369e+10 3.14402e+10 3.04802e+10 3.06377e+10 9.25677e+10 3.02533e+10 3.36935e+10 2.88835e+10 3.20087e+10 2.84399e+10 2.83511e+10 3.66134e+10 4.30036e+10 3.54851e+10 2.68363e+10 2.67097e+10
threshold=86500.000000000015 327500.00000000006 846500.00000000012 49500.000000000007 133500.00000000003 20833.333333333339 240500.00000000003 13500.000000000002 33500.000000000007 180500.00000000003 184500.00000000003 44716.666666666679 43833.333333333336 505500.00000000006 492500.00000000006 1.0000000180025095e-35 276500.00000000006 16500.000000000004 127500.00000000001 14500.000000000002 7500.0000000000009 106500.00000000001 50500.000000000007 179500.00000000003 1.0000000180025095e-35 118500.00000000001 171500.00000000003 59500.000000000007 154500.00000000003 171500.00000000003
decision_type=2 10 2 10 8 8 10 2 10 10 10 10 10 10 10 10 10 10 10 10 10 10 8 10 8 10 10 10 10 10
left_child=1 3 4 7 8 -6 -7 9 15 10 11 21 -13 14 -8 24 17 18 23 20 -14 -1 -23 -5 27 26 -26 -2 -19 -30
right_child=2 -3 -4 16 5 6 13 -9 -10 -11 -12 12 19 -15 -16 -17 -18 28 -20 -21 -22 22 -24 -25 25 -27 -28 -29 29 -31
leaf_value=-346.57004941495035 1157.6968742902889 7656.0490869140631 7135.7464881310098 271.30686452553272 5625.1680682146989 670.29511006616224 2223.2586491682141 -120.53247345044174 315.96731915113469 3691.8178441365562 -3466.5479696909588 -3119.9163486524562 1047.3966692889178 4971.642822265625 -2522.8058482776992 29.062062541020762 -3847.539487304688 31.432995190749253 5545.828184599035 363.04882629916204 -3065.0777507581211 -658.31443568638406 4687.6378255208338 3658.022082611084 -1732.1377979961196 1883.0826049804689 -6224.5236653645843 -2581.7090857611765 -800.06469003359484 -4817.1695690917977
leaf_weight=9578 86 20 26 3029 27 4870 191 41741 9888 24 48 87 27 36 22 523 20 28500 34 117 76 21 24 25 190 24 24 36 96 20
leaf_count=9578 86 20 26 3029 27 4870 191 41741 9888 24 48 87 27 36 22 523 20 28500 34 117 76 21 24 25 190 24 24 36 96 20
internal_value=0 -82.2005 430.45 -84.0547 419.497 770.372 744.766 -169.363 251.862 -373.144 -382.921 -368.015 -1412.45 2201.28 1733.05 -466.003 55.0857 57.5476 356.8 -737.225 -1987.05 -334.695 2192.86 299.03 -1185.22 -1820.59 -2235.96 54.2656 25.2548 -1492.67
internal_weight=0 83487 15943 83467 15917 5146 5119 51743 10771 10002 9978 9930 307 249 213 883 31724 31704 3088 220 103 9623 45 3054 360 238 214 122 28616 116
internal_count=99430 83487 15943 83467 15917 5146 5119 51743 10771 10002 9978 9930 307 249 213 883 31724 31704 3088 220 103 9623 45 3054 360 238 214 122 28616 116
is_linear=0
shrinkage=0.1


Tree=28
num_leaves=31
num_cat=0
split_feature=39 21 21 9 9 27 37 8 18 22 25 20 22 39 19 0 13 6 40 17 6 27 20 39 41 6 17 32 42 39
split_gain=2.88815e+11 1.50481e+11 2.45248e+11 9.66914e+10 6.22775e+10 5.11678e+10 9.03696e+10 4.21185e+10 7.54525e+10 3.79077e+10 4.59997e+10 6.34278e+10 3.65377e+10 7.49358e+10 3.37695e+10 3.31906e+10 3.31329e+10 3.11331e+10 2.91322e+10 3.21478e+10 2.74666e+10 2.6411e+10 2.56398e+10 2.54492e+10 5.03914e+10 2.52829e+10 2.78721e+10 2.5516e+10 2.79549e+10 2.67276e+10
threshold=63153.846153846163 385500.00000000006 448500.00000000006 103500.00000000001 33500.000000000007 867500.00000000012 449500.00000000006 -262499.99999999994 60500.000000000007 137500.00000000003 41500.000000000007 102500.00000000001 247500.00000000003 111313.18681318683 219500.00000000003 605366.50000000012 505500.00000000006 1.0000000180025095e-35 43616.666666666679 304500.00000000006 5.5000000000000009 195500.00000000003 2500.0000000000005 187060.43956043958 186642.85714285716 5.5000000000000009 225500.00000000003 185500.00000000003 159833.33333333334 135483.51648351652
decision_type=2 10 10 8 10 8 8 8 8 8 8 10 10 2 10 2 10 2 8 10 2 10 8 2 10 2 10 10 10 2
left_child=4 3 -3 12 7 6 -4 8 -1 21 11 -11 14 -14 18 17 -8 -12 -2 25 23 -5 -17 -19 -25 26 27 28 29 -20
right_child=1 2 5 9 -6 -7 16 -9 -10 10 15 -13 13 -15 -16 22 -18 20 19 -21 -22 -23 -24 24 -26 -27 -28 -29 -30 -31
leaf_value=7354.1641894531249 2785.04377888005 12730.197042338055 -2624.5296120383523 329.00199395211945 -36.94404787839467 -1852.898353232107 2633.4616950757577 -236.35552216863826 -1332.1744152832032 7815.9208240327389 -670.04438432965969 1321.9825529278451 -768.32748463948565 7519.6861126708991 -1962.5731091621594 -1529.9043632641174 7225.258873697916 1476.9562851992523 167.10003638434446 -3793.8248282296317 -4.3251664161682131 -1247.2328133399333 604.0631787580204 7488.6093856811531 2376.0344697913347 -150.64018374192378 3897.4650073242187 -1438.6329682321259 -3043.8344811333554 1840.3202648798626
leaf_weight=20 41 24 22 4295 42238 31 33 26896 20 21 56 53 24 20 78 57 30 165 17200 21 64 109 4611 24 98 2937 20 99 27 96
leaf_count=20 41 24 22 4295 42238 31 33 26896 20 21 56 53 24 20 78 57 30 165 17200 21 64 109 4611 24 98 2937 20 99 27 96
internal_value=0 257.702 3528.62 242.496 -112.716 1624.85 2893.2 -231.533 3010.99 505.383 689.611 3164.86 120.366 2998.95 114.194 653.519 4820.03 1519.6 122.118 116.766 1868.94 289.99 578.006 2286.68 3381.79 120.796 166.502 162.219 171.368 176.387
internal_weight=0 30256 140 30116 69174 116 85 26936 40 9553 5149 74 20563 44 20519 5075 63 407 20441 20400 351 4404 4668 287 122 20379 17442 17422 17323 17296
internal_count=99430 30256 140 30116 69174 116 85 26936 40 9553 5149 74 20563 44 20519 5075 63 407 20441 20400 351 4404 4668 287 122 20379 17442 17422 17323 17296
is_linear=0
shrinkage=0.1


Tree=29
num_leaves=31
num_cat=0
split_feature=1 14 1 39 15 21 7 41 39 42 21 6 16 9 1 36 7 9 8 21 11 23 1 7 21 33 1 21 8 35
split_gain=2.40852e+11 1.12424e+11 8.80313e+10 6.73286e+10 6.11297e+10 6.69858e+10 3.23311e+10 3.56407e+10 3.34744e+10 3.72513e+10 1.13337e+11 4.31481e+10 3.18058e+10 6.41434e+10 4.16753e+10 3.12971e+10 3.52024e+10 2.84435e+10 2.74872e+10 2.69421e+10 2.67796e+10 3.15067e+10 2.61862e+10 2.19895e+10 2.11446e+10 3.59315e+10 2.0968e+10 3.42572e+10 7.19436e+10 3.67816e+10
threshold=76500.000000000015 349500.00000000006 846500.00000000012 149879.12087912092 39500.000000000007 262500.00000000006 -34499.999999999993 76500.000000000015 63730.769230769241 21833.333333333339 11500.000000000002 2.5000000000000004 774000.00000000012 484500.00000000006 460500.00000000006 292500.00000000006 -187499.99999999997 575500.00000000012 -262499.99999999994 78500.000000000015 148500.00000000003 181500.00000000003 10500.000000000002 138500.00000000003 30500.000000000004 137500.00000000003 121500.00000000001 206500.00000000003 -17499.999999999996 115500.00000000001
decision_type=2 10 2 2 10 10 8 10 2 8 10 2 10 8 2 10 8 8 8 8 10 8 2 10 8 10 2 10 10 10
left_child=1 4 3 19 5 6 7 -1 18 10 11 -10 13 15 -15 16 -5 -16 -8 20 -2 -22 23 -20 -11 -26 -21 -28 29 -29
right_child=2 -3 -4 12 -6 -7 8 -9 9 24 -12 -13 -14 14 17 -17 -18 -19 22 26 21 -23 -24 -25 25 -27 27 28 -30 -31
leaf_value=-517.91856604482314 63.662318206484628 7415.5902721405037 6114.5813589242789 -3414.2905721028651 3.7235623760976022 -5819.3636067708339 2805.2955196257562 -2893.5337690526794 8756.2915845788048 -1845.7500592290141 -2206.1425032552083 2405.3789746093748 -3077.4705252511162 1552.8760802048903 3179.6539746093749 2870.5939594153206 699.92710879436765 8512.899287109376 -359.663576574648 227.6895991132335 -674.90445523755307 -4726.4067074983022 -131.06982671872504 2399.777128232759 202.27659528958316 4187.5006119437849 458.57572471625855 2639.7314164595173 -178.87110371492349 8565.0765784072883
leaf_weight=1464 4572 20 26 21 39947 21 31 66 23 49 30 20 21 52 20 66 2150 20 6891 10535 116 23 28277 29 1384 23 3442 22 49 20
leaf_count=1464 4572 20 26 21 39947 21 31 66 23 49 30 20 21 52 20 66 2150 20 6891 10535 116 23 28277 29 1384 23 3442 22 49 20
internal_value=0 -80.9117 299.379 292.223 -82.8276 -173.082 -169.985 -620.396 -151.237 306.828 2511.21 5802.38 796.841 831.775 3419.57 725.348 660.13 5846.28 -171.118 229.075 22.0904 -1345.3 -173.74 -348.099 196.306 267.422 298.389 509.207 2424.3 5461.32
internal_weight=0 78275 21155 21129 78255 38308 38287 1530 36757 1529 73 43 2350 2329 92 2237 2171 40 35228 18779 4711 139 35197 6920 1456 1407 14068 3533 91 42
internal_count=99430 78275 21155 21129 78255 38308 38287 1530 36757 1529 73 43 2350 2329 92 2237 2171 40 35228 18779 4711 139 35197 6920 1456 1407 14068 3533 91 42
is_linear=0
shrinkage=0.1


Tree=30
num_leaves=31
num_cat=0
split_feature=1 14 13 23 1 21 13 1 10 6 13 21 37 32 21 31 13 17 32 23 15 38 34 28 15 25 24 8 24 35
split_gain=1.96544e+11 1.13794e+11 7.19837e+10 8.11918e+10 6.5633e+10 7.1969e+10 3.98174e+10 4.3228e+10 3.77975e+10 3.69026e+10 8.15736e+10 3.83831e+10 3.67276e+10 3.37965e+10 4.44098e+10 5.12013e+10 3.26583e+10 3.23949e+10 3.19274e+10 3.07136e+10 2.50583e+10 2.46888e+10 2.38468e+10 2.33768e+10 2.3195e+10 3.41202e+10 3.39873e+10 2.75899e+10 6.8284e+10 2.51695e+10
threshold=91500.000000000015 386500.00000000006 203500.00000000003 21500.000000000004 47500.000000000007 262500.00000000006 31500.000000000004 448500.00000000006 258500.00000000003 5.5000000000000009 756000.00000000012 497500.00000000006 88500.000000000015 182500.00000000003 167500.00000000003 140500.00000000003 230500.00000000003 114500.00000000001 171500.00000000003 140500.00000000003 191500.00000000003 78500.000000000015 26500.000000000004 102500.00000000001 16500.000000000004 160500.00000000003 76500.000000000015 -219499.99999999997 1.0000000180025095e-35 117500.00000000001
decision_type=2 10 10 8 2 10 8 2 10 2 10 8 10 10 10 8 10 10 10 10 10 8 10 10 10 10 10 8 8 10
left_child=1 4 6 -4 5 13 12 20 -6 10 -5 -11 18 14 16 22 24 -17 -2 -15 -8 -22 -16 -14 25 26 27 28 -1 -26
right_child=2 -3 3 9 8 -7 7 -9 -10 11 -12 -13 23 19 15 17 -18 -19 -20 -21 21 -23 -24 -25 29 -27 -28 -29 -30 -31
leaf_value=6315.9507232666019 -668.63754647247981 7303.7979596819196 5750.9692562705595 1076.7138552715323 33.978620527107537 -5300.5261665626813 295.01561136789701 4665.6840247112768 3776.7942594740125 353.55201018577401 6679.5037181712969 -4031.1780099722055 -253.75621000123257 -806.8734212239583 6546.5073730468757 2534.6379846191408 -3282.0854118578363 -2864.9347026367191 -4641.8148117792034 -5236.6097778320318 4347.0423595610118 851.23778500628657 2234.7582738415949 1945.8945916270161 -90.948982514322239 3700.7531782670458 -1477.1405954578695 -230.40591355774666 -968.64328101373485 1178.4833770168814
leaf_weight=22 548 21 38 692 39342 27 11627 23 27 86 27 26 103 45 23 20 33 25 21 24 21 532 29 91 30308 22 219 15220 31 157
leaf_count=22 548 21 38 692 39342 27 11627 23 27 86 27 26 103 45 23 20 33 25 21 24 21 532 29 91 30308 22 219 15220 31 157
internal_value=0 -56.5245 349.708 1230.8 -58.3308 -139.17 290.656 334.475 36.5455 1024.1 1287.11 -664.332 -410.16 -136.152 -132.843 2004.61 -137.349 -465.125 -815.275 -2347.65 326.297 983.99 4141.88 778.039 -135.092 -234.622 -240.211 -222.475 2055.15 -84.407
internal_weight=0 85595 13835 869 85574 46205 12966 12203 39369 831 719 112 763 46178 46109 97 46012 45 569 69 12180 553 52 194 45979 15514 15492 15273 53 30465
internal_count=99430 85595 13835 869 85574 46205 12966 12203 39369 831 719 112 763 46178 46109 97 46012 45 569 69 12180 553 52 194 45979 15514 15492 15273 53 30465
is_linear=0
shrinkage=0.1


Tree=31
num_leaves=31
num_cat=0
split_feature=39 21 23 1 23 40 1 41 5 29 21 1 12 7 12 7 14 32 8 2 7 24 29 5 15 11 8 13 40 29
split_gain=1.6428e+11 9.87532e+10 2.54822e+11 5.92928e+10 5.43888e+10 3.83707e+10 3.71994e+10 4.6464e+10 3.06169e+10 6.08158e+10 3.04399e+10 3.08902e+10 2.95951e+10 3.256e+10 3.24692e+10 2.83018e+10 2.77268e+10 4.98129e+10 2.87274e+10 2.44293e+10 3.50006e+10 2.97771e+10 2.3305e+10 2.24242e+10 2.17851e+10 2.10127e+10 4.58163e+10 2.11092e+10 2.02621e+10 2.19656e+10
threshold=61302.197802197807 385500.00000000006 20500.000000000004 126500.00000000001 408000.00000000006 70950.000000000015 30500.000000000004 65214.285714285717 24.500000000000004 728000.00000000012 84500.000000000015 227500.00000000003 164500.00000000003 -47499.999999999993 18500.000000000004 9500.0000000000018 199500.00000000003 47500.000000000007 -65499.999999999993 118500.00000000001 -166499.99999999997 84500.000000000015 60500.000000000007 16.500000000000004 56500.000000000007 155500.00000000003 -237499.99999999997 132500.00000000003 43616.666666666679 65500.000000000007
decision_type=2 10 10 2 10 10 2 10 2 10 8 2 10 8 8 8 10 8 10 2 10 10 8 2 10 10 8 10 8 8
left_child=5 3 -3 16 -4 6 7 25 9 23 19 -12 13 -13 -15 -16 28 -18 -19 -5 -21 -22 -20 -6 -23 26 -1 -28 -2 -30
right_child=1 2 4 10 8 -7 -8 -9 -10 -11 11 12 -14 14 15 -17 17 18 22 20 21 24 -24 -25 -26 -27 27 -29 29 -31
leaf_value=3663.7159585275958 2315.445297713507 12455.517159901494 -3668.3327380952383 1472.9955877958839 -1074.6499205907187 -3859.3778790509264 -33.757040930780711 -2289.250780930292 -980.33348687978889 7540.7551897321437 466.60742577159857 333.26071624755861 746.40992209317187 -82.542777876420459 6985.2642277644236 3072.7910249710085 2942.6844188548903 -4189.6340209960936 -4178.4635791015626 -4467.5563171386721 567.22383538987913 -3741.0287488213903 -489.16860801632669 3204.7265634765627 -775.63298504548914 -3420.8671325683595 -186.62146627126754 2513.032631920124 -82.931307732896784 157.72991174950815
leaf_weight=31 42 23 21 67 24 27 43137 105 26 21 4405 52 317 22 26 64 27 36 20 22 180 29 119 25 170 20 23202 29 4558 22583
leaf_count=31 42 23 21 67 24 27 43137 105 26 21 4405 52 317 22 26 64 27 36 20 22 180 29 119 25 170 20 23202 29 4558 22583
internal_value=0 182.874 2833.11 171.541 941.528 -90.3474 -88.8176 -190.376 1949.93 3038.32 475.899 549.694 1310.61 2401.15 3361.25 4203.06 112.036 -1055.22 -1672.04 -294.536 -589.859 -364.768 -1020 1108.71 -1207.78 -180.91 -178.125 -183.251 120.71 117.314
internal_weight=0 32879 140 32739 117 66551 66524 23387 96 70 5354 4886 481 164 112 90 27385 202 175 468 401 379 139 49 199 23282 23262 23231 27183 27141
internal_count=99430 32879 140 32739 117 66551 66524 23387 96 70 5354 4886 481 164 112 90 27385 202 175 468 401 379 139 49 199 23282 23262 23231 27183 27141
is_linear=0
shrinkage=0.1


Tree=32
num_leaves=31
num_cat=0
split_feature=1 18 29 1 42 21 18 13 1 13 31 12 29 25 29 35 38 8 14 1 32 23 15 30 21 21 17 35 12 38
split_gain=1.33786e+11 1.03027e+11 5.47978e+10 6.10966e+10 5.38929e+10 4.16447e+10 3.46874e+10 3.35304e+10 3.34263e+10 3.22798e+10 3.02819e+10 3.00965e+10 3.00369e+10 2.92833e+10 2.88771e+10 2.67415e+10 2.86538e+10 2.28932e+10 2.28716e+10 2.33708e+10 2.29983e+10 2.78575e+10 2.19371e+10 3.04099e+10 5.2333e+10 2.66102e+10 2.44239e+10 2.31982e+10 2.55933e+10 2.39181e+10
threshold=76500.000000000015 294000.00000000006 181500.00000000003 672500.00000000012 57500.000000000007 38500.000000000007 184500.00000000003 756000.00000000012 546500.00000000012 29500.000000000004 180500.00000000003 102500.00000000001 175500.00000000003 185500.00000000003 1.0000000180025095e-35 9500.0000000000018 145500.00000000003 -262499.99999999994 35500.000000000007 177500.00000000003 2500.0000000000005 59500.000000000007 66500.000000000015 1.0000000180025095e-35 167500.00000000003 262500.00000000006 202500.00000000003 18500.000000000004 56500.000000000007 52500.000000000007
decision_type=2 10 10 2 10 8 10 10 2 8 10 10 8 10 8 8 10 10 8 2 8 10 10 8 10 10 10 8 10 10
left_child=1 5 3 9 -4 10 22 8 -6 15 11 13 -8 17 -13 -2 18 -1 -17 20 21 -20 25 24 27 26 -7 -24 29 -29
right_child=2 -3 4 -5 7 6 12 -9 -10 -11 -12 14 -14 -15 -16 16 -18 -19 19 -21 -22 -23 23 -25 -26 -27 -28 28 -30 -31
leaf_value=2320.1884844805745 -1519.4770289829801 6233.5432185246391 5719.5860478940222 5127.1151916503914 814.50411243577082 -37.805901733193153 -422.19595867979763 4368.8725503774795 -3315.8136816406254 209.90837733925241 2906.0711899757389 -3184.4899063233406 -4164.8809098527236 3570.38939659482 -592.14461873190737 586.74721767570406 3066.1201918990523 -169.0954168654379 4323.1260298295456 -2644.0549036865236 -577.58888380046858 -709.26945911754274 -1228.1662323322703 100.95664450330781 5971.2770949590777 -3299.5559726562497 3221.7434230638592 1620.8418092515735 215.07582301921673 5529.9339420318611
leaf_weight=37 168 26 23 25 965 43879 51 26 20 19069 32 62 37 21 140 237 27 24925 22 50 501 22 47 8746 21 25 23 72 111 20
leaf_count=37 168 26 23 25 965 43879 51 26 20 19069 32 62 37 21 140 237 27 24925 22 50 501 22 47 8746 21 25 23 72 111 20
internal_value=0 -60.3033 223.127 186.642 933.096 -62.3946 -12.0888 824.205 730.64 180.496 -168.189 -172.095 -1995.82 -162.265 -1387.81 -365.626 -139.96 -165.406 -244.003 -574.907 -385.077 1806.93 -8.79158 133.283 1176.55 -37.9556 -36.0982 773.796 1237.3 2470.64
internal_weight=0 78275 21155 20121 1034 78249 53032 1011 985 20096 25217 25185 88 24983 202 1027 859 24962 832 595 545 44 52944 9017 271 43927 43902 250 203 92
internal_count=99430 78275 21155 20121 1034 78249 53032 1011 985 20096 25217 25185 88 24983 202 1027 859 24962 832 595 545 44 52944 9017 271 43927 43902 250 203 92
is_linear=0
shrinkage=0.1


Tree=33
num_leaves=31
num_cat=0
split_feature=39 42 1 24 10 36 8 16 1 13 37 20 36 41 39 19 40 34 10 1 39 13 18 7 39 24 7 18 20 35
split_gain=1.17759e+11 1.69808e+11 5.38022e+10 3.57952e+10 4.68411e+10 5.76401e+10 3.15273e+10 4.76837e+10 4.26948e+10 2.52907e+10 3.66505e+10 3.22471e+10 2.72449e+10 2.4818e+10 3.38959e+10 6.06136e+10 2.39978e+10 2.96139e+10 2.88339e+10 3.6463e+10 3.04074e+10 2.65654e+10 4.03665e+10 2.54519e+10 2.04238e+10 2.12877e+10 2.79882e+10 5.15606e+10 3.40521e+10 2.34739e+10
threshold=113109.89010989011 20833.333333333339 58500.000000000007 485500.00000000006 513500.00000000006 801000.00000000012 -422499.99999999994 194500.00000000003 515000.00000000006 19500.000000000004 34500.000000000007 230500.00000000003 44500.000000000007 128071.42857142859 111313.18681318683 66500.000000000015 111216.66666666667 73500.000000000015 93500.000000000015 17500.000000000004 131434.06593406596 77500.000000000015 88500.000000000015 24500.000000000004 7972.527472527473 77500.000000000015 132500.00000000003 1.0000000180025095e-35 38500.000000000007 165500.00000000003
decision_type=2 8 2 10 10 8 8 8 2 8 8 10 10 10 2 10 8 10 8 2 2 10 8 8 2 10 10 8 8 10
left_child=2 -2 13 6 -5 -6 7 -3 16 10 12 -11 -4 14 24 -16 17 -8 19 -18 -21 -22 -23 -20 -1 26 -26 28 -28 -27
right_child=1 3 9 4 5 -7 8 -9 -10 11 -12 -13 -14 -15 15 -17 18 -19 23 20 21 22 -24 -25 25 29 27 -29 -30 -31
leaf_value=-425.69293050617944 7160.3563258815457 126.57113948512722 73.267122334181664 5513.0507150957665 -3403.0804024832596 3582.3203287760416 4887.1570674730383 -5933.9037333679198 4005.8867132186892 93.53910140661651 -68.15188343118443 3429.7702091611668 -1937.5137213901323 -3605.8926867675782 6750.2038293457044 -777.1126708984375 -3909.8480860216864 996.62755509587646 270.02828364299364 -987.30164773771503 -1776.727543449402 4658.1231201171877 480.543213183337 796.42685883926674 -68.221473152137932 -473.65318766189097 1445.7157905910326 19.894963938124636 6948.760784357245 2891.3611729213171
leaf_weight=1707 37 37 99 31 21 27 23 20 32 29960 1132 29 211 20 20 23 29 131 4798 225 32 30 101 1136 57743 1616 23 94 22 21
leaf_count=1707 37 37 99 31 21 27 23 20 32 29960 1132 29 211 20 20 23 29 131 4798 225 32 30 101 1136 57743 1616 23 94 22 21
internal_value=0 404.543 -29.2761 367.084 2483.07 526.208 341.733 -1999.91 362.151 77.0954 -331.976 96.7653 -1295.36 -83.8269 -82.6772 2723.96 344.227 1577.68 314.318 -489.461 -233.813 806.278 1437.24 370.802 -84.6484 -74.8672 -64.8098 1352.48 4136.09 -430.486
internal_weight=0 6710 92720 6673 79 48 6594 57 6537 31431 1442 29989 310 61289 61269 43 6505 154 6351 417 388 163 131 5934 61226 59519 57882 139 45 1637
internal_count=99430 6710 92720 6673 79 48 6594 57 6537 31431 1442 29989 310 61289 61269 43 6505 154 6351 417 388 163 131 5934 61226 59519 57882 139 45 1637
is_linear=0
shrinkage=0.1


Tree=34
num_leaves=31
num_cat=0
split_feature=9 20 1 29 42 32 6 1 1 16 24 30 12 37 1 12 18 7 20 12 1 29 24 14 42 13 8 11 7 19
split_gain=9.64057e+10 1.5876e+11 6.12128e+10 4.65572e+10 6.38972e+10 4.24219e+10 2.95719e+10 3.63291e+10 3.06976e+10 2.94013e+10 4.76851e+10 3.21008e+10 2.73833e+10 2.67278e+10 2.54513e+10 2.61452e+10 2.54378e+10 6.39396e+10 4.04271e+10 2.79729e+10 2.3135e+10 2.4961e+10 2.26889e+10 2.14468e+10 2.07554e+10 2.00266e+10 3.90457e+10 2.54621e+10 3.59264e+10 2.53199e+10
threshold=60500.000000000007 286500.00000000006 209500.00000000003 238500.00000000003 159833.33333333334 172500.00000000003 5.5000000000000009 4500.0000000000009 355500.00000000006 774000.00000000012 561500.00000000012 152500.00000000003 187500.00000000003 114500.00000000001 105500.00000000001 355500.00000000006 7500.0000000000009 167500.00000000003 51500.000000000007 34500.000000000007 31500.000000000004 89500.000000000015 60500.000000000007 143500.00000000003 42833.333333333336 6500.0000000000009 -262499.99999999994 151500.00000000003 -74499.999999999985 185500.00000000003
