tree
version=v3
num_class=1
num_tree_per_iteration=1
label_index=0
max_feature_idx=42
objective=regression
feature_names=TID money_in money longitude latitude day weekday yesterday_income_growth yesterday_growth_of_income_growth income_1_day_before income_2_day_before income_3_day_before income_4_day_before income_5_day_before income_6_day_before income_7_day_before income_8_day_before income_9_day_before income_10_day_before income_11_day_before income_12_day_before income_13_day_before income_14_day_before income_15_day_before income_16_day_before income_17_day_before income_18_day_before income_19_day_before income_20_day_before income_21_day_before income_22_day_before income_23_day_before income_24_day_before income_25_day_before income_26_day_before income_27_day_before income_28_day_before income_29_day_before income_30_day_before mean_income_all mean_income_last_30_days mean_income_last_7_days mean_income_last_3_days
feature_infos=[406136:699664] [0:2697000] [0:6019000] [35.500558769999998:39.842458970000003] [54.458422939999998:56.757842529999998] [1:31] [0:6] [-2214000:2697000] [-4911000:2697000] [0:2697000] [0:2697000] [0:2697000] [0:2697000] [0:2697000] [0:2697000] [0:2697000] [0:2697000] [0:2697000] [0:2697000] [0:2697000] [0:2697000] [0:2697000] [0:2697000] [0:2697000] [0:2697000] [0:2697000] [0:2697000] [0:2697000] [0:2697000] [0:2697000] [0:2697000] [0:2697000] [0:2697000] [0:2697000] [0:2697000] [0:2697000] [0:2697000] [0:2697000] [0:2697000] [2274.7252747252742:734461.5384615385] [0:843500] [0:917142.85714285716] [0:1247000]
tree_sizes=2843 2872 2866 2849 2848 2834 2906 2843 2888 2849 2849 2889 2899 2852 2827 2839 2859 2845 2841 2889 2854 2869 2853 2862 2855 2854 2852 2848 2831 2873

Tree=0
num_leaves=31
num_cat=0
split_feature=39 39 39 39 4 39 39 39 39 19 39 39 21 39 13 15 0 23 39 13 13 8 39 41 20 13 20 19 9 13
split_gain=7.95689e+13 2.95725e+13 2.16328e+13 9.54656e+12 7.9782e+12 4.22487e+12 3.36605e+12 1.8655e+12 1.45876e+12 1.45421e+12 6.2722e+11 5.68604e+11 4.70371e+11 3.86016e+11 3.51993e+11 3.44753e+11 4.7612e+11 3.3504e+11 3.2335e+11 2.87926e+11 2.79533e+11 2.45355e+11 2.0935e+11 2.04893e+11 1.72376e+11 1.51698e+11 1.35041e+11 1.26304e+11 9.54094e+10 9.34889e+10
threshold=83862.637362637368 252285.71428571432 42137.362637362654 133060.43956043958 55.950833515000006 60115.384615384624 25016.48351648352 106637.36263736265 171978.02197802201 379000.00000000006 68945.054945054959 51142.857142857152 418500.00000000006 32214.285714285721 200500.00000000003 225500.00000000003 676433.00000000012 990500.00000000012 14615.384615384619 306000.00000000006 138500.00000000003 38500.000000000007 93934.065934065948 119642.85714285716 44500.000000000007 83500.000000000015 178500.00000000003 170500.00000000003 329000.00000000006 100500.00000000001
decision_type=2 2 2 2 2 2 2 2 2 10 2 2 8 2 10 8 2 8 2 8 8 10 2 8 8 10 10 10 10 8
left_child=2 3 6 7 9 11 18 22 20 15 -7 -4 -11 -8 29 -3 19 -6 -1 -17 24 -14 -2 -9 -5 -12 -25 -22 -21 -10
right_child=1 4 5 8 17 10 13 23 14 12 25 -13 21 -15 -16 16 -18 -19 -20 28 27 -23 -24 26 -26 -27 -28 -29 -30 -31
leaf_value=52008.187214287449 59850.137698245882 92774.905177418652 55642.741933978672 57391.175062478796 120904.20746536508 57433.993258835617 53851.961784896099 62184.381307521035 63367.286252799975 85430.184995935735 58344.445034327538 56537.017378732766 97337.090461688611 54731.255808569796 72378.574357232981 77308.312249018927 67082.841796962297 136337.88999377418 52927.47408212383 82308.446018354211 66099.957858672657 111295.61934036508 60925.100419586335 63429.285470789175 64498.481929681409 59260.011032918243 66914.465648040699 68419.602414881767 90809.007062139281 69060.219527865076
leaf_weight=7503 4026 21 14823 36 39 9577 7808 1797 30 23 6807 13664 34 13847 440 65 27 22 7808 23 1149 20 3294 2234 655 2465 117 295 31 750
leaf_count=7503 4026 21 14823 36 39 9577 7808 1797 30 23 6807 13664 34 13847 440 65 27 22 7808 23 1149 20 3294 2234 655 2465 117 295 31 750
internal_value=56622.9 63300.8 55424.6 62666.6 94123.6 56840.2 53611.8 61294 67358.6 86036.8 58001.6 56071.7 97406.1 54414.2 70117 80794.8 79071.6 126470 52477 81791.7 65782.3 102507 60333.9 62988.3 64128.2 58587.9 63602.7 66573.8 87188.4 68841.3
internal_weight=0 15128 84302 14823 305 47336 36966 11468 3355 244 18849 28487 77 21655 1220 167 146 61 15311 119 2135 54 7320 4148 691 9272 2351 1444 54 780
internal_count=99430 15128 84302 14823 305 47336 36966 11468 3355 244 18849 28487 77 21655 1220 167 146 61 15311 119 2135 54 7320 4148 691 9272 2351 1444 54 780
is_linear=0
shrinkage=1


Tree=1
num_leaves=31
num_cat=0
split_feature=39 39 39 39 4 39 39 39 12 13 39 39 39 20 15 23 39 39 8 20 39 13 13 13 19 3 39 39 20 7
split_gain=6.45428e+13 2.32078e+13 1.89693e+13 6.69552e+12 6.46234e+12 3.84838e+12 2.9933e+12 1.39177e+12 1.38541e+12 8.814e+11 6.37912e+11 4.35704e+11 4.14456e+11 3.87296e+11 3.03676e+11 2.71382e+11 2.67287e+11 2.38848e+11 2.17578e+11 2.07978e+11 1.93363e+11 1.78867e+11 1.65446e+11 1.47325e+11 1.24815e+11 1.62485e+11 9.68577e+10 9.35064e+10 8.90091e+10 7.82986e+10
threshold=87912.087912087925 252285.71428571432 43285.71428571429 141604.39560439563 55.950833515000006 61302.197802197807 24637.362637362643 113109.89010989011 396000.00000000006 185500.00000000003 70543.956043956059 51142.857142857152 34835.16483516484 304500.00000000006 381000.00000000006 990500.00000000012 158895.60439560443 15302.197802197805 45500.000000000007 210500.00000000003 101494.50549450552 21500.000000000004 122500.00000000001 78500.000000000015 289500.00000000006 37.646657880000014 125153.84615384617 56357.142857142862 153500.00000000003 126500.00000000001
decision_type=2 2 2 2 2 2 2 2 10 10 2 2 2 10 8 8 2 2 10 10 2 8 10 10 8 2 2 2 8 10
left_child=2 3 6 7 8 11 17 20 13 16 -7 -4 -8 24 -10 -6 21 -1 -16 -11 -2 -5 -9 -12 -3 -26 -24 -13 -18 -14
right_child=1 4 5 9 15 10 12 22 14 19 23 27 29 -15 18 -17 28 -19 -20 -21 -22 -23 26 -25 25 -27 -28 -29 -30 -31
leaf_value=-4132.4270084778937 3417.5449948444616 21277.464146686423 -835.56661630587587 1702.9817666696949 57853.169751602567 829.67456589167341 -2390.8131382776346 5554.1370305393266 27438.487580672554 11846.230120795017 1621.8987824865119 -247.5822715154477 -1564.9143910043958 28705.66363932292 36574.138569078954 71743.485227272729 8209.1014347330729 -3329.5175432388969 49460.022656250003 15217.694294289984 4566.7980825135837 8283.4095299559849 5987.6925330443482 2392.7421745086731 10610.488270399306 21678.837872023811 7474.3961103459551 266.87750636397817 10903.257789684478 4546.3436197916662
leaf_weight=7930 4392 58 13115 43 39 9577 11224 1813 23 559 5467 8906 12545 48 38 22 150 6954 20 272 2196 1049 715 4537 36 21 1132 5856 672 21
leaf_count=7930 4392 58 13115 43 39 9577 11224 1813 23 559 5467 8906 12545 48 38 22 150 6954 20 272 2196 1049 715 4537 36 21 1132 5856 672 21
internal_value=0 6484.17 -1001.1 5844.11 33750.6 338.573 -2645.05 4669.24 26472.5 10230.3 1413.03 -416.135 -1949.17 21160.7 37161.8 62862.8 9049.57 -3757.3 41017.5 12949.8 3800.63 8024.29 6232.75 1971.49 18011.5 14688.3 6898.87 -43.4991 10411.6 -1554.7
internal_weight=0 13298 86132 12993 305 47458 38674 10248 244 2745 19581 27877 23790 163 81 61 1914 14884 58 831 6588 1092 3660 10004 115 57 1847 14762 822 12566
internal_count=99430 13298 86132 12993 305 47458 38674 10248 244 2745 19581 27877 23790 163 81 61 1914 14884 58 831 6588 1092 3660 10004 115 57 1847 14762 822 12566
is_linear=0
shrinkage=0.1


Tree=2
num_leaves=31
num_cat=0
split_feature=39 39 39 39 4 39 39 39 12 39 39 39 20 21 39 14 39 20 39 1 39 35 39 0 20 12 20 41 39 40
split_gain=5.23886e+13 1.96022e+13 1.38142e+13 6.66202e+12 5.2345e+12 2.81429e+12 1.93565e+12 1.51509e+12 1.12218e+12 7.87845e+11 4.78956e+11 3.23719e+11 3.13709e+11 2.89714e+11 2.83885e+11 2.78652e+11 2.77622e+11 1.84333e+11 1.67613e+11 1.70196e+11 1.46237e+11 1.38762e+11 1.18075e+11 1.07381e+11 9.5247e+10 7.96993e+10 7.80295e+10 7.46626e+10 7.45721e+10 7.38805e+10
threshold=82285.714285714304 252285.71428571432 40736.263736263747 125153.84615384617 55.950833515000006 58016.483516483524 22428.571428571431 158895.60439560443 396000.00000000006 102758.24175824177 68505.494505494527 48697.802197802208 304500.00000000006 29500.000000000004 200807.69230769234 788000.00000000012 31346.153846153855 66500.000000000015 145791.20879120883 2500.0000000000005 12170.329670329673 457500.00000000006 89252.747252747271 676433.00000000012 174500.00000000003 169500.00000000003 181500.00000000003 97785.714285714304 115593.4065934066 164200.00000000003
decision_type=2 2 2 2 2 2 2 2 10 2 2 2 10 10 2 10 2 8 2 2 2 8 2 2 8 10 10 8 2 10
left_child=2 3 6 9 8 11 20 17 12 22 -7 -4 23 -10 26 -6 -8 -5 25 -20 -1 -15 -2 -3 -16 27 -9 -19 -11 -27
right_child=1 4 5 7 15 10 16 14 13 28 -12 -13 -14 21 24 -17 -18 18 19 -21 -22 -23 -24 -25 -26 29 -28 -29 -30 -31
leaf_value=-3876.2550327697581 2350.0510818262569 17943.922948096264 -914.64026615232547 2935.4363770141604 63446.982499999998 547.55336026503528 -2360.6607637376751 9261.7876236259544 43890.197031250005 4270.2933697455574 1513.1365300788257 -232.32788699996951 25835.097338867188 23192.283237304688 6947.1213955965914 49927.668951612904 -1624.8874924281142 3043.0684692382815 15690.945083618164 7765.7858950312166 -3200.2181882649443 33352.268711890247 3169.8692284839403 10824.005758231027 13777.911921654153 8876.6477674832913 10918.540846729491 6285.0822803236979 5191.6803818082553 2868.8186056385871
leaf_weight=5185 2928 87 14030 125 30 12139 8723 769 20 2196 8906 13786 48 20 22 31 12444 74 28 841 8357 41 4392 28 283 186 451 1773 1464 23
leaf_count=5185 2928 87 14030 125 30 12139 8723 769 20 2196 8906 13786 48 20 22 31 12444 74 28 841 8357 41 4392 28 283 186 451 1773 1464 23
internal_value=0 5269.06 -999.967 4776.78 30375.5 83.655 -2525.42 7982.85 23825.3 3440.91 956.177 -576.477 19044.7 33445.6 10556.4 56576.5 -1928.1 6696.06 6856.77 8021.14 -3459.06 30021.1 2841.94 16210.4 13285.2 6364.63 9874.24 6155.19 4638.85 8215.5
internal_weight=0 15860 83570 15555 305 48861 34709 4575 244 10980 21045 27816 163 81 1525 61 21167 3050 2925 869 13542 61 7320 115 305 2056 1220 1847 3660 209
internal_count=99430 15860 83570 15555 305 48861 34709 4575 244 10980 21045 27816 163 81 1525 61 21167 3050 2925 869 13542 61 7320 115 305 2056 1220 1847 3660 209
is_linear=0
shrinkage=0.1


Tree=3
num_leaves=31
num_cat=0
split_feature=39 39 39 39 13 39 39 39 19 39 27 2 9 19 39 9 13 13 39 39 13 39 18 13 19 29 33 27 3 13
split_gain=4.24863e+13 1.61163e+13 1.0696e+13 5.84171e+12 3.30642e+12 2.08512e+12 1.52778e+12 1.22722e+12 8.86655e+11 7.51179e+11 4.52506e+11 4.48614e+11 4.29623e+11 3.92279e+11 3.66429e+11 3.15785e+11 2.67703e+11 2.49495e+11 2.16943e+11 1.99071e+11 1.36592e+11 1.33095e+11 1.21837e+11 1.21377e+11 1.17724e+11 1.48741e+11 1.14208e+11 1.01715e+11 9.94283e+10 9.33111e+10
threshold=80351.648351648371 252285.71428571432 40428.571428571442 125153.84615384617 573500.00000000012 56357.142857142862 23291.208791208792 158895.60439560443 379000.00000000006 98329.670329670349 624500.00000000012 739000.00000000012 435500.00000000006 319000.00000000006 67423.076923076951 745000.00000000012 214500.00000000003 139500.00000000003 47609.890109890119 29983.516483516487 49500.000000000007 13247.252747252749 489000.00000000006 112500.00000000001 206500.00000000003 134500.00000000003 482500.00000000006 89500.000000000015 37.682822815000002 88500.000000000015
decision_type=2 2 2 2 10 2 2 2 10 2 8 2 8 8 2 10 10 10 2 2 8 2 10 10 10 8 8 10 2 10
left_child=2 3 6 9 8 18 21 17 11 29 22 13 -13 26 -7 -6 -9 20 -4 -8 28 -1 -10 -11 -19 -26 -3 -16 -5 -2
right_child=1 4 5 7 15 14 19 16 10 23 -12 12 -14 -15 27 -17 -18 24 -20 -21 -22 -23 -24 -25 25 -27 -28 -29 -30 -31
leaf_value=-3436.9972440655229 2018.2511684859569 14346.970545212767 -874.94064501456239 -120.5534359741211 41742.138308189664 406.39815162502799 -2170.7687149767294 8845.1230226253592 30318.514308035719 3546.3314212906321 43565.751822916674 19328.544750000001 36670.29296875 2372.4143342391303 1131.9721741938445 56630.791183035719 12178.101324218751 6771.8673735969514 -301.08085642376813 -1509.6026818531566 5439.0949457365359 -2815.9390017173519 21178.210828125 4573.479333644922 18233.802441406249 8138.5057964890093 22507.765740740742 2290.7349110927312 5714.1164826766308 2733.8235671869052
leaf_weight=6222 3897 47 12566 80 29 12871 6893 1225 35 2810 21 50 20 23 8070 28 300 1367 13847 13420 1483 7747 25 1948 20 54 27 836 46 3423
leaf_count=6222 3897 47 12566 80 29 12871 6893 1225 35 2810 21 50 20 23 8070 28 300 1367 13847 13420 1483 7747 25 1948 20 54 27 836 46 3423
internal_value=0 4558.6 -937.346 4141.4 27338 23.1843 -2287.56 7184.57 22346.4 2988.68 30931.9 18182.1 24283.3 13779.2 747.615 49055.9 9500.79 6026.45 -574.095 -1733.96 5170.53 -3092.57 26510.1 3966.86 6982.16 10867 17324.6 1240.74 2009.56 2352.87
internal_weight=0 16958 82472 16653 305 48190 34282 4575 248 12078 81 167 70 97 21777 57 1525 3050 26413 20313 1609 13969 60 4758 1441 74 74 8906 126 7320
internal_count=99430 16958 82472 16653 305 48190 34282 4575 248 12078 81 167 70 97 21777 57 1525 3050 26413 20313 1609 13969 60 4758 1441 74 74 8906 126 7320
is_linear=0
shrinkage=0.1


Tree=4
num_leaves=31
num_cat=0
split_feature=39 39 39 39 4 39 39 39 12 39 39 20 21 5 39 39 20 39 20 39 25 3 1 42 19 12 39 20 39 25
split_gain=3.44206e+13 1.31157e+13 8.53413e+12 4.84924e+12 3.54045e+12 1.62927e+12 1.24539e+12 9.95966e+11 7.60979e+11 6.42347e+11 2.68477e+11 2.28833e+11 2.20436e+11 2.1474e+11 2.01074e+11 1.85396e+11 1.706e+11 1.67555e+11 1.31167e+11 1.27019e+11 1.08631e+11 1.71055e+11 1.05224e+11 8.94158e+10 1.06546e+11 8.6721e+10 8.24986e+10 7.76505e+10 7.96177e+10 7.59565e+10
threshold=79587.912087912104 252285.71428571432 40428.571428571442 125153.84615384617 55.950833515000006 56681.318681318691 21445.054945054948 171978.02197802201 396000.00000000006 102758.24175824177 65763.736263736282 344500.00000000006 29500.000000000004 13.500000000000002 29983.516483516487 48115.384615384624 210500.00000000003 149879.12087912092 66500.000000000015 89252.747252747271 517000.00000000006 37.646657880000014 396000.00000000006 16833.333333333339 206500.00000000003 184500.00000000003 11302.197802197805 100500.00000000001 200807.69230769234 171500.00000000003
decision_type=2 2 2 2 2 2 2 2 10 2 2 10 10 2 2 2 10 2 8 2 8 2 2 8 10 10 2 8 2 10
left_child=2 3 6 9 8 15 26 17 11 19 -7 20 -10 -6 -8 -4 27 18 29 -2 -3 -22 -14 -20 -25 -26 -1 -9 -29 -5
right_child=1 4 5 7 13 10 14 16 12 -11 -12 -13 22 -15 -16 -17 -18 -19 23 -21 21 -23 -24 24 25 -27 -28 28 -30 -31
leaf_value=-3199.3124298469156 1814.6787501828485 15715.202534520351 -773.81922805161923 3004.4098282717587 53036.26772836539 326.95666220828838 -1987.7875150718346 2651.060290527344 36249.940468749999 3771.7511226699917 1042.1727346758325 23507.614327566964 18205.594902343753 41038.480290178573 -1358.6424428736721 -247.5676046251057 11074.544777128282 6730.4024103083375 -1355.4869921875002 2575.2112787935471 4699.1352120535721 16638.389918154764 27052.993387957322 5261.9468171325252 14851.944494047619 6211.9254751352164 -2661.5375241122465 8035.3654747882874 10715.824085513566 -3815.6097192382813
leaf_weight=4331 4392 86 13298 89 26 11041 8174 24 20 3660 10004 28 20 35 13420 13481 281 915 20 4392 28 21 41 2264 21 26 8357 786 129 20
leaf_count=4331 4392 86 13298 89 26 11041 8174 24 20 3660 10004 28 20 35 13420 13481 281 915 20 4392 28 21 41 2264 21 26 8357 786 129 20
internal_value=0 4050.55 -854.648 3682.21 24604.2 8.53374 -2058.8 6466.11 19217.2 2658.71 666.943 15280.4 27139.3 46152.3 -1596.79 -508.895 8912.88 5576.37 5143.61 2194.95 13574 9815.96 24152.2 5302.16 5359.78 10072.4 -2845.1 8265.99 8413.27 1753.03
internal_weight=0 17324 82106 17019 305 47824 34282 4575 244 12444 21045 163 81 61 21594 26779 1220 3355 2440 8784 135 49 61 2331 2311 47 12688 939 915 109
internal_count=99430 17324 82106 17019 305 47824 34282 4575 244 12444 21045 163 81 61 21594 26779 1220 3355 2440 8784 135 49 61 2331 2311 47 12688 939 915 109
is_linear=0
shrinkage=0.1


Tree=5
num_leaves=31
num_cat=0
split_feature=39 39 39 39 12 39 39 39 20 13 5 2 25 27 10 39 13 39 39 39 20 13 11 13 12 34 12 27 29 27
split_gain=2.7889e+13 1.04137e+13 7.36294e+12 3.5764e+12 2.85478e+12 1.30228e+12 1.272e+12 8.11794e+11 7.64916e+11 5.47721e+11 5.41294e+11 3.06769e+11 2.67941e+11 2.55963e+11 2.05714e+11 1.98801e+11 1.89616e+11 1.60673e+11 1.594e+11 1.41316e+11 1.24366e+11 1.15214e+11 1.32544e+11 1.1435e+11 1.12424e+11 1.04071e+11 8.39677e+10 7.4639e+10 7.44504e+10 7.3379e+10
threshold=82285.714285714304 252285.71428571432 43005.494505494513 135483.51648351652 590500.00000000012 61302.197802197807 25796.703296703297 106637.36263736265 373000.00000000006 185500.00000000003 13.500000000000002 739000.00000000012 517000.00000000006 530500.00000000012 447000.00000000006 52412.087912087918 137500.00000000003 70543.956043956059 35868.131868131873 16978.021978021981 44500.000000000007 116500.00000000001 202500.00000000003 97500.000000000015 212500.00000000003 408000.00000000006 164500.00000000003 249500.00000000003 88500.000000000015 36500.000000000007
decision_type=2 2 2 2 10 2 2 2 10 10 2 2 8 10 8 2 8 2 2 2 8 10 10 10 10 8 8 10 8 10
left_child=2 3 6 7 8 15 19 23 11 16 -6 12 25 -10 -13 -4 20 -7 -8 -1 29 22 -9 -2 27 -3 -18 -11 -22 -5
right_child=1 4 5 9 10 17 18 21 13 24 -12 14 -14 -15 -16 -17 26 -19 -20 -21 28 -23 -24 -25 -26 -27 -28 -29 -30 -31
leaf_value=-2677.5189168072448 1863.2535275882401 11277.031986860797 -517.7482148851393 -5030.3278560291637 56055.940000000002 553.08447871263468 -1526.068092205207 3150.490618495347 22408.256621477682 7726.4499324115959 35323.0940257353 15445.712235753679 3010.6636948529413 35418.486640625 27412.047460937501 16.202551442670195 5571.4012043848015 1172.4955491548646 -993.51209150761576 -2061.3144979903627 9434.4527608235676 4313.0043333818357 7544.113213853434 2655.261286493509 10441.653944608248 19976.917697753906 7015.4791153242732 13662.463110351564 4309.490321667 3233.8422991071429
leaf_weight=9699 5263 44 15860 22 20 9577 11651 2085 62 570 34 51 34 20 20 12444 818 7442 10858 6039 30 2297 71 2789 260 20 793 22 514 21
leaf_count=9699 5263 44 15860 22 20 9577 11651 2085 62 570 34 51 34 20 20 12444 818 7442 10858 6039 30 2297 71 2789 260 20 793 22 514 21
internal_value=0 3844.42 -729.599 3485.61 22143.8 132.664 -1751.39 2736.76 17656.4 6555.91 43001.9 13811 10184.6 25581.5 18816.5 -282.994 5721.58 823.938 -1269.17 -2441.07 4182.89 3820.21 3295.18 2137.58 8708.31 13995.7 6282.24 7947.05 4592.12 -994.338
internal_weight=0 15860 83570 15555 305 45323 38247 12505 251 3050 54 169 98 82 71 28304 2198 17019 22509 15738 587 4453 2156 8052 852 64 1611 592 544 43
internal_count=99430 15860 83570 15555 305 45323 38247 12505 251 3050 54 169 98 82 71 28304 2198 17019 22509 15738 587 4453 2156 8052 852 64 1611 592 544 43
is_linear=0
shrinkage=0.1


Tree=6
num_leaves=31
num_cat=0
split_feature=42 1 41 41 41 10 41 41 20 18 1 1 42 19 23 9 41 11 1 12 20 20 0 9 41 19 20 41 41 7
split_gain=1.93176e+13 7.35605e+12 5.58853e+12 2.98522e+12 1.60867e+12 1.30008e+12 7.04579e+11 6.68668e+11 6.56964e+11 5.8752e+11 5.77824e+11 4.34399e+11 3.09677e+11 2.98755e+11 2.46723e+11 2.21012e+11 2.13205e+11 2.02578e+11 1.85415e+11 1.84561e+11 1.77395e+11 1.46981e+11 1.45439e+11 1.32397e+11 1.32345e+11 1.23706e+11 1.20959e+11 1.12191e+11 1.33085e+11 1.08307e+11
threshold=86500.000000000015 355500.00000000006 41642.857142857152 135785.71428571432 65214.285714285717 594000.00000000012 27500.000000000004 105071.42857142859 210500.00000000003 250500.00000000003 52500.000000000007 201500.00000000003 34833.333333333336 379000.00000000006 868500.00000000012 113500.00000000001 75928.571428571435 177500.00000000003 103500.00000000001 294000.00000000006 158500.00000000003 82500.000000000015 606161.00000000012 90500.000000000015 55071.42857142858 115500.00000000001 125500.00000000001 17071.428571428576 1.0000000180025095e-35 -81499.999999999985
decision_type=10 2 8 10 10 10 10 8 10 10 2 2 10 10 8 8 10 10 2 10 8 10 2 10 8 8 10 10 10 8
left_child=2 3 6 7 10 13 23 21 20 16 12 15 29 -3 -7 24 -6 26 -17 -10 -5 -2 -13 27 -12 -19 -9 28 -1 -4
right_child=1 5 4 8 9 14 -8 17 19 -11 11 22 -14 -15 -16 18 -18 25 -20 -21 -22 -23 -24 -25 -26 -27 -28 -29 -30 -31
leaf_value=-102.14236480188734 1046.5276180254129 12734.119696514425 5809.4325660342265 4432.6109701095484 675.56823395443189 30333.200976562501 -1132.2136616152202 2817.6288739656234 8740.6961977878636 18160.212268981933 -353.71567172938251 13919.959998168946 -411.79194741941228 23050.562618468241 43981.362905092596 615.79309788079945 1508.7635914376913 1813.8685193513568 3385.5658664812363 15550.37156871449 6066.2975320553151 2074.2850276341496 4586.1735618515768 5197.4776337890626 226.40605935396468 7069.5012613542922 4016.5783878371217 -1795.2269918257805 -2389.6285885374691 -1389.5499858539615
leaf_weight=262 2275 52 21 1248 7711 26 15468 3508 417 20 5933 20 17585 61 27 781 5104 57 350 44 1422 3583 101 25 11663 209 1107 7330 8698 4322
leaf_count=262 2275 52 21 1248 7711 26 15468 3508 417 20 5933 20 17585 61 27 781 5104 57 350 44 1422 3583 101 25 11663 209 1107 7330 8698 4322
internal_value=0 3438.03 -565.101 3187.58 57.7812 24364 -1615.77 2395.43 5904.59 1034.14 -249.547 156.487 -598.55 18303.2 37286 117.897 1007.42 3259.89 1472.93 9390.64 5302.69 1675.15 6128.95 -2074.22 30.8012 5943.29 3105.22 -2085.38 -2322.74 -1354.74
internal_weight=0 14036 85394 13870 53611 166 31783 10739 3131 12835 40776 18848 21928 113 53 18727 12815 4881 1131 461 2670 5858 121 16315 17596 266 4615 16290 8960 4343
internal_count=99430 14036 85394 13870 53611 166 31783 10739 3131 12835 40776 18848 21928 113 53 18727 12815 4881 1131 461 2670 5858 121 16315 17596 266 4615 16290 8960 4343
is_linear=0
shrinkage=0.1


Tree=7
num_leaves=31
num_cat=0
split_feature=39 39 39 12 39 39 39 4 23 39 13 16 11 13 39 39 13 13 39 19 34 1 1 13 30 11 25 41 13 11
split_gain=1.86364e+13 6.67382e+12 5.62795e+12 1.93441e+12 1.91435e+12 1.12057e+12 9.10233e+11 8.2013e+11 4.81434e+11 3.75987e+11 3.1962e+11 2.90717e+11 2.7313e+11 2.49423e+11 1.69642e+11 1.44068e+11 1.27061e+11 1.22612e+11 1.03681e+11 9.67104e+10 8.14251e+10 8.03564e+10 7.5964e+10 6.95841e+10 7.4561e+10 6.93515e+10 1.06482e+11 6.91507e+10 6.89457e+10 6.37805e+10
threshold=89252.747252747271 252285.71428571432 45978.021978021985 590500.00000000012 141604.39560439563 28780.219780219784 65181.318681318684 55.937786545000009 868500.00000000012 115593.4065934066 185500.00000000003 223500.00000000003 532500.00000000012 253500.00000000003 18461.538461538468 54247.252747252758 1.0000000180025095e-35 75500.000000000015 37868.131868131873 233500.00000000003 97500.000000000015 316500.00000000006 159500.00000000003 146500.00000000003 118500.00000000001 1.0000000180025095e-35 170500.00000000003 117642.85714285716 112500.00000000001 373000.00000000006
decision_type=2 2 2 10 2 2 2 2 8 2 10 8 8 10 2 2 8 10 2 10 10 2 2 8 8 8 8 10 10 8
left_child=2 4 5 7 9 14 15 11 -5 28 16 -3 -9 29 -1 -4 20 -8 -7 -12 -6 -15 -21 24 27 26 -11 -18 -2 -13
right_child=1 3 6 8 10 18 17 12 -10 25 19 13 -14 21 -16 -17 23 -19 -20 22 -22 -23 -24 -25 -26 -27 -28 -29 -30 -31
leaf_value=-2156.329406683632 1933.5068075214331 20360.300774016207 -278.12026893690989 26560.522760220236 -2831.9974107142862 -1095.4138442848468 666.51104935954027 19632.11836121757 45496.87584375 3547.4640326690674 6696.9312996117433 6255.0751678466804 33347.044843750002 10116.087945197611 -1554.6330792124652 176.08660024201774 12081.897528366817 1246.9004465576695 -684.68300096740165 15335.682753906251 4730.5056193033852 16259.258485068043 8635.8452787642054 5392.6479146527709 3739.7679158136089 3493.0605345804893 -3017.590572684152 4931.6198717619245 2721.6480179286559 -943.64936523437507
leaf_weight=10980 5175 27 13786 29 35 11712 8245 53 25 60 701 32 20 68 8174 14152 21 6517 12932 20 24 31 110 1234 562 3192 42 38 1413 20
leaf_count=10980 5175 27 13786 29 35 11712 8245 53 25 60 701 32 20 68 8174 14152 21 6517 12932 20 24 31 110 1234 562 3192 42 38 1413 20
internal_value=0 3540.72 -529.361 18157.6 3187.66 -1325.81 287.57 14463.7 35327.4 2538.71 5523.87 10803.1 23389.6 9094.17 -1899.55 -48.0417 4812.86 922.736 -879.882 7161.5 244.275 12039.7 9666.59 4958.17 4094.8 3411.04 844.206 7476.63 2102.55 3486.33
internal_weight=0 12932 86498 305 12627 43798 42700 251 54 9882 2745 178 73 151 19154 27938 1914 14762 24644 831 59 99 130 1855 621 3294 102 59 6588 52
internal_count=99430 12932 86498 305 12627 43798 42700 251 54 9882 2745 178 73 151 19154 27938 1914 14762 24644 831 59 99 130 1855 621 3294 102 59 6588 52
is_linear=0
shrinkage=0.1


Tree=8
num_leaves=31
num_cat=0
split_feature=41 41 42 41 13 41 42 13 27 20 11 30 9 42 4 42 13 20 11 41 41 27 41 9 13 17 11 41 4 13
split_gain=1.27793e+13 4.69271e+12 3.69904e+12 1.86185e+12 1.19042e+12 7.0391e+11 6.8265e+11 5.77094e+11 3.62166e+11 3.5111e+11 4.0851e+11 2.99118e+11 2.68758e+11 1.90326e+11 1.8217e+11 1.78071e+11 1.71641e+11 1.71172e+11 1.5095e+11 1.3544e+11 1.3276e+11 1.27875e+11 1.22901e+11 1.12031e+11 1.08322e+11 1.00517e+11 8.9975e+10 8.44069e+10 9.80739e+10 7.7127e+10
threshold=82357.142857142884 265285.71428571438 44166.666666666679 135785.71428571432 531000.00000000012 29642.857142857149 125500.00000000001 62500.000000000007 119500.00000000001 175500.00000000003 4500.0000000000009 720000.00000000012 119500.00000000001 183833.33333333334 55.937786545000009 50833.333333333336 212500.00000000003 99500.000000000015 300500.00000000006 73642.857142857145 49642.857142857152 81500.000000000015 45642.857142857152 36500.000000000007 17500.000000000004 442500.00000000006 4500.0000000000009 1.0000000180025095e-35 55.618746810000012 152500.00000000003
decision_type=10 10 8 10 10 8 10 10 10 8 10 8 10 10 2 10 10 10 10 8 8 8 10 8 10 8 10 10 2 10
left_child=2 3 5 8 14 24 7 12 17 21 -11 -6 20 -8 25 -14 29 -2 -15 -9 -4 -5 -7 26 27 -3 -22 28 -1 -12
right_child=1 4 6 9 11 22 13 19 -10 10 16 -13 15 18 -16 -17 -18 -19 -20 -21 23 -23 -24 -25 -26 -27 -28 -29 -30 -31
leaf_value=2875.018055343628 1342.3182137210288 11512.675716511587 -539.50533928294669 -341.38729097549231 20256.9489445613 -866.7428012500676 3078.7066996983121 394.12726916684665 3217.0460848404873 19424.003249289774 3409.9538146183413 34176.74557976974 3937.8796231500037 6175.3958351448791 17090.488671875002 303.99916330973309 7586.2733845445691 2226.9399990867523 15981.174106445313 1031.4481165073221 -1449.9079021365233 3935.0004691339982 -14.519530513665195 -6.8669089456202075 -1377.8263711211039 3667.151772155762 275.55690676108173 -1915.5787228535437 -1356.2559199706368 5499.9550342915991
leaf_weight=78 5935 89 8015 73 26 18358 287 10230 1799 22 232 38 261 73 56 279 349 3464 20 4947 990 1660 1864 20956 8269 20 435 9682 184 739
leaf_count=78 5935 89 8015 73 26 18358 287 10230 1799 22 232 38 261 73 56 279 349 3464 20 4947 990 1660 1864 20956 8269 20 435 9682 184 739
internal_value=0 2743.51 -468.472 2515.65 16945.1 -1194.33 131.58 96.7952 1917.15 4695.18 5909.47 28521.8 -150.988 4352.67 12454.8 2060.37 5684.23 1668.35 8284.17 601.864 -190.274 3754.86 -788.188 -65.2091 -1645.26 10073.1 -923.187 -1867.65 -96.5637 5000.59
internal_weight=0 14502 84928 14273 229 38435 46493 46113 11198 3075 1342 64 30936 380 165 540 1320 9399 93 15177 30396 1733 20222 22381 18213 109 1425 9944 262 971
internal_count=99430 14502 84928 14273 229 38435 46493 46113 11198 3075 1342 64 30936 380 165 540 1320 9399 93 15177 30396 1733 20222 22381 18213 109 1425 9944 262 971
is_linear=0
shrinkage=0.1


Tree=9
num_leaves=31
num_cat=0
split_feature=39 39 39 39 12 39 4 39 34 39 17 39 15 20 0 13 39 20 34 39 24 21 1 13 12 39 12 35 8 8
split_gain=1.25349e+13 4.86608e+12 2.95407e+12 1.90861e+12 1.32071e+12 6.09504e+11 5.74916e+11 4.68233e+11 4.09841e+11 3.87067e+11 2.30679e+11 2.02852e+11 1.71459e+11 1.86514e+11 2.50096e+11 1.38488e+11 8.56509e+10 8.3416e+10 7.85735e+10 7.56893e+10 7.31338e+10 1.7785e+11 8.24423e+10 6.64413e+10 6.62222e+10 6.36224e+10 6.11714e+10 5.62412e+10 5.37017e+10 5.32431e+10
threshold=77708.791208791212 252285.71428571432 38120.87912087913 120565.93406593408 590500.00000000012 56021.97802197803 55.937786545000009 177840.65934065936 813000.00000000012 19703.29670329671 709000.00000000012 96813.186813186825 223500.00000000003 247500.00000000003 676433.00000000012 138500.00000000003 45978.021978021985 66500.000000000015 147500.00000000003 65181.318681318684 90500.000000000015 97500.000000000015 2500.0000000000005 90500.000000000015 164500.00000000003 29296.703296703301 230500.00000000003 314000.00000000006 -335499.99999999994 -153499.99999999997
decision_type=2 2 2 2 10 2 2 2 8 2 8 2 8 10 2 10 2 8 8 2 8 10 2 10 10 2 10 10 8 8
left_child=2 3 9 11 6 16 12 15 -6 -1 -8 23 -3 14 -14 17 -4 -5 -9 -7 21 -17 -22 -2 -24 -11 -20 -15 -21 -19
right_child=1 4 5 7 8 19 10 18 -10 25 -12 -13 13 27 -16 20 -18 29 26 28 22 -23 24 -25 -26 -27 -28 -29 -30 -31
leaf_value=-1760.9409518160037 983.4962222657141 16103.114178240743 -549.88335416658458 181.73547906390692 17708.760224609374 185.75198112075489 15848.483534787736 481.80485704210071 35749.324689797795 -1235.0938770795974 28452.6101953125 2033.8925339321406 7622.9890068417508 8900.4642541133999 -5963.5745654296879 14931.617949218751 -202.75591480419575 5511.9159678208198 5580.5824719843658 4866.4812684157796 -857.2385880319697 4516.7612653459828 3450.8801795383997 1567.766645210316 4703.717445264544 -874.05552660949058 7784.1179411235616 14642.769009001358 556.501556721361 2817.4896121504657
leaf_weight=11407 5363 27 12505 118 20 11468 53 27 34 8601 20 4392 42 66 20 20 16470 76 736 29 38 91 1339 3055 616 11285 152 23 9243 2094
leaf_count=11407 5363 27 12505 118 20 11468 53 27 34 8601 20 4392 42 66 20 20 16470 76 736 29 38 91 1339 3055 616 11285 152 23 9243 2094
internal_value=0 2354.49 -535.434 2143.61 14880.5 -56.3332 11828.3 3738.27 29067.6 -1296.58 19301.7 1482.97 8763.44 7451.05 3240.23 3309.53 -352.569 2771.05 5796.18 357.525 3895.11 6393.31 3755.97 1195.54 3845.64 -1030.21 5957.76 10384.4 569.982 2911.86
internal_weight=0 18422 81008 18117 305 49715 251 5307 54 31293 73 12810 178 151 62 4392 28975 2288 915 20740 2104 111 1993 8418 1955 19886 888 89 9272 2170
internal_count=99430 18422 81008 18117 305 49715 251 5307 54 31293 73 12810 178 151 62 4392 28975 2288 915 20740 2104 111 1993 8418 1955 19886 888 89 9272 2170
is_linear=0
shrinkage=0.1


Tree=10
num_leaves=31
num_cat=0
split_feature=39 39 39 39 12 39 13 13 34 39 2 39 12 10 27 13 40 39 27 21 16 13 27 8 39 20 24 7 12 13
split_gain=1.01533e+13 3.94152e+12 2.39343e+12 1.55017e+12 1.06977e+12 4.83886e+11 3.56381e+11 3.37196e+11 3.31971e+11 3.23171e+11 2.57808e+11 2.47619e+11 1.82853e+11 1.11914e+11 9.90055e+10 9.74988e+10 9.68402e+10 9.43011e+10 8.65301e+10 8.63611e+10 8.48394e+10 7.06852e+10 7.00227e+10 6.65749e+10 6.62156e+10 6.29974e+10 7.47639e+10 6.09676e+10 6.07799e+10 5.8312e+10
threshold=77708.791208791212 252285.71428571432 38445.054945054952 126521.97802197804 590500.00000000012 56021.97802197803 178500.00000000003 505500.00000000006 813000.00000000012 20236.26373626374 739000.00000000012 96813.186813186825 315500.00000000006 417000.00000000006 76500.000000000015 70500.000000000015 150483.33333333337 158895.60439560443 249500.00000000003 497500.00000000006 253500.00000000003 113500.00000000001 73500.000000000015 -67499.999999999985 45978.021978021985 71500.000000000015 72500.000000000015 138500.00000000003 206500.00000000003 103500.00000000001
decision_type=2 2 2 2 10 2 10 10 8 2 2 2 8 8 8 10 10 2 10 8 10 8 10 10 2 8 8 10 10 10
left_child=2 3 9 11 7 24 14 10 -6 -1 12 29 19 -12 15 -5 21 -16 25 20 -3 -13 -7 -15 -4 -8 -27 -11 -28 -2
right_child=1 4 5 6 8 22 18 -9 -10 27 13 16 -14 23 17 -17 -18 -19 -20 -21 -22 -23 -24 -25 -26 26 28 -29 -30 -31
leaf_value=-1573.2222463126188 969.18982870874811 14823.689667968749 -490.7448982118238 -3793.9086560058599 15937.884057617188 234.38227743964305 -381.14800470525574 19750.871294642857 32174.391575532805 -918.9165969457971 9449.1123613554864 1625.2219950601138 -3008.3905987548828 20353.334609375001 2867.581717152505 2252.747297744751 -4679.0149680397726 4205.3436581648202 8595.1782158346741 1895.1188476562502 6968.6677323774857 2349.2614314158013 708.10930872895744 13082.276826746325 -182.48032232678293 10664.175441576088 4411.1490477969628 4472.084614490328 6155.2579970927873 1724.6315526276278
leaf_weight=11834 7228 20 12078 40 20 16914 22 35 34 19865 58 2839 20 20 2365 80 22 678 68 20 44 2568 3826 34 16470 23 717 21 277 1190
leaf_count=11834 7228 20 12078 40 20 16914 22 35 34 19865 58 2839 20 20 2365 80 22 678 68 20 44 2568 3826 34 16470 23 717 21 277 1190
internal_value=0 2119.04 -481.89 1929.25 13392.5 -45.8347 3595.01 10645.5 26160.9 -1159.45 9170.1 1415.58 5584.9 12499.2 3054.54 237.195 1942.16 3165.64 5139.26 7630.92 9423.36 1969.1 321.773 15775.3 -312.9 4913.08 5027.61 -913.224 4897.18 1075.98
internal_weight=0 18422 81008 18117 305 49288 4270 251 54 31720 216 13847 104 112 3163 120 5429 3043 1107 84 64 5407 20740 54 28548 1039 1017 19886 994 8418
internal_count=99430 18422 81008 18117 305 49288 4270 251 54 31720 216 13847 104 112 3163 120 5429 3043 1107 84 64 5407 20740 54 28548 1039 1017 19886 994 8418
is_linear=0
shrinkage=0.1


Tree=11
num_leaves=31
num_cat=0
split_feature=41 19 42 41 22 41 13 9 13 41 41 14 13 11 9 2 9 13 8 11 41 11 2 11 41 30 13 9 5 23
split_gain=6.77976e+12 2.63409e+12 1.96904e+12 1.16215e+12 6.30341e+11 4.53075e+11 3.4941e+11 3.34243e+11 3.10551e+11 2.79466e+11 2.44848e+11 2.1483e+11 1.99121e+11 1.82595e+11 1.21218e+11 1.14097e+11 1.48432e+11 9.90792e+10 9.41129e+10 8.55605e+10 7.21949e+10 6.60187e+10 6.47011e+10 6.19362e+10 6.10462e+10 5.47592e+10 6.50955e+10 5.10337e+10 5.09494e+10 4.99417e+10
threshold=82357.142857142884 379000.00000000006 40166.666666666679 142071.42857142861 709000.00000000012 58500.000000000007 306000.00000000006 158500.00000000003 25500.000000000004 213571.42857142861 111928.57142857143 788000.00000000012 66500.000000000015 120500.00000000001 49500.000000000007 724000.00000000012 256500.00000000003 137500.00000000003 -99499.999999999985 373000.00000000006 42214.285714285717 98500.000000000015 677500.00000000012 50500.000000000007 47071.42857142858 36500.000000000007 88500.000000000015 141500.00000000003 18.500000000000004 114500.00000000001
decision_type=10 10 8 10 8 8 10 10 10 10 10 10 10 8 8 2 10 10 10 10 10 10 2 10 10 8 10 10 2 10
left_child=2 3 8 10 6 24 -3 12 29 17 25 -6 14 -9 23 -15 -17 -5 -8 -11 -10 -14 -16 -7 27 -2 -27 -4 -20 -1
right_child=1 4 5 9 11 7 18 13 20 19 -12 -13 21 15 22 16 -18 -19 28 -21 -22 -23 -24 -25 -26 26 -28 -29 -30 -31
leaf_value=-1254.6730572468382 2532.2598670766674 -422.90122302827388 -474.71226355183398 1856.1335865935869 32075.069276494571 -797.32263812614849 19639.686372514207 335.23226160023313 -690.85020638472463 5963.085706902797 2174.4085410625917 18085.635193452381 549.73627879587184 3681.9061762837537 144.77886542164779 4498.8410697937015 15169.093017578125 3637.2190999060522 8782.4072175202546 11738.325878906251 96.06817547451503 1590.0067787369949 1257.1983243511795 152.44124966427623 -143.40734277668059 737.23348893042294 1320.3455532691153 4049.1007501831054 14724.245010080645 1659.7556269241593
leaf_weight=17106 277 21 9930 371 23 2172 22 146 14094 306 3217 21 9929 206 12863 32 22 1975 27 28 1271 650 545 1004 14874 3055 5128 25 31 59
leaf_count=17106 277 21 9930 371 23 2172 22 146 14094 306 3217 21 9929 206 12863 32 22 1975 27 28 1271 650 545 1004 14874 3055 5128 25 31 59
internal_value=0 1998.3 -341.222 1862.85 15408.9 38.1686 11057.1 317.228 -952.329 3740.86 1431.83 25398.3 274.659 3165.27 58.4135 4754.44 8845.98 3355.56 14070.6 6447.24 -625.756 613.653 189.996 -497.082 -271.687 1149.46 1102.65 -463.352 11958.2 -1244.66
internal_weight=0 14502 84928 14357 145 52398 101 27569 32530 2680 11677 44 27163 406 16584 260 54 2346 80 334 15365 10579 13408 3176 24829 8460 8183 9955 58 17165
internal_count=99430 14502 84928 14357 145 52398 101 27569 32530 2680 11677 44 27163 406 16584 260 54 2346 80 334 15365 10579 13408 3176 24829 8460 8183 9955 58 17165
is_linear=0
shrinkage=0.1


Tree=12
num_leaves=31
num_cat=0
split_feature=13 12 41 12 1 41 13 1 13 41 20 41 9 1 20 20 20 41 11 7 11 1 20 13 20 22 24 13 11 25
split_gain=5.50531e+12 2.00596e+12 1.50768e+12 1.02124e+12 5.33441e+11 4.17956e+11 4.04636e+11 3.19062e+11 2.92915e+11 1.86412e+11 1.8581e+11 1.82564e+11 1.48741e+11 1.41745e+11 1.36569e+11 1.30021e+11 1.11579e+11 1.00337e+11 9.79268e+10 7.69289e+10 6.27412e+10 5.85626e+10 5.54872e+10 5.39572e+10 5.0202e+10 5.52427e+10 4.64367e+10 4.53736e+10 4.37726e+10 8.772e+10
threshold=83500.000000000015 327500.00000000006 34785.714285714297 125500.00000000001 59500.000000000007 132928.57142857145 531000.00000000012 460500.00000000006 177500.00000000003 48500.000000000007 99500.000000000015 67785.714285714304 745000.00000000012 117500.00000000001 304500.00000000006 108500.00000000001 247500.00000000003 16071.428571428574 69500.000000000015 109500.00000000001 30500.000000000004 6500.0000000000009 138500.00000000003 129500.00000000001 178500.00000000003 187500.00000000003 131500.00000000003 49500.000000000007 171500.00000000003 43500.000000000007
decision_type=10 10 8 10 2 10 10 2 10 10 10 8 10 2 10 8 10 10 10 10 10 2 10 10 10 10 10 10 10 10
left_child=2 3 17 10 5 9 14 11 22 20 18 27 -8 -13 -3 -15 21 26 -2 -19 -4 -10 -5 -12 -25 -26 -1 -6 -11 -30
right_child=1 6 4 8 7 -7 12 -9 16 28 23 13 -14 15 -16 -17 -18 19 -20 -21 -22 -23 -24 24 25 -27 -28 -29 29 -31
leaf_value=-1305.8085930116106 212.79929622061809 1963.0233175526494 -739.01199870851428 2009.4333250651966 -370.98378054197889 14166.223325805664 14277.110578317353 12956.920649414064 -1482.6076257324221 -19.289220243055357 1462.9692584399036 475.2229948581795 24006.104519856774 -243.41373374602372 10682.702331840701 2269.9661828106459 6833.6769220075939 -865.07657596732304 1027.5589889073142 5341.0157739257811 -368.96915698252587 3979.8541163915456 2876.4508295991141 2090.4705225876583 3280.2622033299626 9203.6548748779296 3010.6588378906254 126.69137967751188 -2578.3691011047363 5641.6138968905889
leaf_weight=8115 2010 23 6164 1681 2406 20 33 20 20 14278 3123 10717 30 272 82 846 145 15050 5544 20 17852 1051 1316 758 74 20 25 7678 20 37
leaf_count=8115 2010 23 6164 1681 2406 20 33 20 20 14278 3123 10717 30 272 82 846 145 15050 5544 20 17852 1051 1316 758 74 20 25 7678 20 37
internal_value=0 1704.87 -324.767 1588.88 -61.1936 -286.076 12574.2 332.123 2921.27 -293.613 1101.98 320.603 18910 587 8772.68 1658.48 4230.31 -1009.65 810.764 -856.84 -463.945 3877.85 2390.15 1655.41 2360.79 4540.56 -1292.55 7.94818 -8.24828 2757.41
internal_weight=0 15910 83520 15742 60310 38371 168 21939 4213 38351 11529 21919 63 11835 105 1118 1216 23210 7554 15070 24016 1071 2997 3975 852 94 8140 10084 14335 57
internal_count=99430 15910 83520 15742 60310 38371 168 21939 4213 38351 11529 21919 63 11835 105 1118 1216 23210 7554 15070 24016 1071 2997 3975 852 94 8140 10084 14335 57
is_linear=0
shrinkage=0.1


Tree=13
num_leaves=31
num_cat=0
split_feature=39 39 39 39 11 42 39 39 13 39 13 25 39 9 16 0 27 27 39 19 13 40 19 26 8 19 34 7 40 27
split_gain=5.63249e+12 2.04467e+12 1.59665e+12 6.53352e+11 4.11703e+11 3.74408e+11 3.3606e+11 2.89731e+11 1.71319e+11 1.53766e+11 1.17225e+11 1.1105e+11 9.93266e+10 1.00606e+11 1.76717e+11 9.10325e+10 8.46505e+10 7.33713e+10 6.70558e+10 6.61531e+10 7.36614e+10 5.94803e+10 7.48098e+10 5.71261e+10 5.20348e+10 5.16129e+10 4.93228e+10 4.84892e+10 4.64542e+10 4.60991e+10
threshold=86670.32967032968 252285.71428571432 44862.637362637368 145791.20879120883 655500.00000000012 123833.33333333336 27620.879120879123 61923.076923076929 400000.00000000006 108791.20879120882 1.0000000180025095e-35 867500.00000000012 200807.69230769234 61500.000000000007 121500.00000000001 676433.00000000012 92500.000000000015 89500.000000000015 10005.494505494507 58500.000000000007 49500.000000000007 99950.000000000015 120500.00000000001 480500.00000000006 68500.000000000015 167500.00000000003 124500.00000000001 34500.000000000007 16350.000000000002 172500.00000000003
decision_type=2 2 2 2 10 10 2 2 10 2 8 8 2 8 10 2 10 10 2 8 10 8 10 10 10 10 10 10 8 10
left_child=2 3 6 9 5 -3 18 28 15 -2 16 -6 13 14 -12 -7 -5 -9 -1 20 -11 22 -21 -10 -8 -19 27 -22 -4 -15
right_child=1 4 7 10 11 8 24 17 23 19 12 -13 -14 29 -16 -17 -18 25 -20 21 26 -23 -24 -25 -26 -27 -28 -29 -30 -31
leaf_value=-1503.2147517981609 1044.4506333286718 20038.938843750002 3493.7411865234376 -5435.8387731481489 24275.178758544924 6194.9296440972221 -467.95147512031127 361.95427861778819 8131.681772564828 -4554.7070133463549 12663.160454269935 14363.725638521635 4970.3901356090209 2581.532902732034 1803.0173355594759 -346.70979755108175 3029.4908249627979 976.66505548348619 -988.34318829349036 2403.3282253099528 834.42029203907134 1826.7111237652607 9290.543784586589 13145.4318137429 -1145.0993279679749 4970.6285189541904 3496.6057297064335 -3912.3126898629325 -100.94801006038216 3614.6802857377525
leaf_weight=3050 6588 25 36 27 20 117 22534 16061 47 30 29 26 297 1413 31 26 21 1657 14823 46 93 4427 24 44 1195 33 49 28 26011 622
leaf_count=3050 6588 25 36 27 20 117 22534 16061 47 30 29 26 297 1413 31 26 21 1657 14823 46 93 4427 24 44 1195 33 49 28 26011 622
internal_value=0 1856.91 -305.064 1676.95 9955.13 8406.77 -748.719 116.346 7164.02 1356.13 3160.75 18673.1 3258.93 3016.31 7052.09 5005.54 -1732.26 427.903 -1076.21 1793.3 13.744 1872.44 4764.66 10555.9 -502.053 1054.65 819.941 -263.997 -95.9797 2897.32
internal_weight=0 14030 85400 13725 305 259 41602 43798 234 11285 2440 46 2392 2095 60 143 48 17751 17873 4697 200 4497 70 91 23729 1690 170 121 26047 2035
internal_count=99430 14030 85400 13725 305 259 41602 43798 234 11285 2440 46 2392 2095 60 143 48 17751 17873 4697 200 4497 70 91 23729 1690 170 121 26047 2035
is_linear=0
shrinkage=0.1


Tree=14
num_leaves=31
num_cat=0
split_feature=39 39 39 39 12 5 4 39 39 1 16 4 39 39 42 9 17 42 19 9 40 12 41 8 29 42 19 8 10 35
split_gain=4.59886e+12 1.80335e+12 1.01407e+12 7.9214e+11 5.59962e+11 3.72913e+11 2.42917e+11 2.08531e+11 1.91593e+11 1.49738e+11 1.49216e+11 1.35729e+11 1.19826e+11 9.11738e+10 6.82799e+10 6.01775e+10 1.04434e+11 9.21705e+10 6.92688e+10 6.00424e+10 5.67736e+10 5.5291e+10 5.70813e+10 4.94508e+10 4.65339e+10 7.31182e+10 4.63299e+10 4.17751e+10 3.90348e+10 5.43347e+10
threshold=73714.285714285725 252285.71428571432 36082.417582417591 120565.93406593408 590500.00000000012 13.500000000000002 55.937786545000009 53780.219780219784 177840.65934065936 515000.00000000006 223500.00000000003 55.543903175000004 18461.538461538468 93934.065934065948 20833.333333333339 61500.000000000007 47500.000000000007 114833.33333333336 80500.000000000015 1.0000000180025095e-35 184383.33333333334 164500.00000000003 119642.85714285716 97500.000000000015 1.0000000180025095e-35 58833.333333333336 230500.00000000003 -335499.99999999994 122500.00000000001 136500.00000000003
decision_type=2 2 2 2 10 2 2 2 2 2 8 2 2 2 8 8 10 8 8 8 10 10 8 10 8 10 8 8 10 8
left_child=2 3 12 13 6 -6 10 -4 14 -8 -3 -12 -1 19 -5 16 17 -16 23 24 21 -20 -23 -17 25 -2 -10 -9 29 -24
right_child=1 4 7 8 5 -7 9 27 26 -11 11 -13 -14 -15 15 18 -18 -19 20 -21 -22 22 28 -25 -26 -27 -28 -29 -30 -31
leaf_value=-1091.0952973564683 167.36774414062501 11826.998918547455 -261.62686503381485 -3024.0138527199074 29032.500468750004 11823.866850011489 8855.3973690257353 3503.6361680314349 3084.1958829811642 18725.698899147726 -1702.4738741629467 5402.4855006250846 -666.47383304692471 1167.7609426656968 4374.9417084905836 925.23450306786435 2154.857719279144 12841.827602539064 1866.2438885926445 604.88483039361597 -3282.5795556640624 -1743.9911566840278 9500.3771589660646 -3011.1654281988376 1461.6459982273191 8083.9792510986335 4601.2995463597736 140.69787307754254 2688.2841159268082 3570.9823010612936
leaf_weight=10980 20 27 28670 27 20 34 51 37 616 22 35 116 16836 5490 36 144 118 20 3146 9185 20 27 20 41 344 28 299 22228 725 68
leaf_count=10980 20 27 28670 27 20 34 51 37 616 22 35 116 16836 5490 36 144 118 20 3146 9185 20 27 20 41 344 28 299 22228 725 68
internal_value=0 1327.18 -348.5 1212.92 8959.62 18197.4 6972.2 -83.3175 2263.56 11830 4979.95 3755.64 -834.088 842.861 1989.31 2020.32 3842.57 7398.83 1944.66 656.612 2032.03 2058.69 2779.47 52.8432 1868.64 4785.39 3579.95 146.286 2929.69 4918.57
internal_weight=0 20679 78751 20374 305 54 251 50935 5307 73 178 151 27816 15067 4392 4365 174 56 4191 9577 4006 3986 840 185 392 48 915 22265 813 88
internal_count=99430 20679 78751 20374 305 54 251 50935 5307 73 178 151 27816 15067 4392 4365 174 56 4191 9577 4006 3986 840 185 392 48 915 22265 813 88
is_linear=0
shrinkage=0.1


Tree=15
num_leaves=31
num_cat=0
split_feature=39 39 39 39 14 9 39 14 21 0 13 13 13 36 39 40 13 20 20 40 13 20 8 32 19 21 20 14 34 24
split_gain=3.72775e+12 1.43153e+12 8.80643e+11 5.79624e+11 3.5217e+11 3.4962e+11 1.99387e+11 1.71111e+11 1.6177e+11 1.71783e+11 1.52938e+11 1.10459e+11 1.03748e+11 9.43584e+10 7.64164e+10 7.14244e+10 5.71381e+10 5.22802e+10 5.13189e+10 7.518e+10 5.42481e+10 6.51731e+10 4.69546e+10 4.45698e+10 4.45041e+10 4.77883e+10 4.05934e+10 3.85294e+10 3.81399e+10 3.60541e+10
threshold=76895.604395604416 252285.71428571432 36390.109890109896 126521.97802197804 156500.00000000003 641500.00000000012 51708.791208791219 788000.00000000012 319000.00000000006 676433.00000000012 164500.00000000003 103500.00000000001 16500.000000000004 58500.000000000007 187060.43956043958 157100.00000000003 66500.000000000015 138500.00000000003 130500.00000000001 121683.33333333336 70500.000000000015 85500.000000000015 -293499.99999999994 96500.000000000015 59500.000000000007 145500.00000000003 266500.00000000006 120500.00000000001 467000.00000000006 247500.00000000003
decision_type=2 2 2 2 8 10 2 10 10 2 8 8 10 8 2 10 10 10 10 8 10 8 10 8 8 10 8 10 10 10
left_child=2 3 12 11 -3 8 -4 -7 9 26 18 24 -1 -12 -15 17 -8 -13 20 -20 21 -5 -18 27 25 -2 -6 -22 -10 -21
right_child=1 4 6 10 5 7 16 -9 28 -11 13 15 -14 14 -16 -17 22 -19 19 29 23 -23 -24 -25 -26 -27 -28 -29 -30 -31
leaf_value=-964.48211922687574 43.454312312224204 20890.913457031253 -259.46471259649456 -3847.1229301120929 2173.2390775792737 20736.885035156251 27.723066433556216 8492.4611049107152 6943.1718962638615 -4165.4542961425786 9686.1609869384756 1126.0352312751395 -577.78916317185872 2363.0603571063903 3766.7593457629719 -4623.1415922619408 5170.71002319336 2227.5546476619261 7290.6617268880209 2030.2251821842631 6203.6307272518388 1297.2814128947709 320.24840610322724 1173.471855583191 687.04661757182112 -3349.606940917969 6347.5435569969386 1569.8948608398439 10792.813700727984 -1964.914793860394
leaf_weight=12261 535 20 24705 46 34 25 18219 21 62 25 20 5058 15982 1304 552 21 20 471 27 1263 34 53 9455 910 8083 45 74 38 44 23
leaf_count=12261 535 20 24705 46 34 25 18219 21 62 25 20 5058 15982 1304 552 21 20 471 27 1263 34 53 9455 910 8083 45 74 38 44 23
internal_value=0 1268.54 -295.545 1156.41 8063.65 7163.5 -52.9328 15147 5626.91 3304.3 2178.09 849.468 -745.662 2854.16 2780.54 1197.76 131.308 1219.87 1648.31 2068.42 1138.05 -1093.05 330.487 1362.97 626.332 -219.8 5033.41 3758.05 8541.14 1958.77
internal_weight=0 18788 80642 18483 305 285 52399 46 239 133 4270 14213 28243 1876 1856 5550 27694 5529 2394 1313 1081 99 9475 982 8663 580 108 72 106 1286
internal_count=99430 18788 80642 18483 305 285 52399 46 239 133 4270 14213 28243 1876 1856 5550 27694 5529 2394 1313 1081 99 9475 982 8663 580 108 72 106 1286
is_linear=0
shrinkage=0.1


Tree=16
num_leaves=31
num_cat=0
split_feature=39 39 39 12 39 23 39 39 13 13 13 35 21 27 12 9 27 3 3 28 39 8 9 27 39 27 30 27 40 34
split_gain=3.03256e+12 1.06134e+12 9.11023e+11 3.97723e+11 3.29364e+11 2.72142e+11 1.96278e+11 1.72205e+11 1.50394e+11 8.22162e+10 7.85041e+10 9.26919e+10 7.49511e+10 6.23885e+10 6.21488e+10 8.49906e+10 5.55542e+10 5.31373e+10 1.42725e+11 5.14939e+10 4.96203e+10 4.84682e+10 4.67008e+10 4.72137e+10 4.27483e+10 4.21417e+10 4.11593e+10 4.02048e+10 4.00902e+10 3.79347e+10
threshold=89252.747252747271 252285.71428571432 45186.813186813197 590500.00000000012 145791.20879120883 868500.00000000012 28780.219780219784 63153.846153846163 505500.00000000006 115500.00000000001 1.0000000180025095e-35 21500.000000000004 289500.00000000006 92500.000000000015 212500.00000000003 62500.000000000007 89500.000000000015 37.547404760000006 37.646657880000014 500500.00000000006 9456.0439560439572 127500.00000000001 278500.00000000006 174500.00000000003 171978.02197802201 32500.000000000004 133500.00000000003 59500.000000000007 33116.666666666679 100500.00000000001
decision_type=2 2 2 10 2 8 2 2 10 8 8 8 10 10 8 8 10 2 2 8 2 10 10 10 2 8 10 10 8 8
left_child=2 4 6 8 9 -5 20 27 12 -2 13 -12 17 -6 22 -16 21 -3 -19 -14 -1 -9 23 -13 -17 29 -23 28 -4 -11
right_child=1 3 7 5 10 -7 -8 16 -10 25 11 14 19 -15 15 24 -18 18 -20 -21 -22 26 -24 -25 -26 -27 -28 -29 -30 -31
leaf_value=-1185.951739312309 792.33856794044323 6658.4967217807107 2188.5622499186197 8451.3696061759165 -4852.6143373842597 22688.603953124999 -349.2804530669282 314.68721100589647 11663.284135044643 -4526.0545840308787 8872.4496332341987 1793.4409560784998 4885.6786828613285 2414.8255737304689 9723.9684997558597 1358.7725447790963 844.55435176712581 -4047.6667665678879 4451.4814459031631 9669.6303207397468 -717.77425991876055 -526.06957853242955 -2297.7708848357202 2877.6642467653433 3586.5244073208155 1410.6369909648602 -4636.9805269681492 176.50882847259282 -127.59110915625661 372.0522426605225
leaf_weight=2623 5838 29 75 29 27 25 23180 14905 35 21 22 1249 60 21 20 112 2008 29 62 36 16531 385 24 592 373 4264 26 5885 20880 64
leaf_count=2623 5838 29 75 29 27 25 23180 14905 35 21 22 1249 60 21 20 112 2008 29 62 36 16531 385 24 592 373 4264 26 5885 20880 64
internal_value=0 1428.29 -213.538 7257.29 1287.49 15042.7 -545.013 104.202 5582.34 1037.54 2331.05 2411.4 4597.01 -1673.11 2351.42 3335.52 349.987 2930.88 1742.96 6679.66 -781.888 285.147 2084.95 2142.09 3072.07 1366.69 -786.127 -54.4413 -119.301 -838.068
internal_weight=0 12932 86498 305 12627 54 42334 44164 251 10187 2440 2392 216 48 2370 505 17324 120 91 96 19154 15316 1865 1841 485 4349 411 26840 20955 85
internal_count=99430 12932 86498 305 12627 54 42334 44164 251 10187 2440 2392 216 48 2370 505 17324 120 91 96 19154 15316 1865 1841 485 4349 411 26840 20955 85
is_linear=0
shrinkage=0.1


Tree=17
num_leaves=31
num_cat=0
split_feature=39 39 39 39 14 27 39 2 19 39 15 27 39 42 42 14 11 27 27 36 27 6 17 16 16 20 20 8 17 10
split_gain=2.47247e+12 9.5644e+11 5.5203e+11 4.33867e+11 2.98595e+11 2.55975e+11 1.26404e+11 1.16291e+11 1.37452e+11 1.08076e+11 1.02942e+11 7.51167e+10 6.04026e+10 5.25165e+10 5.6156e+10 5.51248e+10 5.28296e+10 5.69656e+10 4.79448e+10 4.27365e+10 4.99056e+10 4.17976e+10 4.05423e+10 5.00456e+10 7.2864e+10 4.01641e+10 3.91844e+10 3.8852e+10 3.70182e+10 3.56497e+10
threshold=73714.285714285725 252285.71428571432 34230.769230769241 117791.20879120879 156500.00000000003 624500.00000000012 51142.857142857152 739000.00000000012 44500.000000000007 171978.02197802201 774000.00000000012 100500.00000000001 13796.703296703299 20833.333333333339 73833.333333333358 91500.000000000015 84500.000000000015 72500.000000000015 215500.00000000003 143500.00000000003 160500.00000000003 3.5000000000000004 32500.000000000004 105500.00000000001 71500.000000000015 118500.00000000001 71500.000000000015 -335499.99999999994 105500.00000000001 253500.00000000003
decision_type=2 2 2 2 8 10 2 2 10 2 8 10 2 8 8 10 8 10 10 8 8 2 10 10 10 8 8 8 10 10
left_child=2 3 12 11 -3 7 -4 8 -6 13 -9 26 -1 -5 15 -15 17 -16 25 -11 -21 27 23 24 -13 -18 -2 -8 -20 -10
right_child=1 4 6 9 5 -7 21 10 29 19 -12 22 -14 14 16 -17 18 -19 28 20 -22 -23 -24 -25 -26 -27 -28 -29 -30 -31
leaf_value=-899.58026792658495 58.998929230247796 18342.882165527346 -228.56864594280285 -2992.5687988281252 -4372.3946918194115 13229.510768166567 4594.3836834716803 4958.4602279136925 7454.3261130593037 5190.6216357421872 11530.230915527345 2376.3248003901267 -548.42453914735631 8732.7220355224617 -2015.3819803652559 2378.026491386946 781.3116790440813 1206.5060121480158 7513.2271704101558 350.77272847493492 2553.6177939120075 -60.848957481325549 968.47881937393981 876.72916226136067 9199.0957588527508 1574.0183863497546 567.2200490422656 183.95484252534175 2671.2372403361005 2652.2306790938746
leaf_weight=6649 1790 20 26535 27 26 39 20 116 22 55 30 49 18605 20 92 43 796 136 20 114 1051 11934 2813 76 23 3244 9950 15008 75 52
leaf_count=6649 1790 20 26535 27 26 39 20 116 22 55 30 49 18605 20 92 43 796 136 20 114 1051 11934 2813 76 23 3244 9950 15008 75 52
internal_value=0 973.128 -255.531 889.918 6531.56 5702.7 -73.622 4509.42 1882.29 1632.78 6308.82 603.253 -640.879 1404.32 1431.14 4395.39 1388.34 -93.5541 1470.05 2466.66 2338.06 78.8707 1053.35 2666.56 4555.82 1417.83 489.731 189.824 3690.6 4079.88
internal_weight=0 20679 78751 20374 305 285 53497 246 100 5673 146 14701 25254 4453 4426 63 4363 228 4135 1220 1165 26962 2961 148 72 4040 11740 15028 95 74
internal_count=99430 20679 78751 20374 305 285 53497 246 100 5673 146 14701 25254 4453 4426 63 4363 228 4135 1220 1165 26962 2961 148 72 4040 11740 15028 95 74
is_linear=0
shrinkage=0.1


Tree=18
num_leaves=31
num_cat=0
split_feature=39 19 39 23 39 39 11 27 7 39 9 27 14 19 34 0 9 32 27 30 22 27 12 1 9 23 35 36 1 29
split_gain=2.00455e+12 6.83795e+11 6.33421e+11 2.86797e+11 2.75014e+11 1.40703e+11 1.35384e+11 1.00366e+11 1.20226e+11 7.46012e+10 7.80764e+10 7.03362e+10 5.68885e+10 5.02608e+10 4.80684e+10 5.10417e+10 1.02146e+11 4.80063e+10 4.70571e+10 4.32529e+10 6.99083e+10 4.19325e+10 3.88116e+10 3.53043e+10 3.5201e+10 4.73294e+10 3.4574e+10 6.04991e+10 3.56834e+10 7.79813e+10
threshold=91686.81318681319 379000.00000000006 44489.010989010996 868500.00000000012 154879.12087912092 61923.076923076929 24500.000000000004 508000.00000000006 -81499.999999999985 200807.69230769234 641500.00000000012 120500.00000000001 30500.000000000004 63500.000000000007 307500.00000000006 676433.00000000012 275000.00000000006 474500.00000000006 89500.000000000015 1.0000000180025095e-35 90500.000000000015 73500.000000000015 122500.00000000001 121500.00000000001 1.0000000180025095e-35 119500.00000000001 46500.000000000007 122500.00000000001 2500.0000000000005 154500.00000000003
decision_type=2 10 2 8 2 2 10 10 10 2 8 10 8 8 10 2 10 8 10 8 10 8 8 2 10 10 8 8 2 10
left_child=2 4 6 7 11 -4 -1 8 -3 -6 12 13 -11 21 15 -14 -17 -10 23 20 -15 -2 -21 -7 25 -20 27 -13 29 -28
right_child=1 3 5 -5 9 18 -8 -9 17 10 -12 26 14 19 -16 16 -18 -19 24 22 -22 -23 -24 -25 -26 -27 28 -29 -30 -31
leaf_value=-661.47827934705049 -2472.5595694082758 -2717.4390078590031 -63.390359020442126 17170.620392717636 1859.8013676020321 253.50949049192187 -293.86255144007532 9853.8277772484762 3156.2284133911135 8224.7130444335944 9106.1481911399151 6297.7537036792655 3223.6520072160693 6736.3334892332559 6568.6331495715731 2084.5058607835035 -5561.5921875000004 9176.530461516204 1485.5904989803539 617.1294252577726 1011.8686459541321 226.33148339046306 1125.6089514498765 -614.37447094422657 603.86839044879935 6743.1519171142572 1328.4921005560427 72.145036259403938 1383.5096050091322 -5838.1401772238996
leaf_weight=17662 81 21 26840 28 1523 16999 23147 41 26 20 22 37 285 32 31 104 21 27 119 4614 64 199 2225 482 2327 20 49 27 2335 22
leaf_count=17662 81 21 26840 28 1523 16999 23147 41 26 20 22 37 285 32 31 104 21 27 119 4614 64 199 2225 482 2327 20 49 27 2335 22
internal_value=0 1221.59 -165.034 8094.73 1137.52 86.1079 -452.965 5884.95 3685.97 2203.23 3286.11 916.791 3008.37 759.113 2771.8 2484.72 799.961 6223.17 287.268 812.147 2920.02 -554.419 782.558 229.58 696.208 2242.07 1377.38 3671.33 1316.36 -892.155
internal_weight=0 11834 87596 143 11691 46787 40809 115 74 2006 483 9685 461 7215 441 410 125 53 19947 6935 96 280 6839 17481 2466 139 2470 64 2406 71
internal_count=99430 11834 87596 143 11691 46787 40809 115 74 2006 483 9685 461 7215 441 410 125 53 19947 6935 96 280 6839 17481 2466 139 2470 64 2406 71
is_linear=0
shrinkage=0.1


Tree=19
num_leaves=31
num_cat=0
split_feature=13 20 13 12 12 13 30 12 41 41 9 20 2 9 40 41 38 16 23 35 29 14 32 17 13 24 18 6 12 8
split_gain=1.35658e+12 4.58143e+11 3.65082e+11 1.97445e+11 1.85782e+11 1.59971e+11 1.02011e+11 9.5032e+10 7.21213e+10 7.03495e+10 6.20534e+10 5.89844e+10 5.8763e+10 5.78486e+10 5.63471e+10 5.26982e+10 5.80132e+10 5.2387e+10 5.10455e+10 4.1721e+10 4.85842e+10 4.44144e+10 4.19649e+10 3.54528e+10 3.5148e+10 3.87288e+10 3.46974e+10 3.08508e+10 3.93781e+10 3.06042e+10
threshold=83500.000000000015 243500.00000000003 41500.000000000007 120500.00000000001 396000.00000000006 505500.00000000006 855500.00000000012 60500.000000000007 30071.428571428576 159357.14285714287 96500.000000000015 108500.00000000001 696500.00000000012 198500.00000000003 50783.333333333336 107785.7142857143 110500.00000000001 489000.00000000006 106500.00000000001 84500.000000000015 175500.00000000003 233500.00000000003 162500.00000000003 157500.00000000003 233500.00000000003 266500.00000000006 198500.00000000003 3.5000000000000004 133500.00000000003 115500.00000000001
decision_type=10 10 8 10 10 10 8 10 8 8 10 10 2 10 10 10 8 10 10 10 10 10 10 10 10 10 10 2 10 10
left_child=2 3 4 11 8 15 17 12 10 -5 14 29 -4 -14 18 -3 -17 -7 -1 20 21 22 23 -10 25 -11 -21 28 -9 -2
right_child=1 5 7 9 -6 6 -8 27 19 24 -12 -13 13 -15 -16 16 -18 -19 -20 26 -22 -23 -24 -25 -26 -27 -28 -29 -30 -31
leaf_value=-558.23974636209607 448.89297369498792 -964.533186692458 -97.328752056461738 1020.7649825009418 8206.8573603515633 9501.7370983886722 14159.566806428331 300.07246285309583 -291.83756966368986 1745.4609944865786 5010.6221032714848 983.56898343299326 865.00330145008638 6270.0070824032737 -3394.2682135881696 8797.1431873139882 3341.3148784341852 2350.5384829566592 3714.8561095544269 464.65113818339819 3230.7618907830656 4406.4932443237303 -3628.118328536184 -2707.2316135093815 3209.0141898745587 -2481.9609652432532 4619.6466070265997 46.434908894395377 1793.323756005499 -561.38883406586967
leaf_weight=17720 8359 26 32582 2931 25 20 23 9347 15977 1450 20 2287 347 21 70 21 271 21 28 468 39 20 38 61 168 22 21 6556 180 311
leaf_count=17720 8359 26 32582 2931 25 20 23 9347 15977 1450 20 2287 347 21 70 21 271 21 28 468 39 20 38 61 168 22 21 6556 180 311
internal_value=0 846.301 -161.215 762.134 -410.511 4267.6 8829.16 14.1265 -416.763 1314.22 -556.418 531.818 -83.1362 1173.44 -562.666 3349.55 3733.69 5838.93 -551.498 -266.909 -294.488 -303.03 -308.889 -301.024 1838.68 1682.28 643.087 213.393 328.285 412.653
internal_weight=0 15910 83520 15528 34487 382 64 49033 34462 4571 17838 10957 32950 368 17818 318 292 41 17748 16624 16135 16096 16076 16038 1640 1472 489 16083 9527 8670
internal_count=99430 15910 83520 15528 34487 382 64 49033 34462 4571 17838 10957 32950 368 17818 318 292 41 17748 16624 16135 16096 16076 16038 1640 1472 489 16083 9527 8670
is_linear=0
shrinkage=0.1


Tree=20
num_leaves=31
num_cat=0
split_feature=39 39 39 39 13 4 13 13 13 13 3 32 13 26 22 35 13 15 24 32 42 23 13 8 40 38 20 37 42 19
split_gain=1.37246e+12 5.28855e+11 3.13495e+11 2.36509e+11 2.22087e+11 1.8346e+11 1.10096e+11 8.6323e+10 7.89667e+10 7.03857e+10 7.121e+10 5.15391e+10 4.90867e+10 4.77296e+10 4.76605e+10 4.28746e+10 3.92369e+10 3.73811e+10 3.66027e+10 4.93361e+10 3.73708e+10 3.65439e+10 3.51238e+10 3.50314e+10 3.45365e+10 3.34994e+10 3.0461e+10 3.17204e+10 4.95032e+10 2.89607e+10
threshold=73714.285714285725 252285.71428571432 33697.802197802208 115593.4065934066 156500.00000000003 55.950833515000006 853000.00000000012 57500.000000000007 156500.00000000003 260500.00000000003 37.646657880000014 277500.00000000006 13500.000000000002 233500.00000000003 78500.000000000015 314000.00000000006 12500.000000000002 25500.000000000004 188500.00000000003 165500.00000000003 72500.000000000015 88500.000000000015 104500.00000000001 58500.000000000007 16350.000000000002 334000.00000000006 75500.000000000015 1.0000000180025095e-35 60500.000000000007 94500.000000000015
decision_type=2 2 2 2 8 2 8 10 8 10 2 10 10 10 10 10 10 8 10 8 10 10 10 10 8 10 8 8 10 8
left_child=2 3 12 26 -3 9 -7 14 18 10 -6 13 -1 17 24 23 -16 -10 20 -20 21 -5 -21 -11 -4 -17 -2 28 -28 -19
right_child=1 4 7 8 5 6 -8 -9 11 15 -12 -13 -14 -15 16 25 -18 29 19 22 -22 -23 -24 -25 -26 -27 27 -29 -30 -31
leaf_value=-655.41708167689978 140.1637222999062 15044.636508789063 2111.6117946458903 6468.5884297688808 -3904.4953902633106 5092.0632139263735 13617.473831476484 127.26418532794992 -1385.5708157009549 3668.2915026332762 2930.6912461199081 6325.7099158369983 -368.79827523352702 3451.4788689255715 -1838.5218397771664 9257.2611851283491 -439.32864199187992 -540.74424752900097 1405.3085502706549 -3624.7727703387923 919.87145472046166 1372.0368961109834 -278.04067351908628 -766.2779572860054 -127.82274472168633 4303.3052236703725 6341.5680815197175 490.16481890005593 1219.6141451599776 1584.2287477356388
leaf_weight=10016 2711 20 69 24 27 33 28 17535 45 79 35 23 14811 128 275 21 739 66 93 52 3224 34 79 23 35306 39 21 11417 186 2271
leaf_count=10016 2711 20 69 24 27 33 28 17535 45 79 35 23 14811 128 275 21 739 66 93 52 3224 34 79 23 35306 39 21 11417 186 2271
internal_value=0 725.026 -190.383 663.151 4858.28 4143.45 9005.37 -55.0013 1188.08 2819.44 -45.9223 1613.51 -484.429 1570.33 -142.831 3916.06 -818.794 1469.25 880.719 -356.07 965.131 3480.95 -1606.51 2668.34 -123.455 6037.19 442.01 512.408 1739.23 1524.22
internal_weight=0 20679 78751 20374 305 285 61 53924 6039 224 62 2533 24827 2510 36389 162 1014 2382 3506 224 3282 58 131 102 35375 60 14335 11624 207 2337
internal_count=99430 20679 78751 20374 305 285 61 53924 6039 224 62 2533 24827 2510 36389 162 1014 2382 3506 224 3282 58 131 102 35375 60 14335 11624 207 2337
is_linear=0
shrinkage=0.1


Tree=21
num_leaves=31
num_cat=0
split_feature=13 20 27 8 27 27 27 41 42 13 22 27 41 38 2 4 0 13 20 15 35 31 37 31 28 37 33 6 8 13
split_gain=9.08692e+11 3.44897e+11 2.12774e+11 2.77307e+11 1.8811e+11 1.74157e+11 8.4552e+10 7.4243e+10 5.68874e+10 5.651e+10 4.77957e+10 4.48043e+10 3.88288e+10 7.33051e+10 3.53798e+10 4.80467e+10 4.57184e+10 3.27484e+10 3.09309e+10 2.75704e+10 2.73815e+10 2.68413e+10 2.91856e+10 2.67711e+10 2.57924e+10 3.07508e+10 2.83945e+10 2.57231e+10 3.50075e+10 3.16718e+10
threshold=72500.000000000015 243500.00000000003 32500.000000000004 472500.00000000006 800500.00000000012 112500.00000000001 57500.000000000007 154785.71428571432 27500.000000000004 135500.00000000003 133500.00000000003 65500.000000000007 119642.85714285716 110500.00000000001 711500.00000000012 55.896006905000007 635528.00000000012 379000.00000000006 175500.00000000003 152500.00000000003 487500.00000000006 223500.00000000003 170500.00000000003 98500.000000000015 9500.0000000000018 127500.00000000001 113500.00000000001 3.5000000000000004 299500.00000000006 206500.00000000003
decision_type=10 10 8 10 10 10 10 8 8 10 10 8 10 8 2 2 2 10 10 10 10 10 10 8 8 10 10 2 10 10
left_child=2 5 10 6 12 7 8 11 -4 -9 -1 24 -3 -14 19 -16 -17 -15 27 -10 -19 22 -8 -20 26 -26 -2 28 -7 -29
right_child=1 4 3 -5 -6 18 21 9 14 -11 -12 -13 13 17 15 16 -18 20 23 -21 -22 -23 -24 -25 25 -27 -28 29 -30 -31
leaf_value=-456.36209757849679 545.39032263908211 303.68529454072319 -418.26251508309309 10906.133798615831 12093.892683919272 1185.831028778591 161.50216153016049 488.7149948010977 -99.403001054899761 1791.7135239599572 -2528.8519494192942 382.66015969989314 8924.0939342151996 2253.3562600914406 422.88594127941678 6886.3530766805015 887.84909577546296 5857.1395756236298 4320.2569667271209 -1813.9701154992936 2164.3773311491937 3307.0379855685769 -2031.3122688793746 1493.9168899013969 -95.403913612322256 -2100.384037761447 4040.7441800631009 537.80531271918187 -3016.3220077514652 3291.4347663347116
leaf_weight=17231 219 48 6232 23 24 2268 12207 734 41034 609 112 12928 22 207 346 24 27 57 35 94 31 27 61 789 2413 79 26 1460 20 43
leaf_count=17231 219 48 6232 23 24 2268 12207 734 41034 609 112 12928 22 207 346 24 27 57 35 94 31 27 61 789 2413 79 26 1460 20 43
internal_value=0 566.945 -161.198 -72.123 3518.14 513.853 -76.3277 366.02 -136.534 1079.58 -469.746 304.845 2954.26 3355.61 -94.2529 845.247 3710.67 2940.33 1058.67 -103.322 4556.28 157.53 150.599 1613.97 -62.7111 -158.965 916.326 937.976 1149.1 616.585
internal_weight=0 22012 77418 60075 389 21623 60052 17008 47757 1343 17343 15665 365 317 41525 397 51 295 4615 41128 88 12295 12268 824 2737 2492 245 3791 2288 1503
internal_count=99430 22012 77418 60075 389 21623 60052 17008 47757 1343 17343 15665 365 317 41525 397 51 295 4615 41128 88 12295 12268 824 2737 2492 245 3791 2288 1503
is_linear=0
shrinkage=0.1


Tree=22
num_leaves=31
num_cat=0
split_feature=39 19 23 39 39 13 8 13 13 11 1 35 13 11 41 27 13 7 16 14 24 13 33 8 7 9 11 5 22 33
split_gain=9.3376e+11 3.66194e+11 2.60353e+11 2.14484e+11 1.99559e+11 9.06863e+10 8.47071e+10 5.80067e+10 5.33309e+10 8.36277e+10 7.84323e+10 5.79806e+10 5.28983e+10 5.0954e+10 4.37851e+10 4.29898e+10 5.07416e+10 4.21809e+10 4.20124e+10 4.18184e+10 4.13329e+10 3.99631e+10 3.92962e+10 3.66418e+10 3.57239e+10 3.55554e+10 5.43682e+10 3.91077e+10 3.39246e+10 3.65079e+10
threshold=73714.285714285725 379000.00000000006 990500.00000000012 37868.131868131873 145791.20879120883 240500.00000000003 -204499.99999999997 113500.00000000001 247500.00000000003 86500.000000000015 497500.00000000006 314000.00000000006 52500.000000000007 13500.000000000002 85214.285714285725 172500.00000000003 2500.0000000000005 138500.00000000003 85500.000000000015 508000.00000000006 76500.000000000015 16500.000000000004 205500.00000000003 240500.00000000003 -83499.999999999985 4500.0000000000009 133500.00000000003 19.500000000000004 192500.00000000003 107500.00000000001
decision_type=2 10 8 2 2 10 10 8 8 8 2 10 10 10 8 10 10 10 10 10 10 10 10 10 8 10 10 2 10 8
left_child=3 4 5 13 7 -3 -7 22 14 -10 11 24 20 17 -6 16 -16 -1 -17 -8 -5 -22 25 -9 -11 26 -2 -28 29 -18
right_child=1 2 -4 12 8 6 19 23 9 10 -12 -13 -14 -15 15 18 28 -19 -20 -21 21 -23 -24 -25 -26 -27 27 -29 -30 -31
leaf_value=-554.37430403150665 719.873163811278 -2102.3166363670712 16176.348467712402 -100.83190072810297 5830.649713134766 10179.065015625001 5309.3090410156256 743.60897195096936 -3502.2521696671197 6019.447642933239 8647.1262462797622 7628.9631469726564 85.24846506950351 -272.27198795021297 -3213.2647610572076 5833.6522552490242 3850.572646165931 4042.5630532836913 1585.0295086937447 634.53704007056456 -1718.6335341106762 -298.2253443109667 -2150.3024533987045 -1107.7553274872105 1869.4764100886573 301.25242538760415 2141.6434909210207 7124.0996061905571 -337.35205008091071 973.69440296748496
leaf_weight=10188 362 21 20 24122 20 25 50 5559 23 22 21 20 22900 20658 31 24 46 20 770 31 308 555 64 109 363 11756 50 23 195 1074
leaf_count=10188 362 21 20 24122 20 25 50 5559 23 22 21 20 22900 20658 31 24 46 20 770 31 308 555 64 109 363 11756 50 23 195 1074
internal_value=0 598.029 5571.37 -157.035 562.422 3901.29 5090.69 443.476 1379.55 2371.19 2688.3 2379.33 -24.5365 -362.59 1173.41 1129.89 785.646 -545.368 1713.45 3520.2 -125.16 -805.161 321.129 708.006 2106.62 334.103 1221.91 3711.46 879.917 1091.85
internal_weight=0 20679 147 78751 20532 127 106 17923 2609 449 426 405 47885 30866 2160 2140 1346 10208 794 81 24985 863 12255 5668 385 12191 435 73 1315 1120
internal_count=99430 20679 147 78751 20532 127 106 17923 2609 449 426 405 47885 30866 2160 2140 1346 10208 794 81 24985 863 12255 5668 385 12191 435 73 1315 1120
is_linear=0
shrinkage=0.1


Tree=23
num_leaves=31
num_cat=0
split_feature=39 12 39 23 20 10 13 13 19 34 22 24 16 20 42 32 28 1 13 6 28 16 19 1 16 12 19 23 6 31
split_gain=7.69253e+11 2.86668e+11 2.80401e+11 2.24417e+11 1.16872e+11 9.16142e+10 8.1293e+10 7.70801e+10 6.72194e+10 6.50774e+10 6.31285e+10 1.23441e+11 5.76576e+10 4.77971e+10 4.88555e+10 4.32548e+10 4.26868e+10 3.68624e+10 4.36023e+10 3.46184e+10 3.57047e+10 3.37649e+10 3.07725e+10 3.0442e+10 2.86742e+10 4.65458e+10 3.31801e+10 2.75298e+10 2.8215e+10 4.42971e+10
threshold=96813.186813186825 513500.00000000006 49741.758241758253 990500.00000000012 247500.00000000003 77500.000000000015 138500.00000000003 21500.000000000004 694500.00000000012 79500.000000000015 65500.000000000007 102500.00000000001 276500.00000000006 77500.000000000015 10166.66666666667 113500.00000000001 306000.00000000006 148500.00000000003 294000.00000000006 3.5000000000000004 193500.00000000003 217500.00000000003 38500.000000000007 1.0000000180025095e-35 162500.00000000003 156500.00000000003 174500.00000000003 266500.00000000006 2.5000000000000004 30500.000000000004
decision_type=2 10 2 8 10 10 8 10 10 8 8 8 10 10 10 10 10 2 10 2 8 10 8 2 10 10 10 10 2 8
left_child=2 4 7 8 6 -6 9 -1 -3 15 11 -8 27 -4 -15 -2 -7 18 -12 -19 21 -21 -9 -24 26 -26 -16 28 29 -11
right_child=1 3 13 -5 5 16 10 22 -10 12 17 -13 -14 14 24 -17 -18 19 -20 20 -22 -23 23 -25 25 -27 -28 -29 -30 -31
leaf_value=-414.75309365992302 52.594074233697384 -9.2578870500837063 50.138102075667746 15376.385382634944 7788.8715122222902 1294.7206728268695 8793.3468560987912 -266.95232307463624 6750.2264648437504 4309.6476081000437 732.7288281916783 1161.5811918799557 -3972.8199897221161 -2597.5634470086352 352.63160235639958 -2562.6182092202675 4057.1184146118162 1665.0639528043241 -3850.2300371442525 478.36738898991865 1394.8200143847946 -2299.2121670074462 485.89767094863305 -100.37921819893015 -1.4876458529768319 -4461.9422851562504 4430.7230914306638 3649.5914432920263 364.12509670634222 773.34121306641885
leaf_weight=18052 147 28 30828 22 32 186 31 14165 31 36 1813 67 28 57 8138 111 80 1138 21 351 507 50 934 17113 87 32 20 29 3089 2207
leaf_count=18052 147 28 30828 22 32 186 31 14165 31 36 1813 67 28 57 8138 111 80 1138 21 351 507 50 934 17113 87 32 20 29 3089 2207
internal_value=0 831.612 -93.0317 6756.52 783.248 2733.66 722.861 -249.333 3542.34 478.94 1069.12 3575.71 553.218 107.579 320.057 -1072.56 2125.52 1005.81 680.252 1297.64 837.137 132.036 -156.629 -70.0372 340.15 -1200.94 362.629 576.857 560.145 830.099
internal_weight=0 10004 89426 81 9923 298 9625 50264 59 5647 3978 98 5389 39162 8334 258 266 3880 1834 2046 908 401 32212 18047 8277 119 8158 5361 5332 2243
internal_count=99430 10004 89426 81 9923 298 9625 50264 59 5647 3978 98 5389 39162 8334 258 266 3880 1834 2046 908 401 32212 18047 8277 119 8158 5361 5332 2243
is_linear=0
shrinkage=0.1


Tree=24
num_leaves=31
num_cat=0
split_feature=39 39 41 39 27 27 8 2 8 27 41 1 6 14 10 33 12 1 16 25 21 5 38 27 2 39 14 14 27 2
split_gain=6.26298e+11 2.63372e+11 2.36486e+11 1.27917e+11 1.12868e+11 9.52479e+10 7.60224e+10 4.64967e+10 6.14589e+10 4.45702e+10 4.26892e+10 5.107e+10 8.60803e+10 4.02325e+10 3.8147e+10 3.60774e+10 3.55926e+10 3.32395e+10 5.27538e+10 8.58473e+10 1.23805e+11 3.63059e+10 3.38551e+10 3.23007e+10 3.21257e+10 3.01389e+10 2.96564e+10 2.75806e+10 2.79233e+10 2.68416e+10
threshold=67950.549450549457 187060.43956043958 159357.14285714287 31346.153846153855 800500.00000000012 107500.00000000001 127500.00000000001 724000.00000000012 472500.00000000006 52500.000000000007 154785.71428571432 22500.000000000004 4.5000000000000009 788000.00000000012 94500.000000000015 204500.00000000003 119500.00000000001 1.0000000180025095e-35 1.0000000180025095e-35 92500.000000000015 12500.000000000002 15.500000000000002 33500.000000000007 37500.000000000007 158500.00000000003 8675.8241758241784 113500.00000000001 240500.00000000003 334000.00000000006 53500.000000000007
decision_type=2 2 8 2 10 10 10 2 8 10 8 2 2 8 10 10 10 2 8 8 8 2 10 8 2 2 10 10 10 2
left_child=3 5 -3 25 7 6 10 -4 13 14 15 12 -12 -9 17 -2 -13 18 19 21 -21 22 -5 24 -8 -1 -20 28 -7 -23
right_child=1 2 4 9 -6 27 23 8 -10 -11 11 16 -14 -15 -16 -17 -18 -19 26 20 -22 29 -24 -25 -26 -27 -28 -29 -30 -31
leaf_value=-698.27664245021799 243.90697201244382 12339.450656960229 1154.1993819162021 1688.2824621792497 8759.015268342393 710.09253558069474 120.73006888724663 2623.2852036915656 7075.9900146484379 85.881384695706871 1041.033619607213 394.27108784098323 7216.7093340473793 -1679.363937886556 -876.36280141015504 -2394.5645705589882 1275.6243343211988 -124.85541686156503 -64.05645660513629 10163.238915484886 2026.361273300171 -2152.4298046875001 -2383.6618201877759 -469.31434249573186 -3449.8695368126982 -308.06895536931444 3730.3048409598218 2846.7838529033047 4453.9922558593753 1767.4999267761259
leaf_weight=2196 15302 22 587 29 23 5064 37 230 29 14913 83 2388 31 24 653 52 567 34989 1078 23 100 20 69 532 79 20069 21 62 20 138
leaf_count=2196 15302 22 587 29 23 5064 37 230 29 14913 83 2388 31 24 653 52 567 34989 1078 23 100 20 69 532 79 20069 21 62 20 138
internal_value=0 431.526 2096.93 -145.968 1844.6 368.601 265.582 1661.8 2714.68 -60.136 303.027 643.507 2720.38 2216.74 -118.799 234.971 563.384 -105.233 359.288 1376.63 3547.89 333.414 -1178.7 -798.994 -2310.97 -346.555 8.44726 750.387 724.821 1271.31
internal_weight=0 25132 915 74298 893 24217 19071 870 283 52033 18423 3069 114 254 37120 15354 2955 36467 1478 379 123 256 98 648 116 22265 1099 5146 5084 158
internal_count=99430 25132 915 74298 893 24217 19071 870 283 52033 18423 3069 114 254 37120 15354 2955 36467 1478 379 123 256 98 648 116 22265 1099 5146 5084 158
is_linear=0
shrinkage=0.1


Tree=25
num_leaves=31
num_cat=0
split_feature=39 12 27 39 27 27 12 22 8 27 39 10 10 37 34 34 27 13 20 23 8 19 12 11 8 19 12 1 12 24
split_gain=5.15218e+11 2.16098e+11 2.0553e+11 1.70579e+11 9.48127e+10 5.88531e+10 4.97979e+10 4.67858e+10 4.1444e+10 4.09126e+10 3.50176e+10 3.48985e+10 3.48167e+10 2.99079e+10 2.95334e+10 2.84095e+10 2.9221e+10 3.00559e+10 2.75054e+10 5.33746e+10 3.70934e+10 3.46425e+10 4.21455e+10 3.92053e+10 4.88696e+10 3.01111e+10 3.6366e+10 2.64991e+10 2.87628e+10 2.74015e+10
threshold=91686.81318681319 513500.00000000006 990500.00000000012 49741.758241758253 217500.00000000003 10500.000000000002 160500.00000000003 41500.000000000007 -14499.999999999998 73500.000000000015 19703.29670329671 130500.00000000001 103500.00000000001 262500.00000000006 100500.00000000001 248500.00000000003 80500.000000000015 108500.00000000001 189500.00000000003 31500.000000000004 -78499.999999999985 58500.000000000007 122500.00000000001 127500.00000000001 92500.000000000015 236500.00000000003 99500.000000000015 132500.00000000003 156500.00000000003 1.0000000180025095e-35
decision_type=2 10 8 2 10 8 8 10 10 10 2 10 10 10 8 10 8 10 10 8 10 8 10 10 10 10 10 2 10 8
left_child=3 4 8 5 6 12 13 -6 -3 11 -7 27 -1 18 -9 16 17 -8 21 -20 -21 22 23 24 -2 -23 -27 29 -29 -5
right_child=1 2 -4 9 7 10 15 14 -10 -11 -12 -13 -14 -15 -16 -17 -18 -19 19 20 -22 25 -24 -25 -26 26 -28 28 -30 -31
leaf_value=-484.12212427367035 361.37126404668243 5542.377711995443 13305.850839355469 711.66632507943245 6588.8735165550597 -354.73129129996568 -2559.0893818446571 -1730.6996749214504 45.143391799926761 284.20785953925628 -124.24134555091942 -976.31992333656126 -2906.0769024658202 -2220.2621238885927 1948.1435987293441 4662.8415551757817 941.92277868500958 1188.3485168457032 6179.9696630304516 3884.4355501741979 401.21570228229871 415.95957796839667 1782.980112818668 -3532.5666610985472 -3486.5573225154435 6142.0512341308604 940.82833266839759 -572.31122326834839 -3925.0514578683033 32.640725058206179
leaf_weight=5519 142 24 25 607 21 8037 49 23 32 7665 36648 344 60 43 426 20 2508 38 22 37 176 8030 57 57 43 20 41 297 28 28391
leaf_count=5519 142 24 25 607 21 8037 49 23 32 7665 36648 344 60 43 426 20 2508 38 22 37 176 8030 57 57 43 20 41 297 28 28391
internal_value=0 619.317 5766.76 -83.6682 583.842 -203.931 525.873 1975.47 2401.1 78.2547 -165.697 25.0431 -510.169 410.483 1759.7 908.36 879.424 -922.277 423.598 1490.63 1006.28 393.711 -663.323 -1239.52 -533.012 432.774 2646.15 36.7905 -861.163 46.8544
internal_weight=0 11834 81 87596 11753 50264 11283 470 56 37332 44685 29667 5579 8668 449 2615 2595 87 8625 235 213 8390 299 242 185 8091 61 29323 325 28998
internal_count=99430 11834 81 87596 11753 50264 11283 470 56 37332 44685 29667 5579 8668 449 2615 2595 87 8625 235 213 8390 299 242 185 8091 61 29323 325 28998
is_linear=0
shrinkage=0.1


Tree=26
num_leaves=31
num_cat=0
split_feature=39 12 5 13 27 27 34 13 27 10 33 40 15 34 27 41 39 37 38 25 34 25 37 39 29 12 32 31 4 36
split_gain=4.20385e+11 1.70946e+11 1.69523e+11 1.51982e+11 7.5422e+10 5.01229e+10 4.44554e+10 4.19934e+10 4.14639e+10 4.04931e+10 3.81885e+10 3.63385e+10 3.35932e+10 3.19612e+10 3.07515e+10 3.03379e+10 3.02207e+10 3.74321e+10 5.00547e+10 2.97643e+10 3.67015e+10 4.7971e+10 2.60483e+10 3.06925e+10 2.41702e+10 4.89261e+10 2.64525e+10 2.31337e+10 3.14673e+10 2.97527e+10
threshold=96813.186813186825 513500.00000000006 13.500000000000002 49500.000000000007 217500.00000000003 14500.000000000002 813000.00000000012 138500.00000000003 64500.000000000007 105500.00000000001 185500.00000000003 99950.000000000015 37500.000000000007 100500.00000000001 84500.000000000015 1.0000000180025095e-35 65181.318681318684 1.0000000180025095e-35 77500.000000000015 55500.000000000007 236500.00000000003 140500.00000000003 189500.00000000003 126521.97802197804 107500.00000000001 93500.000000000015 93500.000000000015 107500.00000000001 55.561051535000011 117500.00000000001
decision_type=2 10 2 10 10 8 8 8 8 10 10 8 10 8 10 10 2 8 10 8 10 10 10 2 10 10 10 8 2 10
left_child=3 4 -3 5 7 9 -4 10 -5 15 -2 -9 -6 -14 -12 -1 -7 18 -18 -13 22 -22 27 -24 26 -26 -17 28 29 -21
right_child=1 2 6 8 12 16 -8 11 -10 -11 14 19 13 -15 -16 24 17 -19 -20 20 21 -23 23 -25 25 -27 -28 -29 -30 -31
leaf_value=1590.152460800974 384.25057994331462 10178.907810520483 -2331.5746012369796 -45.316461663148779 5729.0294660295767 -160.05692985262269 4032.2004649286682 4650.7073074340824 169.19907937477004 -2234.6631878461994 -4123.1746386718751 -1280.9776655492649 -1993.9831033457883 1834.2489996703957 -514.72450094824433 -414.91068506862871 -588.66880594889324 150.6428714146449 5538.4031034342452 2083.5534803448304 7110.2610422770194 996.34041045217805 -3425.3965839092548 168.04545103272807 -485.84318934849335 5335.5151522549713 -2190.2460121603576 766.77016087777531 1045.4445450598453 6898.5253929501487
leaf_weight=76 5488 37 21 14935 21 42497 23 24 22715 122 30 71 23 421 111 6654 24 2224 30 33 21 33 26 277 42 22 85 3204 119 21
leaf_count=76 5488 37 21 14935 21 42497 23 24 22715 122 30 71 23 421 111 6654 24 2224 30 33 21 33 26 277 42 22 85 3204 119 21
internal_value=0 614.766 5190.09 -68.7733 577.418 -179.942 994.944 516.288 84.1051 -428.766 342.501 771.772 1820.79 1635.94 -1282.48 -396.738 -141.036 213.808 2815.26 747.306 785.873 3373.98 747.895 -140.303 -418.934 1515.25 -437.303 827.588 1953.95 3956.04
internal_weight=0 10004 81 89426 9923 51776 44 9458 37650 7001 5629 3829 465 444 141 6879 44775 2278 54 3805 3734 54 3680 303 6803 64 6739 3377 173 54
internal_count=99430 10004 81 89426 9923 51776 44 9458 37650 7001 5629 3829 465 444 141 6879 44775 2278 54 3805 3734 54 3680 303 6803 64 6739 3377 173 54
is_linear=0
shrinkage=0.1


Tree=27
num_leaves=31
num_cat=0
split_feature=39 39 42 27 13 13 25 32 13 1 14 13 20 7 28 34 39 16 27 22 1 34 30 27 22 11 15 14 18 0
split_gain=3.44127e+11 1.5114e+11 1.94405e+11 7.74648e+10 7.63449e+10 5.75373e+10 4.58021e+10 3.68491e+10 3.47113e+10 8.03332e+10 7.75437e+10 3.25509e+10 3.15851e+10 3.04216e+10 2.96534e+10 2.90187e+10 2.80492e+10 2.79626e+10 2.65174e+10 2.58785e+10 2.51217e+10 3.3433e+10 2.45711e+10 2.32636e+10 3.2169e+10 2.75147e+10 2.99447e+10 2.46162e+10 2.44555e+10 2.80602e+10
threshold=67950.549450549457 187060.43956043958 133833.33333333334 800500.00000000012 39500.000000000007 90500.000000000015 192500.00000000003 283500.00000000006 853000.00000000012 497500.00000000006 788000.00000000012 255500.00000000003 138500.00000000003 112500.00000000001 227500.00000000003 154500.00000000003 11302.197802197805 279500.00000000006 508000.00000000006 230500.00000000003 183500.00000000003 71500.000000000015 85500.000000000015 85500.000000000015 133500.00000000003 194500.00000000003 86500.000000000015 195500.00000000003 154500.00000000003 677737.50000000012
decision_type=2 2 8 10 10 8 10 10 8 2 8 10 10 10 10 8 2 10 10 10 2 8 10 10 10 10 10 10 10 2
left_child=4 5 -3 8 16 6 14 12 10 -10 11 15 19 18 23 -4 -1 -17 -13 20 -7 -22 -18 24 27 -25 -27 -2 29 -26
right_child=1 2 3 -5 -6 7 -8 -9 9 -11 -12 13 -14 -15 -16 17 22 -19 -20 -21 21 -23 -24 25 28 26 -28 -29 -30 -31
leaf_value=-450.02890422863857 78.436954925720784 11332.265810546876 -2349.6916536603653 7092.0115998641313 -7.9873621903987075 318.09620921986499 -2294.0174258461479 3803.811304473877 1393.6277123653529 8494.727893793015 -4165.3616838727676 1382.2684612112334 740.24166777406606 5523.6386699218747 3495.5948796198923 1150.1920714677858 -170.47018785133548 -1816.6313124712776 5155.1261532738099 -1791.371100067674 -2637.3724121093751 1490.8701586627321 -1087.2974859515691 331.76440149661784 207.9900608599186 -58.100217590332036 5133.2608769531253 -2439.9082445976064 -3278.7127833166787 -2383.9266753165953
leaf_weight=4322 8147 20 28 23 37575 10337 79 32 66 21 28 165 2326 25 26 484 32106 34 21 57 21 298 295 2577 128 20 25 39 43 62
leaf_count=4322 8147 20 28 23 37575 10337 79 32 66 21 28 165 2326 25 26 484 32106 34 21 57 21 298 295 2577 128 20 25 39 43 62
internal_value=0 319.872 1581.49 1363.59 -108.2 272.204 105.283 414.541 1212.5 3107.69 1002.46 1193.61 406.224 2248.45 122.41 785.964 -210.737 955.458 1808.24 333.702 345.069 1219.1 -178.818 114.467 33.4605 374.571 2825.99 66.439 -1125.17 -637.793
internal_weight=0 25132 915 895 74298 24217 11146 13071 872 87 785 757 13039 211 11067 546 36723 518 186 10713 10656 319 32401 11041 8419 2622 45 8186 233 190
internal_count=99430 25132 915 895 74298 24217 11146 13071 872 87 785 757 13039 211 11067 546 36723 518 186 10713 10656 319 32401 11041 8419 2622 45 8186 233 190
is_linear=0
shrinkage=0.1


Tree=28
num_leaves=31
num_cat=0
split_feature=39 8 27 13 19 6 8 32 25 6 17 21 41 34 9 42 36 27 13 35 6 16 16 27 29 32 2 29 20 16
split_gain=2.79065e+11 1.76654e+11 1.24069e+11 7.34654e+10 6.60234e+10 5.44863e+10 4.15556e+10 3.90742e+10 8.43804e+10 3.4156e+10 3.25388e+10 2.92699e+10 2.73617e+10 3.32213e+10 2.80098e+10 4.00155e+10 4.36253e+10 3.84658e+10 3.75563e+10 4.74816e+10 2.84642e+10 2.73952e+10 2.69811e+10 2.60487e+10 2.66291e+10 2.57123e+10 2.4639e+10 2.45633e+10 2.4158e+10 4.24398e+10
threshold=67423.076923076951 590500.00000000012 800500.00000000012 121500.00000000001 30500.000000000004 3.5000000000000004 113500.00000000001 288000.00000000006 192500.00000000003 3.5000000000000004 442500.00000000006 94500.000000000015 165642.85714285719 145500.00000000003 4500.0000000000009 90500.000000000015 172500.00000000003 90500.000000000015 48500.000000000007 85500.000000000015 2.5000000000000004 257500.00000000003 89500.000000000015 174500.00000000003 206500.00000000003 474500.00000000006 24500.000000000004 53500.000000000007 77500.000000000015 83500.000000000015
decision_type=2 10 10 8 8 2 10 10 10 2 10 10 10 10 10 10 10 10 10 10 2 10 8 10 10 10 2 10 10 10
left_child=4 2 3 12 6 -6 -1 23 -9 25 -11 -8 14 -14 15 16 17 -2 19 -19 26 -22 -17 24 -5 -10 27 -16 -25 -30
right_child=1 -3 -4 7 5 -7 11 8 9 10 -12 -13 13 -15 20 22 -18 18 -20 -21 21 -23 -24 28 -26 -27 -28 -29 29 -31
leaf_value=-236.97844146189479 246.56688880635022 8521.213724459134 7460.8749796549491 453.90066172543203 47.154274574479629 -154.51871039223954 -1495.3627168493845 7910.711269309304 729.32045898437502 1372.1934712727866 -3949.5368328857426 2260.1993918678977 -3585.7794927829655 1385.4806201171878 -2744.2665295870802 967.59664257812494 -3278.950385829381 7709.9234247622289 1112.6278908491136 1211.7141468394886 41.096277252174417 -3273.2984921875 5415.7601188151048 -1778.348759608115 -1031.6673045832938 5141.564880859376 313.50984621693442 259.21025465556556 4289.6361835186299 923.53698765793024
leaf_weight=18955 401 26 24 6349 30050 24173 366 22 28 27 20 22 41 20 53 25 28 23 112 22 10095 25 30 31 123 25 7273 56 39 946
leaf_count=18955 401 26 24 6349 30050 24173 366 22 28 27 20 22 41 20 53 25 28 23 112 22 10095 25 30 31 123 25 7273 56 39 946
internal_value=0 282.543 274.253 267.571 -99.3353 -42.753 -257.949 528.49 2303.72 1070.19 -892.373 -1282.42 158.497 -1955.86 165.606 814.861 572.804 766.082 2093 4533.02 141.827 32.9085 3393.87 499.566 425.668 2810.57 291.144 -1201.2 970.308 1056.81
internal_weight=0 25864 25838 25814 73566 54223 19343 7610 122 100 47 388 18204 61 18143 641 586 558 157 45 17502 10120 55 7488 6472 53 7382 109 1016 985
internal_count=99430 25864 25838 25814 73566 54223 19343 7610 122 100 47 388 18204 61 18143 641 586 558 157 45 17502 10120 55 7488 6472 53 7382 109 1016 985
is_linear=0
shrinkage=0.1


Tree=29
num_leaves=31
num_cat=0
split_feature=39 8 27 27 39 6 21 34 16 7 23 16 42 8 24 36 15 21 1 9 16 0 34 32 15 6 5 2 37 0
split_gain=2.34314e+11 1.41933e+11 9.59951e+10 9.47193e+10 4.6518e+10 3.90211e+10 4.1663e+10 6.03401e+10 5.67608e+10 1.33042e+11 3.636e+10 3.44825e+10 3.82758e+10 3.21321e+10 3.70707e+10 3.56378e+10 3.41237e+10 3.18025e+10 3.31797e+10 3.11486e+10 3.07347e+10 3.15536e+10 3.00773e+10 2.98682e+10 2.80533e+10 2.48666e+10 2.46284e+10 2.40714e+10 2.32592e+10 2.32493e+10
threshold=96813.186813186825 590500.00000000012 55500.000000000007 800500.00000000012 32214.285714285721 3.5000000000000004 46500.000000000007 49500.000000000007 105500.00000000001 -6499.9999999999991 479500.00000000006 1.0000000180025095e-35 1.0000000180025095e-35 129500.00000000001 9500.0000000000018 69500.000000000015 1.0000000180025095e-35 418500.00000000006 151500.00000000003 129500.00000000001 155500.00000000003 663933.50000000012 1.0000000180025095e-35 159500.00000000003 107500.00000000001 2.5000000000000004 21.500000000000004 649500.00000000012 46500.000000000007 663933.50000000012
decision_type=2 10 10 10 2 2 8 8 10 10 10 10 10 10 8 10 8 10 2 10 10 2 10 10 8 2 2 2 10 2
left_child=2 3 4 5 -1 10 8 29 9 -7 17 23 -13 14 19 -16 27 18 -2 -6 -10 -22 25 -4 26 -17 -20 -15 -14 -8
right_child=1 -3 11 -5 13 6 7 -9 20 -11 -12 12 28 16 15 22 -18 -19 24 -21 21 -23 -24 -25 -26 -27 -28 -29 -30 -31
leaf_value=-227.20461980601851 448.47114274035721 7984.3562817382817 605.25465183651909 6714.7875447591141 412.29649143865555 -1024.8419425964355 -617.98031727183957 200.44114037694305 -1400.0578229327537 10127.084356689455 3861.6995433134198 -2232.7207825360979 256.624651163902 -1288.8219009282489 -38.323327787435595 311.46964851148203 -214.45392002418612 -2721.3865486934269 242.36117082896988 3284.7150668413215 -265.75903348055755 5153.4705973307291 -407.91118181103479 4037.6668776292072 1116.8270571038438 -2892.8936730688747 -3492.4196427055031 -4733.2087246981537 34.140449463347792 -4129.2714358243074
leaf_weight=22707 3990 25 1017 24 1180 20 33 4204 43 23 34 70 7108 261 41174 33 573 29 76 39 22 21 1261 26 1393 91 23 22 13864 44
leaf_count=22707 3990 25 1017 24 1180 20 33 4204 43 23 34 70 7108 261 41174 33 573 29 76 39 22 21 1261 26 1393 91 23 22 13864 44
internal_value=0 458.971 -51.3447 440.118 -110.678 424.991 202.987 149.632 1973.64 4940.14 601.553 129.574 101.755 -51.3971 -39.5327 -55.1065 -658.172 581.44 598.912 504.195 490.392 2380.84 -554.044 690.818 1001.23 -2040.12 -625.315 -1556.58 109.547 -2624.43
internal_weight=0 10004 89426 9979 67341 9955 4410 4281 129 43 5545 22085 21042 44634 43778 42559 856 5511 5482 1219 86 43 1385 1043 1492 124 99 283 20972 77
internal_count=99430 10004 89426 9979 67341 9955 4410 4281 129 43 5545 22085 21042 44634 43778 42559 856 5511 5482 1219 86 43 1385 1043 1492 124 99 283 20972 77
is_linear=0
shrinkage=0.1


end of trees

feature_importances:
mean_income_all=180
income_5_day_before=92
income_19_day_before=55
income_12_day_before=46
mean_income_last_7_days=43
income_4_day_before=37
income_11_day_before=28
yesterday_growth_of_income_growth=27
income_1_day_before=26
money_in=25
income_3_day_before=23
mean_income_last_3_days=21
income_26_day_before=20
income_8_day_before=19
income_6_day_before=15
income_15_day_before=15
money=13
latitude=13
income_13_day_before=12
TID=11
weekday=11
income_17_day_before=11
income_24_day_before=11
mean_income_last_30_days=11
yesterday_income_growth=10
income_2_day_before=10
income_7_day_before=10
income_14_day_before=10
income_16_day_before=10
income_27_day_before=10
day=8
income_21_day_before=8
income_9_day_before=7
income_22_day_before=7
income_29_day_before=7
longitude=6
income_25_day_before=6
income_28_day_before=6
income_20_day_before=5
income_30_day_before=5
income_10_day_before=4
income_23_day_before=4
income_18_day_before=2

parameters:
[boosting: gbdt]
[objective: regression]
[metric: l2]
[tree_learner: serial]
[device_type: cpu]
[data: ]
[valid: ]
[num_iterations: 30]
[learning_rate: 0.1]
[num_leaves: 31]
[num_threads: -1]
[deterministic: 0]
[force_col_wise: 0]
[force_row_wise: 0]
[histogram_pool_size: -1]
[max_depth: -1]
[min_data_in_leaf: 20]
[min_sum_hessian_in_leaf: 0.001]
[bagging_fraction: 0.7]
[pos_bagging_fraction: 1]
[neg_bagging_fraction: 1]
[bagging_freq: 0]
[bagging_seed: 3014]
[feature_fraction: 0.7]
[feature_fraction_bynode: 1]
[feature_fraction_seed: 29554]
[extra_trees: 0]
[extra_seed: 19515]
[early_stopping_round: 0]
[first_metric_only: 0]
[max_delta_step: 0]
[lambda_l1: 0]
[lambda_l2: 0]
[linear_lambda: 0]
[min_gain_to_split: 0]
[drop_rate: 0.1]
[max_drop: 50]
[skip_drop: 0.5]
[xgboost_dart_mode: 0]
[uniform_drop: 0]
[drop_seed: 12050]
[top_rate: 0.2]
[other_rate: 0.1]
[min_data_per_group: 100]
[max_cat_threshold: 32]
[cat_l2: 10]
[cat_smooth: 10]
[max_cat_to_onehot: 4]
[top_k: 20]
[monotone_constraints: ]
[monotone_constraints_method: basic]
[monotone_penalty: 0]
[feature_contri: ]
[forcedsplits_filename: ]
[refit_decay_rate: 0.9]
[cegb_tradeoff: 1]
[cegb_penalty_split: 0]
[cegb_penalty_feature_lazy: ]
[cegb_penalty_feature_coupled: ]
[path_smooth: 0]
[interaction_constraints: ]
[verbosity: -1]
[saved_feature_importance_type: 0]
[linear_tree: 0]
[max_bin: 255]
[max_bin_by_feature: ]
[min_data_in_bin: 3]
[bin_construct_sample_cnt: 200000]
[data_random_seed: 126]
[is_enable_sparse: 1]
[enable_bundle: 1]
[use_missing: 1]
[zero_as_missing: 0]
[feature_pre_filter: 1]
[pre_partition: 0]
[two_round: 0]
[header: 0]
[label_column: ]
[weight_column: ]
[group_column: ]
[ignore_column: ]
[categorical_feature: ]
[forcedbins_filename: ]
[precise_float_parser: 0]
[objective_seed: 25204]
[num_class: 1]
[is_unbalance: 0]
[scale_pos_weight: 1]
[sigmoid: 1]
[boost_from_average: 1]
[reg_sqrt: 0]
[alpha: 0.9]
[fair_c: 1]
[poisson_max_delta_step: 0.7]
[tweedie_variance_power: 1.5]
[lambdarank_truncation_level: 30]
[lambdarank_norm: 1]
[label_gain: ]
[eval_at: ]
[multi_error_top_k: 1]
[auc_mu_weights: ]
[num_machines: 1]
[local_listen_port: 12400]
[time_out: 120]
[machine_list_filename: ]
[machines: ]
[gpu_platform_id: -1]
[gpu_device_id: -1]
[gpu_use_dp: 0]
[num_gpu: 1]

end of parameters

pandas_categorical:[]
